svm_type one_class
kernel_type polynomial
degree 3
gamma 0.25
coef0 0
nr_class 2
total_sv 83
rho 0.001557211808140721
SV
0.36487859221491314 1:-0.666667 2:-0.166667 3:-0.864407 4:-0.916667 
1 1:-0.833333 2:0.166667 3:-0.864407 4:-0.833333 
0.65405467365814118 1:-0.666667 2:-0.0833334 3:-0.830508 4:-1 
0.27198284870220579 1:-0.166667 2:0.666667 3:-0.932203 4:-0.916667 
1 1:-0.222222 2:1 3:-0.830508 4:-0.75 
1 1:-0.222222 2:0.5 3:-0.762712 4:-0.833333 
1 1:-0.388889 2:0.166667 3:-0.762712 4:-0.916667 
0.31005664865564031 1:-0.555556 2:0.0833333 3:-0.762712 4:-0.666667 
0.58560661484870002 1:-0.722222 2:0.166667 3:-0.694915 4:-0.916667 
1 1:-0.611111 2:-0.166667 3:-0.79661 4:-0.916667 
0.26010424069372517 1:-0.333333 2:0.25 3:-0.898305 4:-0.916667 
0.0086386018814105583 1:-0.666667 2:-0.0833334 3:-0.830508 4:-1 
0.99013489407799404 1:-0.944444 2:-0.166667 3:-0.898305 4:-0.916667 
0.094774253133243627 1:-0.888889 2:-0.75 3:-0.898305 4:-0.833333 
1 1:-0.944444 3:-0.898305 4:-0.916667 
1 1:-0.611111 2:0.25 3:-0.79661 4:-0.583333 
1 1:-0.555556 2:0.5 3:-0.694915 4:-0.75 
0.9174381206943174 1:-0.722222 2:-0.166667 3:-0.864407 4:-0.833333 
1 1:0.166667 3:0.186441 4:0.166667 
1 1:0.444444 2:-0.0833334 3:0.322034 4:0.166667 
1 1:0.222222 2:-0.333333 3:0.220339 4:0.166667 
1 1:-0.222222 2:-0.333333 3:0.186441 4:-4.03573e-08 
1 1:0.111111 2:0.0833333 3:0.254237 4:0.25 
1 1:0.277778 2:-0.25 3:0.220339 4:-4.03573e-08 
1 1:-0.111111 2:-0.166667 3:0.0847457 4:0.166667 
1 1:-1.32455e-07 2:-0.25 3:0.254237 4:0.0833333 
1 1:-0.277778 2:-0.25 3:-0.118644 4:-4.03573e-08 
1 1:0.333333 2:-0.0833334 3:0.152542 4:0.0833333 
1 1:-0.277778 2:-0.166667 3:0.186441 4:0.166667 
1 1:-0.166667 2:-0.416667 3:0.0508474 4:-0.25 
0.010680066945981923 1:-0.111111 3:0.288136 4:0.416667 
1 1:-1.32455e-07 2:-0.333333 3:0.0169491 4:-4.03573e-08 
1 1:-1.32455e-07 2:-0.333333 3:0.254237 4:-0.0833333 
1 1:0.166667 2:-0.25 3:0.118644 4:-4.03573e-08 
1 1:0.277778 2:-0.166667 3:0.152542 4:0.0833333 
1 1:0.333333 2:-0.166667 3:0.355932 4:0.333333 
1 1:-0.0555556 2:-0.25 3:0.186441 4:0.166667 
1 1:-0.222222 2:-0.5 3:-0.152542 4:-0.25 
1 1:-0.166667 2:-0.416667 3:-0.0169491 4:-0.0833333 
1 1:-0.0555556 2:-0.416667 3:0.38983 4:0.25 
1 1:-0.388889 2:-0.166667 3:0.186441 4:0.166667 
1 1:-0.0555556 2:0.166667 3:0.186441 4:0.25 
1 1:0.333333 2:-0.0833334 3:0.254237 4:0.166667 
1 1:-0.277778 2:-0.166667 3:0.0508474 4:-4.03573e-08 
1 1:-1.32455e-07 2:-0.166667 3:0.220339 4:0.0833333 
1 1:-0.166667 2:-0.5 3:0.0169491 4:-0.0833333 
1 1:-0.277778 2:-0.416667 3:0.0847457 4:-4.03573e-08 
1 1:-0.222222 2:-0.166667 3:0.0847457 4:-0.0833333 
1 1:-0.222222 2:-0.25 3:0.0847457 4:-4.03573e-08 
1 1:0.0555554 2:-0.25 3:0.118644 4:-4.03573e-08 
0.77323057259130779 1:-0.555556 2:-0.583333 3:-0.322034 4:-0.166667 
1 1:-0.222222 2:-0.333333 3:0.0508474 4:-4.03573e-08 
1 1:0.555555 2:-0.166667 3:0.661017 4:0.666667 
1 1:0.111111 2:-0.25 3:0.559322 4:0.416667 
1 1:0.222222 2:-0.166667 3:0.627119 4:0.75 
0.98017084038752988 1:0.833333 2:-0.166667 3:0.898305 4:0.666667 
1 1:0.333333 2:-0.583333 3:0.627119 4:0.416667 
1 1:0.611111 2:0.333333 3:0.728813 4:1 
1 1:0.222222 3:0.38983 4:0.583333 
1 1:0.166667 2:-0.416667 3:0.457627 4:0.5 
1 1:0.388889 2:-0.166667 3:0.525424 4:0.666667 
1 1:0.222222 2:-0.166667 3:0.525424 4:0.416667 
1 1:0.888889 2:0.5 3:0.932203 4:0.75 
1 1:0.888889 2:-0.5 3:1 4:0.833333 
1 1:0.444444 3:0.59322 4:0.833333 
1 1:0.111111 2:-0.416667 3:0.322034 4:0.416667 
1 1:0.333333 2:0.0833333 3:0.59322 4:0.666667 
1 1:0.0555554 2:-0.333333 3:0.288136 4:0.416667 
1 1:-1.32455e-07 2:-0.166667 3:0.322034 4:0.416667 
1 1:0.166667 2:-0.333333 3:0.559322 4:0.666667 
0.68711520102038337 1:1 2:0.5 3:0.830508 4:0.583333 
1 1:0.166667 2:-0.333333 3:0.559322 4:0.75 
1 1:0.111111 2:-0.333333 3:0.38983 4:0.166667 
0.091133830494505935 1:-1.32455e-07 2:-0.5 3:0.559322 4:0.0833333 
1 1:0.888889 2:-0.166667 3:0.728813 4:0.833333 
1 1:0.166667 2:-0.0833334 3:0.525424 4:0.416667 
1 1:-0.0555556 2:-0.166667 3:0.288136 4:0.416667 
1 1:0.444444 2:-0.0833334 3:0.491525 4:0.666667 
1 1:0.444444 2:-0.0833334 3:0.38983 4:0.833333 
1 1:0.388889 3:0.661017 4:0.833333 
1 1:0.111111 2:-0.583333 3:0.355932 4:0.5 
1 1:0.222222 2:-0.166667 3:0.423729 4:0.583333 
1 1:-0.111111 2:-0.166667 3:0.38983 4:0.416667 
