svm_type nu_svc
kernel_type rbf
gamma 0.25
nr_class 3
total_sv 106
rho -0.021871188243739993 0.007271397790051334 0.12488801714479597
label 1 2 3
nr_sv 29 47 30
SV
0.11315397511654836 0.066679569525842627 1:-0.666667 2:-0.166667 3:-0.864407 4:-0.916667 
0.11315397511654836 0.066679569525842627 1:-0.833333 2:-0.0833334 3:-0.830508 4:-0.916667 
0.11315397511654836 0.066679569525842627 1:-0.388889 2:0.583333 3:-0.762712 4:-0.75 
0.11315397511654836 0.066679569525842627 1:-0.944444 2:-0.25 3:-0.864407 4:-0.916667 
0.11315397511654836 0 1:-0.666667 2:-0.0833334 3:-0.830508 4:-1 
0 0.042183252239125078 1:-0.388889 2:0.416667 3:-0.830508 4:-0.916667 
0.11315397511654836 0.024496317286717549 1:-0.722222 2:-0.166667 3:-0.864407 4:-1 
0 0.066679569525842627 1:-0.166667 2:0.666667 3:-0.932203 4:-0.916667 
0.11315397511654836 0.066679569525842627 1:-0.222222 2:1 3:-0.830508 4:-0.75 
0 0.066679569525842627 1:-0.388889 2:0.583333 3:-0.898305 4:-0.75 
0.11315397511654836 0.066679569525842627 1:-0.222222 2:0.5 3:-0.762712 4:-0.833333 
0.11315397511654836 0.066679569525842627 1:-0.388889 2:0.166667 3:-0.762712 4:-0.916667 
0.11315397511654836 0.066679569525842627 1:-0.555556 2:0.416667 3:-0.830508 4:-0.75 
0.11315397511654836 0.066679569525842627 1:-0.555556 2:0.0833333 3:-0.762712 4:-0.666667 
0.11315397511654836 0.066679569525842627 1:-0.722222 2:0.166667 3:-0.694915 4:-0.916667 
0.11315397511654836 0.066679569525842627 1:-0.611111 2:-0.166667 3:-0.79661 4:-0.916667 
0.11315397511654836 0.066679569525842627 1:-0.611111 2:0.166667 3:-0.79661 4:-0.75 
0.11315397511654836 0.066679569525842627 1:-0.777778 3:-0.79661 4:-0.916667 
0.11315397511654836 0.066679569525842627 1:-0.722222 2:-0.0833334 3:-0.79661 4:-0.916667 
0.11315397511654836 0.066679569525842627 1:-0.388889 2:0.166667 3:-0.830508 4:-0.75 
0 0.066679569525842627 1:-0.333333 2:0.833333 3:-0.864407 4:-0.916667 
0.11315397511654836 0 1:-0.666667 2:-0.0833334 3:-0.830508 4:-1 
0.11315397511654836 0.066679569525842627 1:-0.333333 2:0.25 3:-0.898305 4:-0.916667 
0.11315397511654836 0 1:-0.666667 2:-0.0833334 3:-0.830508 4:-1 
0.11315397511654836 0.066679569525842627 1:-0.944444 2:-0.166667 3:-0.898305 4:-0.916667 
0.11315397511654836 0.066679569525842627 1:-0.888889 2:-0.75 3:-0.898305 4:-0.833333 
0.11315397511654836 0.066679569525842627 1:-0.611111 2:0.25 3:-0.79661 4:-0.583333 
0.11315397511654836 0.066679569525842627 1:-0.555556 2:0.5 3:-0.694915 4:-0.75 
0.11315397511654836 0.066679569525842627 1:-0.722222 2:-0.166667 3:-0.864407 4:-0.833333 
-0.11315397511654836 0.69696595445704945 1:0.5 3:0.254237 4:0.0833333 
-0 0.69696595445704945 1:0.166667 3:0.186441 4:0.166667 
-0 0.69696595445704945 1:0.444444 2:-0.0833334 3:0.322034 4:0.166667 
-0 0.69696595445704945 1:-0.333333 2:-0.75 3:0.0169491 4:-4.03573e-08 
-0 0.69696595445704945 1:0.222222 2:-0.333333 3:0.220339 4:0.166667 
-0 0.69696595445704945 1:-0.222222 2:-0.333333 3:0.186441 4:-4.03573e-08 
-0 0.69696595445704945 1:0.111111 2:0.0833333 3:0.254237 4:0.25 
-0.11315397511654836 0 1:-0.666667 2:-0.666667 3:-0.220339 4:-0.25 
-0 0.69696595445704945 1:0.277778 2:-0.25 3:0.220339 4:-4.03573e-08 
-0.11315397511654836 0 1:-0.5 2:-0.416667 3:-0.0169491 4:0.0833333 
-0.11315397511654836 0 1:-0.611111 2:-1 3:-0.152542 4:-0.25 
-0 0.69696595445704945 1:-0.111111 2:-0.166667 3:0.0847457 4:0.166667 
-0.11315397511654836 0 1:-0.0555556 2:-0.833333 3:0.0169491 4:-0.25 
-0 0.69696595445704945 1:-1.32455e-07 2:-0.25 3:0.254237 4:0.0833333 
-0.11315397511654836 0 1:-0.277778 2:-0.25 3:-0.118644 4:-4.03573e-08 
-0.047132520475548917 0.69696595445704945 1:0.333333 2:-0.0833334 3:0.152542 4:0.0833333 
-0 0.69696595445704945 1:-0.277778 2:-0.166667 3:0.186441 4:0.166667 
-0.11315397511654836 0 1:-0.166667 2:-0.416667 3:0.0508474 4:-0.25 
-0 0.69696595445704945 1:0.0555554 2:-0.833333 3:0.186441 4:0.166667 
-0.11315397511654836 0 1:-0.277778 2:-0.583333 3:-0.0169491 4:-0.166667 
-0 0.69696595445704945 1:-0.111111 3:0.288136 4:0.416667 
-0.11315397511654836 0 1:-1.32455e-07 2:-0.333333 3:0.0169491 4:-4.03573e-08 
-0 0.69696595445704945 1:0.111111 2:-0.583333 3:0.322034 4:0.166667 
-0 0.69696595445704945 1:0.277778 2:-0.166667 3:0.152542 4:0.0833333 
-0 0.69696595445704945 1:0.388889 2:-0.333333 3:0.288136 4:0.0833333 
-0 0.69696595445704945 1:0.333333 2:-0.166667 3:0.355932 4:0.333333 
-0 0.69696595445704945 1:-0.0555556 2:-0.25 3:0.186441 4:0.166667 
-0.11315397511654836 0 1:-0.222222 2:-0.5 3:-0.152542 4:-0.25 
-0.11315397511654836 0 1:-0.333333 2:-0.666667 3:-0.0508475 4:-0.166667 
-0.11315397511654836 0 1:-0.333333 2:-0.666667 3:-0.0847458 4:-0.25 
-0.11315397511654836 0 1:-0.166667 2:-0.416667 3:-0.0169491 4:-0.0833333 
-0 0.69696595445704945 1:-0.0555556 2:-0.416667 3:0.38983 4:0.25 
-0.11315397511654836 0.69696595445704945 1:-0.388889 2:-0.166667 3:0.186441 4:0.166667 
-0.11315397511654836 0.69696595445704945 1:-0.0555556 2:0.166667 3:0.186441 4:0.25 
-0 0.69696595445704945 1:0.333333 2:-0.0833334 3:0.254237 4:0.166667 
-0 0.69696595445704945 1:0.111111 2:-0.75 3:0.152542 4:-4.03573e-08 
-0.11315397511654836 0 1:-0.277778 2:-0.166667 3:0.0508474 4:-4.03573e-08 
-0.11315397511654836 0 1:-0.333333 2:-0.583333 3:0.0169491 4:-4.03573e-08 
-0.066021454640999441 0 1:-0.333333 2:-0.5 3:0.152542 4:-0.0833333 
-0 0.69696595445704945 1:-1.32455e-07 2:-0.166667 3:0.220339 4:0.0833333 
-0.11315397511654836 0 1:-0.166667 2:-0.5 3:0.0169491 4:-0.0833333 
-0.11315397511654836 0 1:-0.611111 2:-0.75 3:-0.220339 4:-0.25 
-0.11315397511654836 0 1:-0.277778 2:-0.416667 3:0.0847457 4:-4.03573e-08 
-0.11315397511654836 0 1:-0.222222 2:-0.166667 3:0.0847457 4:-0.0833333 
-0.11315397511654836 0 1:-0.222222 2:-0.25 3:0.0847457 4:-4.03573e-08 
-0.11315397511654836 0 1:-0.555556 2:-0.583333 3:-0.322034 4:-0.166667 
-0.11315397511654836 0 1:-0.222222 2:-0.333333 3:0.0508474 4:-4.03573e-08 
-0.066679569525842627 -0.69696595445704945 1:-0.166667 2:-0.416667 3:0.38983 4:0.5 
-0.066679569525842627 -0.69696595445704945 1:0.111111 2:-0.25 3:0.559322 4:0.416667 
-0.066679569525842627 -0.69696595445704945 1:-0.666667 2:-0.583333 3:0.186441 4:0.333333 
-0 -0.069164701624009534 1:0.666667 2:-0.25 3:0.79661 4:0.416667 
-0 -0.69696595445704945 1:0.333333 2:-0.583333 3:0.627119 4:0.416667 
-0.066679569525842627 -0 1:0.611111 2:0.333333 3:0.728813 4:1 
-0.066679569525842627 -0.69696595445704945 1:0.222222 3:0.38983 4:0.583333 
-0.013054154499829584 -0.69696595445704945 1:0.166667 2:-0.416667 3:0.457627 4:0.5 
-0.066679569525842627 -0.69696595445704945 1:-0.222222 2:-0.583333 3:0.355932 4:0.583333 
-0.066679569525842627 -0 1:-0.166667 2:-0.333333 3:0.38983 4:0.916667 
-0.066679569525842627 -0.69696595445704945 1:0.222222 2:-0.166667 3:0.525424 4:0.416667 
-0.066679569525842627 -0 1:0.888889 2:0.5 3:0.932203 4:0.75 
-0.066679569525842627 -0.69696595445704945 1:-0.0555556 2:-0.833333 3:0.355932 4:0.166667 
-0.066679569525842627 -0.69696595445704945 1:-0.277778 2:-0.333333 3:0.322034 4:0.583333 
-0.066679569525842627 -0.69696595445704945 1:0.111111 2:-0.416667 3:0.322034 4:0.416667 
-0.053625415026013042 -0.69696595445704945 1:0.611111 3:0.694915 4:0.416667 
-0.066679569525842627 -0.69696595445704945 1:0.0555554 2:-0.333333 3:0.288136 4:0.416667 
-0.066679569525842627 -0.69696595445704945 1:-1.32455e-07 2:-0.166667 3:0.322034 4:0.416667 
-0.066679569525842627 -0.69696595445704945 1:0.611111 2:-0.166667 3:0.627119 4:0.25 
-0.066679569525842627 -0.62780125283303989 1:1 2:0.5 3:0.830508 4:0.583333 
-0.066679569525842627 -0.69696595445704945 1:0.111111 2:-0.333333 3:0.38983 4:0.166667 
-0.066679569525842627 -0.69696595445704945 1:-1.32455e-07 2:-0.5 3:0.559322 4:0.0833333 
-0.066679569525842627 -0.69696595445704945 1:0.166667 2:-0.0833334 3:0.525424 4:0.416667 
-0.066679569525842627 -0.69696595445704945 1:-0.0555556 2:-0.166667 3:0.288136 4:0.416667 
-0 -0.69696595445704945 1:0.444444 2:-0.0833334 3:0.491525 4:0.666667 
-0.066679569525842627 -0.69696595445704945 1:-0.166667 2:-0.416667 3:0.38983 4:0.5 
-0.066679569525842627 -0.69696595445704945 1:0.111111 2:-0.583333 3:0.355932 4:0.5 
-0 -0.69696595445704945 1:0.222222 2:-0.166667 3:0.423729 4:0.583333 
-0.066679569525842627 -0 1:0.0555554 2:0.166667 3:0.491525 4:0.833333 
-0.066679569525842627 -0.69696595445704945 1:-0.111111 2:-0.166667 3:0.38983 4:0.416667 
