svm_type epsilon_svr
kernel_type precomputed
nr_class 2
total_sv 209
rho -0.13400979807528482
SV
1 0:1 
-1 0:2 
1 0:3 
-1 0:4 
-1 0:5 
-1 0:6 
1 0:7 
0.73951842969410619 0:9 
-0.50549531716462492 0:10 
-1 0:11 
-1 0:12 
1 0:14 
-1 0:15 
-1 0:16 
-1 0:17 
1 0:18 
-1 0:19 
-1 0:20 
-1 0:21 
-1 0:23 
-1 0:24 
-1 0:25 
-1 0:27 
1 0:29 
-0.11808919337267536 0:30 
1 0:31 
-1 0:32 
1 0:33 
1 0:35 
1 0:38 
-1 0:40 
1 0:41 
-1 0:43 
-1 0:44 
1 0:45 
1 0:47 
1 0:48 
1 0:49 
-1 0:50 
1 0:51 
1 0:52 
0.70383193946382605 0:55 
1 0:57 
1 0:59 
1 0:60 
-1 0:61 
1 0:62 
1 0:64 
-1 0:65 
1 0:66 
-1 0:67 
1 0:68 
-1 0:69 
1 0:70 
-1 0:72 
-1 0:74 
-1 0:75 
-1 0:76 
-1 0:77 
1 0:78 
1 0:80 
0.017436955565959134 0:81 
1 0:82 
-1 0:84 
-1 0:85 
-1 0:86 
-1 0:88 
1 0:89 
1 0:90 
-0.52414525188456507 0:91 
1 0:92 
-1 0:93 
1 0:94 
1 0:95 
1 0:96 
-1 0:97 
1 0:98 
-1 0:99 
1 0:100 
0.42501127406450578 0:101 
1 0:102 
-1 0:104 
1 0:105 
1 0:106 
-1 0:107 
1 0:108 
1 0:109 
1 0:110 
1 0:111 
1 0:113 
1 0:114 
1 0:116 
1 0:117 
-1 0:118 
0.56900632092354653 0:120 
1 0:122 
-1 0:123 
-1 0:125 
-0.39689794130160727 0:126 
-1 0:127 
-1 0:129 
1 0:130 
1 0:131 
1 0:132 
-1 0:133 
1 0:134 
-1 0:135 
-1 0:136 
1 0:138 
1 0:139 
-1 0:140 
1 0:141 
-1 0:142 
1 0:143 
-1 0:144 
1 0:145 
-1 0:146 
1 0:147 
1 0:149 
-1 0:150 
-1 0:154 
1 0:156 
-1 0:159 
1 0:160 
1 0:161 
1 0:162 
-1 0:164 
-1 0:165 
-1 0:166 
-1 0:168 
-1 0:169 
1 0:170 
-0.089608196101065393 0:171 
1 0:173 
-1 0:174 
1 0:175 
1 0:176 
-1 0:177 
1 0:178 
1 0:179 
-1 0:181 
1 0:183 
-1 0:184 
-1 0:185 
-1 0:186 
1 0:187 
-1 0:188 
-1 0:189 
-1 0:191 
1 0:192 
-1 0:193 
1 0:194 
-1 0:195 
-1 0:197 
-1 0:199 
1 0:200 
-1 0:201 
1 0:202 
1 0:204 
-1 0:206 
-1 0:208 
1 0:209 
-1 0:210 
1 0:211 
-0.39027296415423091 0:212 
-1 0:214 
0.25119982196023716 0:215 
0.85934916843475773 0:216 
-1 0:218 
-1 0:219 
0.14565428350728951 0:220 
-1 0:224 
-1 0:226 
1 0:227 
1 0:228 
1 0:229 
-1 0:230 
1 0:231 
1 0:232 
-1 0:233 
1 0:234 
-1 0:235 
-1 0:236 
-1 0:237 
-1 0:239 
0.31350067036453982 0:240 
1 0:241 
-1 0:243 
1 0:244 
-1 0:245 
1 0:246 
1 0:247 
1 0:249 
-1 0:250 
1 0:251 
1 0:253 
-1 0:254 
-1 0:256 
-1 0:257 
1 0:259 
-1 0:260 
1 0:261 
-1 0:262 
1 0:263 
1 0:265 
-1 0:266 
-1 0:267 
-1 0:269 
1 0:270 
