svm_type nu_svc
kernel_type precomputed
nr_class 2
total_sv 139
rho -0.21704598151516966
label 1 -1
nr_sv 70 69
SV
0.009540315953941501 0:1 
0.033184799441438491 0:3 
0.033184799441438491 0:7 
0.033184799441438491 0:14 
0.033184799441438491 0:29 
0.033184799441438491 0:31 
0.033184799441438491 0:38 
0.033184799441438491 0:41 
0.033184799441438491 0:45 
0.033184799441438491 0:47 
0.033184799441438491 0:48 
0.033184799441438491 0:51 
0.033184799441438491 0:57 
0.033184799441438491 0:59 
0.033184799441438491 0:60 
0.033184799441438491 0:62 
0.033184799441438491 0:68 
0.033184799441438491 0:70 
0.033184799441438491 0:81 
0.033184799441438491 0:82 
0.033184799441438491 0:90 
0.033184799441438491 0:92 
0.033184799441438491 0:94 
0.033184799441438491 0:95 
0.033184799441438491 0:96 
0.033184799441438491 0:98 
0.033184799441438491 0:102 
0.017214419459865519 0:105 
0.033184799441438491 0:106 
0.0066843278189392267 0:108 
0.033184799441438491 0:109 
0.033184799441438491 0:111 
0.033184799441438491 0:113 
0.033184799441438491 0:117 
0.033184799441438491 0:131 
0.033184799441438491 0:132 
0.033184799441438491 0:134 
0.033184799441438491 0:138 
0.033184799441438491 0:143 
0.033184799441438491 0:145 
0.033184799441438491 0:147 
0.033184799441438491 0:149 
0.016338135929411499 0:160 
0.033184799441438491 0:161 
0.033184799441438491 0:162 
0.033184799441438491 0:170 
0.033184799441438491 0:173 
0.033184799441438491 0:176 
0.033184799441438491 0:178 
0.033184799441438491 0:179 
0.033184799441438491 0:183 
0.033184799441438491 0:194 
0.033184799441438491 0:202 
0.033184799441438491 0:204 
0.033184799441438491 0:209 
0.033184799441438491 0:211 
0.033184799441438491 0:227 
0.033184799441438491 0:228 
0.033184799441438491 0:231 
0.033184799441438491 0:232 
0.033184799441438491 0:234 
0.033184799441438491 0:241 
0.033184799441438491 0:244 
0.033184799441438491 0:247 
0.033184799441438491 0:249 
0.033184799441438491 0:251 
0.033184799441438491 0:253 
0.033184799441438491 0:259 
0.033184799441438491 0:263 
0.033184799441438491 0:265 
-0.033184799441438491 0:2 
-0.033184799441438491 0:4 
-0.033184799441438491 0:5 
-0.033184799441438491 0:6 
-0.033184799441438491 0:11 
-0.033184799441438491 0:12 
-0.033184799441438491 0:15 
-0.033184799441438491 0:19 
-0.033184799441438491 0:20 
-0.033184799441438491 0:23 
-0.033184799441438491 0:27 
-0.033184799441438491 0:32 
-0.033184799441438491 0:40 
-0.033184799441438491 0:43 
-0.033184799441438491 0:44 
-0.033184799441438491 0:61 
-0.033184799441438491 0:65 
-0.033184799441438491 0:67 
-0.033184799441438491 0:72 
-0.033184799441438491 0:75 
-0.033184799441438491 0:77 
-0.033184799441438491 0:84 
-0.033184799441438491 0:85 
-0.033184799441438491 0:86 
-0.033184799441438491 0:88 
-0.033184799441438491 0:97 
-0.033184799441438491 0:99 
-0.033184799441438491 0:107 
-0.033184799441438491 0:125 
-0.033184799441438491 0:135 
-0.033184799441438491 0:136 
-0.033184799441438491 0:140 
-0.033184799441438491 0:142 
-0.033184799441438491 0:144 
-0.033184799441438491 0:154 
-0.033184799441438491 0:159 
-0.033184799441438491 0:165 
-0.033184799441438491 0:166 
-0.033184799441438491 0:168 
-0.033184799441438491 0:169 
-0.033184799441438491 0:174 
-0.033184799441438491 0:181 
-0.033184799441438491 0:184 
-0.033184799441438491 0:185 
-0.033184799441438491 0:186 
-0.033184799441438491 0:188 
-0.033184799441438491 0:189 
-0.033184799441438491 0:191 
-0.033184799441438491 0:193 
-0.033184799441438491 0:195 
-0.033184799441438491 0:197 
-0.033184799441438491 0:201 
-0.033184799441438491 0:206 
-0.033184799441438491 0:208 
-0.029360957476051181 0:210 
-0.0069076662547581406 0:212 
-0.033184799441438491 0:218 
-0.033184799441438491 0:219 
-0.033184799441438491 0:226 
-0.033184799441438491 0:230 
-0.033184799441438491 0:233 
-0.033184799441438491 0:235 
-0.033184799441438491 0:243 
-0.033184799441438491 0:245 
-0.033184799441438491 0:257 
-0.013508575431348417 0:260 
-0.033184799441438491 0:266 
-0.033184799441438491 0:267 
-0.033184799441438491 0:269 
