svm_type c_svc
kernel_type polynomial
degree 3
gamma 0.076923076923076927
coef0 0
nr_class 43
total_sv 506
rho 0.68970992870281933 -1.0359775520179315 -1.012635921873098 -1.0321842415394058 -1.05101078637478 0.89951565846552939 -0.82904387560018977 -0.44022265252179216 -0.057630118461161436 -0.23914046352873494 0.78193812768425619 0.57268772371051613 0.94633110217026206 -0.053756079892652936 -0.044559713933150169 -0.17390797759793666 -0.64707415780608257 -0.9970679425503034 -1.022445868895298 -0.94874808163351476 -1.0319037843322019 -1.0081133756063234 -1.0420448305231313 -1.0159839278737031 -0.66201991358809464 -1.0013980134575062 -0.55390003030327772 -0.99389710732989633 -1.0393701587458362 -1.0447043441065604 -1.0250188984268089 -1.0349071254915028 -1.0097073063552122 -1.0137392401831753 -0.99869960845195671 -1.0156814120123505 -0.52217575942058658 -0.5166989103948737 -0.72689817763779629 -0.91204646025132385 -0.91425459248340935 -0.97240582610149406 -0.96454144224772842 -0.9512619606511219 -1.0140746679503467 -1.0013243262931788 0.45275296315599323 -0.97651099019267706 -0.92182359536468195 -0.84807972569507639 -0.84830453997283528 0.87337800058476467 0.79229512729010099 0.84977087485355463 -0.84934098494153321 -0.49838814656449781 -0.80900562421759792 -0.95453906175649916 -0.93789530594335879 -0.99819035767116238 -0.99060606614746072 -1.0036187641148622 -0.96469424151625083 -1.0274817780034713 -1.0215893020417204 -0.91986278374509289 -1.0044055269367032 -0.93397512876538868 -0.96082263449651306 -1.00653087472155 -1.0324311869586582 -0.94128710068941712 -0.99574379232360966 -1.0001254528948023 -1.0009690632516119 -0.99321116787617092 -1.0087539083596428 -0.85622512707549892 -0.82936138855685548 -0.91320887264999651 -0.96316393301913572 -0.9770724499729615 -0.99423888368860458 0.9643647314832644 0.74534900158428341 0.92341058397913767 1.0306863789366201 0.92708755271663379 0.91043822961743759 0.98579781342233996 0.85549609548906502 1.006980742676546 0.99559160711369765 1.0540663514820092 0.95402502767934683 0.8386524389861979 0.79402103094238452 0.39108119099557104 0.99746297107490034 0.91993572521774336 0.96882078082745648 -0.88192582616145909 0.97824171030217821 -1.0252145268023014 -0.89809404319470609 0.64856807974191688 -0.91412261920049787 0.89226373520916702 0.99748735933282662 -0.05609433725476265 -1.0157719999551773 1.0087847431977162 -1.003963495992195 -0.9525633891386035 -0.98762623778416392 -0.92390375590160811 -1.0133884200335441 0.56079859539459309 0.53842341647372538 0.41112110325382978 -0.6451591967041681 -0.65027908690133029 -0.90902295119713028 -0.9566337473559986 0.80507712135031095 1.0221152506505387 0.0013319230129127391 0.85042679154081624 0.9328108754929898 0.69377890619706262 0.9929478054966685 0.97858643541783341 1.0154391798145086 0.92203725266162395 0.71670748361437919 0.5661967098902484 -0.257119613740457 -0.86653193119284833 -0.8718817987222186 0.90996768194432853 -1.0202606963257519 -0.85677719037746292 -1.021616704761982 -1.017844441271075 -0.053820319604085398 -0.96482460784752033 0.79063377611824559 0.95157730363109483 -0.9975274690203868 -1.0340573633789274 -0.96554483112606515 -1.0084046340319086 -1.0010900283611155 -0.99474947040103956 -1.0106182054274455 -1.0157573758750211 -0.071361915675812376 0.0066256170846195183 -0.35213320947164162 -0.8271044234063093 -0.83155437524469311 -0.94942240127687205 0.97136350522382864 1.0252005190711617 0.92275251489739085 0.975992271234988 1.0277635162131902 0.87020846802997742 1.0187478113435724 1.0447115376659266 1.0373772092074878 1.0183763560502885 0.87181413951575226 0.83210088081262379 0.22033433744036302 0.87570434125607066 0.96200680378811765 1.025253171711489 -0.86657079198652154 1.0296596789959631 -1.0299408907570535 -1.0384549191236681 0.51656574684092649 -0.94820525919084875 0.90187525105228006 0.98875514656379426 -0.97168329171836376 -1.0358195258098648 0.80543746057640564 -0.99304011091589928 -1.0208423582562827 -1.0056578747426386 -0.94172440602160479 -1.0183712798657005 0.44804428996242296 0.42801867401210258 0.26555617754729965 -0.69681240534843847 -0.69780108388403783 -0.91592925111553047 1.0262633789418143 -0.34019992518005893 0.84808458515033414 1.0194212288531366 0.67459655443442068 1.0504859274877141 1.0596648803138808 1.0268185100411176 0.93131276396180451 0.68870987469626432 0.56302774531945776 -0.22002103563863784 -0.76873836759477854 -0.90376297598446997 0.86813175583663849 -0.95727284801207813 -0.8428010210453285 -1.0267393290996552 -1.0069843710962756 -0.068459822847884766 -0.97170449623015964 0.69623993221685743 0.12376274178677704 -1.0231873878293649 -1.0326095317483333 -0.85222556442022324 -0.99589019843519322 -0.9941640579587574 -0.99794182125427944 -0.94964122132597584 -1.0106561327031545 -0.028082846722101401 0.040009078670730808 -0.33556627844336617 -0.77424541259858426 -0.77443126328874179 -0.93050388331840794 -0.94958935397316979 -0.7547408266285518 -0.77104647704555984 -0.58800094312898366 0.30904334635500946 0.073749588032430632 0.80049636349896092 -0.53025420414570767 -0.26237703383623956 -0.49255570369318707 -0.79312297485248018 -1.0082471470008882 -1.0036196749940609 -0.99086779885652532 -1.0294608927868907 -1.0153759450752953 -1.0245198680722662 -1.0318840386323886 -0.81588925820351788 -1.0155285677155448 -0.84737098984481318 -0.9991039284886768 -1.0374970909676577 -1.0305489090862809 -1.017314270572965 -1.0146445287942392 -1.029017579956041 -1.0157230383421252 -1.0041681097195476 -1.0225056992723183 -0.68440718138112955 -0.6790861893142659 -0.84536097497690876 -0.94824318356334147 -0.95222704132287572 -0.98997258880084982 0.95021998571464916 0.89437870866417135 0.88234217411396576 0.98152303351809844 0.99031088207630791 0.99554010907291168 0.97789683563911978 0.85952982705058611 0.79621431935322229 -0.35786618766518119 -0.85105009871304038 -0.70080162929871026 0.77119609993489391 -0.977569352718063 -0.72206610881018185 -1.0393707513567974 -1.032588445879012 -0.15035852086527157 -1.0149849940156792 0.73386151117285225 0.59041171693876582 -0.99366170895879768 -1.0407365938881319 -0.84745660526993516 -0.98699681908566916 -1.0166632744396118 -1.0115094039801249 -1.0025481416439279 -1.0194496249947749 0.27593724343387294 0.29125736212564846 -0.83609752021671824 -0.96716997307118169 -0.97310363966408586 -0.9925559394507053 0.79164033711935011 -0.18358463658412738 0.92387883107979096 0.95519756092005403 0.9244445503203581 0.96105315552809034 0.76976703540198343 0.62746693839630452 -1.0108165212673919 -0.89067316015710418 -0.91897807050216684 -0.83134497501781524 -0.9381710695658374 -0.88337804086188376 -1.034045251690652 -0.99115905222442968 -0.96735132999665951 -0.99676360336865433 -0.29144185180443394 -0.82685371524799312 -1.0053268904963877 -1.0345171807616136 -0.87570831771616364 -0.9670018305287057 -0.96871541134241068 -0.98525895622216508 -0.96953169428871888 -0.99976850532859041 -0.85439795496529292 -0.85075702841666734 -0.9634758418153222 -1.007471505213213 -0.98524512731199143 -0.99617377577867983 -0.67539746369767717 0.9378676605356272 0.93059915975949625 0.90676856582438647 -0.4988574805728398 -0.2068786752679522 -0.56793310663849494 -0.80338339831274086 -0.94710895491909108 -0.97350321858658662 -0.87757055939607231 -0.96075399751126278 -0.95379732127549388 -1.0287270197509797 -1.0170427588345241 -0.79744332056045686 -1.0058288261908139 -0.63401057226656476 -0.90924193290367317 -1.0429411881119901 -1.0351023534503656 -0.96103591643161668 -0.98552445924433296 -0.99835871370469176 -1.0012008995276214 -0.96061431115892404 -1.0155074303515739 -0.68005436469198943 -0.66501280900234783 -0.81835917311918893 -0.93656937891787573 -0.92791114145029474 -0.98769481704499551 0.82012268834125157 0.91442258371158702 0.8742520209281146 0.92311848677102737 0.87307069741896104 0.66709774848163339 -0.92240592757826856 -0.80304376545032141 -0.77922515405250947 -0.70046146848968849 -0.88792711667901181 -0.77259603910725005 -1.01749882998124 -0.96265084240017784 -0.93733406750611648 -1.0033415662841785 -0.14547177295359326 -0.66469835735097915 -0.90255531178433734 -1.0283080194912058 -0.77992832585969596 -0.94685798742626526 -0.94961617733369963 -0.97021639523191383 -0.95295409542211573 -0.99744684353341084 -0.798218526864932 -0.82146183285458629 -0.94050488519426534 -0.987922095130498 -0.97773858914171941 -0.98989922223933191 0.63793865877927169 0.65483134988046598 -0.83709643466917705 -0.47071676984137756 -0.83742979501037929 -0.96485911017528003 -0.978617335298265 -1.0154510663334997 -0.97793912456251986 -1.0179223899279664 -0.98743319207786351 -1.0402893913168449 -1.0155182470745179 -0.92282307415542586 -1.0022613220339918 -0.87665074051041381 -0.99496362465331922 -1.0542630112493383 -1.0413773530134898 -1.0169960029843812 -0.99561175243238265 -1.0012626504278939 -1.0094056855277804 -0.9959834868791837 -1.0138016529381275 -0.87858590339498244 -0.84288227274965266 -0.92118326641446746 -0.96600925754571632 -0.97925367887114068 -0.99540521759721423 0.027599659339216487 -0.9282698370329181 -0.64829650369473379 -0.92757396133362324 -1.0325910740721598 -0.9751679426323111 -1.0198828459236517 -0.98687334176422803 -1.0054570758955204 -0.99381524261285192 -1.0343027653215107 -1.0326565902997242 -0.98376104692006261 -1.0127699007789899 -0.87245047504305961 -0.98674884922856376 -1.0557861733328584 -1.037507745817253 -0.97600313687182949 -1.018316009270865 -1.0067985907108821 -1.010685545093438 -0.98842818155160439 -1.0142089603285125 -0.93769386778895292 -0.90270587145906711 -0.96346709999370883 -0.99159812856220353 -0.99094097926741098 -0.99855545134422286 -0.8187596813920951 -0.41505795375123811 -0.78069206507470701 -0.92626152938165041 -1.0192817289933012 -1.005032423728123 -1.0018523351861328 -1.0290301453578297 -1.0086303607680951 -1.0176378108377511 -1.0289083242422912 -0.9478581497698596 -1.0100930822797887 -0.98780878335840916 -1.0046966315548207 -1.0336975128729609 -1.0155982300639153 -1.0342740399181158 -1.0232614026522575 -1.0072542589381908 -1.0041758496797659 -1.0070578298516604 -1.0180763783657929 -0.86264608378313457 -0.86144803069759801 -0.93691722964953839 -0.98209686971726295 -0.98122324364458302 -0.99710920191336228 0.29303023062618383 -0.88556859863533421 -1.0066610517215782 -0.93589403262321313 -0.98653161108065002 -0.93045522492613864 -0.96511461398255327 -0.95043958548606378 -1.0281941584050405 -1.0244014945385702 -0.97897833331343465 -1.0134858659842081 -0.76638879446029706 -0.90560963431556873 -1.0171592136609704 -1.0319769976187692 -0.93322882363772053 -0.98347392512800669 -0.99255331067971864 -0.99807218243446738 -0.97600533553301716 -1.0082698208428971 -0.89439781206052715 -0.88869143061795708 -0.96841585712126577 -0.99365925519692488 -0.98176291360085222 -0.99568660285096577 -0.98780466781739129 -1.0053201669946528 -0.79920992996856555 -0.804017423183778 -0.71315163689052941 -0.87079477243705128 -0.78218563433950716 -0.99620784024016695 -0.93764955777880454 -1.0083661817114364 -0.97650184121843508 -0.44214030067139792 -0.69828921947007472 -0.90131353614180676 -0.99921958893537521 -0.78843987438464913 -0.93194576264278284 -0.9244509056524618 -0.95007270847057113 -0.9380145238092521 -0.97928849622001457 -0.94134956371660683 -0.94769321485966918 -0.98710706244309954 -1.0040634960954307 -0.97812145667433126 -0.99486136511469148 -0.98851236526995201 -0.71427518303474979 -0.68307160066025452 -0.58190724871199728 -0.83759556125720214 -0.6696400143476291 -0.99245964271817366 -0.92500229919577925 -0.98803692807294363 -0.96285090993883271 -0.18712801280889835 -0.55212265053368004 -0.86956358257972288 -1.0031672485852288 -0.7035889410241466 -0.91616965634776182 -0.91181112973488898 -0.94310635623165151 -0.92071711595625771 -0.97162157681444283 -0.89781281152695791 -0.92540072957135866 -0.97775742322795955 -1.0055779006520023 -0.95700305449900147 -0.99537978865025067 -0.022718544775216287 0.15267924638474734 0.5068859539078403 -0.5813252924808423 0.18311480450938689 -0.98585907113023552 -0.76235761848664785 0.16454426920972764 -0.89694237725924886 0.59711809733242072 0.34799764380295528 -0.43145971506282876 -0.99355175058837819 0.0025162130432363483 -0.8696666107073483 -0.76497303278750628 -0.87813891217521511 -0.87097168289432236 -0.95817256043267529 0.89782448714454888 0.71336677333994436 -0.82849507361848262 -0.96832215964430957 -0.95630381789316887 -0.99234996882317805 0.7844692951892559 0.91539655628784722 -0.98758170972052028 0.90341811462931731 -1.0423271245196295 -1.0551443204599265 0.37093559511584329 -0.97273242981010877 0.84230593174869839 0.94560594764700401 -0.98032259804037225 -1.0467115517190435 0.022707480471581221 -1.0192850128165556 -1.0224119195872905 -1.0192705601485825 -0.95857088063412321 -1.025617128107178 0.2606245110944902 0.27235147742433335 -0.095581136028386027 -0.78455160166553073 -0.78742014704970309 -0.93534468688153927 0.99354433856995461 -0.98788083618521583 -0.025993627379648387 -1.0303002251387756 -1.0000897418314396 0.23763347574769389 -0.98539781820622196 0.76674631117679348 0.96084029114791669 -1.0225279210206026 -1.0269683146902666 -0.85828049838336917 -1.0238126825521581 -0.97140672673022244 -1.0053734851139124 -0.99438579270854099 -1.0080076108780973 0.071267629921635489 0.16355234362197679 -0.29801880735021558 -0.85465919126732814 -0.85573018974981674 -0.95609629036747934 -1.0037860948983255 -0.96994086774149346 -1.02528102444125 -1.0330154655051917 -0.54707401058709593 -1.0201392110262644 0.62914658838135207 -0.93221143417444796 -1.0467146518228323 -1.0271045598357049 -0.94855005394749359 -0.99411767360128067 -1.0102652303332884 -1.0070255248830204 -1.0034277707606358 -1.0115367250293019 -0.25620521544539088 -0.25343707014927475 -0.71448724551628118 -0.9520859277375362 -0.95308143515928723 -0.9862858354425228 0.98308578668915558 -1.0119606443689682 -0.92692357526815239 0.74147985118174542 -0.91592357152177573 0.92590932442335638 1.0252441951634308 0.8293814342468977 -1.0087231379781194 1.0048491473831893 -0.98229342397740282 -0.94276627010263436 -0.97303992954310947 -0.97713559309243769 -1.0028726752179549 0.66934392341375559 0.64017635011449747 0.54478254424328088 -0.68540464451329552 -0.68726657275348502 -0.9182764601239346 -1.0490165501832962 -1.0574237609328803 0.2413731662414012 -0.99025735222152067 0.82595056813979806 0.97223115318077657 -1.0584322027147741 -1.0515152310330358 -0.92246717106404208 -1.0144016338231241 -1.0322131785417976 -1.0170396870537413 -0.96514654988454129 -1.02573538667592 0.076579235266745371 0.14562615577652971 -0.42311741717522011 -0.78931139391732985 -0.79192645749606494 -0.94253547409237282 1.0162279470972542 0.98573268788834023 1.0235296040773392 1.0213064943786225 1.0385991483926773 1.016972888125399 -0.0034901648759841919 1.0149804211102582 0.94385943893441038 1.0402351245284081 1.0330451666778688 1.0063288679039322 0.044527329504489899 0.92348423584008532 0.92486646708238429 0.90207361001457476 0.87713174079418454 0.83775064894594453 0.06209186464548111 0.85370161126264388 -0.89309503412749236 0.98601506089694824 1.0173737757239127 1.0090503507073769 -1.0207228064295197 0.99823067746268423 -0.83091794699430466 0.0018225759267807007 -0.89139535742984943 -0.84163050539791584 -0.99405182152506733 0.76733392538926248 0.76383965427876888 0.69171786342640273 0.053398781616692759 -0.02548223686608253 -0.8434861786901956 -0.93920188313137487 0.55969264411645447 0.35744748340948718 -0.66635982883601408 -0.98896850854772966 -0.35952004064490567 -0.889867309188203 -0.84488881148266126 -0.91014963333427157 -0.89761511581040399 -0.9612131864960618 0.70026223590595826 0.79611453366577933 -0.96161871224600615 -1.004637088727748 -0.94332608871456314 -0.99146247052841519 0.98815092119942272 0.98494173979122102 0.94697303798532251 -1.0222292095422745 0.94999814104584202 -0.026233747135847807 0.90978174958969005 -0.025489410385489464 0.021530887112021446 -0.98481248319149017 0.85371900026817071 0.85908142305738411 0.82363786198807731 0.76759303657575439 0.67662765667773783 -0.88741126401141757 -0.68573415528660531 -0.94133181678303102 -1.0207082567125019 -0.84750060638900282 -0.96257831411475669 -0.98615915783046615 -0.98677963091132648 -0.9602499113605113 -1.0019496991195824 -0.43865513133782558 -0.39104124367565296 -0.63395845918195259 -0.88212828313122904 -0.89455291828872863 -0.96986792590070114 -1.0154326427463245 -1.0432400991656963 -0.9934189477829517 -1.0193509335357476 -0.99665212238430179 -1.0033374686834775 -1.012143666227979 -1.0155526009900415 -0.19408674618600441 -0.11376225022477571 -0.54663092628179277 -0.90276400665834922 -0.90281988820056913 -0.98918936775874622 -1.004839067852956 0.96210360786050098 -1.0052831630535644 -0.99847193769652964 -1.0113696579731408 -0.93215190088580024 -1.0121801026709489 0.58313692079805357 0.56696996511803821 0.43475773734029605 -0.68432619750814183 -0.68553020409308374 -0.92304013545337293 1.0060174333357599 0.92323166111714672 1.03827740720152 1.0275862403213978 0.99890239147894078 0.048017494380474091 0.92359663716621909 0.9249640237093647 0.9019374307329725 0.87782398748416879 0.83865959180627692 0.065582029521465302 -1.0036314927878867 -0.98042451769773198 -0.9925987432715736 -0.99332536949237527 -1.0067900309620701 0.23742239161583711 0.25949011934928556 -0.075174000323677603 -0.78301799928723981 -0.78287032189238503 -0.93978060381203066 0.9093669094145298 0.013346664607524872 0.046579597517848015 -0.94365189610090616 0.84224891201659557 0.83637982514893583 0.78121422182206013 0.74495929894508128 0.65694362415933938 -0.84820784588524101 -0.98128602644065965 -0.85398118189968841 -1.0146202403075539 0.76381386906731064 0.75696310571873482 0.6837547302508914 0.034185733675258234 -0.044027745170751587 -0.89160198064823148 0.016792217269539833 -1.0111403604626699 0.84688712199943572 0.84211864447236484 0.79191864813634749 0.75223136955130421 0.66318738565314561 -0.8900283261805999 -0.99274401548069124 0.84221565312754232 0.83732562638843011 0.78313512762722559 0.74631071658293047 0.65736974621540867 -0.90662688809398539 0.92268171710345626 0.92213423149503637 0.89522034629594882 0.87508249031006713 0.83489231557878374 0.017564535140991211 0.019538150168955326 -0.96648646584014497 -1.0285928374710704 -1.0028358337936827 -0.99196256622540058 -1.021853340818315 -1.0026963125986523 -1.0137093479636805 -0.99812821073367908 -0.99227616592250345 -0.96437140515752784 -0.99262508368073843 -0.026657523587346077 -0.98287833702316085 -0.96217235922813416
label 24 21 34 33 36 28 22 27 16 18 15 20 19 23 17 13 14 12 30 26 25 35 31 38 43 11 41 50 29 37 39 32 42 48 44 46 45 10 8 7 9 5 6
probA -2.874230125094031 -24.893152696469755 -5.5043328026120415 -9.5034222303016609 -8.1849002669518711 -1.7649620302521547 -6.6908478678598851 -3.0448650072191206 -1.8937860346097244 -4.9452433684987538 -2.7523887236555673 -2.525253319582252 1.2226140790205207 -2.7774551909158376 -4.0928588561244981 -4.4600765986444859 -4.2441007855471273 -1.5708916651888376 19.506907282392742 -4.2427984786511646 -19.466298021313513 -9.9558615500486969 -34.387231195336057 -44.640248519938133 -5.5834743440733225 -12.79482551378538 -4.9891722174966979 0.99222774873121222 -13.701302763791118 -26.761449571659945 -2.5843263594874486 -37.499064969094171 -40.369970168434797 2.112164601893467 -8.2649739787326251 -34.983763739610559 -5.9139142664725783 -6.3910964517488544 -7.1647986941570627 -19.068231488101379 -11.377962405805356 -32.921501036558098 -9.1008188890858328 -16.306278094830624 -32.344765724041444 -17.378343473630324 -0.25480761282811493 23.704071631540661 -4.1259878949899784 0.67131110275574457 -5.1286510104990519 1.3712576799831795 0.77194096815615332 1.181016774391531 -3.1220077479761286 -1.7575256107380517 -4.1147790377313624 -7.0689369300837663 -6.8654534303234573 -8.9181208541009429 -9.0378130044585951 -44.090264491022126 -35.329354021090907 -44.135146121198723 -41.1161372523976 -10.893394721906658 -40.636414281175 -8.95638437671386 -12.393839008701235 -23.317795893714575 -41.035662007948652 -6.630142939114565 -8.0250640952842094 -28.975545774873904 -239.45253777143341 -186.81944012292837 -32.504455378708563 -5.4804624802969091 -10.971828899059263 -11.612475354963351 7.7220809833682686 -28.656560002315242 -9.2552878429715335 4.7537359376324675 1.4013352731163207 -1.8361449058205173 -16.456102811877802 3.6505513016924578 -14.865838872498745 -15.186355501051231 -11.819510436610877 -10.011811725987972 -13.726490093128884 -6.8453912304257623 -16.314984992396198 -9.4895049554548656 -9.8222046230277336 -3.5527083338733427 2.3831605992992673 2.9285973506504019 -12.694031959175634 1.7557244854395377 2.5449780113135607 3.2307381766407297 1.7011259603030535 -5.2700758586321736 2.312507118237908 -1.4773448496452959 15.720977518555131 1.7953283112870659 1.9631433689611422 2.1880807168578995 165.72609314859551 1.568168007645752 16.730208619762653 3.2226690199860926 7.7366547916573962 -5.5122702272195259 -9.4753941243596849 -4.5553274166677387 -0.85400198340067268 -2.1980280556635177 9.4167391666288687 2.9451478266356617 1.1098447804616547 -40.307101260741447 -0.48991147299267529 -9.679356834701629 -23.865032321185858 -5.9702677819006951 -19.307348447096977 -29.839984128903517 -16.184929073586066 -17.43573867791509 -10.31615847481827 -6.7623804712701858 -3.5270502315094201 1.7943817464632619 0.70268930949309194 1.5027923774181187 60.381669771257577 1.0311112419690251 -3.6089407717612767 3.0702066476675003 -2.6265411877442539 -22.027329480071337 -1.350751189929553 0.63750947272072167 14.878660471147064 -8.2662368634741874 1.5468689745333779 4.3979428343904212 9.36216543587987 38.239605666841577 29.516130603352234 12.732946441881138 -4.4740966692030755 -4.6983692928191658 -4.6660854251533168 -14.467956271766429 -8.8132082122789086 0.41274918777365821 1.2047515127709987 -49.556338864767866 -5.2416724966284356 -25.357706474875172 -32.682795339726042 -12.774399210742684 -31.514842290569575 -37.340486051059436 -30.024964417803787 -26.305864065795017 -13.947349410493711 -12.836450444835643 -3.4844633532272842 1.0233265780439738 1.2914484415839411 1.6985589038475761 2.6740719818767253 1.2728977134920783 13.239796459066465 -12.626042272433828 -1.8302234820060008 -97.438808427189628 -13.06194852747568 3.4173169126339431 1.2755874888708874 -2.8567816867499376 1.4491496098996766 -5.5893272343545144 26.397726929288012 90.937204663389025 12.025773389765499 44.482714043708626 -5.6034947780192468 -5.7553469864569715 -1.9134740323182688 -9.9689259855570871 -9.0274794402212333 -11.38766191568596 0.5639127152289094 -0.29593911959565411 -4.3790549934811098 -12.885050947735859 -1.7926027863035465 -42.222762952840888 -26.585639457036486 -33.217509250905906 -10.82242161926886 -8.0983661548547499 -3.4126074062782661 -2.9409714737285113 -8.0651294299408853 1.4942253465469886 0.81783304724727113 5.2229255454127532 1.4150804806042092 -6.9888298226920869 25.749674931513571 -2.8943126355329083 -14.782480574481394 -5.6444289349172392 1.4693086140748979 15.519734815491407 -8.1055593493368328 -0.44080893696704659 -1.0966958737436596 -19.735585486220678 3.6184238941463995 22.61035384713815 -56.868189706470481 -3.8010905234793433 -3.2629566989556134 -3.4615761611282334 -13.108342967379928 -10.946900028945281 -3.7010822234016323 -6.8376646846879536 -4.149590566442277 -3.9840666710347676 -4.6420306121062458 -0.099212116799656691 -0.48548985718256865 0.50019380131533342 -2.7933808504334445 -3.1895734618283558 -4.9671417442475718 -4.482414295481834 -34.1834171017084 30.527268043853194 2.5260345656346197 -33.394179146157448 -60.369328317561866 -56.319831715633455 -46.390951865934788 -5.1802735007288367 -113.86023918659093 -6.906806752390426 5.8797134124642003 -31.75215251159328 -44.89999128667543 -29.255772642610161 -52.84883568777984 -40.358377323802124 -23.623609544987247 -17.313393535530686 -48.557006701271163 -5.1461407975393856 -6.5867035051737215 -7.0780853728379016 -14.799768606030382 -23.664903624973306 0.095332088835407419 -1.5429953056691295 -4.2974676322948779 1.0275242970659766 28.764046584383703 22.47108112904268 23.901929571842533 6.2193644838588735 -10.493550234114084 -7.9958470588477732 0.10596630817560766 1.3838801394036844 0.89780808180502092 1.6894887761462754 0.82243331228168126 1.7800345508513258 -3.3558937253310432 -8.6966986151917354 0.93534607527252633 -2.921122661576331 0.29120704482006438 0.96392355502818805 2.3494572096377961 -2.8917716756924698 1.1872453422201479 -9.4894481325410993 -9.2033281391678337 9.0372519668437974 7.1617160915669142 3.2624994003599794 0.47131541690711592 0.027666949471185986 0.65274105926953163 -0.13320590300364316 -21.305884594097876 49.357821387377626 -3.4496510808587222 0.31460053863674686 -8.0531355587219462 -3.9910349197575758 -6.6336360778621657 2.0606873102260028 -6.6857875702923346 0.45192148614817601 -1.1101317678147611 -12.460162862826953 -1.9815762803187402 0.95710999613627268 -20.980917780476378 -0.47595112499098846 -12.957169352065756 -30.609027854615732 -0.63122064936790367 -83.50460109006714 0.34054619031968231 -9.3259490626329935 -13.700694565671004 -18.356233586096817 -13.777659552330546 -39.588734265351341 -24.5772307476139 -75.727919145503662 -53.581812081724479 -2.9171381229286926 -6.8070780749312867 -0.83820292748248093 -9.4607385676444071 -14.040700133334635 -36.586993243463759 -16.371828045621015 -1.884457485973299 -4.1084356079304287 -6.895072539991479 -5.8066242558358487 0.53634304676824129 -2.3923422305013147 -2.990255118824519 -3.5617044138892915 -19.40718558612086 -6.8812687517353384 -22.552346766413674 -23.966367272440824 -34.949136407020212 -38.763055354722006 -34.942059195316773 -4.622067567604625 -26.315452191955096 -9.1896828789081155 -10.382251383362464 -40.647347438575466 -26.298661218133951 -18.504907093601147 -61.265365996555659 -48.156753383604226 -92.565053531088012 -77.307715687296479 -38.421710579967773 -4.4240840765708134 -4.9812574263708971 -6.8146429835813782 -6.2641893061061475 -4.69759049453583 1.6613859109467526 -6.1175290142009828 -3.2237307699983453 -2.5407567218480365 4.58215662934506 1.0678062984319348 0.2925336706377531 -3.9915895209125583 -12.514061713233497 -9.770913535880922 0.35870232428791382 -16.027078996503402 -11.69922096764979 -18.011413786915927 -19.346068615760228 -0.64215836703992735 -48.127009532622381 -0.12217034932639956 -5.424144908552468 -6.6058465173123553 -34.313076208155465 -7.8120050007220563 -30.615118144574449 -21.353914963989705 -28.903345484378963 12.232842521601956 -0.3785440451636804 -4.8548864858513499 -2.7791564312192567 -9.0550015022074426 5.5740723289212912 -40.266021480963701 66.993580040656326 0.49004983254823853 0.64786218971510945 -2.0874390895666206 -2.5127182209709238 -4.6140522519778298 -3.6311913651661887 -6.2858739195169937 -9.9593587056473876 -47.496882965527917 -27.169010334729503 -43.532479247032214 -27.46677151023281 -38.770998340453403 -15.941545658423063 -52.690594780250535 -12.403819199455304 -17.387875690516427 -41.150353641616498 -20.896833232929939 -16.109306789191248 -74.796860864935965 -55.377835266165228 -91.303177272190965 -168.57139256628628 -59.150924928834122 -11.819361479471254 -9.2834560953537775 -10.615173965249609 -29.994332149839096 -34.696821250629775 -28.910686060729443 -0.10400309427216363 0.97613739821839318 -0.96586955029928079 -3.4048722889845102 -8.4013341249306563 -14.963298528050547 -5.447090907532103 -31.877174545654075 -17.061096637587539 -38.523427614244326 -29.317517371985112 -55.947113620466055 -17.450432860054256 -156.48481245974108 -11.323841330709797 -24.103051624478567 -37.881675000072747 -25.935685382508879 -8.0478262107452281 -15.031933616182355 -49.291147648827504 -36.276007032325126 -34.788048742529831 -47.480742768320006 -20.690258124575568 -9.5669798578746637 -17.613559191040203 -23.22119233301877 -57.030044216558252 -47.86746293608433 -1.4570811707589484 -2.4798209448096418 -3.2391209183716794 -1.0279778561587269 -29.610881955145263 12.700920687559638 10.729786192111561 -10.679466034054423 -19.057201364797752 -15.710415264194406 -48.581002792487922 -6.8176491777623545 -15.384363628720074 -13.417800255268004 25.956333145144566 -15.207305949032746 -97.740459533088298 -14.389551181022707 -40.962028805637715 -55.105816106411744 -50.001670473421456 -112.46351666875893 -46.437680390954931 -8.0711851139455639 -6.6612806509856144 -13.030204141940764 -14.187473069103893 -18.599062921225034 -8.4360276877138283 1.0757637653758714 -0.29761308281731086 -0.98205104581643132 -16.978980579551887 -8.663925007675255 -0.08356964426286026 -33.172925451120776 -24.601263086758394 -34.670966381528437 -26.499751575757248 1.0472215397773086 -43.460245579277448 -7.3631120024223051 -6.1241433133930059 -27.870800297405715 -23.307146443068071 -11.208742239856237 -40.291434730502338 -35.589898136600681 -12.095144181761823 -74.129692193159926 -28.643366497189671 -0.49822186403206481 -2.1279053253828164 -3.1059433373124801 108.92392816740798 -41.596543115309295 -5.6505524451450233 5.5260595956461867 -5.4625828401028471 -13.124656115615306 -10.763370598819337 -8.794162208483602 -20.921054178188879 -12.657725440960643 -59.604250343182187 -18.218366113606912 20.133079342320272 -56.828619136611529 -3.9062020469943932 -8.6203267145892983 -15.525687800764342 -49.576727987445061 -13.772349525083994 -29.675805113549782 -24.546201647153786 -6.7401868580009472 -66.657439476309548 -2.2055160759481027 3.5500305957684675 -4.5657379793657364 -4.3859630482707406 27.278832635138642 -73.901847224732393 -20.155727778906151 -0.98625559673725371 -8.9462002250755681 -8.1999769874339101 -6.1399806269828678 -18.891413028509103 -11.1099650996641 -18.257408875439047 -22.250847114684706 7.9722813287100172 -0.36074773904881324 -1.5620677405367476 -7.6849009705602622 -17.812429002068448 -27.460091271905426 -7.2248341000257374 -27.809280474795951 -25.868609124146676 -64.383697061535671 -56.805181678476231 -9.8023390288311187 -6.6549045309193495 -12.725665745965173 -4.4948654788236269 -47.784990716761641 -39.416628864313147 -23.156417102939965 -2.4411290013008329 -2.2913686694726967 -0.88849011755260598 -4.2744541767749498 -2.6554800767899871 -27.797426276563996 -8.5270476327337317 1.0369927177527001 -3.5595407831901902 -5.0435008140590822 -2.2369017585359332 -3.1657457147149279 2.6141079227587758 -3.1908419947748698 -9.0938171876220881 -3.6613143014517036 -2.3344420349037831 -4.204447495679597 4.9544871816363631 0.65587615487415007 0.37892539259508751 1.3440190964640271 8.5169709772400157 -48.835798033143384 13.361779024086323 1.8231568627206627 -10.181449287924698 16.011881266653173 2.1939547009378075 0.66380539906313785 3.0267345505703922 -0.2333197666613151 8.5030640075809227 -6.1886828049476872 2.0707601354234519 1.2773091427654217 0.80159547975354772 0.89244213966988761 2.9196664036406634 -4.8162098359739005 29.963397657851889 2.2294166722551347 39.672031360675931 -5.6715541010748094 -5.2790688878617162 -2.1114275127259883 -10.837979658668361 -7.8681064400842837 11.959622794696894 5.169883792400535 4.4866243575821443 0.6842247746715775 -30.157986014163978 8.1778139674585155 -2.4324393224084266 9.3615925715813582 -9.3060426148018056 1.5902473846232934 9.458769514263949 -5.6806016707305345 1.6198919930215121 -0.98817419566605913 -24.38534063731306 -9.8944355526309025 7.9242102704939867 0.88357836629688735 -4.3362601382818156 -4.8515933153082491 -2.3815376387740517 -11.492555055248099 -11.614547402739062 -0.27753088520791447 -7.8779887841569165 1.3261773128335301 -25.325319317947667 -28.157728737475775 0.93063482793228136 -10.479139988017547 -1.8681756928442967 0.74867097837523744 -19.063715673591492 -23.450220880843389 -11.531057463627857 -40.956891142654229 -13.401109091887236 9.4694788620044861 4.8436146242605149 0.36842691085367463 -1.7732605331178739 -0.26031267521429119 -5.0357990378383013 -24.475720528455081 -14.373042026651072 5.5180233483020622 28.06008962462041 2.6011422933491231 1.3357685671414525 -8.3134461512173417 1.4841433918025786 5.8038747790346861 14.397617716903405 1.2381436068947302 1.0740232619532386 16.000360599772961 8.3076645086693439 1.3450564401711553 16.347060322455711 1.6254490550463245 5.4724313676705458 -10.841136756426978 -8.232908076010327 -6.5783899633203742 2.4053272126845471 -1.0741129654488859 10.021238235936947 -32.916883727454277 -20.400649041213132 -0.16158612924969876 29.20991195332449 -0.36607062565518872 1.3849661925685997 21.206313636666209 -24.684899483628268 1.8755440610226519 13.797745584710301 -0.77209216766419686 31.184159005863492 24.478966668750868 7.8489137899736461 -3.3211569394097586 -5.0867598025346696 -5.1756010050769685 -10.78242878565087 -12.182117814667425 -5.7618378971724029 7.1863981467853977 2.2471448628715782 1.7855555029718015 -9.6133951738273851 -13.214794469350629 69.889313114725098 0.69314717840248341 4.9115253003208519 1.8770227959364756 6.66661907223373 1.6984411429429187 1.7782331918782992 0.69314717840248341 15.970605839567179 3.0968674121858801 8.8692010171104005 13.574025037086523 20.161735135829467 0.69314717840248341 -5.7984109866718834 2.6126799676138965 8.3056393444042715 -12.937030649658826 1.5550449802991679 7.903689848075766 -1.9977289278988533 2.9467537401131096 1.3917619298385424 2.5600784702598012 2.6702770698904517 34.461210573316549 -9.3942547968819454 -8.821144118478168 -7.5870852755533615 1.7418703919633598 1.3737523806010437 58.506735597431835 0.73281677785359967 -2.6023183697289425 -0.87967618122512714 -4.169032973975356 2.5240932895811654 -2.8230415253850372 7.9562353868480447 -6.8090244855004096 -2.8202164241886298 -1.2425116932125329 4.9090690839439599 1.7268970032663906 0.79994471841230796 5.1350580696018611 50.448868456273701 -20.615674738239331 -26.420967096902615 132.39068811328144 0.74023527064648509 11.013799780306908 1.7955323397174714 -4.5210451851742679 1.2830258557447283 2.3165636913690655 1.0930862146807565 1.162092264186219 1.7785723155220476 -23.060416157495489 -20.25045605853888 -13.074314350311603 3.8690232685017114 4.8553781665796727 1.9349418199264261 -1.2611483778022572 2.7995980774272322 -0.10313461715131444 -3.2471868668568775 -6.0310074003009468 39.918650036066786 28.588174017039016 1.0114411788256257 -2.3003608939841373 -3.9191826185720364 -4.1087504144961775 -5.1711151257629435 -12.23899360159108 -17.352996029259135 -0.59916088310026261 -7.2623149063385135 -10.235864259004016 1.941401377496917 12.16842969792186 -6.2027079431170211 12.436165978447731 8.4515039042628608 -9.6104713515870923 -1.6651104712343423 -3.6924141183682124 -4.1029796545603716 -8.8653720053628913 -7.0349894750396391 15.736672705177483 34.779511294847275 1.9763805187285384 6.3132214917554474 2.3039824746575768 22.286100296644285 5.9114504637175349 53.999642441298526 -5.4711047563486979 -6.5186190029145568 -4.7969271931750983 2.4944327982801404 -0.53937588607214337 3.9918479268039864 1.2862849670377405 1.9244629373834223 8.388529777957725 1.7112913660252704 1.7983303567580236 0.69314717840248341 18.858984787585214 2.9332287658770397 9.7322156763376402 13.254831669345116 20.317863379585681 0.69314717840248341 0.71534970874282611 6.0512569827075611 54.685416679909373 5.2697113630431955 9.9774683866141238 -4.4269185398793756 -4.6440901481788872 -2.4766508952715922 -9.6508419249888231 -8.7940155847663792 11.63339304706356 2.4734862906037027 1.1208718061808518 1.1648140806957918 1.7867820964961676 -18.4370236445952 2.9773083994362115 -13.855381311766344 4.6296089084492218 6.1861697120406518 1.9409998716135262 2.2811607672247542 2.519136260515106 31.526235661322168 -11.353190285447047 -13.886728704775882 -11.740838189229553 1.7772559147990137 1.8793029058090431 12.905470181499666 1.1214993006919534 1.6648356967624565 -26.932424456432749 -24.487707251229764 -17.588599966302489 3.8523769663397851 4.8395519690523718 1.8404998642698791 1.7267296119950155 14.289327776959711 -0.22932426687973709 -17.4530186831783 3.6729869075325223 4.5913579905375572 1.8485759288375672 18.503304548298708 2.6297062127594177 11.329004274187314 14.624674625075032 21.226900461891884 0.69314717840248341 0.91997859706740115 1.8592939812195124 29.058796009258817 2.5556121304679471 6.5134919147399959 2.5139988237749069 37.498986561403733 0.54995150616126398 3.8765797512827476 7.4912477799040849 3.7665063845472253 27.490937724200528 1.4887867509065351 5.6019910667061827 13.728160387005611
probB -1.6047220688649884 23.224013886074424 4.3437890636845955 7.9397595967369643 7.1041681315373699 -1.2427310962556863 5.3216210531271679 1.5978709743583259 0.10876426132997102 2.0037146144878641 -1.6457486116933764 -1.069965114701138 1.4981225363570467 0.86098539314585898 0.70274515164198437 1.2068287043934884 1.709280356756252 0.30705878362387284 -20.653811585372267 3.3390125364777368 17.648418864543096 8.7214485328949554 32.012558081932887 42.327220875508402 3.1162713738518049 10.436938222802665 3.0817698231134876 -1.8873338528032537 12.144771947825546 24.446672878605494 1.3193242589282015 35.464049403105911 38.165468285886618 -4.4453420622589954 5.9386544351523405 32.377191798050312 2.5206648178561566 2.9072984334524237 4.155763616595527 16.240016003206225 8.2827806084159992 30.374568314088442 6.9378706606745295 14.38251238449774 29.984666582210174 15.817271494198163 -0.03931700230246208 -24.773062218270169 3.1979527228022335 -0.62011102397596718 3.7785168036251551 1.1978217136493112 0.81819429530493903 1.1674578561217872 2.2473227767212052 0.35492408768585998 2.6051723962576916 4.8090533706703988 5.1244947708274209 7.5311494021810343 7.8946674341044041 41.987669191940284 32.58828887970737 41.620271568781135 38.272308336316897 8.472217966439608 38.082590011089842 6.9810308147082845 10.793129158448711 21.202047555127418 38.666576043512691 4.8718090413228046 5.4655516771305823 26.170888555202101 236.69438581061277 183.8776859246947 29.751699754441219 3.1528897321622944 7.5223275119964708 8.7983823964655663 -9.9710076814439272 25.19088953536102 6.3207718447655639 5.0889605281530716 0.6854789227055581 -1.0434017196081895 -14.468101106710694 3.6106036761680742 -11.995977485816487 -12.818891239233222 -8.8124850054578818 -7.8116106150722171 -11.354657909005381 -4.8951775859894244 -13.691977133668921 -6.3296751707482697 -7.0392070583232451 -1.5518838037887879 2.2735616786198274 2.1710462530242745 -10.831399428979601 -0.38796877807110897 2.5212120478240516 -4.401440894006627 -1.6958319458055366 -2.7657838623525217 -2.9686405478069711 -0.22360257036822756 15.790918260930694 -0.066746047889802596 -3.1537408159850591 2.1619440957555267 -165.39309021140409 -1.6860917500259842 -17.424464843542097 -3.9130784087520363 -8.8799732556344946 -2.8623697039701623 -6.609155283753144 -2.1030512804011603 0.10301764243470009 0.84791666101854168 -10.594152116563487 -2.3137735611013692 0.47192434083339413 -38.256941091895911 0.081749211396142343 -7.2165170804221628 -21.084728029253128 -3.2263029389457643 -17.417816792788262 -27.450123900992146 -14.781231367817922 -14.237898950478233 -6.8639026697655163 -3.6598535272929911 0.16022931944653615 -1.0686538238442975 -0.35524029632596815 0.83984146263794712 -60.692270626031309 -0.030239864983108246 1.869411848684521 -4.07598356958803 0.070576063984809728 20.379669564757609 -0.60915691008913797 0.36858537970227684 -14.973726512625577 6.5898408040074843 -0.85567575274283658 -5.6742599564742191 -10.130180106200164 -39.316517826905695 -30.794177401534061 -14.43207220676209 -0.45446225904726223 -0.47942318250078958 1.9253110504471844 12.051748509000518 6.2625147897200577 -2.1592270300899421 1.6342063961379303 -47.603717473433065 -3.6888631315091822 -22.411170538692517 -29.876033955667939 -9.3881299953378683 -29.209478216087604 -34.729598902634152 -28.412175641370091 -24.295923768859687 -10.603751442375343 -9.4908731528902504 -1.2203094159248951 0.61328462857471233 1.0913388719980146 2.0573716829736894 -2.1918928322836471 1.1192726190980862 -14.571344180976512 11.839731571668853 -0.65980628198504865 94.858486314289465 -11.394709746856934 3.6892395092901773 -0.72704949888831027 1.489203968808847 0.63875887821609689 4.6045805143350798 -26.505635852010226 -92.339729000023198 -12.834285966036196 -45.702536503172112 -2.8248112565392374 -3.0403733721385695 -0.13954854569563535 7.9398233623583181 6.9553491498309032 10.02918481817316 1.8012364886163224 0.047129885530161481 -2.8091033551870073 -10.90426791358891 -0.44931797315842742 -40.267763270896836 -24.778041182704342 -31.942483508781521 -7.9502679648521788 -4.5046359458982339 -1.344256848760004 0.33283206363854922 6.7666705530331601 -1.024795094151852 0.26200181166761027 -5.9069274323628971 -0.96796388876959427 5.1597333359310982 -26.872893927441488 0.41660436791209299 13.218930510927397 -3.4086987953610035 0.1963536304978595 -16.029046082323532 6.298309024739762 0.065548102939389175 -0.33760461657542973 18.311264846354611 -5.0342356337119787 -23.988601437137522 55.182404113883429 0.39547881217537956 0.081607835728726277 0.92480831625456639 10.983205072415529 8.7959718500644559 1.8623920055808987 5.3033879518392322 2.7778863483007163 2.9093353757629803 2.6728516278259375 0.021243019038125324 0.0089854619490662598 0.093807057964869156 1.5638838626687455 0.84857680918229794 2.3995460865935114 1.7389488572774749 32.341395008063884 -31.976742624377593 -3.6529503838345962 31.266036645227867 58.552093951443325 53.654792915773321 44.452758570453796 2.9720486492536775 111.84274311708982 4.9168259784034953 -7.0723325730098656 30.074801035514639 42.37308389338758 27.441209816617128 50.550620403485532 38.152063770369551 21.12878590303011 14.672606600866061 45.831377565471669 2.1814675069012694 2.9747041278660999 4.6250145408038668 11.873625567807608 20.098861960038153 -3.1551597052343996 -0.9468024767251968 -3.1163499445884835 1.5144765032626955 30.144402087769013 23.891082358393341 25.264503600667325 6.997342784920626 -9.1514472841461743 -6.8311947927063645 0.017202796308680494 -0.91094369921187546 -0.24501377690726875 1.1188833637947231 -1.5236147528078603 -0.23923054026883667 1.6317666033145941 7.2148386418497168 -0.074093214684321548 1.5613546536742202 0.82004118297742012 0.69059552468885865 -2.5395369100603866 1.1664747023958479 -0.69227915003492124 7.8972419150436428 7.7527995472022466 -10.316800332993493 -8.3873453063586378 -4.9961354002521254 0.19995256840262765 0.11197047200945123 -0.57307107768913246 -0.87545459457297659 18.525820270511492 -50.974453069763356 -2.6368308458246599 0.032106031188771561 -6.9464850370595483 -3.1059695851569753 -5.3540994185180733 1.9428085638204011 -5.5508613306536185 0.34641263156331764 0.38321599974340032 10.171015159565385 1.0973904689105562 -1.0766312812250431 18.479611190286992 -0.27027331039721697 10.798101607635498 27.771621371472293 0.0147826526359772 80.86189975008952 0.018356023119158984 7.1670448670907501 12.108484571521382 16.252731256766982 11.26997682321714 36.704837924905959 22.445425243424726 73.562670371412779 51.326007561613842 0.62418424394061356 4.4608579776657216 0.17164608741637616 7.7294259671051568 12.300886813978281 33.806079564558814 14.088911205607495 1.0565483314801198 -3.3433962614261676 -6.2604774226176199 -4.5825529881452152 -0.42488456721114837 0.61814234637886323 1.6419726142513336 1.8620939109886658 16.872346970159217 5.6087703365199699 20.495287416949012 21.754387478777325 32.061230507787734 36.336429924451032 32.44374892340668 2.8964427537308488 24.074073147739931 5.1104432413477774 8.7782403295036708 37.96361478294007 23.835672293159114 16.195794251123171 58.602417033137989 45.352932656290356 90.012194240854726 74.514390788606619 36.001293217729419 2.1058768750374921 2.4749509790340642 4.1011833611665409 4.0311695543219583 2.5010656711962804 -4.3867760269042417 -4.6571642378407399 -2.231459549368616 -1.3471283246624091 4.540170128269291 1.3542242558053812 0.31186945450276549 2.4865686918732735 9.4908801318776774 6.6292110568466462 -0.55922764349501852 13.223933524011054 8.1792208163324194 15.904336353889823 16.887531121894295 0.021782297091900132 45.72006650584899 0.015297158142676102 3.2828711475773296 4.5432831236535662 32.595318618896755 5.5532582110946036 27.669993382442243 19.169525409937016 26.716981264724623 -14.071705383562096 -1.9168078108950124 2.8341096153459975 1.5947573125581738 7.1495562974028291 -7.1005037810896976 36.723293072887323 -69.179646369531156 0.10211402380539161 0.27307609003712907 1.3700318926472184 0.68900905918299737 2.9456514601091706 1.9228262122604769 4.484896303858636 8.4488646607301607 45.967515033408993 24.775301525459195 40.934490193619801 24.685899581202445 36.184938766239682 13.476131385133668 50.261717754581028 9.5843358398488228 15.794826718124591 38.752627414236308 18.102545061495817 13.916965905386901 71.921062739121155 52.524226045635572 88.593451313369684 165.72264530786637 56.438966001902543 8.4086949322284603 6.6200210467801952 7.8394563503037444 27.227772725041 31.263512311231878 25.851469162220532 -0.0054537680263853578 -1.4517324997655079 0.19425377515289877 2.3118032548916894 6.5091582279405964 12.760827433404469 3.9223752812411949 30.288868195139962 14.801377902670254 35.869555529988872 26.60219589200069 53.673570954988186 15.374738872257291 153.87857506465582 8.5248384207513475 22.100605527309437 35.484240381494011 23.175545515587295 6.2139113091922606 12.485115190701428 46.232881399238501 33.671449075777559 32.060115041841073 44.700225771592017 17.547755427408241 7.3116444353505665 14.969211307131999 20.645080084376417 53.884274194442881 44.879895416757243 0.70057285835616967 0.49153491493351031 1.6034506365860861 -0.44902157535955245 27.754727338215403 -14.242088518003737 -11.905625602697679 8.6225173704342417 17.473646251042705 12.699803906648951 46.165889668215165 4.6733506626699928 12.7276604978895 11.080116768810861 -27.199733914633743 13.286810186683935 95.343643195502196 12.716104538318962 38.687607511573333 52.512642091386084 47.468665868152684 110.27091473361357 43.716137792966848 4.7296682647422639 3.9114312489345568 10.311031947869143 11.592155186800603 15.656390852954338 5.3322611297167235 0.49542924752341555 0.03128305945339719 -0.019652215848533553 14.187371275207198 7.0905117481703952 -0.60774178008121149 30.297628977964344 21.458860131850692 32.443781596853334 23.878137162502131 -1.8559941084612062 41.119112048416255 4.7412983302264236 4.5902062829275216 25.371103301770006 21.002783998896764 9.2404772617010202 37.813081219580525 32.50083443217374 9.9298248334898211 71.45621668426611 26.198614716592036 -0.35795193785339657 1.0225312853247086 1.8398955314482732 -111.66862803143572 38.419928994497113 3.047589466672028 -5.3830860001182446 4.4260710290051746 9.6936907553272249 7.7412817000546728 6.6528557625391986 17.842041864219283 9.2482949729842119 57.207074018681496 15.05890041810982 -20.923062816221279 53.640609905577094 1.7254792520207387 5.9053516590119797 12.298649444030962 47.251280466138127 10.553913685401046 26.491408147820742 21.370821293011961 4.472261611250719 63.444103545494443 -0.48338158350033678 -4.1794939465667236 3.4561408962747175 3.1419356836797205 -29.267427851797283 71.485310701125613 17.471834190014384 0.20346845814660927 6.1778242910686192 5.8521658741841858 4.2685892001789894 16.088408763110536 8.0688033577758738 15.952529534699943 19.698357883073623 -8.369764903287944 -1.6316235000129209 0.34451773177760303 5.0323083932222827 14.974452153537857 25.334922247532514 5.0557908139819769 24.859804775733362 23.210331011409036 61.548587293105243 54.047073268978721 7.4168472174084208 5.3032107460311835 11.269637112146007 3.2934216447013833 45.848632423390157 36.40419171438058 20.779393816454721 0.41209052047129019 0.30653685392639368 -0.02285170117627186 2.6657284817535047 0.46219362076241505 26.09598849567907 5.9186171014758999 0.2058259818088542 2.0639216800587272 -2.3530569744439975 -0.083471159643709963 1.3869930094770166 -4.3046107593565681 0.8103558567261111 7.106085708807262 2.2711851744692786 0.89692878574834112 2.6577132311576679 -6.6319661794396465 0.33144805130933785 0.23807740483113082 -1.2279815782683834 -9.4061280202837807 46.204165439117332 -15.076067534476998 0.52331427896103799 -8.6163664372595186 -15.884441812857457 0.16679964875418163 -2.1758837897806389 -3.6036331439723011 0.16712839393291171 -9.5091363650881604 -4.9086719476489735 2.0529904609815848 -1.0419349908679825 -2.3134062364790626 -0.2386028588770715 -3.9784661298805712 3.9642756413673621 -30.746391296953359 -3.2906636754148937 -41.065410628686699 -2.3617378629956249 -2.3929043303918167 0.26176448826524684 8.4742717379587926 5.5815863689496439 -13.409901510418326 5.0185899431867318 -4.9156951305217964 -0.083145655165763957 28.800978417977976 -8.9396072629502861 -0.6510461488131627 -10.490587187644076 -6.7898766394306334 0.99718752522827681 -9.315049609795091 4.0677876002251399 -0.58253829291442638 -0.21580581597574994 22.328460686718117 8.6451811153940596 -9.0434869546327317 -2.5197613401678738 -1.3334340405488196 -1.3716168766786971 0.32230453834074291 9.0596302748987743 9.4452658469046646 -1.3587335327888506 6.7210591608781796 -1.1859970294036899 23.524499506817676 25.997196829146787 -0.52698070342859071 8.8518689926622898 -0.95320508088930933 -0.31294157739036926 17.261677991267412 21.664867371746364 9.9366670178364132 39.160081378542323 11.86076970073119 -10.956790577460135 -6.3131835564574477 -2.3045839626250801 0.2811069309815486 -0.041764186629976337 2.6781380617404893 21.617398636908902 11.572721096601603 -7.3525475460870071 28.215765476022554 -3.6081881059134528 -0.74666893620076213 -5.8725388184882075 -1.5637800795004184 6.9875087364091648 15.082616105758136 0.8889881517834316 -2.0846545567213828 16.159444749668001 -8.6656259952238308 -0.75831679272515629 -16.574256516210941 -1.6698361784117837 -6.4810841644016381 -7.9940254327967484 -5.9186417768731623 -4.2501471657423764 -0.97399532423654167 0.35126998213052862 -10.796821309195575 31.409234791378832 19.218525646468159 0.07404801100721177 -30.428362832202808 0.34490641667490318 1.2253475487049978 -21.166762584126982 23.229592602595208 -0.57447843654834441 -14.869984899703745 -0.13379024144845919 -32.331634691819445 -25.606247760978913 -9.4725406312170914 -0.91800937004848837 -1.7500709123561198 1.2830509235873442 8.493073577531657 10.048928428985317 4.133006889491023 7.7451489382362659 3.9617897134471267 1.0980941802144215 -7.3685831171425944 -11.440527903393939 70.763738729323066 2.3918953807395669e-16 6.3667271608391083 1.1859755627768196 7.2855540000715289 1.0165765591440032 1.089812802380802 2.3918953807395669e-16 17.791983859222274 4.9349552595538846 10.299308898753097 14.108193157759292 20.744158294650379 2.3918953807395669e-16 -4.0195414760851227 -1.4355723350088367 9.7754448505137255 -11.552475158614969 1.6207028838106674 -8.4496430993578038 -1.1578043579177497 -1.6271941064045601 -0.0044609257324309997 -1.4763959948728482 -1.5301423133431298 -34.724802778062305 -6.612466757364805 -6.2794413646035503 -5.2157439143712629 0.0078223165591870172 0.035297198060223391 -58.459502901164676 -2.0076050472954035 -1.4835255300183039 -0.049032088675228604 2.2986632383298562 -4.2308936406485715 1.1474070873621049 -9.1403429318197968 5.0629054791126205 1.389225382089365 -0.14954192354798529 -6.5956883240622579 0.80775060493028039 0.25510928634661817 -5.0365697961814213 -51.369370480784745 18.742209790265132 24.703052708072036 134.28536866997061 2.1574557567206858 11.731885082544027 -1.1070429844605958 -3.3556269249663622 -0.017665758500779932 1.23470096598799 -0.0018561539211606316 -0.015232304415462871 -1.0885875494722559 -20.486911707493576 -17.737164101604222 -10.944174485882478 2.0330481092647843 2.6331969607414196 -1.2418275248959061 0.53475183098942258 -3.8121053408481105 -2.192258651999794 2.1402844684718878 3.9744741349740291 -41.316286488593803 -30.430984040189909 -2.8820814766269454 0.0057240240581294564 1.4282457661553962 1.4538082985077267 3.0673802844186868 10.091789982978455 14.270419403414284 -1.6961476084045413 6.3315408946844043 8.4827973186687498 -1.3740634417431894 -13.567349485425483 4.9356702119688736 -13.832388710818076 -9.784609530544218 7.7823727596870862 -0.11990086385434219 -0.19077971665668919 1.7436778385395186 6.8856226728424579 4.9086397367900432 -17.574163255996229 -35.826376926082801 1.2524622828910532 -6.8997505863713364 -1.6985401426532221 -22.666787858667462 -6.6166300346853673 -54.931245533638389 -2.9930138710192615 -3.7876484767014653 -2.1686988059707932 -1.7270538523175112 -0.078817738991641725 -5.1828993731438642 2.7907816533420973 1.2329299783847021 8.9701373517957741 1.0312404439874678 1.1090156254692078 2.3918953807395669e-16 20.663060111015429 4.7736177474606443 11.154610818654467 13.790933186088512 20.901441525805009 2.3918953807395669e-16 -1.7962575394753153 -6.6982420863807715 -55.531634175006083 -6.2781540097247275 -11.420434773206557 -1.9012751759185789 -2.1946368602455686 -0.068252362121557497 7.2399119809810113 6.7020453446360637 -13.04977291573897 1.3475011849990348 0.0019156215459928583 0.0010256069996697169 -1.0937083254642044 -15.936884030115046 4.385982723552206 -11.530882822524362 2.4536777611694669 3.3959014158899055 -1.2484650404849431 -1.2079381955851849 -1.3792232109887603 -31.252166177676369 -8.8825128417023596 -11.661294539028974 -9.6224839281189105 0.051733613446714781 0.095884352449170984 -13.247070249390219 0.0070288873678094254 -0.97341089598621433 -24.29673159528733 -21.993911552072394 -15.24756430861024 2.1054387369626788 2.7336995657837351 -1.1480900843324624 -1.0357106783891061 15.627601475354094 1.1919849692934033 -15.188077426469944 1.9814285101232612 2.5633136972272923 -1.1555899011494071 20.303347159486272 4.4715424427070243 12.755703434473354 15.152549574761673 21.793784048188691 2.3918953807395669e-16 -0.056417449785014395 -1.2661822112355323 -30.237623892118304 -3.6378031726873861 -8.357929369375233 -2.529481661053175 -38.590156840427703 -1.6375787400261763 -5.7192725512467719 -7.9871046862595616 -4.3336035489369475 -28.981054054257303 0.02766525161626076 -6.1886213674948207 -14.448795005825911
nr_sv 25 31 5 9 6 10 35 9 16 25 16 36 37 37 22 24 18 9 7 8 11 4 8 1 3 9 2 16 10 5 1 7 2 3 2 2 1 10 10 7 3 3 1
SV
1 0.68287392624705401 1 1 1 1 0 1 1 0.2516042126838528 1 1 1 1 0.53485795899056532 0.38946116775486206 0 1 0.25780324413057426 0 0.82003556684203838 1 0 1 0 0 1 1 1 0 1 0 1 0 0.42699890363464271 0.60032698126778672 0 0 0 0 0 0 1:-1 2:-0.64 3:-0.86437 4:-1 5:-0.37037 6:0.155011 7:0.283213 8:-0.461594 9:-1 10:-0.583969 11:-0.425532 12:1 13:-0.82064 
1 0 0 0 0.61155911261701179 1 0 1 1 1 1 1 1 1 1 1 0 0 0 0 0 0 0 0 0 0 0 0 0 0 0 0 0 0 0 0 0 0 0 0 0 0 1:-0.996207 2:-1 3:-0.596774 4:-1 5:-0.530864 6:-0.0783675 7:-0.437693 8:-0.505733 9:-0.652174 10:-0.648855 11:0.404255 12:0.9825 13:-0.536424 
1 0 0.44525576343327189 0.29685899656369147 0.37177061771067937 1 0 0 0.23027085612659734 0 1 1 1 0 0 0 0 0 0.48924296031052628 0.65062035788967254 0.61879829604517378 0 0 0.35675441781263084 0 0 0 0.63001054519882349 0 0 0 0 0 0 0.18439191833376123 0 0 0 0 0 0 0 1:-0.99656 2:-1 3:-0.527126 4:-1 5:-0.740741 6:0.0155202 7:-0.92585 8:-0.164983 9:-0.826087 10:-0.824427 11:0.12766 12:0.987695 13:-0.684879 
1 0.36580159542022217 0 0 0 1 0 0 1 0 1 1 1 0 0 0 0 0.4075553194636492 0 0 0 0 0 0 0 0 0.23742649673617663 0 0 0 0.32939805060851679 0 0 0 0 0 0 0 0 0 0 0 1:-0.99968 2:0.7 3:-0.979472 4:-1 5:-0.897119 6:0.0814332 7:-0.324408 8:0.465504 9:-0.913043 10:-0.519084 11:2.22045e-16 12:1 13:-0.777042 
1 0.42984784244879648 0 0 0.076674110011686641 1 0 0 1 0 1 1 1 0 0 0 0 0 0 0 0 0 0 0 0 0 0 0 0 0 0 0 0 0 0 0 0 0 0 0 0 0 1:-0.998158 2:-1 3:-0.241202 4:-1 5:-0.884774 6:0.0944625 7:-0.92379 8:-0.243841 9:-0.73913 10:-0.549618 11:0.404255 12:0.933582 13:-0.724614 
1 0 0 0 0 1 0 0.81035260339691417 1 0.86241399525136464 1 1 1 1 1 1 0 0 0 0.73975641132635339 0 0 0 0 0 0 0.62788305105616782 0.20757447337207349 0 0 0 0 0 0 0.15188134681857515 0 0.029413632042463091 0.085839013116895374 0 0 0 0 1:-0.998367 2:-1 3:-0.0931085 4:-1 5:-0.786008 6:0.0392796 7:-0.936148 8:-0.432222 9:-0.652174 10:-0.194656 11:0.297872 12:0.990015 13:-0.721302 
1 0.31978191216201901 1 0.13856896140581654 1 1 0 0 1 0 1 1 1 1 0 0 0 0 1 0 0 0 0 0 0 0 0 0 0.86975016777036629 0 0.42689783955567295 0 0 0 0 0 0 0 0 0 0 0 1:-0.99932 2:-0.5 3:-0.677419 4:-1 5:-0.831276 6:0.0503928 7:-0.396498 8:-0.223217 9:-0.73913 10:-0.641221 11:0.361702 12:1 13:-0.724614 
1 0 0 0.33935396616591124 0 1 1 1 1 1 1 1 1 1 1 1 1 0.80460829797284661 0 1 0 0.51938784372807112 0 0.26549829830812932 1 1 1 0.0093573038849367601 0 0 0 0 0.31022196314366507 0.037400769038181632 0 0 1 1 1 0.5740026054279459 0.5761596918802776 0.14076284584657922 1:-0.969956 2:-1 3:0.40176 4:-1 5:-0.0946502 6:-0.040046 7:1 8:-0.885841 9:-0.652174 10:-0.175573 11:-0.553191 12:0.783095 13:-0.740618 
1 0 1 1 1 1 0 1 1 1 1 1 1 1 1 1 0 1 1 0 0 1 0.67187702506966285 1 0 0.81332887711673463 1 1 1 0.75707232965831084 0.47713729386884618 0 0.56324069181883385 0.53405585608641892 0 0.082662176403939469 0 0 0 0 0 0 1:-0.998923 2:-1 3:-0.736804 4:-1 5:-0.485597 6:0.0553746 7:0.452111 8:-0.602088 9:-0.652174 10:-0.583969 11:-0.148936 12:0.993444 13:-0.748344 
1 1 0.28157013285270621 0 0 1 0.083214869890214829 0.18964739660308583 1 0.88598179206478245 1 1 1 1 1 1 0 0.92977430706517417 0 0 0 0.36565507768087779 0 0 0 0 1 1 0 0 1 0 0 0 0 0 0 0 0 0 0 0 1:-0.999368 2:0.65 3:-0.884897 4:-1 5:-0.876543 6:-0.00325733 7:-0.268795 8:-0.0651184 9:-0.913043 10:-0.385496 11:-0.553191 12:0.984215 13:-0.68543 
1 0 0 0 1 1 0.80314943819946893 1 1 1 1 1 1 1 1 1 0.21066553385351505 0 0.46289305403468145 0.7332092956970756 0 0 0 0 0.75068291557163247 0 1 0 0 0 0 0 0 0 0 0 0.027813072939243292 0.13424017144530082 0 0 0 0 1:-0.994979 2:-1 3:-0.257331 4:-1 5:-0.572016 6:0.05959 7:0.0216272 8:-0.413417 9:-0.73913 10:-0.656489 11:0.276596 12:0.989762 13:-0.490066 
1 0 1 0 0 1 1 1 1 1 1 1 1 1 1 1 1 0 0.83451173668033418 1 0.60738532700673775 0 0 0 1 0 1 0.91092947871491059 0 0 0.5256673389271882 0 0 0 0.81913753031575287 0 1 1 1 0.83886451882710444 0.8069202577036324 0.24629580259861278 1:-0.997088 2:-1 3:-0.257331 4:1 5:-0.572016 6:-0.0408124 7:0.15757 8:-0.434459 9:-0.73913 10:-0.656489 11:0.276596 12:0.921428 13:-0.286424 
1 0 0 0.35627286169396388 1 1 1 1 1 1 1 1 1 1 1 1 1 0.20661753812808162 0.58334421804098602 0.2329996601419371 0 0.52809698853188203 0 0 1 0 1 0.23686127438311305 0.50199878419938992 0 0 0 0 0 0 0 1 1 1 0 0 0 1:-0.988071 2:-1 3:-0.579179 4:-1 5:-0.510288 6:-0.0726193 7:0.342945 8:-0.537706 9:-0.391304 10:-0.541985 11:0.0212766 12:0.90645 13:-0.452539 
1 0 0.61518349840653519 1 0.85178977543373879 1 1 1 1 1 1 1 1 1 1 1 1 0 0 1 0 1 0 0 1 0 1 1 0 0 0 0 0 0 0 0 1 1 0.38608060352811346 0 0 0 1:-0.992714 2:-1 3:-0.579179 4:-1 5:-0.497942 6:-0.0323817 7:0.207003 8:-0.541271 9:-0.391304 10:-0.541985 11:0.0212766 12:0.898381 13:-0.495033 
1 0 0 0 0 1 0.013960012178546515 1 1 1 1 1 1 1 1 1 0.80042556427488443 0 0 0.17029413423092651 0 0 0 0 0.13496740597891688 0 0.39065698224389278 0 0 0 0 0 0 0 0 0 1 1 0 0 0 0 1:-0.992503 2:-0.56 3:-0.604106 4:-1 5:-0.8107 6:-0.0239509 7:-0.340886 8:0.25961 9:-0.478261 10:-0.454198 11:0.382979 12:0.96611 13:-0.589956 
1 0 0.69632587510608523 0 0.38844088738298821 1 1 1 1 1 1 1 1 1 1 1 1 0 0.29462087432055861 1 0 0 0 0 1 0.081577259891808862 1 0 0 0 0 0 0 0 0 0 1 1 1 0.031650004315953703 0 0 1:-0.996447 2:-0.56 3:-0.604106 4:-1 5:-0.8107 6:0.100594 7:-0.0484037 8:0.217961 9:-0.478261 10:-0.454198 11:0.382979 12:0.888093 13:-0.570088 
1 0 0 0 0 1 0 0 1 0 1 1 1 1 0.56101205089985606 0 0 0 0.44725291080967994 0 0 0 0 0 0 0 0 0.4056007330599678 0 0 0 0 0 0 0 0 0 0 0 0 0 0 1:-0.996988 2:-0.56 3:-0.604106 4:-1 5:-0.8107 6:0.121288 7:-0.791967 8:0.139794 9:-0.478261 10:-0.454198 11:0.382979 12:0.996873 13:-0.769868 
1 0.018657129109279677 0 0 0 1 0 0 1 0 1 1 1 0.40977135666822062 0 0 0 0 0.30121728631636191 0.68399868101219363 0 0.2488984222797524 0 0 0 0 0 1 0 0 0 0.84955568492221667 0 0 0.15881957098990038 0 0 0 0 0 0 0 1:-0.995329 2:-0.56 3:-0.604106 4:-1 5:-0.8107 6:0.10251 7:-0.876416 8:0.139794 9:-0.478261 10:-0.454198 11:0.382979 12:0.899995 13:-0.897351 
1 0.10733424518150682 1 1 1 1 0 1 1 1 1 1 1 1 1 1 0 0 1 0.4854573135071707 0.081770441040944247 0.40827225524702837 0.32812297493033715 0.15703627719568761 0 0.049937721720657628 1 0.13745356514376583 1 0.24292767034168916 1 0 0 0.37501248734395631 0 0.14813058970763529 0 0 0 0 0 0 1:-0.997566 2:-0.6 3:-0.52346 4:-1 5:-0.674897 6:0.140832 7:0.149331 8:-0.492966 9:-0.826087 10:-0.862595 11:0.276596 12:0.990216 13:-0.668874 
1 0.075703349431121919 0.19716717652268909 0 0 1 1 1 1 1 1 1 1 1 1 1 1 0.65144453737024843 0 1 0.64879666464835806 0.43274985584785552 0 0 1 0 1 1 0 0 0.41399960868582608 0 0 0 0 0 1 1 1 0.54953339329573025 0.51164684248915471 0.049312243873586667 1:-0.999176 2:0.05 3:-0.643695 4:-1 5:-0.917695 6:0.151178 7:-0.588054 8:0.125335 9:-0.565217 10:-0.59542 11:-0.148936 12:0.873014 13:-0.57064 
1 1 1 0.86894521417061688 0 1 0.52181380523252763 1 1 1 1 1 1 1 1 1 0.4802494113419471 1 0 0 0.22321370441674779 1 0 0.22071100668355215 0.34923901805857593 0.0083393643732127404 1 0.41342740222704655 0 0 0.8268998683539498 0.45334374184435505 0.90542097082161666 0.48316907058035802 0.038489684803831775 0.16888025262063852 1 0.95906062389934521 0.1269858336244846 0 0 0.059641272626705114 1:-0.999149 2:0.4 3:-0.869501 4:-1 5:-0.938272 6:0.268442 7:-0.0834192 8:0.218198 9:-0.652174 10:-0.347328 11:-0.531915 12:0.96954 13:-0.760486 
1 0 0 0 0.73261328933232095 1 0 0 1 0 1 1 1 1 0 0 0 0 0.73576981276690978 1 0 0.49693955668453277 0 0 0 0.046816776897586197 0 0 0 0 0 0 0 0 0.22028104510353605 0 0 0 0 0 0 0 1:-0.995829 2:-1 3:-0.492669 4:-1 5:-0.555556 6:0.0998276 7:-0.756952 8:-0.220453 9:-0.652174 10:-0.618321 11:0.489362 12:0.983761 13:-0.815121 
1 1 0.76449755367871219 0 0.96715220751157438 1 0.38101131269871102 0 1 0 1 1 1 0.98413420668338258 0.69727603512764214 0.26503879002834352 0 1 0 0.3036641461946708 1 1 0 0 0 0 1 0.59799082981089613 0.62825104803024379 0 1 0.69710057323342822 0.22111637421588448 0.57036181695108512 0 0 0 0 0 0 0 0 1:-0.999805 2:0.6 3:-0.886364 4:-1 5:-0.794239 6:0.178003 7:-0.447992 8:0.312079 9:-0.73913 10:-0.645038 11:-0.0638298 12:0.969943 13:-0.764901 
1 0 0 0 0 1 0.19685056180053095 1 1 1 1 1 1 1 1 1 0.50865949052965354 0 0.5933439025893873 0 0 0 0 0 0.76511066039087483 0 0.74403346996376274 0 0 0 0 0 0 0 0 0 0.94277329501829366 0.82086019153845857 0.48693356284740186 0.22114243502772055 0.23781959069935282 0.08612669764090182 1:-0.998355 2:0.2 3:-0.909824 4:-1 5:-0.893004 6:0.156543 7:-0.320288 8:0.742437 9:-0.73913 10:-0.145038 11:0.212766 12:0.868274 13:-0.792494 
1 0 0 0 0 1 1 1 1 1 1 1 1 1 1 1 1 0 0 1 0 0 0 0 1 0 1 0.45079439420446626 0 0 0 0 0 0 0 0 1 1 1 0.78480704310554528 0.86745361722758241 0.41786113741361441 1:-0.993857 2:-1 3:-0.323314 4:-1 5:-0.176955 6:-0.0936961 7:-0.182286 8:-0.772281 9:-0.565217 10:-0.221374 11:0.404255 12:1 13:-0.345475 
-1 0.067657445892806062 1 1 1 1 0.031496326832958381 1 1 0 1 1 1 0.27178916873138437 0 0 0 1 0.40818821615355194 0 0 0.86762587082366349 0.53426391546032836 0.57779950463399754 0 0.14567192505337379 1 0 1 0.5649319876062755 0.66012308056070013 0 0.63458194372383325 0.17652934793252034 0 0.61172828445266481 0 0 0 0 0 0 1:-0.999528 2:-1 3:-0.515396 4:-1 5:-0.654321 6:0.0959954 7:0.565396 8:-0.302076 9:-0.913043 10:-0.790076 11:0.106383 12:1 13:-0.59106 
-1 1 1 1 0.42956416215119136 1 0.14319054077827884 1 1 1 1 1 1 1 1 0.71955431643202306 0 1 0 0 0.89049019315869082 1 0 1 0.6548974972604038 0 1 1 0 0 1 0.18866885345039947 0.38098788919262055 0 0.37062217216901494 0.1840354530363007 1 1 0.8293081659579371 0.5207782785103644 0.22778212434877987 0.066843008456343667 1:-0.998034 2:-0.75 3:-0.456745 4:-1 5:-0.427984 6:-0.107875 7:-0.256437 8:-0.214088 9:-0.652174 10:-0.526718 11:-0.446809 12:0.967724 13:-0.228477 
-1 0 0 0 0.20834902098466504 1 0.34957185829931997 1 1 1 1 1 1 1 1 1 0.78288311710219594 0 0.45257941089621156 0 0 0 0 0 0.39501094158204708 0 0 0 0 0 0 0 0 0 0 0 0 0 0 0 0 0 1:-0.977607 2:-1 3:-0.43695 4:-1 5:-0.37037 6:0.192949 7:0.738414 8:-0.434495 9:-0.73913 10:-0.541985 11:0.787234 12:0.915931 13:-0.434327 
-1 0 0 0.42291479389883091 1 1 0 0 1 0 1 1 1 0 0 0 0 0 0.81922741526181442 1 0 0.15014049901925725 0 0 0 0 0 1 0.96883792949752601 0 0 0 0 0 0.20514309991026924 0 0 0 0 0 0 0 1:-0.998341 2:-1 3:-0.596774 4:-1 5:-0.530864 6:-0.12282 7:-0.204943 8:-0.489929 9:-0.652174 10:-0.648855 11:0.404255 12:1 13:-0.611479 
-1 0.89249873618970088 1 0.31072070747053704 1 1 0 0 1 0 1 1 1 0 0 0 0 0 1 1 1 0.83648737257195938 0 0 0 0 0 1 0 0 1 0 0 0 0.35317623921457386 0 0 0 0 0 0 0 1:-0.997384 2:-1 3:-0.527126 4:-1 5:-0.740741 6:-0.0388963 7:-0.235839 8:-0.164983 9:-0.826087 10:-0.824427 11:0.12766 12:0.962126 13:-0.568433 
-1 0 0 0 0 1 0 0 0 0 1 1 1 0 0 0 0 0 1 1 0 0 0 0 0 0 0 0.57067818552051852 0 0 0 0.59244518794822709 0 0 0.2601079447321748 0 0 0 0 0 0 0 1:-0.996573 2:-1 3:-0.241202 4:-1 5:-0.884774 6:-0.0802836 7:-0.699279 8:-0.243841 9:-0.73913 10:-0.549618 11:0.404255 12:0.899339 13:-0.550221 
-1 0.4907741442040775 0 0 1 1 0.24689232531006131 0 1 0 1 1 1 0.61132111236695164 1 0 0 0 0.24568183293167972 0.89220526223228425 0 0 0 0 0 0 0 0 0 0 0 0 0 0 0 0 0 0 0 0 0 0 1:-0.998004 2:-1 3:-0.0931085 4:-1 5:-0.786008 6:0.0442614 7:-0.132853 8:-0.386554 9:-0.652174 10:-0.194656 11:0.297872 12:0.931061 13:-0.602097 
-1 0 0 0 0 1 0 0.6232141546444675 1 0 1 1 1 1 1 0.50586461649935455 0 0 0 0 0 0 0 0 0 0 0 0 0 0 0 0 0 0 0 0 0 0.51129289322715221 0.19292050417991 0 0 0 1:-0.998873 2:-1 3:-0.0931085 4:-1 5:-0.786008 6:0.0235677 7:0.046344 8:-0.293528 9:-0.652174 10:-0.194656 11:0.297872 12:0.947047 13:-0.414459 
-1 0.1092518099320605 1 1 1 1 0 0.54124998909808408 1 0 1 1 1 0 0 0 0 0.78793401196072954 1 0 0 0.43339809505498766 0.46573608453967158 1 0 0 1 1 1 0.43506801239372456 1 0 0.036741470841059207 0.14560200582780142 0 0.038008331404499329 0 0 0 0 0 0 1:-0.997556 2:-1 3:-0.821848 4:-1 5:-0.753086 6:-0.00287411 7:0.373841 8:-0.56977 9:-0.913043 10:-0.660305 11:0.148936 12:0.974431 13:-0.469647 
-1 0 0 0 0 1 0 0.41406699114919582 1 0 1 1 1 1 1 1 0 0 0 0 0 0 0 0 0 0 0 0 0 0 0 0 0 0 0 0 0 0 0 0 0 0 1:-0.997716 2:-1 3:-0.406158 4:-1 5:-0.444444 6:0.00938877 7:0.0607621 8:-0.700243 9:-0.652174 10:-0.248092 11:0.765957 12:0.982803 13:-0.378035 
-1 0 0 0 0 1 0.67192150057943956 1 1 1 1 1 1 1 1 1 0 0.070520772708708906 0 0 0 1 0 0 0 0.29004810943659698 1 0.045544454455862762 0 0 0 0 0 0 0 0 0 0 0 0 0 0 1:-0.997184 2:-1 3:-0.299853 4:-1 5:-0.333333 6:0.00210768 7:0.433574 8:-0.708918 9:-0.565217 10:-0.0648855 11:0.106383 12:0.981845 13:-0.431015 
-0 0 0 0 0 1 0 0.56452738702874239 1 1 1 1 1 1 1 1 0 0 0 0 0 0 0 0 0.41209945120504776 0 0.012548722110877597 0 0 0 0 0 0 0 0 0 0 0.079802488555657053 0.19563168625614286 0 0 0 1:-0.996343 2:-1 3:0.846774 4:-1 5:-0.193416 6:-0.0707032 7:0.761071 8:-0.842992 9:-0.913043 10:-0.996183 11:0.382979 12:0.940088 13:-0.278146 
-0.72973124812267798 0.020556023553425642 0.22488554291552787 0.45144361601432115 0 1 0.191212690336522 0.7642795935709592 1 1 1 1 1 1 1 1 0.97247378918374605 0.91878516113278397 0 0.39692546888619751 0 0.36123780682011647 0 0.33839168400034031 1 0.37298696585386099 1 0.15465579365470392 0 0 0.10000420513111506 0 0.28508564963727745 0 0 0 1 1 0.71033067458513366 0.070287944747432857 0.067425067227821128 0.00053096915933461154 1:-0.962903 2:-1 3:0.40176 4:-1 5:1 6:-0.0185859 7:0.944387 8:-0.911175 9:-0.652174 10:-0.175573 11:-0.553191 12:0.878461 13:-0.317329 
-0.49795581152962537 0 0.26717324527838793 0 0 1 0.16666492550517362 0 1 0 1 1 1 0.3197667531588721 1 0.74911096666378241 0 0 0 0.031217671157573346 0.45783628898990647 0 0 0 0 0 0.42689385295299276 0 0 0 0 0 0 0 0.020213837810504644 0 0 0.092360436878782828 0.018284809223070634 0 0 0 1:-0.99622 2:-1 3:-0.257331 4:1 5:-0.572016 6:-0.0806668 7:0.837281 8:-0.500314 9:-0.73913 10:-0.656489 11:0.276596 12:0.981593 13:-0.142384 
-1 0.067842439255248854 0 0 0 1 1 0 0.31611544362110722 1 1 1 1 1 1 0 0 0 0.05491313199995905 0.19006357665873377 0 0 0 0 0.10187625348894128 0 1 0 0 0 0.20492147581535974 0 0 0 0.11873611467382368 0 0 0.085643567284394706 0 0.038600183988705385 0.011739068786727959 0 1:-0.997654 2:-1 3:-0.0153959 4:1 5:-0.320988 6:-0.0841157 7:0.872297 8:-0.679964 9:-0.652174 10:-0.660305 11:-0.191489 12:1 13:-0.106512 
-1 0.11259383140257846 0.85650423273875453 0 0 1 0.4751274247333433 0.78203124804164814 0.91007918790754894 0.85358951645056658 1 1 1 0.52420526650579413 1 1 0.19564294640461882 0.47034338589469438 0.89458037611272623 0.42894475164174772 0.075437777846190393 0.21624355095009487 0 0 0.48750255571172385 0 1 0.91402050476370433 0 0 0.58371959685986585 0 0 0 0.46193344271193759 0 0.96515476799776323 1 0.59257424854304763 0.25407792312660815 0.1663994735300853 0.04919488868644506 1:-0.990977 2:-1 3:-0.579179 4:1 5:-0.497942 6:-0.0024909 7:0.820803 8:-0.651102 9:-0.391304 10:-0.541985 11:0.0212766 12:0.991628 13:0.0888521 
-1 1 1 0.77729857438428185 1 1 0.86496118292148017 0.45790614860643908 1 0.38669235404905961 1 1 1 1 1 0.53133471690419443 0.16428413462256936 1 1 0.75372675018521706 1 1 0 0.083808811365662372 0.22753432032061274 0 1 1 1 0 1 1 0.91192355410093096 0.93470365820744672 0.061913263247253977 0.16622793110653505 0.43393670202131185 0.18981492545046069 0.010733076961318679 0.0053200000130232614 0.034521029123782326 0.014836275383615897 1:-0.999059 2:0.6 3:-0.766862 4:-1 5:-0.971193 6:-0.0239509 7:-0.400618 8:0.471451 9:-1 10:-0.51145 11:-0.191489 12:0.979777 13:-0.732892 
-1 1 1 0 1 1 0.50043832112089814 0 1 0 1 1 1 0.93537723750190305 0.0042570268365456796 0 0 1 0 0.95268889573403082 0.56758760950601117 1 0 0 0 0 0.18527669151259477 1 0 0 1 0 0 0 0 0 0 0.10767633404187947 0 0 0 0 1:-0.993417 2:-0.6 3:-0.52346 4:-1 5:-0.674897 6:-0.120521 7:-0.192585 8:-0.39994 9:-0.826087 10:-0.862595 11:0.276596 12:0.958394 13:-0.378035 
-1 0 0.085949954356710268 0 0.35304252577641204 1 0.4506350459089532 0 0.32315946988516758 0 1 1 1 0 0 0 0 0.29156709142156351 0 1 0 0 0 0 0 0.12892687332427016 1 0.71537932504768242 0 0 0 0 0 0 0 0 0 0 0 0 0 0 1:-0.998299 2:-1 3:-0.0131965 4:-1 5:-0.786008 6:-0.0618893 7:-0.188465 8:-0.204667 9:-0.73913 10:-0.610687 11:-0.276596 12:1 13:-0.521523 
-1 0 0.22116962937661697 1 1 1 0.88597269659409328 0.6352195520438696 1 1 1 1 1 1 1 1 0 0 0 0 0 0.68332612297631634 0 0 0 1 1 0 1 0 0 0 0.7155114479236182 0.66484955632857279 0 0 0 0 0 0 0 0 1:-0.994087 2:-1 3:-0.307918 4:-1 5:-0.345679 6:0.036597 7:0.645726 8:-0.612036 9:-0.73913 10:-0.553435 11:0.234043 12:0.982299 13:-0.659492 
-1 0 0 0 0 1 0 0.36058581552958729 1 0.14922790648007875 1 1 1 1 1 0 0 0 0 0 0 0 0 0 0 0 0 0 0 0 0 0 0 0 0 0 0 0 0 0 0 0 1:-0.989454 2:-1 3:-0.307918 4:-1 5:-0.345679 6:-0.0220349 7:0.15139 8:-0.477616 9:-0.73913 10:-0.553435 11:0.234043 12:0.996621 13:-0.392936 
-1 0 1 0.037622308232028945 1 1 0 0 1 0 1 1 1 0 0 0 0 0 1 1 0 0 0 0 0 0 0 0.22311453451560237 0 0 0 0.16337482385511354 0 0 0.032597307211233523 0 0 0 0 0 0 0 1:-0.999252 2:-1 3:-0.653226 4:-1 5:-0.465021 6:-0.0511592 7:-0.349125 8:-0.116897 9:-0.652174 10:-0.858779 11:0.617021 12:1 13:-0.653422 
-0.67182965566040886 0 0 0 0.0090442910877315229 1 0.18804317777693097 1 0.26341840504108288 1 1 1 1 1 1 1 1 0 0 0 0 0 0 0 0.64687340287225159 0 1 0 0 0 0 0 0 0 0 0 1 0.9534465245483088 0.51515088029959333 0.069364252082070324 0.067003019322239857 0 1:-0.913603 2:-1 3:0.293255 4:1 5:0.584362 6:0.0860318 7:0.814624 8:-0.74982 9:1 10:0.828244 11:0.617021 12:0.97196 13:-0.363135 
-0.1780875871545107 0.090431439141687386 0.10874080306566801 0 0 1 0.085699396482499912 0.36111528179914471 0.052788493162144338 0.19450239556205895 1 1 1 0.73018662260661849 1 0.49413538350064545 0.042836328655152585 0.099967950261756075 0.10390388984667577 0.24031695557668606 0.0086481304992012363 0.081986090952896551 0 0 0 0.02213300285907896 1 0.18754560850918131 0.031162070502473983 0 0.11643056577167649 0.025309834352906992 0.035168044580660376 0.031825301130921087 0 0 0.020308751407860974 0 0 0 0 0 1:-0.922042 2:-1 3:0.293255 4:1 5:0.37037 6:1 7:0.647786 8:-0.859033 9:1 10:0.828244 11:0.617021 12:0.786424 13:-0.803532 
-0 0.084544371102001387 0 0 0 1 1 1 1 1 1 1 1 1 1 1 1 0 0 0.29422780596710807 0 0 0 0 1 0 1 0 0 0 0.11678727507684869 0 0 0 0 0 1 1 1 1 1 0.44734571023716435 1:-0.917036 2:-1 3:0.293255 4:-1 5:0.37037 6:-0.462732 7:0.822863 8:-0.88675 9:1 10:0.828244 11:0.617021 12:0.592163 13:-0.322848 
-0 0 0 0 0 1 0.74817258682004728 1 1 1 1 1 1 1 1 1 1 0 0 0 0 0 0 0 1 0 1 0 0 0 0 0 0 0 0 0 1 1 1 0.041571417531795482 0.42513021766056353 0.3171701302853327 1:-0.823918 2:-1 3:0.293255 4:-1 5:0.111111 6:0.0147538 7:0.287333 8:-0.666488 9:1 10:0.828244 11:0.617021 12:1 13:-0.365894 
-0 0 0 0 0 1 1 1 1 1 1 1 1 1 1 1 1 0.024839755768277464 0.020925726797381285 1 0 0 0 0 1 0.04023312347281912 1 0.43279274349680247 0 0 0 0 0 0 0 0 1 1 1 1 1 0.10407901779176371 1:-0.677927 2:-1 3:0.293255 4:-1 5:-0.0576132 6:0.0224181 7:0.752832 8:-0.850576 9:1 10:0.828244 11:0.617021 12:0.931514 13:-0.371965 
-1 0 0 0 0 1 0 0.49580383848786214 0 0.41598782745823609 1 1 1 0.60735383912847596 1 1 1 0 0 0 0 0 0 0 0.17177873402571267 0 0 0 0 0 0 0 0 0 0 0 1 0.77166621702314686 0 0 0 0 1:-0.936786 2:-1 3:0.293255 4:-1 5:-0.395062 6:-0.156543 7:-0.22966 8:-0.460084 9:1 10:0.828244 11:0.617021 12:0.979928 13:-0.520419 
-0.92239569753277706 0.063849759326413458 0.23557659226833438 0 0 1 0 1 0.13443900038294904 1 1 1 1 1 1 1 1 0.3360418708514864 0 0.81968286196042139 0 0.36955459083070791 0 0 1 0 0.37528073342353491 0.75626885003594169 0 0 0.21801380078443414 0.030201300393352896 0 0.046490130572737653 0.11555657831921379 0 1 1 0.9322019636147586 0 0 0 1:-0.91756 2:-1 3:0.293255 4:-1 5:-0.185185 6:0.0542249 7:0.0092688 8:-0.479471 9:1 10:0.828244 11:0.617021 12:0.958243 13:-0.511589 
-1 0 0 0 0 1 0 0 1 1 1 1 1 1 1 1 0 0 0 0 0 0 0 0 0 0 0 0 0 0 0 0 0 0 0 0 0 0 0 0 0 0 1:-0.996246 2:-1 3:-0.323314 4:-1 5:-0.176955 6:-0.17762 7:0.0525232 8:-0.772281 9:-0.565217 10:-0.221374 11:0.404255 12:1 13:-0.432671 
-1 0 0 0 0 1 0 1 1 1 1 1 1 1 1 1 0.84187968403171731 0 0 0 0 0 0 0 0.9024268435332593 0 0 0 0 0 0 0 0 0 0 0 0.58059977857306411 0.20829661299021762 0.0028639903790875949 0 0 0 1:-0.994767 2:-1 3:-0.323314 4:-1 5:-0.176955 6:-0.0580571 7:0.285273 8:-0.767298 9:-0.565217 10:-0.221374 11:0.404255 12:1 13:-0.38245 
-1 -1 1 1 1 1 1 1 1 1 1 1 1 1 1 1 1 1 1 1 1 1 1 1 1 1 1 1 1 1 1 0.22866516657762684 1 0.81558790499634792 0.9027465239971566 0.64972845368870713 1 1 1 1 1 0.15819536990320998 1:-0.999529 2:-1 3:-0.515396 4:-1 5:-0.654321 6:0.388772 7:0.198764 8:-0.302076 9:-0.913043 10:-0.790076 11:0.106383 12:0.979475 13:-0.873068 
-1 -1 1 1 1 1 1 1 1 1 1 1 1 1 1 1 1 1 1 1 1 1 0 0.41806595669093866 1 0 1 1 1 0 1 0.57415862290229747 0.21395357377162566 0.35671362966515796 0.097253476002843384 0 1 1 1 0 0 0 1:-0.999387 2:0.5 3:-0.817449 4:-1 5:-0.823045 6:0.327074 7:-0.734295 8:-0.223145 9:-0.826087 10:-0.751908 11:0.212766 12:0.993545 13:-0.986203 
-1 -1 1 1 1 1 1 1 1 1 1 1 1 1 1 1 1 1 1 1 1 1 0 1 1 1 1 1 1 0 1 0.48231320306396941 1 0.33417922061614841 1 0.17445700370824596 1 1 1 1 1 0.79279936909205095 1:-0.998261 2:-0.1 3:-0.781525 4:-1 5:-0.786008 6:0.388772 7:-0.258496 8:-0.374897 9:-0.652174 10:-0.194656 11:-0.446809 12:1 13:-0.798013 
-1 -1 1 1 1 1 1 1 1 1 1 1 1 1 1 1 1 1 1 1 0.78641827687023813 1 0 0.5819340433090614 1 0 1 1 1 0 1 0.1927687624705639 0.7860464262283744 0.35349335680719873 0 0.17581454260304694 1 1 1 0.015835739840079827 0.022919622071713934 0 1:-0.999295 2:0.6 3:-0.922287 4:-1 5:-0.921811 6:0.422878 7:-0.270855 8:0.123844 9:-0.913043 10:-0.458015 11:-1 12:0.976297 13:-0.730132 
-1 -1 1 1 1 1 1 1 1 1 1 1 1 1 1 1 1 1 1 1 0.21358172312976192 1 0 0 1 0 1 1 1 0 1 0.52209424498554247 0 0.14002588791514697 0 0 1 1 1 0.9841642601599202 0.97708037792828606 0.049005261004739162 1:-0.999434 2:0.9 3:-0.925953 4:-1 5:-0.925926 6:0.308297 7:-0.744593 8:0.18648 9:-0.826087 10:-0.179389 11:-0.0638298 12:1 13:-0.843819 
-1 -1 -0.16040625941781908 1 1 1 1 1 1 1 1 1 1 1 1 1 0 0 1 1 0.78185882851522504 1 0 0.15914875851433502 1 0 1 1 1 0 0 0.097094813877006581 0 0 0.21924546931381825 0.081634539865738084 0.45842167814464491 0.82887723047309891 0 0 0 0 1:-0.999414 2:-1 3:-0.8739 4:-1 5:-0.699588 6:0.317111 7:-0.116375 8:-0.102911 9:-0.826087 10:-0.866412 11:0.297872 12:0.988552 13:-0.933223 
-1 -1 -0.95726501298811284 0.21702303300320841 1 1 1 1 1 1 1 1 1 1 1 1 1 1 1 1 0.082332862779615865 0.69957884252079472 0 0 1 0 1 1 0.032720224856258369 0 1 0.22348820129374394 0 0 0 0.067209320052647736 1 1 1 0.053507115406026012 0.034666054945939981 0 1:-0.999703 2:-0.65 3:-0.932551 4:-1 5:-0.872016 6:0.357731 7:0.165808 8:0.471924 9:-0.826087 10:-0.889313 11:0.276596 12:0.981542 13:-0.651214 
-1 -1 -0 1 1 1 1 1 1 1 1 1 1 1 1 1 1 0.70971896302992732 1 1 0 1 1 1 1 0.72736909300592878 1 1 1 0.76703798446665916 0.84412377591708976 0 0.2179739486955678 0.21665084102829027 0.2159477551358242 0.29733465462423869 1 1 0.29796018512791567 0 0 0 1:-0.9986 2:-1 3:-0.821848 4:-1 5:-0.753086 6:0.477295 7:0.2276 8:-0.56977 9:-0.913043 10:-0.660305 11:0.148936 12:1 13:-0.753863 
-1 -1 -1 0.40066090530982812 1 1 1 1 1 1 1 1 1 1 1 1 1 1 0.2433693473480574 1 0.77666340645741139 1 0 0.12549949990657189 1 0 1 1 0.28463169840083463 0 1 0.67941698482924939 0.76669049479967288 0.57329438846569214 0 0.17064103311930334 1 1 0.70203981487208433 0 0 0 1:-0.99924 2:0.6 3:-0.922287 4:-1 5:-0.921811 6:0.42786 7:-0.357364 8:0.123844 9:-0.913043 10:-0.458015 11:-1 12:1 13:-0.870309 
-1 -1 -0.26353950028890394 1 1 1 1 1 1 1 1 1 1 1 1 1 1 1 0.805534308701369 1 0.078907611909894648 1 0 1 1 0.8406871180150326 1 1 0.77989631678746496 0.10122986439054053 0.58725957219377634 0 1 0.043075474057955983 0.045932233549928668 0.262720349292897 1 1 1 0.60624955655479007 0.60282207194313864 0.17197015899937221 1:-0.988001 2:-0.6 3:-0.742669 4:-1 5:0.0781893 6:0.39567 7:0.625129 8:-0.821313 9:-0.652174 10:-0.706107 11:-0.914894 12:0.979323 13:-0.566225 
-1 -1 -0 0.38231606168696342 1 1 1 1 1 1 1 1 1 1 1 1 1 0.95145338494543785 1 1 0.69347734713842857 0.89596489729797157 0 0 1 0.24437004194893641 1 1 0.12800248989193036 0 0.56861665188913391 0 0.005206588756700996 0.053081740002329479 0.74065733050112514 0 1 1 1 1 1 0.45173902057973114 1:-0.997789 2:-0.2 3:-0.563783 4:1 5:-0.744856 6:0.420195 7:-0.0504634 8:-0.334794 9:-0.73913 10:-0.744275 11:0.0638298 12:0.96142 13:-0.761589 
-1 -1 -0.61878922730516428 0 1 1 1 1 1 1 1 1 1 1 1 1 1 0.33882765202463483 0.95109634395057352 1 0.3035807338798982 0.40445626018123371 0 0 1 0 1 1 0 0 1 0 0 0 0.25322982129177601 0 1 1 1 0.23240452200679704 0.27189139620110037 0 1:-0.998765 2:-0.2 3:-0.563783 4:1 5:-0.744856 6:0.251198 7:-0.491246 8:-0.321045 9:-0.73913 10:-0.744275 11:0.0638298 12:0.982601 13:-0.865894 
-1 -1 -1 1 1 1 1 1 1 1 1 1 1 1 1 1 1 1 1 1 1 1 0 0.57417252369484739 1 0.12716037704788238 1 1 0.77474927006351169 0 1 1 0.010128967748058324 0.21707311904183096 0.52498739020752772 0 1 1 1 1 1 0.37629082042089662 1:-0.997894 2:-0.32 3:-0.587243 4:-1 5:-0.802469 6:0.310979 7:-0.69516 8:-0.206667 9:-0.478261 10:-0.458015 11:-0.255319 12:0.967371 13:-0.827263 
-1 -1 -1 1 1 1 1 1 1 1 1 1 1 1 1 1 1 1 1 1 0.28317920931952628 1 0 0.14117921788424576 1 0.060413369982219856 1 1 1 0.13173215114280035 1 0 1 0.89682443740390128 0 0.12046010304517504 1 1 1 0.10783880603238685 0.090620476909820905 0 1:-0.998455 2:-0.34 3:-0.8739 4:-1 5:-0.641975 6:0.478827 7:0.421215 8:-0.64179 9:-0.478261 10:-0.866412 11:0.234043 12:1 13:-0.738411 
-1 -1 -1 -1 1 1 1 1 1 1 1 1 1 1 1 1 1 1 1 1 1 1 0.71076495988516752 0.66426842997335711 1 0.5761326779063779 1 1 1 0.30704596090619374 1 0 0 0.034629841598683667 0.25380444666652646 0.38562752035275732 1 1 1 0.036671197808212277 0.025592202556138435 0 1:-0.99859 2:-1 3:-0.8739 4:-1 5:-0.699588 6:0.37421 7:0.0566426 8:-0.102911 9:-0.826087 10:-0.866412 11:0.297872 12:1 13:-0.801325 
-1 -1 -0.91388294448503504 -1 1 1 1 1 1 1 1 1 1 1 1 1 1 1 1 1 0.35549711411872759 1 0.10329420839960668 0.24000887335642793 1 0 1 1 1 0.47538466700104776 1 0 0 0 0.026334831710995953 0 1 1 1 0 0 0 1:-0.998594 2:-1 3:-0.853372 4:-1 5:-0.576132 6:-0.0101552 7:0.221421 8:-0.732961 9:-0.826087 10:-0.977099 11:0.106383 12:1 13:-0.573951 
-1 -1 -1 -1 1 1 1 1 1 1 1 1 1 1 1 1 1 1 1 1 1 1 0 0.54130372613439315 1 0.29917737900013991 1 1 1 0 1 1 0.86411743657085505 0.73907966696549376 0.69911046414421862 0.23836815277807735 1 1 1 1 1 0.47028635810966024 1:-0.998194 2:-0.1 3:-0.781525 4:-1 5:-0.786008 6:0.386089 7:-0.518023 8:-0.0269621 9:-0.652174 10:-0.194656 11:-0.446809 12:0.967674 13:-0.937086 
-1 -1 -0.086117055514964916 -1 1 1 1 1 1 1 1 1 1 1 1 1 1 1 1 1 0 1 0.1859408317152258 0.41164166605072244 1 0.95702444971040312 1 1 1 0.21756937209275853 1 0 1 0.31870351388254553 0 0.31060390035680552 1 1 1 0 0 0 1:-0.985227 2:-0.6 3:-0.742669 4:-1 5:0.0781893 6:0.445488 7:1 8:-0.86087 9:-0.652174 10:-0.706107 11:-0.914894 12:0.931363 13:-0.665563 
-1 -1 -1 -1 1 1 1 1 1 1 1 1 1 1 1 1 1 1 1 1 0.64450288588127247 1 0 1 1 0 1 1 0 0 1 0 0.26304334480027247 0 0.20579465919187076 0 1 1 1 0.96332880219178763 0.97440779744386152 0.21272609977078547 1:-0.987777 2:-0.6 3:-0.742669 4:-1 5:0.0781893 6:0.396819 7:0.826982 8:-0.854414 9:-0.652174 10:-0.706107 11:-0.914894 12:0.954562 13:-0.648455 
-1 -1 -1 -1 1 1 1 1 1 1 1 1 1 1 1 1 1 1 1 1 1 1 0 0.14277730448509918 1 0.16766549338307912 1 1 1 0 1 1 0.87283921862887259 0.907586977553277 0.81495559828638819 0.065400426512359888 1 1 1 1 1 0.31698754211955432 1:-0.998902 2:-0.34 3:-0.8739 4:-1 5:-0.641975 6:0.408316 7:-0.213182 8:-0.473961 9:-0.478261 10:-0.866412 11:0.234043 12:0.983761 13:-0.713024 
-1 -1 -0 -1 -0.044877603863905345 1 0 1 1 1 1 1 1 1 1 1 0 0 1 1 0 0 0 0 0 0 1 1 0.20494588494007476 0 0 0 0 0 0 0 0 0 0 0 0 0 1:-0.999471 2:-1 3:-0.8739 4:-1 5:-0.699588 6:0.0994443 7:0.149331 8:-0.102911 9:-0.826087 10:-0.866412 11:0.297872 12:0.98598 13:-0.807947 
-1 -1 -1 -1 -0 1 1 1 1 1 1 1 1 1 1 1 1 1 1 1 0.82653202345445409 1 0 0 1 0 1 1 0 0 1 0.50383637555431637 0 0 0.071486614946802848 0 1 1 1 0 0 0 1:-0.999217 2:-0.5 3:-0.677419 4:-1 5:-0.831276 6:0.213259 7:-0.369722 8:-0.223217 9:-0.73913 10:-0.641221 11:0.361702 12:1 13:-0.803532 
-1 -1 -0 -1 -1 1 1 1 1 1 1 1 1 1 1 1 0 1 0.049461352898962557 1 0.047131718617726671 1 1 1 1 0.49763548743004682 1 1 1 0.9164585214786013 0 0 0.45728790937454683 0.35499286379692441 0.0045539469689884725 0.341116112957638 0.3537296034036167 0.75273623260990097 0 0 0 0 1:-0.99895 2:-1 3:-0.783724 4:-1 5:-0.572016 6:0.348151 7:0.239959 8:-0.584447 9:-0.913043 10:-0.683206 11:0.106383 12:0.995764 13:-0.780905 
-1 -1 -0 -0.70469963483029741 -1 1 1 1 1 1 1 1 1 1 1 1 1 0 1 1 0 0.39644815811765333 0 0.12721538503426935 1 0 1 1 1 0 1 0 0 0 0 0 1 1 0 0 0 0 1:-0.997399 2:-1 3:-0.821848 4:-1 5:-0.753086 6:0.174171 7:0.130793 8:-0.56977 9:-0.913043 10:-0.660305 11:0.148936 12:0.803722 13:-0.728477 
-1 -1 -0 -0.29530036516970259 -0 1 1 1 1 1 1 1 1 1 1 1 1 0 1 1 0 0.60355184188234667 0 0 1 0 1 1 0 0 0 0 0 0 0.37159072476732946 0 1 1 1 0.65260244391440758 0.65875762797343906 0.20245895515541495 1:-0.996983 2:-1 3:-0.257331 4:-1 5:-0.572016 6:0.0783675 7:-0.394439 8:-0.487892 9:-0.73913 10:-0.656489 11:0.276596 12:0.944072 13:-0.577815 
-1 -1 -0.06977050503348288 -1 -1 1 1 1 1 1 1 1 1 1 1 1 1 1 1 1 0.068527854775342123 1 0 0.62037570253484531 1 1 1 1 0.80705745413603358 0 1 0 1 0.41439793772219158 0 0 1 1 1 1 1 0.52945894198376153 1:-0.998566 2:-1 3:-0.0153959 4:-1 5:-0.320988 6:0.180686 7:0.6931 8:-0.583246 9:-0.652174 10:-0.660305 11:-0.191489 12:0.979222 13:-0.560706 
-1 -1 -1 -1 -0.37298476295234329 1 1 1 1 1 1 1 1 1 1 1 1 1 0.9061391625506352 1 1 1 0 0 1 0 1 1 0.98799666092389171 0 1 1 0.76691635345993769 0.8695855529917953 0.043329944172494889 0 1 1 1 0.57887729018740541 0.59852429931056594 0.24250332793118259 1:-0.999355 2:0.6 3:-0.670821 4:-1 5:-0.893004 6:0.26461 7:-0.485067 8:-0.274868 9:-0.73913 10:-0.778626 11:0.404255 12:1 13:-0.9117 
-1 -1 -1 -1 -0.58213763318375134 1 1 1 1 1 1 1 1 1 1 1 1 1 1 1 1 1 0 0.5169589576866418 1 0.26018837862047095 1 1 0 0 1 0.49616362444568363 0 0.034324525574494585 0.78210094900476501 0.23184152098112004 1 1 1 0.22821721128310971 0.21108222835615414 0 1:-0.997235 2:-1 3:-0.0131965 4:-1 5:-0.786008 6:0.194482 7:-0.419156 8:-0.121425 9:-0.73913 10:-0.610687 11:-0.276596 12:1 13:-0.749448 
-1 -1 -1 -1 -1 1 1 1 1 1 1 1 1 1 1 1 1 1 1 1 1 1 0 0 1 0 1 1 0 0 1 0 0 0 0.72693782013961927 0 1 1 1 0.54030305461507733 0.5316358443598409 0.025578774929640943 1:-0.99891 2:-0.34 3:-0.8739 4:-1 5:-0.641975 6:0.170722 7:0.136972 8:-0.59254 9:-0.478261 10:-0.866412 11:0.234043 12:0.982147 13:-0.602649 
-1 -1 -0.93022949496651708 -1 -1 1 1 1 1 1 1 1 1 1 1 1 1 1 0.044399484550402317 1 0.057808403152477157 1 0 0.73544995474424346 1 0.24217613394948226 1 1 1 0.083541478521398704 1 0 0.77579573716551553 0.3266991199145941 0 0.42704236606124185 1 1 1 0 0 0 1:-0.999033 2:-0.34 3:-0.8739 4:-1 5:-0.641975 6:0.260011 7:0.38826 8:-0.626604 9:-0.478261 10:-0.866412 11:0.234043 12:1 13:-0.679912 
-1 -1 -0 -0 -0 -0 0 1 1 1 1 1 1 1 1 1 0 0 0 0 0 0 0 0 0 0 1 0 0 0 0 0 0 0 0 0 0 0 0 0 0 0 1:-0.998157 2:-0.75 3:-0.456745 4:-1 5:-0.427984 6:-0.0607396 7:0.312049 8:-0.194155 9:-0.652174 10:-0.526718 11:-0.446809 12:0.993444 13:-0.409492 
-1 -1 -0 -0.57569860940723161 -0 -0 1 1 1 1 1 1 1 1 1 1 1 0 0.18573982209416845 0.67907651148001247 0 0 0 0 0.65121865106127241 0 0 0 0.32469436534645069 0 0 0 0 0 0 0 0.5477402804610807 0.30550069489659981 0 0 0 0 1:-0.997663 2:-0.5 3:-0.657625 4:-1 5:-0.720165 6:0.109408 7:0.336766 8:0.108658 9:-0.391304 10:-0.629771 11:0.510638 12:1 13:-0.724062 
-1 -1 -0 -0 -0 -0 0 0 0 0 1 1 1 0.77805309219778263 0 0 0 0 0.16258402901931082 0.76257884649172269 0 0 0 0 0 0 0 0 0 0 0 0 0 0 0 0 0 0 0 0 0 0 1:-0.998841 2:-0.75 3:-0.58871 4:-1 5:-0.901235 6:-0.11209 7:-0.61895 8:-0.0236521 9:-0.73913 10:-0.396947 11:0.340426 12:0.99652 13:-0.648455 
-1 -1 -0 -0 -0 -0.52346857580209238 0 0 0 0 1 1 1 0 0 0 0 0 1 1 0.019622128766211153 0 0 0 0 0 0 0.60876319791750599 0 0 0 0.37333682151217967 0 0 0.075858927476721516 0 0 0 0 0 0 0 1:-0.998082 2:-1 3:-0.241202 4:-1 5:-0.884774 6:-0.0404292 7:-0.899073 8:-0.243841 9:-0.73913 10:-0.549618 11:0.404255 12:0.969792 13:-0.790839 
-1 -1 -0 -0 -0 -1 0 0 1 0 1 1 1 0 0 0 0 0 0 0 0 0 0 0 0 0 0 0 0.17846738367492446 0 0 0 0 0 0 0 0 0 0 0 0 0 1:-0.999344 2:-0.5 3:-0.677419 4:-1 5:-0.831276 6:-0.00134125 7:-0.0978373 8:-0.223217 9:-0.73913 10:-0.641221 11:0.361702 12:0.96843 13:-0.681015 
-1 -1 -0 -0 -0 -0 0 0 0 0 1 1 1 0 0 0 0 0 0 0 0 0 0 0 0 0 0 0 0 0 0 0 0 0 0 0 0 0 0 0 0 0 1:-0.998976 2:-1 3:-0.704545 4:-1 5:-0.736626 6:-0.05959 7:-0.130793 8:-0.400267 9:-0.826087 10:-0.770992 11:0.255319 12:0.995411 13:-0.385762 
-1 -0 -0 -0 -0 -1 0 0 0 0 1 1 1 0 0 0 0 0 0 0 0 0 0 0 0 0 0 0 0.026114863237892173 0 0 0 0 0 0 0 0 0 0 0 0 0 1:-0.998535 2:-1 3:-0.704545 4:-1 5:-0.736626 6:-0.0189692 7:0.110196 8:-0.523866 9:-0.826087 10:-0.770992 11:0.255319 12:0.991175 13:-0.629691 
-0.23794734155830022 -0 -0.16736668993858481 -1 -1 -1 0 0 0.61292197162954598 0 1 1 1 0 0 0 0 0 0.68601557416104997 0 0.30270188774919315 0 0 1 0 0 0 1 1 0 0.07082781555791387 0 0 0 0 0 0 0 0 0 0 0 1:-0.999089 2:-1 3:-0.783724 4:-1 5:-0.572016 6:0.0944625 7:0.301751 8:-0.643045 9:-0.913043 10:-0.683206 11:0.106383 12:0.976196 13:-0.609272 
-0 -0.74566335806597472 -0 -1 -1 -1 0 0 1 0 1 1 1 0 0 0 0 0.5231894458844073 1 0 0 0.53525754317094176 0.95337956523891998 0.096689163032707096 0 0 0 0.42418102521322992 1 0.93705102785934558 1 0 0 0.0025068521033537808 0 0.35535747048798011 0 0 0 0 0 0 1:-0.999258 2:-1 3:-0.783724 4:-1 5:-0.572016 6:0.089864 7:0.46241 8:-0.643081 9:-0.913043 10:-0.683206 11:0.106383 12:0.983106 13:-0.642936 
-1 -1 -0.059289195599407735 -0 -0 -1 0.55072817626465931 0 1 0.36477166837549119 1 1 1 1 1 0.80087499423180131 0 0 0 1 0 0 0 0 0 0 1 0.089356219864938136 0 0 0.1703011765168459 0 0 0 0 0 0 0 0 0 0 0 1:-0.999197 2:-0.44 3:0.068915 4:-1 5:-0.674897 6:0.104043 7:0.0442842 8:-0.538725 9:-0.73913 10:-0.683206 11:0.191489 12:0.990469 13:-0.645143 
-0.95375118792387592 -1 -0 -0 -0 -0 1 1 1 1 1 1 1 1 1 1 1 0 0.03853277572983569 0 0 0.92621777817791939 0 0 1 0.053991527648557622 1 0 0 0 0 0 0 0 0 0 1 1 1 0 0.15370237150380309 0 1:-0.997875 2:-1 3:-0.299853 4:-1 5:-0.333333 6:0.208661 7:0.621009 8:-0.718484 9:-0.565217 10:-0.0648855 11:0.106383 12:0.993394 13:-0.534768 
-0 -1 -0 -0 -0 -0 0 0.48825662483216115 1 1 1 1 1 1 1 1 0 0 0 0 0 0 0 0 0.38437701316684147 0 0 0 0 0 0 0 0 0 0 0 0 0.22341419032970333 0 0 0 0 1:-0.998591 2:-1 3:0.846774 4:-1 5:-0.193416 6:-0.115156 7:0.375901 8:-0.794833 9:-0.913043 10:-0.996183 11:0.382979 12:0.960916 13:-0.302428 
-0 -1 -0 -0 -0 -0 0.42801439706555144 1 1 1 1 1 1 1 1 1 1 0 0 0 0 0 0 0 1 0 1 0 0 0 0 0 0 0 0 0 1 1 0.58617229881751909 0 0 0 1:-0.949735 2:-1 3:0.40176 4:-1 5:-0.0946502 6:-0.121288 7:0.831102 8:-0.764952 9:-0.652174 10:-0.175573 11:-0.553191 12:0.990973 13:-0.453091 
-1 -1 -0 -0 -0.020385425284193747 -0 1 1 1 1 1 1 1 1 1 1 1 0.90956755265419498 0 0.92893538462061165 0 0 0 0 1 0.8631725897371415 1 0 0 0 0 0 0 0 0 0 1 1 1 0.51922012011024132 0.44645444742934598 0.016446666197625651 1:-0.945078 2:-1 3:0.40176 4:-1 5:-0.0946502 6:0.0887143 7:0.901133 8:-0.79396 9:-0.652174 10:-0.175573 11:-0.553191 12:0.662817 13:-0.470751 
-0 -1 -0 -0 -0.11715778867310635 -0 0 0 1 0 1 1 1 0 0 0 0 0 0 0 0 0 0 0 0 0 0 0 0 0 0 0 0 0 0 0 0 0 0 0 0 0 1:-0.998243 2:-1 3:-0.736804 4:-1 5:-0.485597 6:-0.119372 7:0.355304 8:-0.714047 9:-0.652174 10:-0.583969 11:-0.148936 12:0.981492 13:-0.563466 
-1 -1 -0 -0 -0 -0 0 0 0 0 1 1 1 0.21026060496081411 0 0 0 0 0 1 0 0 0 0 0 0 0 0 0 0 0 0 0 0 0 0 0 0 0 0 0 0 1:-0.997075 2:-1 3:-0.257331 4:-1 5:-0.572016 6:-0.107109 7:-0.600412 8:-0.487892 9:-0.73913 10:-0.656489 11:0.276596 12:1 13:-0.495585 
-0 -1 -0 -0 -0 -0 0.42753185665608612 1 1 1 1 1 1 1 1 1 1 0 0 0 0 0 0 0 0.8108436987597385 0 0 0 0 0 0 0 0 0 0 0 0.39477181060065553 0.23970370435930202 0 0 0 0.061173820324230556 1:-0.994477 2:-1 3:-0.257331 4:-1 5:-0.572016 6:-0.148496 7:0.437693 8:-0.413417 9:-0.73913 10:-0.656489 11:0.276596 12:0.962328 13:-0.0987859 
-1 -1 -0 -1 -0 -0 1 1 1 1 1 1 1 1 1 1 1 0 0.82312469916051267 0.81944136616299768 0.59654995769730657 0 0 0 1 0 1 0.7278179624251816 0 0 0.50011311708762873 0 0 0 0.7142857103181548 0 1 1 1 0.44251372860811133 0.38546716716838214 0.095739330064982406 1:-0.99526 2:-1 3:-0.257331 4:1 5:-0.572016 6:-0.139299 7:0.0484037 8:-0.541143 9:-0.73913 10:-0.656489 11:0.276596 12:0.969943 13:-0.210817 
-1 -1 -0 -1 -1 -1 0 1 1 0 1 1 1 1 1 0.83080750066003772 0 1 1 0 0 0.88445462511455186 0 0.096726110981009805 0 0.082835882614300985 1 0.24291381929579861 0.40430929143698063 0 0.087765349246903768 0 0.60434229194915612 0.29349412351611004 0 0.42410427775448728 0 0 0 0 0 0 1:-0.997595 2:-0.4 3:-0.672287 4:-1 5:-0.823045 6:0.278406 7:0.0587024 8:-0.0530968 9:-0.565217 10:-0.568702 11:-0.148936 12:0.971506 13:-0.467439 
-1 -1 -0 -0 -0 -0 0.13052116771789649 1 1 1 1 1 1 1 1 1 0 0 0 0 0 0 0 0 0.36568068672343701 0 0.063937697571474897 0 0 0 0 0 0 0 0 0 1 1 0.99289867001004584 0.5498945792169484 0.23365112960909845 0.027660015644960043 1:-0.997829 2:-0.4 3:-0.672287 4:-1 5:-0.823045 6:0.0718528 7:0.0298661 8:0.0741027 9:-0.565217 10:-0.568702 11:-0.148936 12:0.878209 13:-0.476269 
-0.94096551054003352 -1 -0.027468235550333606 -0.4929291321111462 -1 -0 0 0.26076444706686802 0 1 1 1 1 0.71497129700431938 1 0.36831750510816103 0 1 0 0 0.16222597010057985 0.92325697113048621 0 1 0 0 1 0.55016185265673634 0 0 0.25297544056244231 0 0.73705129429816163 0 0.081928019871929117 0.083458159781463731 0 0 0 0 0 0 1:-0.983021 2:-0.6 3:-0.742669 4:-1 5:0.0781893 6:-0.233953 7:0.23378 8:-0.844156 9:-0.652174 10:-0.706107 11:-0.914894 12:0.977306 13:-0.518764 
-1 -0 -1 -1 -0.47519041579667798 -0.53695780067735888 0 0 0 0 1 1 1 0 0 0 0 1 0 0.15354894125025217 1 0.90712132454424932 0 0.22139073069699577 0 0 1 1 0.38032873257883254 0 1 0.32267113708402623 0.16768142948187606 0.30991773297767428 0 0.13708009197606888 0 0 0 0 0 0 1:-0.999896 2:0.1 3:-0.868768 4:-1 5:-0.983539 6:0.108258 7:-0.402678 8:0.123535 9:-1 10:-0.568702 11:-0.425532 12:0.989006 13:-0.64128 
-1 -1 -1 -0 -0 -0.28016016495962442 0.46056009688536143 0.21715870678059693 1 0 1 1 1 1 1 0 0 1 0 0 0.33231009023706748 0.38528202020105196 0 0 0 0 1 1 0 0 1 0 0 0.086309857148269858 0 0 0.17680886732656542 1 0.1860554444737289 0.05997551405868326 0.20505773367104643 0 1:-0.99911 2:0.05 3:-0.643695 4:-1 5:-0.917695 6:0.0553746 7:-0.120494 8:0.125335 9:-0.565217 10:-0.59542 11:-0.148936 12:1 13:-0.676049 
-1 -1 -1 -0.86890012371969649 -0.11106117940017407 -0 0.66688930986424222 0.19999963383099928 0.38707802837045396 1 1 1 1 1 1 1 0.97413118193384918 1 0.45360765248998397 0.27417407138564653 0.61339635862460029 1 0 0 0.78787995028871072 0 1 1 0.67754945821409607 0 1 1 0.61082235114219552 0.56464285043618234 0 0 0.88067904161169841 0.23138141041439475 0.23487358669870617 0.049850837140413065 0.069603802956558547 0.056944954874222013 1:-0.998689 2:0.4 3:-0.869501 4:-1 5:-0.938272 6:0.066871 7:-0.645726 8:0.218198 9:-0.652174 10:-0.347328 11:-0.531915 12:0.855464 13:-0.821192 
-1 -1 -1 -1 -0.470545817498076 -0.73983551702006634 0.14298412602996896 1 0 0.63522833162450887 1 1 1 1 1 1 0 0.15262212477861067 0.069269132071628242 1 0.52948323599867086 1 0 0.084613513625894712 0 0 1 1 0 0 1 0 0 0 0.46243527720489602 0 1 1 0 0 0 0 1:-0.999347 2:-0.32 3:-0.587243 4:-1 5:-0.802469 6:0.160759 7:-0.2276 8:-0.206667 9:-0.478261 10:-0.458015 11:-0.255319 12:0.9942 13:-0.571192 
-0 -1 -0 -0.07720529633307649 -0.62054436035479876 -0.89212136843999379 0 0 1 0 1 1 1 1 0.55987964866386275 0 0 0.081414507266175107 0 0 0 1 0 0.26655697552634433 0 1 1 0.11789311993927377 1 0 0.099869905538046769 0 0.8801026331286107 0.74312858381840952 0.01439958801963797 0 0 0 0 0 0 0 1:-0.98906 2:-1 3:-0.307918 4:-1 5:-0.345679 6:0.178003 7:0.639547 8:-0.602088 9:-0.73913 10:-0.553435 11:0.234043 12:1 13:-0.844923 
-1 -1 -0 -0 -0 -0 0 0 1 0 1 1 1 0.29671500583708388 0 0 0 0 0 0.69887846000324039 0 0 0 0 0 0 0 0.027037205450945359 0 0 0 0 0 0 0 0 0 0 0 0 0 0 1:-0.982374 2:-1 3:-0.307918 4:-1 5:-0.345679 6:-0.0185859 7:0.0278064 8:-0.72525 9:-0.73913 10:-0.553435 11:0.234043 12:1 13:-0.765453 
-1 -1 -0 -0 -0 -0 0.15502498059014674 1 1 0 1 1 1 1 1 1 0.025868818066150812 0 0 0 0 0 0 0 0 0 0 0 0 0 0 0 0 0 0 0 0 0 0 0 0 0 1:-0.994724 2:-1 3:-0.492669 4:-1 5:-0.555556 6:-0.0335313 7:-0.159629 8:-0.220453 9:-0.652174 10:-0.618321 11:0.489362 12:1 13:-0.389625 
-1 -1 -0 -0 -0 -0 0 0 0 0 1 1 1 0 0 0 0 0 0.43109483273873961 0.28965427057922583 0 0 0 0.23402350613704817 0 0 0 1 0 0 0 0 0 0 0.48469842328708168 0 0 0 0 0 0 0 1:-0.998631 2:-1 3:-0.796188 4:-1 5:-0.691358 6:0.0622725 7:-0.705458 8:-0.257063 9:-0.73913 10:-0.0725191 11:-0.0851064 12:0.890615 13:-0.690397 
-1 -1 -0 -0.64032255313883368 -0.18511501299297284 -1 0 0 1 0 1 1 1 0 0 0 0 0 1 1 0.44371037082637049 0.43840973766079971 0 0 0 0 0 0.43778291736856179 0 0 0 0 0 0 0.16639405382157893 0 0 0 0 0 0 0 1:-0.998999 2:-1 3:-0.653226 4:-1 5:-0.465021 6:0.0557578 7:-0.274974 8:-0.0308541 9:-0.652174 10:-0.858779 11:0.617021 12:0.96374 13:-0.782009 
-1 -0.25433664193402528 -0.61639538410055494 -0.34494428529001553 -0 -0.027456573100863975 0 0 1 0 1 1 1 0 0 0 0 0.33320636941661191 0.74406151702955692 0 0 0 0.0078201759781040096 0 0 0 0 0 0 0 0.7597522986830767 0.30399204140379404 0 0 0 0 0 0 0 0 0 0 1:-0.998746 2:-0.2 3:-0.942082 4:-1 5:-0.81893 6:0.122437 7:-0.145211 8:0.393575 9:-1 10:-0.435115 11:0.510638 12:1 13:-0.765453 
-0.3289567515581997 -1 -0 -0 -0 -0 0.95550403530372141 1 1 1 1 1 1 1 1 1 1 0 0.092180412679827517 0.39371214802629056 0 0 0 0 1 0 1 0.018224542557631784 0 0 0 0 0 0 0 0 1 1 1 0.37854522086560266 0.50606334766176531 0 1:-0.883209 2:-1 3:0.293255 4:1 5:0.584362 6:-0.0166699 7:0.658084 8:-0.710264 9:1 10:0.828244 11:0.617021 12:0.992587 13:-0.461921 
-0.45280691886374613 -1 -0 -0 -0 -0 1 1 1 1 1 1 1 1 1 1 1 0 0 1 0 0 0 0 1 0 1 0.75586813731019686 0 0 0 0 0 0 0 0 1 1 1 1 1 0.74203521289397933 1:-0.90435 2:-1 3:0.293255 4:-1 5:0.584362 6:-0.0224181 7:0.61483 8:-0.749111 9:1 10:0.828244 11:0.617021 12:0.968934 13:-0.396247 
-0.085572289555844561 -1 -0 -0 -0 -0 0 1 1 1 1 1 1 1 1 1 0 0 0 0 0 0 0 0 0 0 0 0 0 0 0 0 0 0 0 0 0 0 0 0 0 0 1:-0.998734 2:-1 3:-0.159091 4:-1 5:-0.226337 6:0.161908 7:0.363543 8:-0.754658 9:-1 10:-0.671756 11:0.787234 12:0.975238 13:-0.56181 
-0 -1 -0.12948049481111895 -0 -0 -0 0.082241853622365968 0.83382058748937427 1 1 1 1 1 1 1 1 0 0 0.31378955282538573 0 0 0 0.03880025878297616 0 0 0 0.93606230242852506 0 0.0085359055108234442 0.062948972140654424 0.058394896807141751 0 0 0 0 0 0 0 0 0 0 0 1:-0.997679 2:-1 3:-0.159091 4:-1 5:-0.226337 6:0.238935 7:0.779609 8:-0.770972 9:-1 10:-0.671756 11:0.787234 12:0.982601 13:-0.737859 
-1 -1 -1 -1 -1 -1 -1 1 1 1 1 1 1 1 1 1 1 1 1 1 0.80572329065165127 1 0 0.98258173327467224 1 0.35604180339108782 1 1 1 0.2063898513262713 1 0 1 0.24967369348512333 0 0.25760216917841466 1 1 1 0.25125369387597873 0.2465169147214035 0.066273104535457275 1:-0.996893 2:-0.75 3:-0.456745 4:-1 5:-0.427984 6:0.000574823 7:0.91967 8:-0.123226 9:-0.652174 10:-0.526718 11:-0.446809 12:1 13:-0.0386313 
-1 -1 -0.86820307425910359 -1 -1 -1 -1 1 1 1 1 1 1 1 1 1 1 1 1 1 0.074392903766756571 1 0.64359882652729206 0.50574847090940578 1 0.70401685723900587 1 1 1 0.63463524543028194 1 0 0.30024088444010621 0.35517770317117675 0 0 1 1 0.75844271000278785 0 0 0 1:-0.9968 2:-1 3:-0.406158 4:-1 5:-0.444444 6:0.213259 7:0.585994 8:-0.700243 9:-0.652174 10:-0.248092 11:0.765957 12:0.989208 13:-0.575607 
-1 -1 -0.13179692574089638 -1 -0.48939948479747225 -1 -1 1 1 1 1 1 1 1 1 1 1 0.91719738568637155 1 1 0 1 0 0 1 0.20998443495413405 1 1 0 0 0.97410118504669052 0 0 0 0 0 1 1 0.82951848355739732 0.085795789873230194 0.053576968537376285 0.016302354458473882 1:-0.971515 2:-1 3:0.40176 4:1 5:-0.0946502 6:0.0304656 7:0.84758 8:-0.878366 9:-0.652174 10:-0.175573 11:-0.553191 12:0.7076 13:-0.791943 
-1 -1 -0.60271425821124014 -1 -1 -1 -1 1 1 1 1 1 1 1 1 1 1 1 1 1 1 1 0 0.065708557212764404 1 0 1 1 0.95170180800500193 0 1 0.046285318030320557 0.11923023425758393 0.041374723247886908 0.93342584937857431 0 1 1 0.68422819766086029 0.21054714048149922 0.16815722090366678 0.04339544744318239 1:-0.986125 2:-1 3:-0.579179 4:1 5:-0.497942 6:0.271508 7:0.54068 8:-0.610345 9:-0.391304 10:-0.541985 11:0.0212766 12:0.967169 13:-0.547461 
-1 -1 -1 -1 -1 -1 -1 1 1 1 1 1 1 1 1 1 1 1 1 1 1 1 0 0.44596123860315751 1 0 1 1 1 0 1 1 1 0.93201334644866773 0.29180947465149448 0.17910591319245545 1 1 0.52353299821364008 0.13989959571739133 0.1274442374254833 0.037461332946086862 1:-0.999329 2:0.6 3:-0.670821 4:-1 5:-0.893004 6:0.176087 7:-0.577755 8:-0.274868 9:-0.73913 10:-0.778626 11:0.404255 12:1 13:-0.836093 
-1 -1 -1 -1 -1 -1 -1 1 1 1 1 1 1 1 1 1 1 1 1 1 1 1 0.35640117347270789 1 1 0.68868102490633931 1 1 1 0.15897490324344674 1 0.86670810335164838 0.58052888130230995 0.42176053364714533 0.77476467596993115 0.56329191762912989 1 1 0.20427761056531443 0.017892773896886226 0 0 1:-0.998934 2:-1 3:-0.0131965 4:-1 5:-0.786008 6:0.145047 7:-0.0092688 8:-0.121425 9:-0.73913 10:-0.610687 11:-0.276596 12:0.979575 13:-0.687638 
-1 -1 -0 -1 -0.057927367008472022 -1 -1 1 1 1 1 1 1 1 1 1 1 0.15718476016845834 0.15740469077741048 1 0 0.03101126150345046 0 0 1 0 1 1 0 0 0.087505753046641307 0 0 0 0 0 1 1 1 0.29461100615501451 0.40430465841207014 0.037385113447106995 1:-0.897728 2:-1 3:0.293255 4:-1 5:0.37037 6:-1 7:0.750772 8:-0.912048 9:1 10:0.828244 11:0.617021 12:0.78718 13:-0.702539 
-1 -1 -0 -1 -0 -1 -1 1 1 1 1 1 1 1 1 1 1 0 0.84259530922258952 1 0 0.96898873849654954 0 0 1 0.041275879509432969 1 1 0 0 0 0 0 0 0 0 1 1 1 1 1 0.43800361554234041 1:-0.731487 2:-1 3:0.293255 4:-1 5:0.127572 6:-0.215559 7:1 8:-0.971701 9:1 10:0.828244 11:0.617021 12:0.673155 13:-0.426049 
