svm_type c_svc
kernel_type polynomial
degree 3
gamma 0.076923076923076927
coef0 0
nr_class 43
total_sv 506
rho 0.68970992870281933 -1.0359775520179315 -1.012635921873098 -1.0321842415394058 -1.05101078637478 0.89951565846552939 -0.82904387560018977 -0.44022265252179216 -0.057630118461161436 -0.23914046352873494 0.78193812768425619 0.57268772371051613 0.94633110217026206 -0.053756079892652936 -0.044559713933150169 -0.17390797759793666 -0.64707415780608257 -0.9970679425503034 -1.022445868895298 -0.94874808163351476 -1.0319037843322019 -1.0081133756063234 -1.0420448305231313 -1.0159839278737031 -0.66201991358809464 -1.0013980134575062 -0.55390003030327772 -0.99389710732989633 -1.0393701587458362 -1.0447043441065604 -1.0250188984268089 -1.0349071254915028 -1.0097073063552122 -1.0137392401831753 -0.99869960845195671 -1.0156814120123505 -0.52217575942058658 -0.5166989103948737 -0.72689817763779629 -0.91204646025132385 -0.91425459248340935 -0.97240582610149406 -0.96454144224772842 -0.9512619606511219 -1.0140746679503467 -1.0013243262931788 0.45275296315599323 -0.97651099019267706 -0.92182359536468195 -0.84807972569507639 -0.84830453997283528 0.87337800058476467 0.79229512729010099 0.84977087485355463 -0.84934098494153321 -0.49838814656449781 -0.80900562421759792 -0.95453906175649916 -0.93789530594335879 -0.99819035767116238 -0.99060606614746072 -1.0036187641148622 -0.96469424151625083 -1.0274817780034713 -1.0215893020417204 -0.91986278374509289 -1.0044055269367032 -0.93397512876538868 -0.96082263449651306 -1.00653087472155 -1.0324311869586582 -0.94128710068941712 -0.99574379232360966 -1.0001254528948023 -1.0009690632516119 -0.99321116787617092 -1.0087539083596428 -0.85622512707549892 -0.82936138855685548 -0.91320887264999651 -0.96316393301913572 -0.9770724499729615 -0.99423888368860458 0.9643647314832644 0.74534900158428341 0.92341058397913767 1.0306863789366201 0.92708755271663379 0.91043822961743759 0.98579781342233996 0.85549609548906502 1.006980742676546 0.99559160711369765 1.0540663514820092 0.95402502767934683 0.8386524389861979 0.79402103094238452 0.39108119099557104 0.99746297107490034 0.91993572521774336 0.96882078082745648 -0.88192582616145909 0.97824171030217821 -1.0252145268023014 -0.89809404319470609 0.64856807974191688 -0.91412261920049787 0.89226373520916702 0.99748735933282662 -0.05609433725476265 -1.0157719999551773 1.0087847431977162 -1.003963495992195 -0.9525633891386035 -0.98762623778416392 -0.92390375590160811 -1.0133884200335441 0.56079859539459309 0.53842341647372538 0.41112110325382978 -0.6451591967041681 -0.65027908690133029 -0.90902295119713028 -0.9566337473559986 0.80507712135031095 1.0221152506505387 0.0013319230129127391 0.85042679154081624 0.9328108754929898 0.69377890619706262 0.9929478054966685 0.97858643541783341 1.0154391798145086 0.92203725266162395 0.71670748361437919 0.5661967098902484 -0.257119613740457 -0.86653193119284833 -0.8718817987222186 0.90996768194432853 -1.0202606963257519 -0.85677719037746292 -1.021616704761982 -1.017844441271075 -0.053820319604085398 -0.96482460784752033 0.79063377611824559 0.95157730363109483 -0.9975274690203868 -1.0340573633789274 -0.96554483112606515 -1.0084046340319086 -1.0010900283611155 -0.99474947040103956 -1.0106182054274455 -1.0157573758750211 -0.071361915675812376 0.0066256170846195183 -0.35213320947164162 -0.8271044234063093 -0.83155437524469311 -0.94942240127687205 0.97136350522382864 1.0252005190711617 0.92275251489739085 0.975992271234988 1.0277635162131902 0.87020846802997742 1.0187478113435724 1.0447115376659266 1.0373772092074878 1.0183763560502885 0.87181413951575226 0.83210088081262379 0.22033433744036302 0.87570434125607066 0.96200680378811765 1.025253171711489 -0.86657079198652154 1.0296596789959631 -1.0299408907570535 -1.0384549191236681 0.51656574684092649 -0.94820525919084875 0.90187525105228006 0.98875514656379426 -0.97168329171836376 -1.0358195258098648 0.80543746057640564 -0.99304011091589928 -1.0208423582562827 -1.0056578747426386 -0.94172440602160479 -1.0183712798657005 0.44804428996242296 0.42801867401210258 0.26555617754729965 -0.69681240534843847 -0.69780108388403783 -0.91592925111553047 1.0262633789418143 -0.34019992518005893 0.84808458515033414 1.0194212288531366 0.67459655443442068 1.0504859274877141 1.0596648803138808 1.0268185100411176 0.93131276396180451 0.68870987469626432 0.56302774531945776 -0.22002103563863784 -0.76873836759477854 -0.90376297598446997 0.86813175583663849 -0.95727284801207813 -0.8428010210453285 -1.0267393290996552 -1.0069843710962756 -0.068459822847884766 -0.97170449623015964 0.69623993221685743 0.12376274178677704 -1.0231873878293649 -1.0326095317483333 -0.85222556442022324 -0.99589019843519322 -0.9941640579587574 -0.99794182125427944 -0.94964122132597584 -1.0106561327031545 -0.028082846722101401 0.040009078670730808 -0.33556627844336617 -0.77424541259858426 -0.77443126328874179 -0.93050388331840794 -0.94958935397316979 -0.7547408266285518 -0.77104647704555984 -0.58800094312898366 0.30904334635500946 0.073749588032430632 0.80049636349896092 -0.53025420414570767 -0.26237703383623956 -0.49255570369318707 -0.79312297485248018 -1.0082471470008882 -1.0036196749940609 -0.99086779885652532 -1.0294608927868907 -1.0153759450752953 -1.0245198680722662 -1.0318840386323886 -0.81588925820351788 -1.0155285677155448 -0.84737098984481318 -0.9991039284886768 -1.0374970909676577 -1.0305489090862809 -1.017314270572965 -1.0146445287942392 -1.029017579956041 -1.0157230383421252 -1.0041681097195476 -1.0225056992723183 -0.68440718138112955 -0.6790861893142659 -0.84536097497690876 -0.94824318356334147 -0.95222704132287572 -0.98997258880084982 0.95021998571464916 0.89437870866417135 0.88234217411396576 0.98152303351809844 0.99031088207630791 0.99554010907291168 0.97789683563911978 0.85952982705058611 0.79621431935322229 -0.35786618766518119 -0.85105009871304038 -0.70080162929871026 0.77119609993489391 -0.977569352718063 -0.72206610881018185 -1.0393707513567974 -1.032588445879012 -0.15035852086527157 -1.0149849940156792 0.73386151117285225 0.59041171693876582 -0.99366170895879768 -1.0407365938881319 -0.84745660526993516 -0.98699681908566916 -1.0166632744396118 -1.0115094039801249 -1.0025481416439279 -1.0194496249947749 0.27593724343387294 0.29125736212564846 -0.83609752021671824 -0.96716997307118169 -0.97310363966408586 -0.9925559394507053 0.79164033711935011 -0.18358463658412738 0.92387883107979096 0.95519756092005403 0.9244445503203581 0.96105315552809034 0.76976703540198343 0.62746693839630452 -1.0108165212673919 -0.89067316015710418 -0.91897807050216684 -0.83134497501781524 -0.9381710695658374 -0.88337804086188376 -1.034045251690652 -0.99115905222442968 -0.96735132999665951 -0.99676360336865433 -0.29144185180443394 -0.82685371524799312 -1.0053268904963877 -1.0345171807616136 -0.87570831771616364 -0.9670018305287057 -0.96871541134241068 -0.98525895622216508 -0.96953169428871888 -0.99976850532859041 -0.85439795496529292 -0.85075702841666734 -0.9634758418153222 -1.007471505213213 -0.98524512731199143 -0.99617377577867983 -0.67539746369767717 0.9378676605356272 0.93059915975949625 0.90676856582438647 -0.4988574805728398 -0.2068786752679522 -0.56793310663849494 -0.80338339831274086 -0.94710895491909108 -0.97350321858658662 -0.87757055939607231 -0.96075399751126278 -0.95379732127549388 -1.0287270197509797 -1.0170427588345241 -0.79744332056045686 -1.0058288261908139 -0.63401057226656476 -0.90924193290367317 -1.0429411881119901 -1.0351023534503656 -0.96103591643161668 -0.98552445924433296 -0.99835871370469176 -1.0012008995276214 -0.96061431115892404 -1.0155074303515739 -0.68005436469198943 -0.66501280900234783 -0.81835917311918893 -0.93656937891787573 -0.92791114145029474 -0.98769481704499551 0.82012268834125157 0.91442258371158702 0.8742520209281146 0.92311848677102737 0.87307069741896104 0.66709774848163339 -0.92240592757826856 -0.80304376545032141 -0.77922515405250947 -0.70046146848968849 -0.88792711667901181 -0.77259603910725005 -1.01749882998124 -0.96265084240017784 -0.93733406750611648 -1.0033415662841785 -0.14547177295359326 -0.66469835735097915 -0.90255531178433734 -1.0283080194912058 -0.77992832585969596 -0.94685798742626526 -0.94961617733369963 -0.97021639523191383 -0.95295409542211573 -0.99744684353341084 -0.798218526864932 -0.82146183285458629 -0.94050488519426534 -0.987922095130498 -0.97773858914171941 -0.98989922223933191 0.63793865877927169 0.65483134988046598 -0.83709643466917705 -0.47071676984137756 -0.83742979501037929 -0.96485911017528003 -0.978617335298265 -1.0154510663334997 -0.97793912456251986 -1.0179223899279664 -0.98743319207786351 -1.0402893913168449 -1.0155182470745179 -0.92282307415542586 -1.0022613220339918 -0.87665074051041381 -0.99496362465331922 -1.0542630112493383 -1.0413773530134898 -1.0169960029843812 -0.99561175243238265 -1.0012626504278939 -1.0094056855277804 -0.9959834868791837 -1.0138016529381275 -0.87858590339498244 -0.84288227274965266 -0.92118326641446746 -0.96600925754571632 -0.97925367887114068 -0.99540521759721423 0.027599659339216487 -0.9282698370329181 -0.64829650369473379 -0.92757396133362324 -1.0325910740721598 -0.9751679426323111 -1.0198828459236517 -0.98687334176422803 -1.0054570758955204 -0.99381524261285192 -1.0343027653215107 -1.0326565902997242 -0.98376104692006261 -1.0127699007789899 -0.87245047504305961 -0.98674884922856376 -1.0557861733328584 -1.037507745817253 -0.97600313687182949 -1.018316009270865 -1.0067985907108821 -1.010685545093438 -0.98842818155160439 -1.0142089603285125 -0.93769386778895292 -0.90270587145906711 -0.96346709999370883 -0.99159812856220353 -0.99094097926741098 -0.99855545134422286 -0.8187596813920951 -0.41505795375123811 -0.78069206507470701 -0.92626152938165041 -1.0192817289933012 -1.005032423728123 -1.0018523351861328 -1.0290301453578297 -1.0086303607680951 -1.0176378108377511 -1.0289083242422912 -0.9478581497698596 -1.0100930822797887 -0.98780878335840916 -1.0046966315548207 -1.0336975128729609 -1.0155982300639153 -1.0342740399181158 -1.0232614026522575 -1.0072542589381908 -1.0041758496797659 -1.0070578298516604 -1.0180763783657929 -0.86264608378313457 -0.86144803069759801 -0.93691722964953839 -0.98209686971726295 -0.98122324364458302 -0.99710920191336228 0.29303023062618383 -0.88556859863533421 -1.0066610517215782 -0.93589403262321313 -0.98653161108065002 -0.93045522492613864 -0.96511461398255327 -0.95043958548606378 -1.0281941584050405 -1.0244014945385702 -0.97897833331343465 -1.0134858659842081 -0.76638879446029706 -0.90560963431556873 -1.0171592136609704 -1.0319769976187692 -0.93322882363772053 -0.98347392512800669 -0.99255331067971864 -0.99807218243446738 -0.97600533553301716 -1.0082698208428971 -0.89439781206052715 -0.88869143061795708 -0.96841585712126577 -0.99365925519692488 -0.98176291360085222 -0.99568660285096577 -0.98780466781739129 -1.0053201669946528 -0.79920992996856555 -0.804017423183778 -0.71315163689052941 -0.87079477243705128 -0.78218563433950716 -0.99620784024016695 -0.93764955777880454 -1.0083661817114364 -0.97650184121843508 -0.44214030067139792 -0.69828921947007472 -0.90131353614180676 -0.99921958893537521 -0.78843987438464913 -0.93194576264278284 -0.9244509056524618 -0.95007270847057113 -0.9380145238092521 -0.97928849622001457 -0.94134956371660683 -0.94769321485966918 -0.98710706244309954 -1.0040634960954307 -0.97812145667433126 -0.99486136511469148 -0.98851236526995201 -0.71427518303474979 -0.68307160066025452 -0.58190724871199728 -0.83759556125720214 -0.6696400143476291 -0.99245964271817366 -0.92500229919577925 -0.98803692807294363 -0.96285090993883271 -0.18712801280889835 -0.55212265053368004 -0.86956358257972288 -1.0031672485852288 -0.7035889410241466 -0.91616965634776182 -0.91181112973488898 -0.94310635623165151 -0.92071711595625771 -0.97162157681444283 -0.89781281152695791 -0.92540072957135866 -0.97775742322795955 -1.0055779006520023 -0.95700305449900147 -0.99537978865025067 -0.022718544775216287 0.15267924638474734 0.5068859539078403 -0.5813252924808423 0.18311480450938689 -0.98585907113023552 -0.76235761848664785 0.16454426920972764 -0.89694237725924886 0.59711809733242072 0.34799764380295528 -0.43145971506282876 -0.99355175058837819 0.0025162130432363483 -0.8696666107073483 -0.76497303278750628 -0.87813891217521511 -0.87097168289432236 -0.95817256043267529 0.89782448714454888 0.71336677333994436 -0.82849507361848262 -0.96832215964430957 -0.95630381789316887 -0.99234996882317805 0.7844692951892559 0.91539655628784722 -0.98758170972052028 0.90341811462931731 -1.0423271245196295 -1.0551443204599265 0.37093559511584329 -0.97273242981010877 0.84230593174869839 0.94560594764700401 -0.98032259804037225 -1.0467115517190435 0.022707480471581221 -1.0192850128165556 -1.0224119195872905 -1.0192705601485825 -0.95857088063412321 -1.025617128107178 0.2606245110944902 0.27235147742433335 -0.095581136028386027 -0.78455160166553073 -0.78742014704970309 -0.93534468688153927 0.99354433856995461 -0.98788083618521583 -0.025993627379648387 -1.0303002251387756 -1.0000897418314396 0.23763347574769389 -0.98539781820622196 0.76674631117679348 0.96084029114791669 -1.0225279210206026 -1.0269683146902666 -0.85828049838336917 -1.0238126825521581 -0.97140672673022244 -1.0053734851139124 -0.99438579270854099 -1.0080076108780973 0.071267629921635489 0.16355234362197679 -0.29801880735021558 -0.85465919126732814 -0.85573018974981674 -0.95609629036747934 -1.0037860948983255 -0.96994086774149346 -1.02528102444125 -1.0330154655051917 -0.54707401058709593 -1.0201392110262644 0.62914658838135207 -0.93221143417444796 -1.0467146518228323 -1.0271045598357049 -0.94855005394749359 -0.99411767360128067 -1.0102652303332884 -1.0070255248830204 -1.0034277707606358 -1.0115367250293019 -0.25620521544539088 -0.25343707014927475 -0.71448724551628118 -0.9520859277375362 -0.95308143515928723 -0.9862858354425228 0.98308578668915558 -1.0119606443689682 -0.92692357526815239 0.74147985118174542 -0.91592357152177573 0.92590932442335638 1.0252441951634308 0.8293814342468977 -1.0087231379781194 1.0048491473831893 -0.98229342397740282 -0.94276627010263436 -0.97303992954310947 -0.97713559309243769 -1.0028726752179549 0.66934392341375559 0.64017635011449747 0.54478254424328088 -0.68540464451329552 -0.68726657275348502 -0.9182764601239346 -1.0490165501832962 -1.0574237609328803 0.2413731662414012 -0.99025735222152067 0.82595056813979806 0.97223115318077657 -1.0584322027147741 -1.0515152310330358 -0.92246717106404208 -1.0144016338231241 -1.0322131785417976 -1.0170396870537413 -0.96514654988454129 -1.02573538667592 0.076579235266745371 0.14562615577652971 -0.42311741717522011 -0.78931139391732985 -0.79192645749606494 -0.94253547409237282 1.0162279470972542 0.98573268788834023 1.0235296040773392 1.0213064943786225 1.0385991483926773 1.016972888125399 -0.0034901648759841919 1.0149804211102582 0.94385943893441038 1.0402351245284081 1.0330451666778688 1.0063288679039322 0.044527329504489899 0.92348423584008532 0.92486646708238429 0.90207361001457476 0.87713174079418454 0.83775064894594453 0.06209186464548111 0.85370161126264388 -0.89309503412749236 0.98601506089694824 1.0173737757239127 1.0090503507073769 -1.0207228064295197 0.99823067746268423 -0.83091794699430466 0.0018225759267807007 -0.89139535742984943 -0.84163050539791584 -0.99405182152506733 0.76733392538926248 0.76383965427876888 0.69171786342640273 0.053398781616692759 -0.02548223686608253 -0.8434861786901956 -0.93920188313137487 0.55969264411645447 0.35744748340948718 -0.66635982883601408 -0.98896850854772966 -0.35952004064490567 -0.889867309188203 -0.84488881148266126 -0.91014963333427157 -0.89761511581040399 -0.9612131864960618 0.70026223590595826 0.79611453366577933 -0.96161871224600615 -1.004637088727748 -0.94332608871456314 -0.99146247052841519 0.98815092119942272 0.98494173979122102 0.94697303798532251 -1.0222292095422745 0.94999814104584202 -0.026233747135847807 0.90978174958969005 -0.025489410385489464 0.021530887112021446 -0.98481248319149017 0.85371900026817071 0.85908142305738411 0.82363786198807731 0.76759303657575439 0.67662765667773783 -0.88741126401141757 -0.68573415528660531 -0.94133181678303102 -1.0207082567125019 -0.84750060638900282 -0.96257831411475669 -0.98615915783046615 -0.98677963091132648 -0.9602499113605113 -1.0019496991195824 -0.43865513133782558 -0.39104124367565296 -0.63395845918195259 -0.88212828313122904 -0.89455291828872863 -0.96986792590070114 -1.0154326427463245 -1.0432400991656963 -0.9934189477829517 -1.0193509335357476 -0.99665212238430179 -1.0033374686834775 -1.012143666227979 -1.0155526009900415 -0.19408674618600441 -0.11376225022477571 -0.54663092628179277 -0.90276400665834922 -0.90281988820056913 -0.98918936775874622 -1.004839067852956 0.96210360786050098 -1.0052831630535644 -0.99847193769652964 -1.0113696579731408 -0.93215190088580024 -1.0121801026709489 0.58313692079805357 0.56696996511803821 0.43475773734029605 -0.68432619750814183 -0.68553020409308374 -0.92304013545337293 1.0060174333357599 0.92323166111714672 1.03827740720152 1.0275862403213978 0.99890239147894078 0.048017494380474091 0.92359663716621909 0.9249640237093647 0.9019374307329725 0.87782398748416879 0.83865959180627692 0.065582029521465302 -1.0036314927878867 -0.98042451769773198 -0.9925987432715736 -0.99332536949237527 -1.0067900309620701 0.23742239161583711 0.25949011934928556 -0.075174000323677603 -0.78301799928723981 -0.78287032189238503 -0.93978060381203066 0.9093669094145298 0.013346664607524872 0.046579597517848015 -0.94365189610090616 0.84224891201659557 0.83637982514893583 0.78121422182206013 0.74495929894508128 0.65694362415933938 -0.84820784588524101 -0.98128602644065965 -0.85398118189968841 -1.0146202403075539 0.76381386906731064 0.75696310571873482 0.6837547302508914 0.034185733675258234 -0.044027745170751587 -0.89160198064823148 0.016792217269539833 -1.0111403604626699 0.84688712199943572 0.84211864447236484 0.79191864813634749 0.75223136955130421 0.66318738565314561 -0.8900283261805999 -0.99274401548069124 0.84221565312754232 0.83732562638843011 0.78313512762722559 0.74631071658293047 0.65736974621540867 -0.90662688809398539 0.92268171710345626 0.92213423149503637 0.89522034629594882 0.87508249031006713 0.83489231557878374 0.017564535140991211 0.019538150168955326 -0.96648646584014497 -1.0285928374710704 -1.0028358337936827 -0.99196256622540058 -1.021853340818315 -1.0026963125986523 -1.0137093479636805 -0.99812821073367908 -0.99227616592250345 -0.96437140515752784 -0.99262508368073843 -0.026657523587346077 -0.98287833702316085 -0.96217235922813416
label 24 21 34 33 36 28 22 27 16 18 15 20 19 23 17 13 14 12 30 26 25 35 31 38 43 11 41 50 29 37 39 32 42 48 44 46 45 10 8 7 9 5 6
nr_sv 25 31 5 9 6 10 35 9 16 25 16 36 37 37 22 24 18 9 7 8 11 4 8 1 3 9 2 16 10 5 1 7 2 3 2 2 1 10 10 7 3 3 1
SV
1 0.68287392624705401 1 1 1 1 0 1 1 0.2516042126838528 1 1 1 1 0.53485795899056532 0.38946116775486206 0 1 0.25780324413057426 0 0.82003556684203838 1 0 1 0 0 1 1 1 0 1 0 1 0 0.42699890363464271 0.60032698126778672 0 0 0 0 0 0 1:-1 2:-0.64 3:-0.86437 4:-1 5:-0.37037 6:0.155011 7:0.283213 8:-0.461594 9:-1 10:-0.583969 11:-0.425532 12:1 13:-0.82064 
1 0 0 0 0.61155911261701179 1 0 1 1 1 1 1 1 1 1 1 0 0 0 0 0 0 0 0 0 0 0 0 0 0 0 0 0 0 0 0 0 0 0 0 0 0 1:-0.996207 2:-1 3:-0.596774 4:-1 5:-0.530864 6:-0.0783675 7:-0.437693 8:-0.505733 9:-0.652174 10:-0.648855 11:0.404255 12:0.9825 13:-0.536424 
1 0 0.44525576343327189 0.29685899656369147 0.37177061771067937 1 0 0 0.23027085612659734 0 1 1 1 0 0 0 0 0 0.48924296031052628 0.65062035788967254 0.61879829604517378 0 0 0.35675441781263084 0 0 0 0.63001054519882349 0 0 0 0 0 0 0.18439191833376123 0 0 0 0 0 0 0 1:-0.99656 2:-1 3:-0.527126 4:-1 5:-0.740741 6:0.0155202 7:-0.92585 8:-0.164983 9:-0.826087 10:-0.824427 11:0.12766 12:0.987695 13:-0.684879 
1 0.36580159542022217 0 0 0 1 0 0 1 0 1 1 1 0 0 0 0 0.4075553194636492 0 0 0 0 0 0 0 0 0.23742649673617663 0 0 0 0.32939805060851679 0 0 0 0 0 0 0 0 0 0 0 1:-0.99968 2:0.7 3:-0.979472 4:-1 5:-0.897119 6:0.0814332 7:-0.324408 8:0.465504 9:-0.913043 10:-0.519084 11:2.22045e-16 12:1 13:-0.777042 
1 0.42984784244879648 0 0 0.076674110011686641 1 0 0 1 0 1 1 1 0 0 0 0 0 0 0 0 0 0 0 0 0 0 0 0 0 0 0 0 0 0 0 0 0 0 0 0 0 1:-0.998158 2:-1 3:-0.241202 4:-1 5:-0.884774 6:0.0944625 7:-0.92379 8:-0.243841 9:-0.73913 10:-0.549618 11:0.404255 12:0.933582 13:-0.724614 
1 0 0 0 0 1 0 0.81035260339691417 1 0.86241399525136464 1 1 1 1 1 1 0 0 0 0.73975641132635339 0 0 0 0 0 0 0.62788305105616782 0.20757447337207349 0 0 0 0 0 0 0.15188134681857515 0 0.029413632042463091 0.085839013116895374 0 0 0 0 1:-0.998367 2:-1 3:-0.0931085 4:-1 5:-0.786008 6:0.0392796 7:-0.936148 8:-0.432222 9:-0.652174 10:-0.194656 11:0.297872 12:0.990015 13:-0.721302 
1 0.31978191216201901 1 0.13856896140581654 1 1 0 0 1 0 1 1 1 1 0 0 0 0 1 0 0 0 0 0 0 0 0 0 0.86975016777036629 0 0.42689783955567295 0 0 0 0 0 0 0 0 0 0 0 1:-0.99932 2:-0.5 3:-0.677419 4:-1 5:-0.831276 6:0.0503928 7:-0.396498 8:-0.223217 9:-0.73913 10:-0.641221 11:0.361702 12:1 13:-0.724614 
1 0 0 0.33935396616591124 0 1 1 1 1 1 1 1 1 1 1 1 1 0.80460829797284661 0 1 0 0.51938784372807112 0 0.26549829830812932 1 1 1 0.0093573038849367601 0 0 0 0 0.31022196314366507 0.037400769038181632 0 0 1 1 1 0.5740026054279459 0.5761596918802776 0.14076284584657922 1:-0.969956 2:-1 3:0.40176 4:-1 5:-0.0946502 6:-0.040046 7:1 8:-0.885841 9:-0.652174 10:-0.175573 11:-0.553191 12:0.783095 13:-0.740618 
1 0 1 1 1 1 0 1 1 1 1 1 1 1 1 1 0 1 1 0 0 1 0.67187702506966285 1 0 0.81332887711673463 1 1 1 0.75707232965831084 0.47713729386884618 0 0.56324069181883385 0.53405585608641892 0 0.082662176403939469 0 0 0 0 0 0 1:-0.998923 2:-1 3:-0.736804 4:-1 5:-0.485597 6:0.0553746 7:0.452111 8:-0.602088 9:-0.652174 10:-0.583969 11:-0.148936 12:0.993444 13:-0.748344 
1 1 0.28157013285270621 0 0 1 0.083214869890214829 0.18964739660308583 1 0.88598179206478245 1 1 1 1 1 1 0 0.92977430706517417 0 0 0 0.36565507768087779 0 0 0 0 1 1 0 0 1 0 0 0 0 0 0 0 0 0 0 0 1:-0.999368 2:0.65 3:-0.884897 4:-1 5:-0.876543 6:-0.00325733 7:-0.268795 8:-0.0651184 9:-0.913043 10:-0.385496 11:-0.553191 12:0.984215 13:-0.68543 
1 0 0 0 1 1 0.80314943819946893 1 1 1 1 1 1 1 1 1 0.21066553385351505 0 0.46289305403468145 0.7332092956970756 0 0 0 0 0.75068291557163247 0 1 0 0 0 0 0 0 0 0 0 0.027813072939243292 0.13424017144530082 0 0 0 0 1:-0.994979 2:-1 3:-0.257331 4:-1 5:-0.572016 6:0.05959 7:0.0216272 8:-0.413417 9:-0.73913 10:-0.656489 11:0.276596 12:0.989762 13:-0.490066 
1 0 1 0 0 1 1 1 1 1 1 1 1 1 1 1 1 0 0.83451173668033418 1 0.60738532700673775 0 0 0 1 0 1 0.91092947871491059 0 0 0.5256673389271882 0 0 0 0.81913753031575287 0 1 1 1 0.83886451882710444 0.8069202577036324 0.24629580259861278 1:-0.997088 2:-1 3:-0.257331 4:1 5:-0.572016 6:-0.0408124 7:0.15757 8:-0.434459 9:-0.73913 10:-0.656489 11:0.276596 12:0.921428 13:-0.286424 
1 0 0 0.35627286169396388 1 1 1 1 1 1 1 1 1 1 1 1 1 0.20661753812808162 0.58334421804098602 0.2329996601419371 0 0.52809698853188203 0 0 1 0 1 0.23686127438311305 0.50199878419938992 0 0 0 0 0 0 0 1 1 1 0 0 0 1:-0.988071 2:-1 3:-0.579179 4:-1 5:-0.510288 6:-0.0726193 7:0.342945 8:-0.537706 9:-0.391304 10:-0.541985 11:0.0212766 12:0.90645 13:-0.452539 
1 0 0.61518349840653519 1 0.85178977543373879 1 1 1 1 1 1 1 1 1 1 1 1 0 0 1 0 1 0 0 1 0 1 1 0 0 0 0 0 0 0 0 1 1 0.38608060352811346 0 0 0 1:-0.992714 2:-1 3:-0.579179 4:-1 5:-0.497942 6:-0.0323817 7:0.207003 8:-0.541271 9:-0.391304 10:-0.541985 11:0.0212766 12:0.898381 13:-0.495033 
1 0 0 0 0 1 0.013960012178546515 1 1 1 1 1 1 1 1 1 0.80042556427488443 0 0 0.17029413423092651 0 0 0 0 0.13496740597891688 0 0.39065698224389278 0 0 0 0 0 0 0 0 0 1 1 0 0 0 0 1:-0.992503 2:-0.56 3:-0.604106 4:-1 5:-0.8107 6:-0.0239509 7:-0.340886 8:0.25961 9:-0.478261 10:-0.454198 11:0.382979 12:0.96611 13:-0.589956 
1 0 0.69632587510608523 0 0.38844088738298821 1 1 1 1 1 1 1 1 1 1 1 1 0 0.29462087432055861 1 0 0 0 0 1 0.081577259891808862 1 0 0 0 0 0 0 0 0 0 1 1 1 0.031650004315953703 0 0 1:-0.996447 2:-0.56 3:-0.604106 4:-1 5:-0.8107 6:0.100594 7:-0.0484037 8:0.217961 9:-0.478261 10:-0.454198 11:0.382979 12:0.888093 13:-0.570088 
1 0 0 0 0 1 0 0 1 0 1 1 1 1 0.56101205089985606 0 0 0 0.44725291080967994 0 0 0 0 0 0 0 0 0.4056007330599678 0 0 0 0 0 0 0 0 0 0 0 0 0 0 1:-0.996988 2:-0.56 3:-0.604106 4:-1 5:-0.8107 6:0.121288 7:-0.791967 8:0.139794 9:-0.478261 10:-0.454198 11:0.382979 12:0.996873 13:-0.769868 
1 0.018657129109279677 0 0 0 1 0 0 1 0 1 1 1 0.40977135666822062 0 0 0 0 0.30121728631636191 0.68399868101219363 0 0.2488984222797524 0 0 0 0 0 1 0 0 0 0.84955568492221667 0 0 0.15881957098990038 0 0 0 0 0 0 0 1:-0.995329 2:-0.56 3:-0.604106 4:-1 5:-0.8107 6:0.10251 7:-0.876416 8:0.139794 9:-0.478261 10:-0.454198 11:0.382979 12:0.899995 13:-0.897351 
1 0.10733424518150682 1 1 1 1 0 1 1 1 1 1 1 1 1 1 0 0 1 0.4854573135071707 0.081770441040944247 0.40827225524702837 0.32812297493033715 0.15703627719568761 0 0.049937721720657628 1 0.13745356514376583 1 0.24292767034168916 1 0 0 0.37501248734395631 0 0.14813058970763529 0 0 0 0 0 0 1:-0.997566 2:-0.6 3:-0.52346 4:-1 5:-0.674897 6:0.140832 7:0.149331 8:-0.492966 9:-0.826087 10:-0.862595 11:0.276596 12:0.990216 13:-0.668874 
1 0.075703349431121919 0.19716717652268909 0 0 1 1 1 1 1 1 1 1 1 1 1 1 0.65144453737024843 0 1 0.64879666464835806 0.43274985584785552 0 0 1 0 1 1 0 0 0.41399960868582608 0 0 0 0 0 1 1 1 0.54953339329573025 0.51164684248915471 0.049312243873586667 1:-0.999176 2:0.05 3:-0.643695 4:-1 5:-0.917695 6:0.151178 7:-0.588054 8:0.125335 9:-0.565217 10:-0.59542 11:-0.148936 12:0.873014 13:-0.57064 
1 1 1 0.86894521417061688 0 1 0.52181380523252763 1 1 1 1 1 1 1 1 1 0.4802494113419471 1 0 0 0.22321370441674779 1 0 0.22071100668355215 0.34923901805857593 0.0083393643732127404 1 0.41342740222704655 0 0 0.8268998683539498 0.45334374184435505 0.90542097082161666 0.48316907058035802 0.038489684803831775 0.16888025262063852 1 0.95906062389934521 0.1269858336244846 0 0 0.059641272626705114 1:-0.999149 2:0.4 3:-0.869501 4:-1 5:-0.938272 6:0.268442 7:-0.0834192 8:0.218198 9:-0.652174 10:-0.347328 11:-0.531915 12:0.96954 13:-0.760486 
1 0 0 0 0.73261328933232095 1 0 0 1 0 1 1 1 1 0 0 0 0 0.73576981276690978 1 0 0.49693955668453277 0 0 0 0.046816776897586197 0 0 0 0 0 0 0 0 0.22028104510353605 0 0 0 0 0 0 0 1:-0.995829 2:-1 3:-0.492669 4:-1 5:-0.555556 6:0.0998276 7:-0.756952 8:-0.220453 9:-0.652174 10:-0.618321 11:0.489362 12:0.983761 13:-0.815121 
1 1 0.76449755367871219 0 0.96715220751157438 1 0.38101131269871102 0 1 0 1 1 1 0.98413420668338258 0.69727603512764214 0.26503879002834352 0 1 0 0.3036641461946708 1 1 0 0 0 0 1 0.59799082981089613 0.62825104803024379 0 1 0.69710057323342822 0.22111637421588448 0.57036181695108512 0 0 0 0 0 0 0 0 1:-0.999805 2:0.6 3:-0.886364 4:-1 5:-0.794239 6:0.178003 7:-0.447992 8:0.312079 9:-0.73913 10:-0.645038 11:-0.0638298 12:0.969943 13:-0.764901 
1 0 0 0 0 1 0.19685056180053095 1 1 1 1 1 1 1 1 1 0.50865949052965354 0 0.5933439025893873 0 0 0 0 0 0.76511066039087483 0 0.74403346996376274 0 0 0 0 0 0 0 0 0 0.94277329501829366 0.82086019153845857 0.48693356284740186 0.22114243502772055 0.23781959069935282 0.08612669764090182 1:-0.998355 2:0.2 3:-0.909824 4:-1 5:-0.893004 6:0.156543 7:-0.320288 8:0.742437 9:-0.73913 10:-0.145038 11:0.212766 12:0.868274 13:-0.792494 
1 0 0 0 0 1 1 1 1 1 1 1 1 1 1 1 1 0 0 1 0 0 0 0 1 0 1 0.45079439420446626 0 0 0 0 0 0 0 0 1 1 1 0.78480704310554528 0.86745361722758241 0.41786113741361441 1:-0.993857 2:-1 3:-0.323314 4:-1 5:-0.176955 6:-0.0936961 7:-0.182286 8:-0.772281 9:-0.565217 10:-0.221374 11:0.404255 12:1 13:-0.345475 
-1 0.067657445892806062 1 1 1 1 0.031496326832958381 1 1 0 1 1 1 0.27178916873138437 0 0 0 1 0.40818821615355194 0 0 0.86762587082366349 0.53426391546032836 0.57779950463399754 0 0.14567192505337379 1 0 1 0.5649319876062755 0.66012308056070013 0 0.63458194372383325 0.17652934793252034 0 0.61172828445266481 0 0 0 0 0 0 1:-0.999528 2:-1 3:-0.515396 4:-1 5:-0.654321 6:0.0959954 7:0.565396 8:-0.302076 9:-0.913043 10:-0.790076 11:0.106383 12:1 13:-0.59106 
-1 1 1 1 0.42956416215119136 1 0.14319054077827884 1 1 1 1 1 1 1 1 0.71955431643202306 0 1 0 0 0.89049019315869082 1 0 1 0.6548974972604038 0 1 1 0 0 1 0.18866885345039947 0.38098788919262055 0 0.37062217216901494 0.1840354530363007 1 1 0.8293081659579371 0.5207782785103644 0.22778212434877987 0.066843008456343667 1:-0.998034 2:-0.75 3:-0.456745 4:-1 5:-0.427984 6:-0.107875 7:-0.256437 8:-0.214088 9:-0.652174 10:-0.526718 11:-0.446809 12:0.967724 13:-0.228477 
-1 0 0 0 0.20834902098466504 1 0.34957185829931997 1 1 1 1 1 1 1 1 1 0.78288311710219594 0 0.45257941089621156 0 0 0 0 0 0.39501094158204708 0 0 0 0 0 0 0 0 0 0 0 0 0 0 0 0 0 1:-0.977607 2:-1 3:-0.43695 4:-1 5:-0.37037 6:0.192949 7:0.738414 8:-0.434495 9:-0.73913 10:-0.541985 11:0.787234 12:0.915931 13:-0.434327 
-1 0 0 0.42291479389883091 1 1 0 0 1 0 1 1 1 0 0 0 0 0 0.81922741526181442 1 0 0.15014049901925725 0 0 0 0 0 1 0.96883792949752601 0 0 0 0 0 0.20514309991026924 0 0 0 0 0 0 0 1:-0.998341 2:-1 3:-0.596774 4:-1 5:-0.530864 6:-0.12282 7:-0.204943 8:-0.489929 9:-0.652174 10:-0.648855 11:0.404255 12:1 13:-0.611479 
-1 0.89249873618970088 1 0.31072070747053704 1 1 0 0 1 0 1 1 1 0 0 0 0 0 1 1 1 0.83648737257195938 0 0 0 0 0 1 0 0 1 0 0 0 0.35317623921457386 0 0 0 0 0 0 0 1:-0.997384 2:-1 3:-0.527126 4:-1 5:-0.740741 6:-0.0388963 7:-0.235839 8:-0.164983 9:-0.826087 10:-0.824427 11:0.12766 12:0.962126 13:-0.568433 
-1 0 0 0 0 1 0 0 0 0 1 1 1 0 0 0 0 0 1 1 0 0 0 0 0 0 0 0.57067818552051852 0 0 0 0.59244518794822709 0 0 0.2601079447321748 0 0 0 0 0 0 0 1:-0.996573 2:-1 3:-0.241202 4:-1 5:-0.884774 6:-0.0802836 7:-0.699279 8:-0.243841 9:-0.73913 10:-0.549618 11:0.404255 12:0.899339 13:-0.550221 
-1 0.4907741442040775 0 0 1 1 0.24689232531006131 0 1 0 1 1 1 0.61132111236695164 1 0 0 0 0.24568183293167972 0.89220526223228425 0 0 0 0 0 0 0 0 0 0 0 0 0 0 0 0 0 0 0 0 0 0 1:-0.998004 2:-1 3:-0.0931085 4:-1 5:-0.786008 6:0.0442614 7:-0.132853 8:-0.386554 9:-0.652174 10:-0.194656 11:0.297872 12:0.931061 13:-0.602097 
-1 0 0 0 0 1 0 0.6232141546444675 1 0 1 1 1 1 1 0.50586461649935455 0 0 0 0 0 0 0 0 0 0 0 0 0 0 0 0 0 0 0 0 0 0.51129289322715221 0.19292050417991 0 0 0 1:-0.998873 2:-1 3:-0.0931085 4:-1 5:-0.786008 6:0.0235677 7:0.046344 8:-0.293528 9:-0.652174 10:-0.194656 11:0.297872 12:0.947047 13:-0.414459 
-1 0.1092518099320605 1 1 1 1 0 0.54124998909808408 1 0 1 1 1 0 0 0 0 0.78793401196072954 1 0 0 0.43339809505498766 0.46573608453967158 1 0 0 1 1 1 0.43506801239372456 1 0 0.036741470841059207 0.14560200582780142 0 0.038008331404499329 0 0 0 0 0 0 1:-0.997556 2:-1 3:-0.821848 4:-1 5:-0.753086 6:-0.00287411 7:0.373841 8:-0.56977 9:-0.913043 10:-0.660305 11:0.148936 12:0.974431 13:-0.469647 
-1 0 0 0 0 1 0 0.41406699114919582 1 0 1 1 1 1 1 1 0 0 0 0 0 0 0 0 0 0 0 0 0 0 0 0 0 0 0 0 0 0 0 0 0 0 1:-0.997716 2:-1 3:-0.406158 4:-1 5:-0.444444 6:0.00938877 7:0.0607621 8:-0.700243 9:-0.652174 10:-0.248092 11:0.765957 12:0.982803 13:-0.378035 
-1 0 0 0 0 1 0.67192150057943956 1 1 1 1 1 1 1 1 1 0 0.070520772708708906 0 0 0 1 0 0 0 0.29004810943659698 1 0.045544454455862762 0 0 0 0 0 0 0 0 0 0 0 0 0 0 1:-0.997184 2:-1 3:-0.299853 4:-1 5:-0.333333 6:0.00210768 7:0.433574 8:-0.708918 9:-0.565217 10:-0.0648855 11:0.106383 12:0.981845 13:-0.431015 
-0 0 0 0 0 1 0 0.56452738702874239 1 1 1 1 1 1 1 1 0 0 0 0 0 0 0 0 0.41209945120504776 0 0.012548722110877597 0 0 0 0 0 0 0 0 0 0 0.079802488555657053 0.19563168625614286 0 0 0 1:-0.996343 2:-1 3:0.846774 4:-1 5:-0.193416 6:-0.0707032 7:0.761071 8:-0.842992 9:-0.913043 10:-0.996183 11:0.382979 12:0.940088 13:-0.278146 
-0.72973124812267798 0.020556023553425642 0.22488554291552787 0.45144361601432115 0 1 0.191212690336522 0.7642795935709592 1 1 1 1 1 1 1 1 0.97247378918374605 0.91878516113278397 0 0.39692546888619751 0 0.36123780682011647 0 0.33839168400034031 1 0.37298696585386099 1 0.15465579365470392 0 0 0.10000420513111506 0 0.28508564963727745 0 0 0 1 1 0.71033067458513366 0.070287944747432857 0.067425067227821128 0.00053096915933461154 1:-0.962903 2:-1 3:0.40176 4:-1 5:1 6:-0.0185859 7:0.944387 8:-0.911175 9:-0.652174 10:-0.175573 11:-0.553191 12:0.878461 13:-0.317329 
-0.49795581152962537 0 0.26717324527838793 0 0 1 0.16666492550517362 0 1 0 1 1 1 0.3197667531588721 1 0.74911096666378241 0 0 0 0.031217671157573346 0.45783628898990647 0 0 0 0 0 0.42689385295299276 0 0 0 0 0 0 0 0.020213837810504644 0 0 0.092360436878782828 0.018284809223070634 0 0 0 1:-0.99622 2:-1 3:-0.257331 4:1 5:-0.572016 6:-0.0806668 7:0.837281 8:-0.500314 9:-0.73913 10:-0.656489 11:0.276596 12:0.981593 13:-0.142384 
-1 0.067842439255248854 0 0 0 1 1 0 0.31611544362110722 1 1 1 1 1 1 0 0 0 0.05491313199995905 0.19006357665873377 0 0 0 0 0.10187625348894128 0 1 0 0 0 0.20492147581535974 0 0 0 0.11873611467382368 0 0 0.085643567284394706 0 0.038600183988705385 0.011739068786727959 0 1:-0.997654 2:-1 3:-0.0153959 4:1 5:-0.320988 6:-0.0841157 7:0.872297 8:-0.679964 9:-0.652174 10:-0.660305 11:-0.191489 12:1 13:-0.106512 
-1 0.11259383140257846 0.85650423273875453 0 0 1 0.4751274247333433 0.78203124804164814 0.91007918790754894 0.85358951645056658 1 1 1 0.52420526650579413 1 1 0.19564294640461882 0.47034338589469438 0.89458037611272623 0.42894475164174772 0.075437777846190393 0.21624355095009487 0 0 0.48750255571172385 0 1 0.91402050476370433 0 0 0.58371959685986585 0 0 0 0.46193344271193759 0 0.96515476799776323 1 0.59257424854304763 0.25407792312660815 0.1663994735300853 0.04919488868644506 1:-0.990977 2:-1 3:-0.579179 4:1 5:-0.497942 6:-0.0024909 7:0.820803 8:-0.651102 9:-0.391304 10:-0.541985 11:0.0212766 12:0.991628 13:0.0888521 
-1 1 1 0.77729857438428185 1 1 0.86496118292148017 0.45790614860643908 1 0.38669235404905961 1 1 1 1 1 0.53133471690419443 0.16428413462256936 1 1 0.75372675018521706 1 1 0 0.083808811365662372 0.22753432032061274 0 1 1 1 0 1 1 0.91192355410093096 0.93470365820744672 0.061913263247253977 0.16622793110653505 0.43393670202131185 0.18981492545046069 0.010733076961318679 0.0053200000130232614 0.034521029123782326 0.014836275383615897 1:-0.999059 2:0.6 3:-0.766862 4:-1 5:-0.971193 6:-0.0239509 7:-0.400618 8:0.471451 9:-1 10:-0.51145 11:-0.191489 12:0.979777 13:-0.732892 
-1 1 1 0 1 1 0.50043832112089814 0 1 0 1 1 1 0.93537723750190305 0.0042570268365456796 0 0 1 0 0.95268889573403082 0.56758760950601117 1 0 0 0 0 0.18527669151259477 1 0 0 1 0 0 0 0 0 0 0.10767633404187947 0 0 0 0 1:-0.993417 2:-0.6 3:-0.52346 4:-1 5:-0.674897 6:-0.120521 7:-0.192585 8:-0.39994 9:-0.826087 10:-0.862595 11:0.276596 12:0.958394 13:-0.378035 
-1 0 0.085949954356710268 0 0.35304252577641204 1 0.4506350459089532 0 0.32315946988516758 0 1 1 1 0 0 0 0 0.29156709142156351 0 1 0 0 0 0 0 0.12892687332427016 1 0.71537932504768242 0 0 0 0 0 0 0 0 0 0 0 0 0 0 1:-0.998299 2:-1 3:-0.0131965 4:-1 5:-0.786008 6:-0.0618893 7:-0.188465 8:-0.204667 9:-0.73913 10:-0.610687 11:-0.276596 12:1 13:-0.521523 
-1 0 0.22116962937661697 1 1 1 0.88597269659409328 0.6352195520438696 1 1 1 1 1 1 1 1 0 0 0 0 0 0.68332612297631634 0 0 0 1 1 0 1 0 0 0 0.7155114479236182 0.66484955632857279 0 0 0 0 0 0 0 0 1:-0.994087 2:-1 3:-0.307918 4:-1 5:-0.345679 6:0.036597 7:0.645726 8:-0.612036 9:-0.73913 10:-0.553435 11:0.234043 12:0.982299 13:-0.659492 
-1 0 0 0 0 1 0 0.36058581552958729 1 0.14922790648007875 1 1 1 1 1 0 0 0 0 0 0 0 0 0 0 0 0 0 0 0 0 0 0 0 0 0 0 0 0 0 0 0 1:-0.989454 2:-1 3:-0.307918 4:-1 5:-0.345679 6:-0.0220349 7:0.15139 8:-0.477616 9:-0.73913 10:-0.553435 11:0.234043 12:0.996621 13:-0.392936 
-1 0 1 0.037622308232028945 1 1 0 0 1 0 1 1 1 0 0 0 0 0 1 1 0 0 0 0 0 0 0 0.22311453451560237 0 0 0 0.16337482385511354 0 0 0.032597307211233523 0 0 0 0 0 0 0 1:-0.999252 2:-1 3:-0.653226 4:-1 5:-0.465021 6:-0.0511592 7:-0.349125 8:-0.116897 9:-0.652174 10:-0.858779 11:0.617021 12:1 13:-0.653422 
-0.67182965566040886 0 0 0 0.0090442910877315229 1 0.18804317777693097 1 0.26341840504108288 1 1 1 1 1 1 1 1 0 0 0 0 0 0 0 0.64687340287225159 0 1 0 0 0 0 0 0 0 0 0 1 0.9534465245483088 0.51515088029959333 0.069364252082070324 0.067003019322239857 0 1:-0.913603 2:-1 3:0.293255 4:1 5:0.584362 6:0.0860318 7:0.814624 8:-0.74982 9:1 10:0.828244 11:0.617021 12:0.97196 13:-0.363135 
-0.1780875871545107 0.090431439141687386 0.10874080306566801 0 0 1 0.085699396482499912 0.36111528179914471 0.052788493162144338 0.19450239556205895 1 1 1 0.73018662260661849 1 0.49413538350064545 0.042836328655152585 0.099967950261756075 0.10390388984667577 0.24031695557668606 0.0086481304992012363 0.081986090952896551 0 0 0 0.02213300285907896 1 0.18754560850918131 0.031162070502473983 0 0.11643056577167649 0.025309834352906992 0.035168044580660376 0.031825301130921087 0 0 0.020308751407860974 0 0 0 0 0 1:-0.922042 2:-1 3:0.293255 4:1 5:0.37037 6:1 7:0.647786 8:-0.859033 9:1 10:0.828244 11:0.617021 12:0.786424 13:-0.803532 
-0 0.084544371102001387 0 0 0 1 1 1 1 1 1 1 1 1 1 1 1 0 0 0.29422780596710807 0 0 0 0 1 0 1 0 0 0 0.11678727507684869 0 0 0 0 0 1 1 1 1 1 0.44734571023716435 1:-0.917036 2:-1 3:0.293255 4:-1 5:0.37037 6:-0.462732 7:0.822863 8:-0.88675 9:1 10:0.828244 11:0.617021 12:0.592163 13:-0.322848 
-0 0 0 0 0 1 0.74817258682004728 1 1 1 1 1 1 1 1 1 1 0 0 0 0 0 0 0 1 0 1 0 0 0 0 0 0 0 0 0 1 1 1 0.041571417531795482 0.42513021766056353 0.3171701302853327 1:-0.823918 2:-1 3:0.293255 4:-1 5:0.111111 6:0.0147538 7:0.287333 8:-0.666488 9:1 10:0.828244 11:0.617021 12:1 13:-0.365894 
-0 0 0 0 0 1 1 1 1 1 1 1 1 1 1 1 1 0.024839755768277464 0.020925726797381285 1 0 0 0 0 1 0.04023312347281912 1 0.43279274349680247 0 0 0 0 0 0 0 0 1 1 1 1 1 0.10407901779176371 1:-0.677927 2:-1 3:0.293255 4:-1 5:-0.0576132 6:0.0224181 7:0.752832 8:-0.850576 9:1 10:0.828244 11:0.617021 12:0.931514 13:-0.371965 
-1 0 0 0 0 1 0 0.49580383848786214 0 0.41598782745823609 1 1 1 0.60735383912847596 1 1 1 0 0 0 0 0 0 0 0.17177873402571267 0 0 0 0 0 0 0 0 0 0 0 1 0.77166621702314686 0 0 0 0 1:-0.936786 2:-1 3:0.293255 4:-1 5:-0.395062 6:-0.156543 7:-0.22966 8:-0.460084 9:1 10:0.828244 11:0.617021 12:0.979928 13:-0.520419 
-0.92239569753277706 0.063849759326413458 0.23557659226833438 0 0 1 0 1 0.13443900038294904 1 1 1 1 1 1 1 1 0.3360418708514864 0 0.81968286196042139 0 0.36955459083070791 0 0 1 0 0.37528073342353491 0.75626885003594169 0 0 0.21801380078443414 0.030201300393352896 0 0.046490130572737653 0.11555657831921379 0 1 1 0.9322019636147586 0 0 0 1:-0.91756 2:-1 3:0.293255 4:-1 5:-0.185185 6:0.0542249 7:0.0092688 8:-0.479471 9:1 10:0.828244 11:0.617021 12:0.958243 13:-0.511589 
-1 0 0 0 0 1 0 0 1 1 1 1 1 1 1 1 0 0 0 0 0 0 0 0 0 0 0 0 0 0 0 0 0 0 0 0 0 0 0 0 0 0 1:-0.996246 2:-1 3:-0.323314 4:-1 5:-0.176955 6:-0.17762 7:0.0525232 8:-0.772281 9:-0.565217 10:-0.221374 11:0.404255 12:1 13:-0.432671 
-1 0 0 0 0 1 0 1 1 1 1 1 1 1 1 1 0.84187968403171731 0 0 0 0 0 0 0 0.9024268435332593 0 0 0 0 0 0 0 0 0 0 0 0.58059977857306411 0.20829661299021762 0.0028639903790875949 0 0 0 1:-0.994767 2:-1 3:-0.323314 4:-1 5:-0.176955 6:-0.0580571 7:0.285273 8:-0.767298 9:-0.565217 10:-0.221374 11:0.404255 12:1 13:-0.38245 
-1 -1 1 1 1 1 1 1 1 1 1 1 1 1 1 1 1 1 1 1 1 1 1 1 1 1 1 1 1 1 1 0.22866516657762684 1 0.81558790499634792 0.9027465239971566 0.64972845368870713 1 1 1 1 1 0.15819536990320998 1:-0.999529 2:-1 3:-0.515396 4:-1 5:-0.654321 6:0.388772 7:0.198764 8:-0.302076 9:-0.913043 10:-0.790076 11:0.106383 12:0.979475 13:-0.873068 
-1 -1 1 1 1 1 1 1 1 1 1 1 1 1 1 1 1 1 1 1 1 1 0 0.41806595669093866 1 0 1 1 1 0 1 0.57415862290229747 0.21395357377162566 0.35671362966515796 0.097253476002843384 0 1 1 1 0 0 0 1:-0.999387 2:0.5 3:-0.817449 4:-1 5:-0.823045 6:0.327074 7:-0.734295 8:-0.223145 9:-0.826087 10:-0.751908 11:0.212766 12:0.993545 13:-0.986203 
-1 -1 1 1 1 1 1 1 1 1 1 1 1 1 1 1 1 1 1 1 1 1 0 1 1 1 1 1 1 0 1 0.48231320306396941 1 0.33417922061614841 1 0.17445700370824596 1 1 1 1 1 0.79279936909205095 1:-0.998261 2:-0.1 3:-0.781525 4:-1 5:-0.786008 6:0.388772 7:-0.258496 8:-0.374897 9:-0.652174 10:-0.194656 11:-0.446809 12:1 13:-0.798013 
-1 -1 1 1 1 1 1 1 1 1 1 1 1 1 1 1 1 1 1 1 0.78641827687023813 1 0 0.5819340433090614 1 0 1 1 1 0 1 0.1927687624705639 0.7860464262283744 0.35349335680719873 0 0.17581454260304694 1 1 1 0.015835739840079827 0.022919622071713934 0 1:-0.999295 2:0.6 3:-0.922287 4:-1 5:-0.921811 6:0.422878 7:-0.270855 8:0.123844 9:-0.913043 10:-0.458015 11:-1 12:0.976297 13:-0.730132 
-1 -1 1 1 1 1 1 1 1 1 1 1 1 1 1 1 1 1 1 1 0.21358172312976192 1 0 0 1 0 1 1 1 0 1 0.52209424498554247 0 0.14002588791514697 0 0 1 1 1 0.9841642601599202 0.97708037792828606 0.049005261004739162 1:-0.999434 2:0.9 3:-0.925953 4:-1 5:-0.925926 6:0.308297 7:-0.744593 8:0.18648 9:-0.826087 10:-0.179389 11:-0.0638298 12:1 13:-0.843819 
-1 -1 -0.16040625941781908 1 1 1 1 1 1 1 1 1 1 1 1 1 0 0 1 1 0.78185882851522504 1 0 0.15914875851433502 1 0 1 1 1 0 0 0.097094813877006581 0 0 0.21924546931381825 0.081634539865738084 0.45842167814464491 0.82887723047309891 0 0 0 0 1:-0.999414 2:-1 3:-0.8739 4:-1 5:-0.699588 6:0.317111 7:-0.116375 8:-0.102911 9:-0.826087 10:-0.866412 11:0.297872 12:0.988552 13:-0.933223 
-1 -1 -0.95726501298811284 0.21702303300320841 1 1 1 1 1 1 1 1 1 1 1 1 1 1 1 1 0.082332862779615865 0.69957884252079472 0 0 1 0 1 1 0.032720224856258369 0 1 0.22348820129374394 0 0 0 0.067209320052647736 1 1 1 0.053507115406026012 0.034666054945939981 0 1:-0.999703 2:-0.65 3:-0.932551 4:-1 5:-0.872016 6:0.357731 7:0.165808 8:0.471924 9:-0.826087 10:-0.889313 11:0.276596 12:0.981542 13:-0.651214 
-1 -1 -0 1 1 1 1 1 1 1 1 1 1 1 1 1 1 0.70971896302992732 1 1 0 1 1 1 1 0.72736909300592878 1 1 1 0.76703798446665916 0.84412377591708976 0 0.2179739486955678 0.21665084102829027 0.2159477551358242 0.29733465462423869 1 1 0.29796018512791567 0 0 0 1:-0.9986 2:-1 3:-0.821848 4:-1 5:-0.753086 6:0.477295 7:0.2276 8:-0.56977 9:-0.913043 10:-0.660305 11:0.148936 12:1 13:-0.753863 
-1 -1 -1 0.40066090530982812 1 1 1 1 1 1 1 1 1 1 1 1 1 1 0.2433693473480574 1 0.77666340645741139 1 0 0.12549949990657189 1 0 1 1 0.28463169840083463 0 1 0.67941698482924939 0.76669049479967288 0.57329438846569214 0 0.17064103311930334 1 1 0.70203981487208433 0 0 0 1:-0.99924 2:0.6 3:-0.922287 4:-1 5:-0.921811 6:0.42786 7:-0.357364 8:0.123844 9:-0.913043 10:-0.458015 11:-1 12:1 13:-0.870309 
-1 -1 -0.26353950028890394 1 1 1 1 1 1 1 1 1 1 1 1 1 1 1 0.805534308701369 1 0.078907611909894648 1 0 1 1 0.8406871180150326 1 1 0.77989631678746496 0.10122986439054053 0.58725957219377634 0 1 0.043075474057955983 0.045932233549928668 0.262720349292897 1 1 1 0.60624955655479007 0.60282207194313864 0.17197015899937221 1:-0.988001 2:-0.6 3:-0.742669 4:-1 5:0.0781893 6:0.39567 7:0.625129 8:-0.821313 9:-0.652174 10:-0.706107 11:-0.914894 12:0.979323 13:-0.566225 
-1 -1 -0 0.38231606168696342 1 1 1 1 1 1 1 1 1 1 1 1 1 0.95145338494543785 1 1 0.69347734713842857 0.89596489729797157 0 0 1 0.24437004194893641 1 1 0.12800248989193036 0 0.56861665188913391 0 0.005206588756700996 0.053081740002329479 0.74065733050112514 0 1 1 1 1 1 0.45173902057973114 1:-0.997789 2:-0.2 3:-0.563783 4:1 5:-0.744856 6:0.420195 7:-0.0504634 8:-0.334794 9:-0.73913 10:-0.744275 11:0.0638298 12:0.96142 13:-0.761589 
-1 -1 -0.61878922730516428 0 1 1 1 1 1 1 1 1 1 1 1 1 1 0.33882765202463483 0.95109634395057352 1 0.3035807338798982 0.40445626018123371 0 0 1 0 1 1 0 0 1 0 0 0 0.25322982129177601 0 1 1 1 0.23240452200679704 0.27189139620110037 0 1:-0.998765 2:-0.2 3:-0.563783 4:1 5:-0.744856 6:0.251198 7:-0.491246 8:-0.321045 9:-0.73913 10:-0.744275 11:0.0638298 12:0.982601 13:-0.865894 
-1 -1 -1 1 1 1 1 1 1 1 1 1 1 1 1 1 1 1 1 1 1 1 0 0.57417252369484739 1 0.12716037704788238 1 1 0.77474927006351169 0 1 1 0.010128967748058324 0.21707311904183096 0.52498739020752772 0 1 1 1 1 1 0.37629082042089662 1:-0.997894 2:-0.32 3:-0.587243 4:-1 5:-0.802469 6:0.310979 7:-0.69516 8:-0.206667 9:-0.478261 10:-0.458015 11:-0.255319 12:0.967371 13:-0.827263 
-1 -1 -1 1 1 1 1 1 1 1 1 1 1 1 1 1 1 1 1 1 0.28317920931952628 1 0 0.14117921788424576 1 0.060413369982219856 1 1 1 0.13173215114280035 1 0 1 0.89682443740390128 0 0.12046010304517504 1 1 1 0.10783880603238685 0.090620476909820905 0 1:-0.998455 2:-0.34 3:-0.8739 4:-1 5:-0.641975 6:0.478827 7:0.421215 8:-0.64179 9:-0.478261 10:-0.866412 11:0.234043 12:1 13:-0.738411 
-1 -1 -1 -1 1 1 1 1 1 1 1 1 1 1 1 1 1 1 1 1 1 1 0.71076495988516752 0.66426842997335711 1 0.5761326779063779 1 1 1 0.30704596090619374 1 0 0 0.034629841598683667 0.25380444666652646 0.38562752035275732 1 1 1 0.036671197808212277 0.025592202556138435 0 1:-0.99859 2:-1 3:-0.8739 4:-1 5:-0.699588 6:0.37421 7:0.0566426 8:-0.102911 9:-0.826087 10:-0.866412 11:0.297872 12:1 13:-0.801325 
-1 -1 -0.91388294448503504 -1 1 1 1 1 1 1 1 1 1 1 1 1 1 1 1 1 0.35549711411872759 1 0.10329420839960668 0.24000887335642793 1 0 1 1 1 0.47538466700104776 1 0 0 0 0.026334831710995953 0 1 1 1 0 0 0 1:-0.998594 2:-1 3:-0.853372 4:-1 5:-0.576132 6:-0.0101552 7:0.221421 8:-0.732961 9:-0.826087 10:-0.977099 11:0.106383 12:1 13:-0.573951 
-1 -1 -1 -1 1 1 1 1 1 1 1 1 1 1 1 1 1 1 1 1 1 1 0 0.54130372613439315 1 0.29917737900013991 1 1 1 0 1 1 0.86411743657085505 0.73907966696549376 0.69911046414421862 0.23836815277807735 1 1 1 1 1 0.47028635810966024 1:-0.998194 2:-0.1 3:-0.781525 4:-1 5:-0.786008 6:0.386089 7:-0.518023 8:-0.0269621 9:-0.652174 10:-0.194656 11:-0.446809 12:0.967674 13:-0.937086 
-1 -1 -0.086117055514964916 -1 1 1 1 1 1 1 1 1 1 1 1 1 1 1 1 1 0 1 0.1859408317152258 0.41164166605072244 1 0.95702444971040312 1 1 1 0.21756937209275853 1 0 1 0.31870351388254553 0 0.31060390035680552 1 1 1 0 0 0 1:-0.985227 2:-0.6 3:-0.742669 4:-1 5:0.0781893 6:0.445488 7:1 8:-0.86087 9:-0.652174 10:-0.706107 11:-0.914894 12:0.931363 13:-0.665563 
-1 -1 -1 -1 1 1 1 1 1 1 1 1 1 1 1 1 1 1 1 1 0.64450288588127247 1 0 1 1 0 1 1 0 0 1 0 0.26304334480027247 0 0.20579465919187076 0 1 1 1 0.96332880219178763 0.97440779744386152 0.21272609977078547 1:-0.987777 2:-0.6 3:-0.742669 4:-1 5:0.0781893 6:0.396819 7:0.826982 8:-0.854414 9:-0.652174 10:-0.706107 11:-0.914894 12:0.954562 13:-0.648455 
-1 -1 -1 -1 1 1 1 1 1 1 1 1 1 1 1 1 1 1 1 1 1 1 0 0.14277730448509918 1 0.16766549338307912 1 1 1 0 1 1 0.87283921862887259 0.907586977553277 0.81495559828638819 0.065400426512359888 1 1 1 1 1 0.31698754211955432 1:-0.998902 2:-0.34 3:-0.8739 4:-1 5:-0.641975 6:0.408316 7:-0.213182 8:-0.473961 9:-0.478261 10:-0.866412 11:0.234043 12:0.983761 13:-0.713024 
-1 -1 -0 -1 -0.044877603863905345 1 0 1 1 1 1 1 1 1 1 1 0 0 1 1 0 0 0 0 0 0 1 1 0.20494588494007476 0 0 0 0 0 0 0 0 0 0 0 0 0 1:-0.999471 2:-1 3:-0.8739 4:-1 5:-0.699588 6:0.0994443 7:0.149331 8:-0.102911 9:-0.826087 10:-0.866412 11:0.297872 12:0.98598 13:-0.807947 
-1 -1 -1 -1 -0 1 1 1 1 1 1 1 1 1 1 1 1 1 1 1 0.82653202345445409 1 0 0 1 0 1 1 0 0 1 0.50383637555431637 0 0 0.071486614946802848 0 1 1 1 0 0 0 1:-0.999217 2:-0.5 3:-0.677419 4:-1 5:-0.831276 6:0.213259 7:-0.369722 8:-0.223217 9:-0.73913 10:-0.641221 11:0.361702 12:1 13:-0.803532 
-1 -1 -0 -1 -1 1 1 1 1 1 1 1 1 1 1 1 0 1 0.049461352898962557 1 0.047131718617726671 1 1 1 1 0.49763548743004682 1 1 1 0.9164585214786013 0 0 0.45728790937454683 0.35499286379692441 0.0045539469689884725 0.341116112957638 0.3537296034036167 0.75273623260990097 0 0 0 0 1:-0.99895 2:-1 3:-0.783724 4:-1 5:-0.572016 6:0.348151 7:0.239959 8:-0.584447 9:-0.913043 10:-0.683206 11:0.106383 12:0.995764 13:-0.780905 
-1 -1 -0 -0.70469963483029741 -1 1 1 1 1 1 1 1 1 1 1 1 1 0 1 1 0 0.39644815811765333 0 0.12721538503426935 1 0 1 1 1 0 1 0 0 0 0 0 1 1 0 0 0 0 1:-0.997399 2:-1 3:-0.821848 4:-1 5:-0.753086 6:0.174171 7:0.130793 8:-0.56977 9:-0.913043 10:-0.660305 11:0.148936 12:0.803722 13:-0.728477 
-1 -1 -0 -0.29530036516970259 -0 1 1 1 1 1 1 1 1 1 1 1 1 0 1 1 0 0.60355184188234667 0 0 1 0 1 1 0 0 0 0 0 0 0.37159072476732946 0 1 1 1 0.65260244391440758 0.65875762797343906 0.20245895515541495 1:-0.996983 2:-1 3:-0.257331 4:-1 5:-0.572016 6:0.0783675 7:-0.394439 8:-0.487892 9:-0.73913 10:-0.656489 11:0.276596 12:0.944072 13:-0.577815 
-1 -1 -0.06977050503348288 -1 -1 1 1 1 1 1 1 1 1 1 1 1 1 1 1 1 0.068527854775342123 1 0 0.62037570253484531 1 1 1 1 0.80705745413603358 0 1 0 1 0.41439793772219158 0 0 1 1 1 1 1 0.52945894198376153 1:-0.998566 2:-1 3:-0.0153959 4:-1 5:-0.320988 6:0.180686 7:0.6931 8:-0.583246 9:-0.652174 10:-0.660305 11:-0.191489 12:0.979222 13:-0.560706 
-1 -1 -1 -1 -0.37298476295234329 1 1 1 1 1 1 1 1 1 1 1 1 1 0.9061391625506352 1 1 1 0 0 1 0 1 1 0.98799666092389171 0 1 1 0.76691635345993769 0.8695855529917953 0.043329944172494889 0 1 1 1 0.57887729018740541 0.59852429931056594 0.24250332793118259 1:-0.999355 2:0.6 3:-0.670821 4:-1 5:-0.893004 6:0.26461 7:-0.485067 8:-0.274868 9:-0.73913 10:-0.778626 11:0.404255 12:1 13:-0.9117 
-1 -1 -1 -1 -0.58213763318375134 1 1 1 1 1 1 1 1 1 1 1 1 1 1 1 1 1 0 0.5169589576866418 1 0.26018837862047095 1 1 0 0 1 0.49616362444568363 0 0.034324525574494585 0.78210094900476501 0.23184152098112004 1 1 1 0.22821721128310971 0.21108222835615414 0 1:-0.997235 2:-1 3:-0.0131965 4:-1 5:-0.786008 6:0.194482 7:-0.419156 8:-0.121425 9:-0.73913 10:-0.610687 11:-0.276596 12:1 13:-0.749448 
-1 -1 -1 -1 -1 1 1 1 1 1 1 1 1 1 1 1 1 1 1 1 1 1 0 0 1 0 1 1 0 0 1 0 0 0 0.72693782013961927 0 1 1 1 0.54030305461507733 0.5316358443598409 0.025578774929640943 1:-0.99891 2:-0.34 3:-0.8739 4:-1 5:-0.641975 6:0.170722 7:0.136972 8:-0.59254 9:-0.478261 10:-0.866412 11:0.234043 12:0.982147 13:-0.602649 
-1 -1 -0.93022949496651708 -1 -1 1 1 1 1 1 1 1 1 1 1 1 1 1 0.044399484550402317 1 0.057808403152477157 1 0 0.73544995474424346 1 0.24217613394948226 1 1 1 0.083541478521398704 1 0 0.77579573716551553 0.3266991199145941 0 0.42704236606124185 1 1 1 0 0 0 1:-0.999033 2:-0.34 3:-0.8739 4:-1 5:-0.641975 6:0.260011 7:0.38826 8:-0.626604 9:-0.478261 10:-0.866412 11:0.234043 12:1 13:-0.679912 
-1 -1 -0 -0 -0 -0 0 1 1 1 1 1 1 1 1 1 0 0 0 0 0 0 0 0 0 0 1 0 0 0 0 0 0 0 0 0 0 0 0 0 0 0 1:-0.998157 2:-0.75 3:-0.456745 4:-1 5:-0.427984 6:-0.0607396 7:0.312049 8:-0.194155 9:-0.652174 10:-0.526718 11:-0.446809 12:0.993444 13:-0.409492 
-1 -1 -0 -0.57569860940723161 -0 -0 1 1 1 1 1 1 1 1 1 1 1 0 0.18573982209416845 0.67907651148001247 0 0 0 0 0.65121865106127241 0 0 0 0.32469436534645069 0 0 0 0 0 0 0 0.5477402804610807 0.30550069489659981 0 0 0 0 1:-0.997663 2:-0.5 3:-0.657625 4:-1 5:-0.720165 6:0.109408 7:0.336766 8:0.108658 9:-0.391304 10:-0.629771 11:0.510638 12:1 13:-0.724062 
-1 -1 -0 -0 -0 -0 0 0 0 0 1 1 1 0.77805309219778263 0 0 0 0 0.16258402901931082 0.76257884649172269 0 0 0 0 0 0 0 0 0 0 0 0 0 0 0 0 0 0 0 0 0 0 1:-0.998841 2:-0.75 3:-0.58871 4:-1 5:-0.901235 6:-0.11209 7:-0.61895 8:-0.0236521 9:-0.73913 10:-0.396947 11:0.340426 12:0.99652 13:-0.648455 
-1 -1 -0 -0 -0 -0.52346857580209238 0 0 0 0 1 1 1 0 0 0 0 0 1 1 0.019622128766211153 0 0 0 0 0 0 0.60876319791750599 0 0 0 0.37333682151217967 0 0 0.075858927476721516 0 0 0 0 0 0 0 1:-0.998082 2:-1 3:-0.241202 4:-1 5:-0.884774 6:-0.0404292 7:-0.899073 8:-0.243841 9:-0.73913 10:-0.549618 11:0.404255 12:0.969792 13:-0.790839 
-1 -1 -0 -0 -0 -1 0 0 1 0 1 1 1 0 0 0 0 0 0 0 0 0 0 0 0 0 0 0 0.17846738367492446 0 0 0 0 0 0 0 0 0 0 0 0 0 1:-0.999344 2:-0.5 3:-0.677419 4:-1 5:-0.831276 6:-0.00134125 7:-0.0978373 8:-0.223217 9:-0.73913 10:-0.641221 11:0.361702 12:0.96843 13:-0.681015 
-1 -1 -0 -0 -0 -0 0 0 0 0 1 1 1 0 0 0 0 0 0 0 0 0 0 0 0 0 0 0 0 0 0 0 0 0 0 0 0 0 0 0 0 0 1:-0.998976 2:-1 3:-0.704545 4:-1 5:-0.736626 6:-0.05959 7:-0.130793 8:-0.400267 9:-0.826087 10:-0.770992 11:0.255319 12:0.995411 13:-0.385762 
-1 -0 -0 -0 -0 -1 0 0 0 0 1 1 1 0 0 0 0 0 0 0 0 0 0 0 0 0 0 0 0.026114863237892173 0 0 0 0 0 0 0 0 0 0 0 0 0 1:-0.998535 2:-1 3:-0.704545 4:-1 5:-0.736626 6:-0.0189692 7:0.110196 8:-0.523866 9:-0.826087 10:-0.770992 11:0.255319 12:0.991175 13:-0.629691 
-0.23794734155830022 -0 -0.16736668993858481 -1 -1 -1 0 0 0.61292197162954598 0 1 1 1 0 0 0 0 0 0.68601557416104997 0 0.30270188774919315 0 0 1 0 0 0 1 1 0 0.07082781555791387 0 0 0 0 0 0 0 0 0 0 0 1:-0.999089 2:-1 3:-0.783724 4:-1 5:-0.572016 6:0.0944625 7:0.301751 8:-0.643045 9:-0.913043 10:-0.683206 11:0.106383 12:0.976196 13:-0.609272 
-0 -0.74566335806597472 -0 -1 -1 -1 0 0 1 0 1 1 1 0 0 0 0 0.5231894458844073 1 0 0 0.53525754317094176 0.95337956523891998 0.096689163032707096 0 0 0 0.42418102521322992 1 0.93705102785934558 1 0 0 0.0025068521033537808 0 0.35535747048798011 0 0 0 0 0 0 1:-0.999258 2:-1 3:-0.783724 4:-1 5:-0.572016 6:0.089864 7:0.46241 8:-0.643081 9:-0.913043 10:-0.683206 11:0.106383 12:0.983106 13:-0.642936 
-1 -1 -0.059289195599407735 -0 -0 -1 0.55072817626465931 0 1 0.36477166837549119 1 1 1 1 1 0.80087499423180131 0 0 0 1 0 0 0 0 0 0 1 0.089356219864938136 0 0 0.1703011765168459 0 0 0 0 0 0 0 0 0 0 0 1:-0.999197 2:-0.44 3:0.068915 4:-1 5:-0.674897 6:0.104043 7:0.0442842 8:-0.538725 9:-0.73913 10:-0.683206 11:0.191489 12:0.990469 13:-0.645143 
-0.95375118792387592 -1 -0 -0 -0 -0 1 1 1 1 1 1 1 1 1 1 1 0 0.03853277572983569 0 0 0.92621777817791939 0 0 1 0.053991527648557622 1 0 0 0 0 0 0 0 0 0 1 1 1 0 0.15370237150380309 0 1:-0.997875 2:-1 3:-0.299853 4:-1 5:-0.333333 6:0.208661 7:0.621009 8:-0.718484 9:-0.565217 10:-0.0648855 11:0.106383 12:0.993394 13:-0.534768 
-0 -1 -0 -0 -0 -0 0 0.48825662483216115 1 1 1 1 1 1 1 1 0 0 0 0 0 0 0 0 0.38437701316684147 0 0 0 0 0 0 0 0 0 0 0 0 0.22341419032970333 0 0 0 0 1:-0.998591 2:-1 3:0.846774 4:-1 5:-0.193416 6:-0.115156 7:0.375901 8:-0.794833 9:-0.913043 10:-0.996183 11:0.382979 12:0.960916 13:-0.302428 
-0 -1 -0 -0 -0 -0 0.42801439706555144 1 1 1 1 1 1 1 1 1 1 0 0 0 0 0 0 0 1 0 1 0 0 0 0 0 0 0 0 0 1 1 0.58617229881751909 0 0 0 1:-0.949735 2:-1 3:0.40176 4:-1 5:-0.0946502 6:-0.121288 7:0.831102 8:-0.764952 9:-0.652174 10:-0.175573 11:-0.553191 12:0.990973 13:-0.453091 
-1 -1 -0 -0 -0.020385425284193747 -0 1 1 1 1 1 1 1 1 1 1 1 0.90956755265419498 0 0.92893538462061165 0 0 0 0 1 0.8631725897371415 1 0 0 0 0 0 0 0 0 0 1 1 1 0.51922012011024132 0.44645444742934598 0.016446666197625651 1:-0.945078 2:-1 3:0.40176 4:-1 5:-0.0946502 6:0.0887143 7:0.901133 8:-0.79396 9:-0.652174 10:-0.175573 11:-0.553191 12:0.662817 13:-0.470751 
-0 -1 -0 -0 -0.11715778867310635 -0 0 0 1 0 1 1 1 0 0 0 0 0 0 0 0 0 0 0 0 0 0 0 0 0 0 0 0 0 0 0 0 0 0 0 0 0 1:-0.998243 2:-1 3:-0.736804 4:-1 5:-0.485597 6:-0.119372 7:0.355304 8:-0.714047 9:-0.652174 10:-0.583969 11:-0.148936 12:0.981492 13:-0.563466 
-1 -1 -0 -0 -0 -0 0 0 0 0 1 1 1 0.21026060496081411 0 0 0 0 0 1 0 0 0 0 0 0 0 0 0 0 0 0 0 0 0 0 0 0 0 0 0 0 1:-0.997075 2:-1 3:-0.257331 4:-1 5:-0.572016 6:-0.107109 7:-0.600412 8:-0.487892 9:-0.73913 10:-0.656489 11:0.276596 12:1 13:-0.495585 
-0 -1 -0 -0 -0 -0 0.42753185665608612 1 1 1 1 1 1 1 1 1 1 0 0 0 0 0 0 0 0.8108436987597385 0 0 0 0 0 0 0 0 0 0 0 0.39477181060065553 0.23970370435930202 0 0 0 0.061173820324230556 1:-0.994477 2:-1 3:-0.257331 4:-1 5:-0.572016 6:-0.148496 7:0.437693 8:-0.413417 9:-0.73913 10:-0.656489 11:0.276596 12:0.962328 13:-0.0987859 
-1 -1 -0 -1 -0 -0 1 1 1 1 1 1 1 1 1 1 1 0 0.82312469916051267 0.81944136616299768 0.59654995769730657 0 0 0 1 0 1 0.7278179624251816 0 0 0.50011311708762873 0 0 0 0.7142857103181548 0 1 1 1 0.44251372860811133 0.38546716716838214 0.095739330064982406 1:-0.99526 2:-1 3:-0.257331 4:1 5:-0.572016 6:-0.139299 7:0.0484037 8:-0.541143 9:-0.73913 10:-0.656489 11:0.276596 12:0.969943 13:-0.210817 
-1 -1 -0 -1 -1 -1 0 1 1 0 1 1 1 1 1 0.83080750066003772 0 1 1 0 0 0.88445462511455186 0 0.096726110981009805 0 0.082835882614300985 1 0.24291381929579861 0.40430929143698063 0 0.087765349246903768 0 0.60434229194915612 0.29349412351611004 0 0.42410427775448728 0 0 0 0 0 0 1:-0.997595 2:-0.4 3:-0.672287 4:-1 5:-0.823045 6:0.278406 7:0.0587024 8:-0.0530968 9:-0.565217 10:-0.568702 11:-0.148936 12:0.971506 13:-0.467439 
-1 -1 -0 -0 -0 -0 0.13052116771789649 1 1 1 1 1 1 1 1 1 0 0 0 0 0 0 0 0 0.36568068672343701 0 0.063937697571474897 0 0 0 0 0 0 0 0 0 1 1 0.99289867001004584 0.5498945792169484 0.23365112960909845 0.027660015644960043 1:-0.997829 2:-0.4 3:-0.672287 4:-1 5:-0.823045 6:0.0718528 7:0.0298661 8:0.0741027 9:-0.565217 10:-0.568702 11:-0.148936 12:0.878209 13:-0.476269 
-0.94096551054003352 -1 -0.027468235550333606 -0.4929291321111462 -1 -0 0 0.26076444706686802 0 1 1 1 1 0.71497129700431938 1 0.36831750510816103 0 1 0 0 0.16222597010057985 0.92325697113048621 0 1 0 0 1 0.55016185265673634 0 0 0.25297544056244231 0 0.73705129429816163 0 0.081928019871929117 0.083458159781463731 0 0 0 0 0 0 1:-0.983021 2:-0.6 3:-0.742669 4:-1 5:0.0781893 6:-0.233953 7:0.23378 8:-0.844156 9:-0.652174 10:-0.706107 11:-0.914894 12:0.977306 13:-0.518764 
-1 -0 -1 -1 -0.47519041579667798 -0.53695780067735888 0 0 0 0 1 1 1 0 0 0 0 1 0 0.15354894125025217 1 0.90712132454424932 0 0.22139073069699577 0 0 1 1 0.38032873257883254 0 1 0.32267113708402623 0.16768142948187606 0.30991773297767428 0 0.13708009197606888 0 0 0 0 0 0 1:-0.999896 2:0.1 3:-0.868768 4:-1 5:-0.983539 6:0.108258 7:-0.402678 8:0.123535 9:-1 10:-0.568702 11:-0.425532 12:0.989006 13:-0.64128 
-1 -1 -1 -0 -0 -0.28016016495962442 0.46056009688536143 0.21715870678059693 1 0 1 1 1 1 1 0 0 1 0 0 0.33231009023706748 0.38528202020105196 0 0 0 0 1 1 0 0 1 0 0 0.086309857148269858 0 0 0.17680886732656542 1 0.1860554444737289 0.05997551405868326 0.20505773367104643 0 1:-0.99911 2:0.05 3:-0.643695 4:-1 5:-0.917695 6:0.0553746 7:-0.120494 8:0.125335 9:-0.565217 10:-0.59542 11:-0.148936 12:1 13:-0.676049 
-1 -1 -1 -0.86890012371969649 -0.11106117940017407 -0 0.66688930986424222 0.19999963383099928 0.38707802837045396 1 1 1 1 1 1 1 0.97413118193384918 1 0.45360765248998397 0.27417407138564653 0.61339635862460029 1 0 0 0.78787995028871072 0 1 1 0.67754945821409607 0 1 1 0.61082235114219552 0.56464285043618234 0 0 0.88067904161169841 0.23138141041439475 0.23487358669870617 0.049850837140413065 0.069603802956558547 0.056944954874222013 1:-0.998689 2:0.4 3:-0.869501 4:-1 5:-0.938272 6:0.066871 7:-0.645726 8:0.218198 9:-0.652174 10:-0.347328 11:-0.531915 12:0.855464 13:-0.821192 
-1 -1 -1 -1 -0.470545817498076 -0.73983551702006634 0.14298412602996896 1 0 0.63522833162450887 1 1 1 1 1 1 0 0.15262212477861067 0.069269132071628242 1 0.52948323599867086 1 0 0.084613513625894712 0 0 1 1 0 0 1 0 0 0 0.46243527720489602 0 1 1 0 0 0 0 1:-0.999347 2:-0.32 3:-0.587243 4:-1 5:-0.802469 6:0.160759 7:-0.2276 8:-0.206667 9:-0.478261 10:-0.458015 11:-0.255319 12:0.9942 13:-0.571192 
-0 -1 -0 -0.07720529633307649 -0.62054436035479876 -0.89212136843999379 0 0 1 0 1 1 1 1 0.55987964866386275 0 0 0.081414507266175107 0 0 0 1 0 0.26655697552634433 0 1 1 0.11789311993927377 1 0 0.099869905538046769 0 0.8801026331286107 0.74312858381840952 0.01439958801963797 0 0 0 0 0 0 0 1:-0.98906 2:-1 3:-0.307918 4:-1 5:-0.345679 6:0.178003 7:0.639547 8:-0.602088 9:-0.73913 10:-0.553435 11:0.234043 12:1 13:-0.844923 
-1 -1 -0 -0 -0 -0 0 0 1 0 1 1 1 0.29671500583708388 0 0 0 0 0 0.69887846000324039 0 0 0 0 0 0 0 0.027037205450945359 0 0 0 0 0 0 0 0 0 0 0 0 0 0 1:-0.982374 2:-1 3:-0.307918 4:-1 5:-0.345679 6:-0.0185859 7:0.0278064 8:-0.72525 9:-0.73913 10:-0.553435 11:0.234043 12:1 13:-0.765453 
-1 -1 -0 -0 -0 -0 0.15502498059014674 1 1 0 1 1 1 1 1 1 0.025868818066150812 0 0 0 0 0 0 0 0 0 0 0 0 0 0 0 0 0 0 0 0 0 0 0 0 0 1:-0.994724 2:-1 3:-0.492669 4:-1 5:-0.555556 6:-0.0335313 7:-0.159629 8:-0.220453 9:-0.652174 10:-0.618321 11:0.489362 12:1 13:-0.389625 
-1 -1 -0 -0 -0 -0 0 0 0 0 1 1 1 0 0 0 0 0 0.43109483273873961 0.28965427057922583 0 0 0 0.23402350613704817 0 0 0 1 0 0 0 0 0 0 0.48469842328708168 0 0 0 0 0 0 0 1:-0.998631 2:-1 3:-0.796188 4:-1 5:-0.691358 6:0.0622725 7:-0.705458 8:-0.257063 9:-0.73913 10:-0.0725191 11:-0.0851064 12:0.890615 13:-0.690397 
-1 -1 -0 -0.64032255313883368 -0.18511501299297284 -1 0 0 1 0 1 1 1 0 0 0 0 0 1 1 0.44371037082637049 0.43840973766079971 0 0 0 0 0 0.43778291736856179 0 0 0 0 0 0 0.16639405382157893 0 0 0 0 0 0 0 1:-0.998999 2:-1 3:-0.653226 4:-1 5:-0.465021 6:0.0557578 7:-0.274974 8:-0.0308541 9:-0.652174 10:-0.858779 11:0.617021 12:0.96374 13:-0.782009 
-1 -0.25433664193402528 -0.61639538410055494 -0.34494428529001553 -0 -0.027456573100863975 0 0 1 0 1 1 1 0 0 0 0 0.33320636941661191 0.74406151702955692 0 0 0 0.0078201759781040096 0 0 0 0 0 0 0 0.7597522986830767 0.30399204140379404 0 0 0 0 0 0 0 0 0 0 1:-0.998746 2:-0.2 3:-0.942082 4:-1 5:-0.81893 6:0.122437 7:-0.145211 8:0.393575 9:-1 10:-0.435115 11:0.510638 12:1 13:-0.765453 
-0.3289567515581997 -1 -0 -0 -0 -0 0.95550403530372141 1 1 1 1 1 1 1 1 1 1 0 0.092180412679827517 0.39371214802629056 0 0 0 0 1 0 1 0.018224542557631784 0 0 0 0 0 0 0 0 1 1 1 0.37854522086560266 0.50606334766176531 0 1:-0.883209 2:-1 3:0.293255 4:1 5:0.584362 6:-0.0166699 7:0.658084 8:-0.710264 9:1 10:0.828244 11:0.617021 12:0.992587 13:-0.461921 
-0.45280691886374613 -1 -0 -0 -0 -0 1 1 1 1 1 1 1 1 1 1 1 0 0 1 0 0 0 0 1 0 1 0.75586813731019686 0 0 0 0 0 0 0 0 1 1 1 1 1 0.74203521289397933 1:-0.90435 2:-1 3:0.293255 4:-1 5:0.584362 6:-0.0224181 7:0.61483 8:-0.749111 9:1 10:0.828244 11:0.617021 12:0.968934 13:-0.396247 
-0.085572289555844561 -1 -0 -0 -0 -0 0 1 1 1 1 1 1 1 1 1 0 0 0 0 0 0 0 0 0 0 0 0 0 0 0 0 0 0 0 0 0 0 0 0 0 0 1:-0.998734 2:-1 3:-0.159091 4:-1 5:-0.226337 6:0.161908 7:0.363543 8:-0.754658 9:-1 10:-0.671756 11:0.787234 12:0.975238 13:-0.56181 
-0 -1 -0.12948049481111895 -0 -0 -0 0.082241853622365968 0.83382058748937427 1 1 1 1 1 1 1 1 0 0 0.31378955282538573 0 0 0 0.03880025878297616 0 0 0 0.93606230242852506 0 0.0085359055108234442 0.062948972140654424 0.058394896807141751 0 0 0 0 0 0 0 0 0 0 0 1:-0.997679 2:-1 3:-0.159091 4:-1 5:-0.226337 6:0.238935 7:0.779609 8:-0.770972 9:-1 10:-0.671756 11:0.787234 12:0.982601 13:-0.737859 
-1 -1 -1 -1 -1 -1 -1 1 1 1 1 1 1 1 1 1 1 1 1 1 0.80572329065165127 1 0 0.98258173327467224 1 0.35604180339108782 1 1 1 0.2063898513262713 1 0 1 0.24967369348512333 0 0.25760216917841466 1 1 1 0.25125369387597873 0.2465169147214035 0.066273104535457275 1:-0.996893 2:-0.75 3:-0.456745 4:-1 5:-0.427984 6:0.000574823 7:0.91967 8:-0.123226 9:-0.652174 10:-0.526718 11:-0.446809 12:1 13:-0.0386313 
-1 -1 -0.86820307425910359 -1 -1 -1 -1 1 1 1 1 1 1 1 1 1 1 1 1 1 0.074392903766756571 1 0.64359882652729206 0.50574847090940578 1 0.70401685723900587 1 1 1 0.63463524543028194 1 0 0.30024088444010621 0.35517770317117675 0 0 1 1 0.75844271000278785 0 0 0 1:-0.9968 2:-1 3:-0.406158 4:-1 5:-0.444444 6:0.213259 7:0.585994 8:-0.700243 9:-0.652174 10:-0.248092 11:0.765957 12:0.989208 13:-0.575607 
-1 -1 -0.13179692574089638 -1 -0.48939948479747225 -1 -1 1 1 1 1 1 1 1 1 1 1 0.91719738568637155 1 1 0 1 0 0 1 0.20998443495413405 1 1 0 0 0.97410118504669052 0 0 0 0 0 1 1 0.82951848355739732 0.085795789873230194 0.053576968537376285 0.016302354458473882 1:-0.971515 2:-1 3:0.40176 4:1 5:-0.0946502 6:0.0304656 7:0.84758 8:-0.878366 9:-0.652174 10:-0.175573 11:-0.553191 12:0.7076 13:-0.791943 
-1 -1 -0.60271425821124014 -1 -1 -1 -1 1 1 1 1 1 1 1 1 1 1 1 1 1 1 1 0 0.065708557212764404 1 0 1 1 0.95170180800500193 0 1 0.046285318030320557 0.11923023425758393 0.041374723247886908 0.93342584937857431 0 1 1 0.68422819766086029 0.21054714048149922 0.16815722090366678 0.04339544744318239 1:-0.986125 2:-1 3:-0.579179 4:1 5:-0.497942 6:0.271508 7:0.54068 8:-0.610345 9:-0.391304 10:-0.541985 11:0.0212766 12:0.967169 13:-0.547461 
-1 -1 -1 -1 -1 -1 -1 1 1 1 1 1 1 1 1 1 1 1 1 1 1 1 0 0.44596123860315751 1 0 1 1 1 0 1 1 1 0.93201334644866773 0.29180947465149448 0.17910591319245545 1 1 0.52353299821364008 0.13989959571739133 0.1274442374254833 0.037461332946086862 1:-0.999329 2:0.6 3:-0.670821 4:-1 5:-0.893004 6:0.176087 7:-0.577755 8:-0.274868 9:-0.73913 10:-0.778626 11:0.404255 12:1 13:-0.836093 
-1 -1 -1 -1 -1 -1 -1 1 1 1 1 1 1 1 1 1 1 1 1 1 1 1 0.35640117347270789 1 1 0.68868102490633931 1 1 1 0.15897490324344674 1 0.86670810335164838 0.58052888130230995 0.42176053364714533 0.77476467596993115 0.56329191762912989 1 1 0.20427761056531443 0.017892773896886226 0 0 1:-0.998934 2:-1 3:-0.0131965 4:-1 5:-0.786008 6:0.145047 7:-0.0092688 8:-0.121425 9:-0.73913 10:-0.610687 11:-0.276596 12:0.979575 13:-0.687638 
-1 -1 -0 -1 -0.057927367008472022 -1 -1 1 1 1 1 1 1 1 1 1 1 0.15718476016845834 0.15740469077741048 1 0 0.03101126150345046 0 0 1 0 1 1 0 0 0.087505753046641307 0 0 0 0 0 1 1 1 0.29461100615501451 0.40430465841207014 0.037385113447106995 1:-0.897728 2:-1 3:0.293255 4:-1 5:0.37037 6:-1 7:0.750772 8:-0.912048 9:1 10:0.828244 11:0.617021 12:0.78718 13:-0.702539 
-1 -1 -0 -1 -0 -1 -1 1 1 1 1 1 1 1 1 1 1 0 0.84259530922258952 1 0 0.96898873849654954 0 0 1 0.041275879509432969 1 1 0 0 0 0 0 0 0 0 1 1 1 1 1 0.43800361554234041 1:-0.731487 2:-1 3:0.293255 4:-1 5:0.127572 6:-0.215559 7:1 8:-0.971701 9:1 10:0.828244 11:0.617021 12:0.673155 13:-0.426049 
-1 -1 -0.39728574178875986 -1 -0.45267314819405574 -1 -1 1 1 1 1 1 1 1 1 1 1 0.92561785414517017 1 1 0.11988380558159216 1 0 0 1 0 1 1 0.048298191994998074 0 0.93839306190666805 0.087006578618031044 0 0 0 0 1 1 1 1 1 0.36117903162735221 1:-0.675576 2:-1 3:0.293255 4:-1 5:-0.127572 6:0.261161 7:1 8:-0.93891 9:1 10:0.828244 11:0.617021 12:-0.09708 13:-0.00386313 
-1 -1 -0.034132265223303836 -0.78108620645700511 -0.029233095290406401 -1 -1 -0.23481977755372846 1 1 1 1 1 1 1 1 0.12471003383108456 1 0 0 0 0.56966717143560519 0 0 0.80832107169253709 0 1 0.71489917883308862 0 0 0.24836765243442047 0 0.077041110220940789 0 0 0 0.8240964675177801 0.93247126748167131 0.34840192696000816 0 0.13886944987078984 0.03704784501331361 1:-0.995393 2:-0.75 3:-0.456745 4:-1 5:-0.427984 6:-0.206745 7:1 8:-0.0992916 9:-0.652174 10:-0.526718 11:-0.446809 12:0.948207 13:0.556291 
-1 -1 -0 -0.56459891290759412 -0 -1 -1 -0 1 1 1 1 1 1 1 1 0 0 0.98366037082464186 1 0 0 0.1145172642397649 0 0 0 1 0.40656111696482788 0 0 0 0 0 0 0 0 0 0 0 0 0 0 1:-0.985038 2:-1 3:-0.43695 4:-1 5:-0.37037 6:-0.136999 7:0.800206 8:-0.353927 9:-0.73913 10:-0.541985 11:0.787234 12:0.899037 13:-0.278146 
-1 -1 -0.22007253799396512 -1 -1 -1 -1 -0 1 1 1 1 1 1 1 1 0 0.36441325030313454 1 1 0.29286163647293878 1 0.31755099266380254 0.21580153217327422 0 0 1 1 0.76896178582504637 0.56897990052891512 1 0 0 0 0 0.20553712411373362 0 0 0 0 0 0 1:-0.994988 2:-1 3:-0.527126 4:-1 5:-0.740741 6:-0.0538417 7:0.701339 8:-0.170712 9:-0.826087 10:-0.824427 11:0.12766 12:0.979021 13:-0.057947 
-1 -1 -1 -1 -1 -1 -1 -1 1 1 1 1 1 1 1 1 0 1 1 1 1 1 0 0 0 0 1 1 1 0 1 0.32082516768726954 0.58078298280671303 0.70375018169551162 0.074114669737488717 0.12389780855894394 0.41576878906538928 0.20110370555081397 0 0 0 0 1:-0.996282 2:-0.5 3:-0.657625 4:-1 5:-0.720165 6:-0.0783675 7:0.864058 8:0.034637 9:-0.391304 10:-0.629771 11:0.510638 12:0.905089 13:-0.298565 
-1 -1 -0 -0 -0 -0.25664102887838242 -1 -0.15305950750076816 1 1 1 1 1 1 1 1 1 0 0 0 0 0 0 0 1 0.028628455386993677 1 0 0 0 0 0 0 0 0 0 0.97918578622941899 1 0.87925376904058949 0 0 0 1:-0.994317 2:-1 3:0.571114 4:-1 5:-0.0164609 6:-0.182985 7:0.917611 8:-0.880203 9:-0.73913 10:-0.0458015 11:0.829787 12:0.975843 13:-0.146799 
-1 -1 -1 -1 -1 -1 -1 -0.87318297543596257 1 1 1 1 1 1 1 1 0 1 1 1 1 1 0 0.70786773241029588 0.91129359859547543 0 1 1 0.95592920663142289 0 1 0.30735998597260344 0 0.15897991866947619 0.79185264282665724 0 0.78094895718741153 0.94961060531198094 0 0 0 0.033555012157790214 1:-0.940898 2:-1 3:-0.307918 4:-1 5:-0.345679 6:-0.4589 7:-0.281153 8:-0.747238 9:-0.73913 10:-0.553435 11:0.234043 12:0.765747 13:-0.397903 
-1 -1 -0.75252730625245867 -1 -1 -1 -1 -1 1 1 1 1 1 1 1 1 0 1 1 1 0 1 0 1 0 0.79435474323123767 1 1 1 0.20550581371928461 1 0 0.71295087752884312 0 0 0 0 0 0 0 0 0 1:-0.994442 2:-1 3:-0.307918 4:-1 5:-0.345679 6:-0.178387 7:0.54068 8:-0.487965 9:-0.73913 10:-0.553435 11:0.234043 12:0.997579 13:-0.460817 
-1 -1 -1 -1 -1 -1 -1 -0.94778947908764977 1 1 1 1 1 1 1 1 0 1 1 1 1 1 0.56793174309643257 1 0 0.5139485941639067 1 1 1 0.22551428575180033 1 1 1 0.84977727445842999 0.74478939738250638 0.67056506732732246 0 0 0 0 0 0 1:-0.999581 2:-1 3:-0.895161 4:-1 5:-0.452675 6:0.141598 7:0.169928 8:-0.0656821 9:-1 10:-0.103053 11:-0.297872 12:0.965001 13:-0.618102 
-1 -1 -0.27551330991535117 -0.61055312994254241 -0.09535591184410766 -0.63301218335609277 -1 -0.63731852177083093 1 1 1 1 1 1 1 1 0.94098365215518243 0.28814332971913559 0.47392971937594003 0.93623049476515841 0.23093462296722134 0.38017862487607229 0 0.040803075291846361 0.23829652700249279 0 1 0.80952917860366513 0 0 0.42101305740405442 0.095855108534246239 0.079217213188275709 0 0.14043742011259008 0 1 0.91681442165553384 0.082478352072409014 0 0.013111082714722276 0 1:-0.905225 2:-1 3:0.293255 4:1 5:0.584362 6:-0.140832 7:0.773429 8:-0.859033 9:1 10:0.828244 11:0.617021 12:0.778809 13:-0.287528 
-1 -1 -0.17200812356773659 -0.05466064095481294 -0 -0.11034678776552485 -1 -1 1 1 1 1 1 1 1 1 1 0.15406172881892763 0 0.41045629926344285 0.11452489126187887 0.034270278429187888 0 0 1 0 1 0.45071329156711876 0 0 0.18582384879421532 0.076124322718067405 0 0 0.0082782930677349244 0 1 1 1 1 1 0.2934924634139211 1:-0.355974 2:-1 3:0.293255 4:-1 5:-0.127572 6:-0.389155 7:1 8:-0.916376 9:1 10:0.828244 11:0.617021 12:0.0623329 13:0.0126932 
-1 -1 -0 -0 -0 -0 -1 -1 1 1 1 1 1 1 1 1 1 0 0 0 0 0 0 0 1 0.12944981280548312 1 0 0 0 0 0 0 0.067934027486879753 0 0 1 1 1 0.19632305188937418 0.043899846027992628 0 1:-0.750903 2:-1 3:0.293255 4:-1 5:0.37037 6:0.0921632 7:1 8:-0.867363 9:1 10:0.828244 11:0.617021 12:0.60588 13:-0.266556 
-1 -1 -0.54574645704718461 -0.98910110973804544 -0.072761607507637605 -1 -1 -0.90942280696967182 1 1 1 1 1 1 1 1 1 0.68346608100464323 0.54240990979941806 1 0.3616788492979609 0.88299110285480009 0 0.035527660124583541 1 0.015073517218304201 1 1 0 0 0.77352425962387283 0.19983541508781338 0.21726296285336974 0.10614882804199099 0.24052757687302262 0 1 1 1 0.76603563125427299 0 0 1:-0.855283 2:-1 3:0.293255 4:-1 5:-0.18107 6:0.0975283 7:0.480947 8:-0.805254 9:1 10:0.828244 11:0.617021 12:-0.50764 13:-0.431567 
-1 -1 -0 -0 -0 -0 -1 -0.58682696547190705 1 1 1 1 1 1 1 1 1 0 0 0.59606534158911972 0 0 0 0 1 0 1 0 0 0 0 0 0 0 0 0 1 1 1 0.037641316856352802 1 0.55026429899136209 1:-0.885718 2:-1 3:0.293255 4:-1 5:0.349794 6:0.0484767 7:0.831102 8:-0.774737 9:1 10:0.828244 11:0.617021 12:0.940441 13:-0.142384 
-1 -1 -0 -0 -0 -0 -1 -0 1 1 1 1 1 1 1 1 1 0.057629071974196019 0 1 0 0.13289282240433459 0 0 1 0 1 0.61829723403129955 0 0 0 0 0.064726003426177181 0.025022438924980434 0 0 1 1 1 1 0 0 1:-0.891968 2:-1 3:0.293255 4:-1 5:0.349794 6:0.203296 7:0.794027 8:-0.733034 9:1 10:0.828244 11:0.617021 12:0.285541 13:-0.189294 
-1 -1 -0 -0 -0 -0 -1 -0 1 1 1 1 1 1 1 1 1 0 0 0.057247864382278892 0 0 0 0 0.97691759005142509 0 1 0 0 0 0 0 0 0 0 0 1 1 0.6898659519269934 0 0.80411962138649529 0.08564038042361298 1:-0.890635 2:-1 3:0.293255 4:-1 5:-0.0576132 6:0.120138 7:0.868177 8:-0.786176 9:1 10:0.828244 11:0.617021 12:0.99652 13:-0.0645695 
-1 -1 -0 -1 -0.80264938535784836 -1 -1 -0.65757996620948123 1 1 1 1 1 1 1 1 0.93430631401373299 0.45228653817996312 1 1 0 1 0 0 0.065171212658069383 0.5185448771940746 1 1 0.27510900754353079 0 0.37127118174343698 0 0.26801884997568048 0.088387330722731056 0 0 0 0 0 0 0 0 1:-0.995098 2:-1 3:-0.323314 4:-1 5:-0.176955 6:-0.0549914 7:0.581874 8:-0.751093 9:-0.565217 10:-0.221374 11:0.404255 12:1 13:-0.304636 
-1 -1 -0.38673775431093804 -1 -1 -0.74721426420015002 -1 -0.74552124444231205 -1 1 1 1 1 1 1 1 0 1 0 0.47853371600975764 0.36429496165855579 1 0 0.2529611341607847 1 0 1 1 0 0 1 0 0.26151919718195582 0 0 0 1 1 0.72351956700215736 0.43357404952916789 0.25218469454719927 0.073827518879132442 1:-0.99632 2:-0.75 3:-0.456745 4:-1 5:-0.427984 6:-0.0638053 7:0.709578 8:-0.00653821 9:-0.652174 10:-0.526718 11:-0.446809 12:0.948611 13:-0.151766 
-1 -1 -1 -1 -1 -1 -1 -1 -1 1 1 1 1 1 1 1 0 1 1 1 1 1 0 1 0 0.7211548192371795 1 1 1 0 1 0.3495954768614627 1 0.47168163940009966 0.5534748663349236 0.66919219936894203 0 0.30957763829258522 0 0 0 0 1:-0.997501 2:-0.75 3:-0.456745 4:-1 5:-0.427984 6:-0.0618893 7:0.647786 8:-0.0729933 9:-0.652174 10:-0.526718 11:-0.446809 12:1 13:-0.363135 
-1 -1 -0 -0 -0 -0 -1 -0 -0 0 1 1 1 0.86595929346557288 1 0 0 0 0 0 0 0 0 0 0 0 0 0 0 0 0 0 0 0 0 0 0 0 0 0 0 0 1:-0.985801 2:-1 3:-0.43695 4:-1 5:-0.37037 6:-0.0285495 7:0.680742 8:-0.393956 9:-0.73913 10:-0.541985 11:0.787234 12:0.914872 13:-0.529249 
-1 -1 -0 -0 -0 -0.85623224348550897 -1 -0 -0 0 1 1 1 1 1 0 0 0 0 0 0 0 0 0 0 0 0 0 0 0 0 0 0 0 0 0 0 0 0 0 0 0 1:-0.983826 2:-1 3:-0.43695 4:-1 5:-0.37037 6:-0.169956 7:0.371782 8:-0.514972 9:-0.73913 10:-0.541985 11:0.787234 12:0.969993 13:-0.472958 
-1 -1 -0 -0 -0 -0 -1 -0 -0 0 1 1 1 0 1 0.89782914531909419 0 0 0 0 0 0 0.08449885848949662 0 0 0 0 0 0 0.12886067619482314 0 0 0 0 0 0 0 0 0 0 0 0 1:-0.982766 2:-1 3:-0.43695 4:-1 5:-0.37037 6:0.124353 7:0.884655 8:-0.395266 9:-0.73913 10:-0.541985 11:0.787234 12:0.954814 13:-0.389073 
-1 -1 -1 -1 -1 -1 -1 -0 -0 0 1 1 1 0.13404070653442707 0 0 0 1 1 1 0.30499169083862104 1 0.91550114151050344 1 0 0.050027168932780169 1 1 1 0.87113932380517689 1 0 0.30386899326785238 0.49937395442341048 0 0.21342377317995667 0 0 0 0 0 0 1:-0.9987 2:-1 3:-0.596774 4:-1 5:-0.530864 6:-0.0910136 7:0.345005 8:-0.594304 9:-0.652174 10:-0.648855 11:0.404255 12:1 13:-0.561258 
-1 -1 -1 -0.61291948470379753 -0 -0.067137873521907782 -1 -0.7110365878481899 -0.91603964384930525 1 1 1 1 1 1 1 0.41960505889027888 0.37822973809737354 0.066355991106014506 0.16811160917270965 0 0.3874943961240836 0 0 0.76534184605100242 0 1 0.88768338490076026 0 0 1 0.11653593565973026 0 0.057705123123655777 0 0 1 1 0.82685002502643412 0.31965167716412618 0.26619225295541349 0.051522984867786996 1:-0.999836 2:0.5 3:-0.740469 4:-1 5:-0.897119 6:-0.108258 7:-0.0792997 8:0.12579 9:-0.826087 10:0.0763359 11:0.808511 12:1 13:-0.278698 
-1 -1 -0 -1 -0 -1 -1 -0.74833009650620752 -1 0.14362011989857726 1 1 1 1 1 1 0 0.10819939157389008 0.71251124141495525 1 0 0.085417941814957959 0 0 0 0 1 0.36440754753933075 0 0 0 0 0 0 0 0 0 0 0 0 0 0 1:-0.996785 2:-0.5 3:-0.657625 4:-1 5:-0.720165 6:-0.164591 7:0.303811 8:0.10864 9:-0.391304 10:-0.629771 11:0.510638 12:0.990973 13:-0.369757 
-1 -1 -0 -0.2321999003002484 -0 -0 -1 -0.83417200030366845 -1 1 1 1 1 1 1 1 1 0.01845297198077224 0.16878747327386259 0.67493495797120062 0 0.22631163895327586 0 0 1 0.033013116590640851 1 0.34839003235336807 0 0 0.13767557040060249 0.01112255241473779 0 0.019077201094975092 0.19716267535639559 0 1 1 1 0.847971386318499 0.24412150922102721 0.079746892621520682 1:-0.995 2:-1 3:-0.406158 4:-1 5:-0.444444 6:0.089864 7:0.699279 8:-0.711719 9:-0.652174 10:-0.248092 11:0.765957 12:-0.644561 13:-0.50883 
-1 -1 -0 -0 -0 -0 -1 -0 -1 1 1 1 1 1 1 1 0.69616244445547137 0 0 0 0 0 0 0 0.44879647038773374 0 1 0 0 0 0 0 0 0 0 0 0 0 0 0 0 0 1:-0.997371 2:-1 3:-0.299853 4:-1 5:-0.333333 6:-0.0986779 7:0.853759 8:-0.777428 9:-0.565217 10:-0.0648855 11:0.106383 12:0.990166 13:-0.200883 
-1 -1 -0 -0 -0 -0 -1 -0 -1 1 1 1 1 1 1 1 1 0 0 0 0 0 0 0 0 0 1 0 0 0 0 0 0 0 0 0 0.56407289896623491 0 0 0 0 0 1:-0.995149 2:-1 3:-0.299853 4:-1 5:-0.333333 6:-0.0300824 7:0.905252 8:-0.742036 9:-0.565217 10:-0.0648855 11:0.106383 12:1 13:-0.152318 
-1 -1 -0 -0.93296595195287058 -1 -1 -1 -1 -1 1 1 1 1 1 1 1 0 1 0.87746760872894169 1 0 1 0 0.51196137779833795 0 1 1 1 0.8710868962039563 0 0.39509977811986491 0 0.87662148352503211 0.33061170809913704 0.13101769351272607 0 0 0 0 0 0 0 1:-0.996943 2:-1 3:-0.299853 4:-1 5:-0.333333 6:0.0319985 7:0.674562 8:-0.795051 9:-0.565217 10:-0.0648855 11:0.106383 12:0.958848 13:-0.518764 
-1 -1 -0 -0 -0 -0 -1 -1 -1 1 1 1 1 1 1 1 1 0.43846511274247491 0 0 0 0.53446770666779442 0 0 1 0 1 0 0 0 0 0 0 0 0 0 1 1 1 0.073793954308234322 0.47435570725008058 0 1:-0.99629 2:-1 3:-0.299853 4:-1 5:-0.333333 6:-0.0929297 7:0.756952 8:-0.757477 9:-0.565217 10:-0.0648855 11:0.106383 12:0.737808 13:-0.225717 
-1 -1 -0 -0 -0 -0 -1 -0 -0 1 1 1 1 1 1 1 0 0 0 0.045170270440076099 0 0 0 0 0 0.16194819574118594 0.23905586021896369 0 0 0 0 0 0 0 0 0 0 0 0 0 0 0 1:-0.997928 2:-1 3:0.846774 4:-1 5:-0.193416 6:-0.111707 7:0.913491 8:-0.840555 9:-0.913043 10:-0.996183 11:0.382979 12:0.911645 13:-0.125276 
-0.23027085612659734 -1 -0 -0 -0 -0 -1 -0 -0.53267748640940105 1 1 1 1 1 1 1 0.23605295850112429 0 0 0 0 0 0 0 0 0.030667851275557177 1 0 0 0 0 0 0 0 0 0 0.010534439500174658 0.29165416537972616 0 0 0 0 1:-0.992827 2:-1 3:0.571114 4:-1 5:-0.0164609 6:0.0998276 7:0.975283 8:-0.875801 9:-0.73913 10:-0.0458015 11:0.829787 12:1 13:-0.246137 
-1 -1 -0 -0 -0 -0 -1 -0.56901427372015323 -1 1 1 1 1 1 1 1 1 0 0 0 0 0 0 0 1 0 0 0 0 0 0 0 0 0 0 0 1 1 0.90553680454069563 0.1054857656721559 0 0 1:-0.992728 2:-1 3:0.571114 4:-1 5:-0.0164609 6:-0.13355 7:0.905252 8:-0.75624 9:-0.73913 10:-0.0458015 11:0.829787 12:0.958596 13:-0.266004 
-1 -1 -0 -0 -0 -0 -1 -0 -1 1 1 1 1 1 1 1 1 0 0 0 0 0 0 0 1 0 0.23154113455872449 0 0 0 0 0 0 0 0 0 1 1 1 0.05085524655670616 0.40351229412207368 0 1:-0.987603 2:-1 3:0.571114 4:-1 5:-0.0164609 6:0.0630389 7:0.962925 8:-0.821568 9:-0.73913 10:-0.0458015 11:0.829787 12:0.988754 13:-0.159492 
-1 -1 -0 -0 -0 -0 -1 -0 -1 1 1 1 1 1 1 1 0.84093600376887157 0 0 0 0 0 0 0 0.13053492038576775 0 0.79930160311677312 0 0 0 0 0 0 0 0 0 0.83767922606154299 1 0.15772020276290244 0.057600874459836138 0.13591125552670391 0.043663428497233522 1:-0.995841 2:-0.56 3:-0.604106 4:-1 5:-0.8107 6:-0.216708 7:0.3862 8:0.241313 9:-0.478261 10:-0.454198 11:0.382979 12:0.960815 13:-0.0767108 
-1 -1 -0 -0 -0 -1 -1 -0 -0 0 1 1 1 1 0.42605885668824445 0 0 0 0.70456944968381863 0 0 0 0 0 0 0 0 0 0 0 0 0 0 0 0 0 0 0 0 0 0 0 1:-0.99376 2:-1 3:-0.492669 4:-1 5:-0.555556 6:-0.177237 7:0.470649 8:-0.346816 9:-0.652174 10:-0.618321 11:0.489362 12:0.970901 13:-0.447572 
-1 -1 -0 -1 -0.28596852559837693 -1 -1 -0 -0.87611855714648423 0 1 1 1 1 0 0 0 0 1 1 0 0.16855335775636779 0 0 0 0 0 1 0.32489457603667921 0 0 0 0 0 0 0 0 0 0 0 0 0 1:-0.999458 2:-1 3:-0.653226 4:-1 5:-0.465021 6:-0.105576 7:0.167868 8:-0.184243 9:-0.652174 10:-0.858779 11:0.617021 12:0.98946 13:-0.512693 
-1 -1 -0 -1 -1 -1 -1 -0 -0 0 1 1 1 0 0 0 0 0 1 1 0.87250587533908375 1 0 0.083782371177322401 0 0 0 1 1 0 0.7944261636449963 0.34454067016877732 0 0 0.60915653666682901 0.061203737583007095 0 0 0 0 0 0 1:-0.998759 2:-1 3:-0.653226 4:-1 5:-0.465021 6:-0.0776011 7:0.145211 8:-0.330248 9:-0.652174 10:-0.858779 11:0.617021 12:1 13:-0.582781 
-1 -1 -1 -1 -0.71403147440162307 -1 -1 -0.81186292944457217 -0.67516431259480947 0.85637988010142274 1 1 1 1 1 1 0.7430046348411754 1 1 1 1 1 0 0.1512951168635549 0.6553267631754961 0 1 1 0.80401852775936433 0 1 1 0.55799032602515963 0.62155037385872169 0.38999431351421188 0.056180289868094188 1 0.85177530203031426 0.38637340066781051 0.11106704599127433 0.22372228637750177 0.031077441941614575 1:-0.998514 2:0.2 3:-0.909824 4:-1 5:-0.893004 6:-0.109791 7:-0.678682 8:0.742437 9:-0.73913 10:-0.145038 11:0.212766 12:0.976953 13:-0.665563 
-1 -1 -0.61326224568906196 -0.22191466304308341 -0 -0.32941561879243331 -1 -0 -0 0 1 1 1 1 1 0.10217085468090584 0 1 0.4703082357924071 0.63324944640625613 0.39875334184558325 0.49714482963250484 0 0 0 0 0.73010140210553864 0.64791618009886009 0 0 0.67279848783453644 0.14346395475663745 0 0 0 0 0 0 0 0 0 0 1:-0.999175 2:0.6 3:-0.893695 4:-1 5:-0.884774 6:-0.194482 7:-0.608651 8:0.719776 9:-0.73913 10:-0.438931 11:1 12:0.928892 13:-0.651214 
-1 -1 -0 -0 -0 -0 -1 -1 -1 1 1 1 1 1 1 1 1 0.056652785605489198 0 1 0.059454130318156176 0.1006101290510155 0 0 1 0.0031888482226563211 1 0.75160285510768077 0 0 0 0.034741410138654567 0 0 0.11919391461491388 0 1 1 1 1 1 0.72016173319271182 1:-0.872765 2:-1 3:0.293255 4:-1 5:0.460905 6:0.0185859 7:1 8:-0.840828 9:1 10:0.828244 11:0.617021 12:0.993898 13:-0.179912 
-1 -1 -0 -0 -0 -0 -1 -0.58006286773489679 -1 1 1 1 1 1 1 1 0.064238899543078626 0 0 1 0 0 0 0 1 0 1 0 0 0 0 0 0 0 0 0 0.58771343547204724 0.54699289429737452 0 0 0 0 1:-0.994109 2:-1 3:-0.323314 4:-1 5:-0.176955 6:-0.144281 7:0.394439 8:-0.679346 9:-0.565217 10:-0.221374 11:0.404255 12:1 13:-0.317329 
-1 -1 -1 -1 -1 -1 -1 -1 -1 -1 1 1 1 1 1 1 0.58510236447901276 1 1 1 1 1 0.39463191854758106 1 0.668159148546843 0.93960320719084078 1 1 1 0.37983770155705215 1 1 1 1 0.88698614821140653 0.92250945449026778 1 1 0.4070699061189641 0.012361992823911811 0.12677228022306608 0.063614738036865751 1:-0.995087 2:-0.75 3:-0.456745 4:-1 5:-0.427984 6:0.0791339 7:0.882595 8:-0.051169 9:-0.652174 10:-0.526718 11:-0.446809 12:0.977911 13:0.0331126 
-1 -1 -0.74100604290280458 -1 -1 -1 -1 -1 -1 -1 1 1 1 1 1 1 1 1 1 1 0.26396579647878826 1 0 0.93352108689705493 0.16524079117352439 0 1 1 1 0.53678542253905981 1 0.026177188535778446 0.77463427487417325 0.092457228019948212 0.25728170247702181 0 0.24316896340952854 0 0 0 0 0 1:-0.972437 2:-1 3:-0.43695 4:-1 5:-0.37037 6:-0.0109216 7:0.829042 8:-0.482163 9:-0.73913 10:-0.541985 11:0.787234 12:1 13:-0.062362 
-1 -1 -1 -1 -1 -1 -1 -1 -1 -1 1 1 1 1 1 1 0 1 1 1 0.95359521046669959 1 0.60536808145241894 0.14418126023430289 0.39169097184221918 0.41772893181347914 1 1 1 0.083376875903887981 1 0.1276850996334345 0.11594304113983889 0.37980822212157073 0 0.044502777093055931 0 0 0 0 0 0 1:-0.983277 2:-1 3:-0.43695 4:-1 5:-0.37037 6:-0.0944625 7:0.878476 8:-0.405287 9:-0.73913 10:-0.541985 11:0.787234 12:0.987039 13:-0.195916 
-1 -1 -0 -0.14357039688764339 -0 -1 -1 -0 -1 -1 1 1 1 1 1 1 0 0 0.34916183294348568 0.51395427432069707 0 0 0 0 0 0 1 0.25797199956824768 0.0087610395363822771 0 0 0 0 0 0 0 0 0 0 0 0.033507025287013645 0.029952577427338208 1:-0.991435 2:-1 3:0.846774 4:-1 5:-0.193416 6:-0.213642 7:0.909372 8:-0.885859 9:-0.913043 10:-0.996183 11:0.382979 12:0.810328 13:0.40894 
-1 -1 -0 -1 -0 -1 -1 -0.50576535246178977 -1 -1 1 1 1 1 1 1 0.50187544658304595 0 1 1 0 0.74410374724999484 0 0 1 0 1 1 0.16209674407686711 0 0.49118989400424157 0.06440153791790415 0 0 0.068643753392768792 0 1 1 0.608941472071998 0.094948230425298707 0 0 1:-0.978198 2:-1 3:0.571114 4:-1 5:-0.0164609 6:-0.158459 7:0.967044 8:-0.778774 9:-0.73913 10:-0.0458015 11:0.829787 12:0.323516 13:-0.140177 
-1 -1 -0 -0 -0 -0 -1 -0 -1 -1 1 1 1 1 1 1 0.34122045372767457 0 0 0 0 0 0 0 0.68095828039411033 0 1 0 0 0 0 0 0 0 0 0 0.077015207746415404 0 0.015971340531433904 0 0.036248015070329945 0 1:-0.908034 2:-1 3:0.40176 4:-1 5:1 6:-0.269209 7:1 8:-0.948676 9:-0.652174 10:-0.175573 11:-0.553191 12:1 13:0.362583 
-1 -1 -0.31405639395495771 -0.87518664418873526 -0.30784510005192262 -0.8406956997673718 -1 -0.22760672856387201 -1 -1 1 1 1 1 1 1 0 0.61561388540020279 0.34728288964247844 0.96937508937320704 0.18513432744723843 0.59392176942197539 0 0.17250327298754559 0.61646225083509176 0.25640367549205961 1 1 0.38959130980108608 0 0.61405261493200969 0.019907252083075977 0.3344159973407983 0.031810952508198154 0 0 0.53387312987362123 0.92216251049673659 0.22284700633348115 0.17331565879857275 0 0 1:-0.951698 2:-1 3:0.40176 4:-1 5:1 6:-0.207894 7:1 8:-0.929617 9:-0.652174 10:-0.175573 11:-0.553191 12:-0.147965 13:-0.1766 
-1 -1 -0 -0.17238067527042375 -0.9125775002455897 -0.18849279452835752 -1 -0 -1 -1 1 1 1 1 1 1 0 0.80271114979579083 0 0 0 0.57312452175675499 0 0.27348101234115091 0 0.10126398929377965 1 0 0 0 0 0 0.053303067308419952 0 0 0 0 0 0 0 0 0 1:-0.938684 2:-1 3:0.40176 4:-1 5:1 6:-0.219774 7:0.894954 8:-0.927962 9:-0.652174 10:-0.175573 11:-0.553191 12:0.772808 13:0.0883002 
-1 -1 -0.25518639607553323 -1 -0.18000331666381278 -0.98920928492756133 -1 -1 -1 -1 1 1 1 1 1 1 0 0.39059380360274237 0.82628896055763512 1 0.31816298608552662 0.52021772395363908 0 0.091764584648439965 0.14699773047625839 0.034719628248539941 1 1 0.21777513464127016 0 0.6014869284860962 0.08138263761865841 0.131319028046474 0.047740787135489245 0.18768034780515686 0 0.2940257764024235 0.11085131566660622 0 0 0 0 1:-0.974817 2:-1 3:0.40176 4:1 5:1 6:-0.443955 7:0.752832 8:-0.912594 9:-0.652174 10:-0.175573 11:-0.553191 12:0.729588 13:-0.4266 
-1 -1 -0.82465813325542481 -1 -0.77565205385858227 -1 -1 -0.66614400191375878 -1 -1 1 1 1 1 1 1 0.57180173521026678 0.97715167134102854 1 1 0.60260508423334491 1 0 0.1852137219278151 0.28231799069365732 0 1 1 0.51887509349247896 0 1 0.33991458693449433 0.23218817272369549 0.19054674298418148 0.29785586464585873 0.018441973841751988 1 1 0.42982550227708838 0.074687118886907683 0.17305094265326978 0.084458338648466857 1:-0.920677 2:-1 3:0.40176 4:1 5:1 6:-0.00708948 7:0.641607 8:-0.887987 9:-0.652174 10:-0.175573 11:-0.553191 12:-0.557769 13:-0.266556 
-1 -1 -0.073044409778298569 -0.67123713178538935 -0.24534788615482553 -0.96755050933897202 -1 -0.53166963310983739 -1 -1 1 1 1 1 1 1 1 0.54071147749670867 0.5774814619851153 1 0 0.79293994527183542 0 0.025416564275788062 1 0.16758370699415667 1 1 0.33493254072803436 0 0.31814486700773914 0.018214011593738241 0.22433353932585678 0.19219004272295953 0.14832909075554951 0 1 1 0.4653996355258499 0 0.33023664719408397 0 1:-0.559339 2:-1 3:0.293255 4:-1 5:0.176955 6:0.437823 7:0.956746 8:-0.966045 9:1 10:0.828244 11:0.617021 12:1 13:-0.353753 
-1 -1 -0 -0 -0 -0 -1 -1 -1 -1 1 1 1 1 1 1 1 0 0 0.516670636306096 0 0 0 0 1 0 1 0 0 0 0 0 0 0 0 0 1 1 1 0.3900277641005071 1 0.34312524736207312 1:-0.843636 2:-1 3:0.293255 4:-1 5:0.296296 6:-0.175321 7:0.938208 8:-0.855068 9:1 10:0.828244 11:0.617021 12:0.987543 13:-0.151214 
-1 -1 -0.51787535026692233 -1 -0.578574143025267 -1 -1 -1 -1 -1 1 1 1 1 1 1 1 0.67321801236352685 0.89978485487128546 1 0.42113533033012929 0.77569229234580028 0 0.17391849668790249 1 0 1 1 0.36796813772388109 0 0.73700221532327714 0.17906448787700474 0.13386287924074336 0.065446024507652661 0.15322309271223772 0.014545794574924283 1 1 1 1 0.30018508957223661 0.055399689562399351 1:0.149366 2:-1 3:0.293255 4:-1 5:-0.127572 6:-0.158459 7:1 8:-0.948458 9:1 10:0.828244 11:0.617021 12:-0.988502 13:-0.537528 
-1 -1 -0 -0 -0 -0 -1 -0 -1 -1 1 1 1 1 1 1 1 0 0 0 0 0 0 0 1 0 1 0 0 0 0 0 0 0 0 0 1 1 1 0.25465923496480192 1 0.42230862083993209 1:-0.776099 2:-1 3:0.293255 4:-1 5:0.460905 6:0.120521 7:1 8:-0.845629 9:1 10:0.828244 11:0.617021 12:0.948711 13:-0.0551876 
-1 -1 -0.27417327376605888 -0.1376251518678083 -0 -0.014051711437737341 -1 -1 -1 -1 1 1 1 1 1 1 1 0 0 1 0.25540126495827292 0 0 0 1 0 1 0.74202800043175232 0 0 0.23812348024663635 0.14325319780591123 0 0 0 0 1 1 1 1 0 0 1:-0.877828 2:-1 3:0.293255 4:-1 5:0.349794 6:0.185668 7:0.962925 8:-0.777101 9:1 10:0.828244 11:0.617021 12:0.790156 13:-0.116998 
-1 -1 -0 -0 -0 -0 -1 -0.068814283950742017 -1 -1 1 1 1 1 1 1 1 0 0 0 0 0 0 0 0.048172836038295461 0.082696860967144195 1 0 0 0 0 0 0 0 0 0 0.85191692256801133 0.96698617383665719 0.84994513714118458 0 0 0.001140788122924623 1:-0.996751 2:-1 3:1 4:-1 5:-0.0781893 6:-0.274574 7:0.84964 8:-0.874274 9:-0.73913 10:1 11:0.595745 12:0.990872 13:-0.0987859 
-1 -0.48067431384070736 -0 -0 -0 -0 -1 -0 -0 -1 -0 1 1 0 0 0 0 0 0 0 0 0 0 0 0 0 0 0 0 0 0 0 0 0 0 0 0 0 0 0 0 0 1:-0.985985 2:-1 3:-0.43695 4:-1 5:-0.37037 6:-0.0848822 7:0.213182 8:-0.349289 9:-0.73913 10:-0.541985 11:0.787234 12:1 13:-0.639625 
-1 -1 -0 -0 -0 -0 -1 -0 -0.95730936881127715 -1 -0.069599709501354134 1 1 1 1 1 0 0 0 0 0 0 0 0 0.56499280674462238 0 0 0 0 0 0 0 0 0 0 0 0 0.3424500613957554 0 0.096545573411963626 0 0 1:-0.982098 2:-1 3:-0.43695 4:-1 5:-0.37037 6:-0.273807 7:-0.30587 8:-0.514972 9:-0.73913 10:-0.541985 11:0.787234 12:0.455797 13:-0.450331 
-1 -1 -0 -0.23483347693891804 -1 -1 -1 -0 -0 -1 -0 1 1 0 0 0 0 0 0 0 0 0.042437788493355069 0 0 0 0 0.43506121674925075 0 1 0.16432837815392801 0 0 0 0 0 0 0 0 0 0 0 0 1:-0.997952 2:-1 3:-0.596774 4:-1 5:-0.530864 6:-0.126269 7:0.204943 8:-0.591103 9:-0.652174 10:-0.648855 11:0.404255 12:0.902466 13:-0.465784 
-1 -1 -0 -0 -0 -0.75681920701018945 -1 -0 -0 -0 -0 1 1 0 0 0 0 0 0.4543480386110475 1 0.28837553916188813 0 0 0.090515606637995003 0 0 0 0.92600505073903494 0 0 0 0 0 0 0.10796757319741827 0 0 0 0 0 0 0 1:-0.995908 2:-1 3:-0.527126 4:-1 5:-0.740741 6:-0.147346 7:-0.373841 8:-0.277833 9:-0.826087 10:-0.824427 11:0.12766 12:1 13:-0.31457 
-1 -1 -1 -1 -1 -1 -1 -0 -1 -1 -0 1 1 0.12479229655376672 0 0 0 1 1 0.28552555233313182 1 1 0.45941868018114435 1 0 0.072070046581871633 1 1 1 0.28713165082349046 1 0 0.33803390209983453 0.28303709669618737 0.065300387215246156 1 0 0 0 0 0 0 1:-0.999167 2:-0.58 3:-0.620235 4:-1 5:-0.777778 6:-0.0212684 7:0.237899 8:0.0339459 9:-0.73913 10:-0.78626 11:-0.106383 12:0.985224 13:-0.575055 
-1 -1 -0.2613637416479529 -0.4419153945059624 -0 -0.50111115655285265 -1 -0 -0 -0 -0 1 1 0.79168903786781286 0 0 0 0 1 1 0 0 0 0 0 0 0 1 0 0 0.66965313715003039 0.54301840505248555 0 0 0 0 0 0 0 0 0 0 1:-0.997261 2:-0.75 3:-0.58871 4:-1 5:-0.901235 6:-0.109408 7:-0.380021 8:-0.0236521 9:-0.73913 10:-0.396947 11:0.340426 12:1 13:-0.610375 
-1 -1 -0 -0 -0 -0 -1 -0.36163475118756194 -0 -1 -0 1 1 1 1 0.072198817346143251 0 0 0 0 0 0 0 0 0 0.19582229805174226 1 0 0 0 0 0 0 0 0 0 0 0 0 0 0 0 1:-0.99786 2:-1 3:-0.0931085 4:-1 5:-0.786008 6:0.0415788 7:0.474768 8:-0.468468 9:-0.652174 10:-0.194656 11:0.297872 12:0.882798 13:-0.434879 
-1 -1 -0.40445199413916499 -0 -0 -0 -1 -0 -0 -0.69639576453115537 -0 1 1 0 0.021212829325467857 0 0 0 0.36628807749806863 1 0 0 0 0 0 0 0.079453014093088262 0 0 0 0 0 0 0 0 0 0 0 0 0 0 0 1:-0.998185 2:-1 3:-0.0931085 4:-1 5:-0.786008 6:-0.0116881 7:-0.116375 8:-0.461503 9:-0.652174 10:-0.194656 11:0.297872 12:0.949871 13:-0.528698 
-1 -1 -0 -0 -0 -0 -1 -0 -0 -0 -0 1 1 0 0 0 0 0 0 1 0 0 0 0 0 0 0 0.36480939603964552 0 0 0 0 0 0 0.34608713935919749 0 0 0 0 0 0 0 1:-0.998257 2:-1 3:-0.0931085 4:-1 5:-0.786008 6:-0.113623 7:-0.30587 8:-0.386554 9:-0.652174 10:-0.194656 11:0.297872 12:0.995764 13:-0.593267 
-1 -1 -0.096744805655573599 -0.63538040953118879 -0.38155210179624499 -1 -1 -0.83332154523528024 -0 -1 -0 1 1 0.64498320867191083 1 0 0 0.52336152493630828 0 0.67988944866451262 0 0.58000297170200277 0 0 0 0.32078163424410394 1 0 0.092388072386658804 0 0.57830263381178904 0 0.16616959125888586 0.28881245382498888 0 0 0 0 0 0 0 0 1:-0.999177 2:-0.44 3:0.068915 4:-1 5:-0.674897 6:0.0300824 7:0.532441 8:-0.547982 9:-0.73913 10:-0.683206 11:0.191489 12:1 13:-0.511038 
-0 -0.26467543263839843 -0 -0 -0 -0 -1 -0 -1 -1 -0.63739769181553174 1 1 1 1 1 0 0 0.49548024181970279 0 0 0 0.19969205327388156 0 0 0 0 0 0 0 0 0 0 0.059310490433768771 0 0 0 0 0 0 0 0 1:-0.997004 2:-1 3:-0.406158 4:-1 5:-0.444444 6:-0.00134125 7:0.794027 8:-0.765134 9:-0.652174 10:-0.248092 11:0.765957 12:0.978768 13:-0.415011 
-0 -1 -0 -0 -0 -0 -1 -0 -1 -1 -1 1 1 1 1 1 0.72927036652171884 0 0 0 0 0 0 0 0 0 0 0 0 0 0 0 0 0 0 0 0 0 0 0 0 0 1:-0.997193 2:-1 3:-0.406158 4:-1 5:-0.444444 6:-0.0166699 7:0.69516 8:-0.81944 9:-0.652174 10:-0.248092 11:0.765957 12:0.953553 13:-0.317881 
-1 -1 -0 -0 -0.31884445611290169 -0 -1 -1 -1 -1 -1 1 1 1 1 1 0.71182334535177572 1 0 0 0 1 0 0.077526732057015602 1 0.21459127405629411 1 0.98429763930643377 0 0 0 0 0 0 0 0 1 1 0.66239073705219176 0.087822670012621992 0 0.011185555717340083 1:-0.997207 2:-1 3:-0.299853 4:-1 5:-0.333333 6:-0.11439 7:0.445932 8:-0.754858 9:-0.565217 10:-0.0648855 11:0.106383 12:0.706137 13:-0.247241 
-0 -1 -0 -0 -0 -0 -1 -0 -0 -1 -1 1 1 1 1 1 0 0 0 0.10692923604216022 0 0 0 0 0 0.017195061922257344 0.50845020747312875 0 0 0 0 0 0 0 0 0 0 0 0 0 0 0 1:-0.998531 2:-1 3:0.846774 4:-1 5:-0.193416 6:-0.0638053 7:0.672503 8:-0.8058 9:-0.913043 10:-0.996183 11:0.382979 12:0.903021 13:-0.307947 
-0 -0.72019788635032 -0 -0 -0 -0 -1 -0 -0.66533205307170185 -1 -1 1 1 1 1 1 0.11359489677400279 0 0 0 0 0 0 0 0.76846796419463137 0 0 0 0 0 0 0 0 0 0 0 0 0 0.05615750840482979 0 0.030474358253645931 0.008679697944906032 1:-0.998052 2:-1 3:0.846774 4:-1 5:-0.193416 6:-0.0802836 7:0.853759 8:-0.825896 9:-0.913043 10:-0.996183 11:0.382979 12:0.905139 13:-0.10596 
-0.81840027604125953 -1 -0 -0 -0 -0 -1 -0.57633737423980114 -0.82586628675214369 -1 -1 1 1 1 1 1 0.27563418807719331 0 0.29830894219640519 0 0 0 0 0 0.28407902146700525 0 1 0 0 0 0 0 0 0 0 0 0.25233647042098228 0.57987707688227574 0.31148266837492422 0.12019374712777424 0.04439497794366884 0.003151739932111302 1:-0.990348 2:-1 3:-0.257331 4:1 5:-0.572016 6:-0.316727 7:1 8:-0.500696 9:-0.73913 10:-0.656489 11:0.276596 12:1 13:0.178808 
-1 -1 -1 -1 -1 -1 -1 -0.97912860378669242 -1 -1 -0.79044837470980611 1 1 1 1 1 0 1 0.35109090758191047 0 0.2244515596141316 1 0 0.59788315126175728 0.58862679493890868 0 1 1 0.64108457663811946 0 1 0 1 0.28971071526098985 0.073512845881040539 0 0.65046594483276743 1 0.48074457717693209 0.29163216079753451 0.14287205458612534 0 1:-0.997757 2:-0.4 3:-0.672287 4:-1 5:-0.823045 6:-0.0289327 7:0.281153 8:-0.0530968 9:-0.565217 10:-0.568702 11:-0.148936 12:0.988502 13:-0.411148 
-1 -0.94944166679112585 -0 -0.47599490715059145 -0 -0 -1 -0 -1 -1 -0.54178128072859588 1 1 1 1 1 0 0 0 0 0 0 0 0 0 0 0 0 0 0 0 0 0 0 0 0 0 0 0 0 0 0 1:-0.995723 2:-0.56 3:-0.604106 4:-1 5:-0.8107 6:0.0212684 7:0.571576 8:0.25961 9:-0.478261 10:-0.454198 11:0.382979 12:0.895305 13:-0.53532 
-1 -1 -1 -1 -0.39866554019562744 -0.26373741036025716 -1 -0.32802501364899112 -0 -0 -0 1 1 0.22170758179640734 0.21116217462680725 0 0 1 0.5498821905986756 0.76651204761392278 1 1 0 0 0 0 1 1 0.53403169061634792 0 1 1 0.53432907697728838 0.53678486221649857 0.04973457828211026 0 0 0 0 0 0 0.011859532414853918 1:-0.999344 2:0.6 3:-0.766862 4:-1 5:-0.971193 6:-0.112857 7:-0.666323 8:0.471451 9:-1 10:-0.51145 11:-0.191489 12:0.991326 13:-0.584989 
-1 -1 -0 -1 -0 -0 -1 -0.90825410898557235 -0 -0 -0.6227825470982522 1 1 0.59788924253973985 1 0.42119906860413597 0 0.11609064728487928 0.51061665089808217 0.88239960648001614 0.83380930799175434 0.012095502943810966 0 0 0.39716880356944972 0 1 0.80588600365786334 0 0 0.82680379961699291 0 0 0 0.86741029973632866 0 0.71257910362297883 0.51418321160315528 0.25750820876524921 0.13043652204558481 0.13693288826902894 0.038788614539805699 1:-0.998104 2:-0.6 3:-0.52346 4:1 5:-0.674897 6:-0.0959954 7:0.207003 8:-0.492966 9:-0.826087 10:-0.862595 11:0.276596 12:0.97196 13:-0.342163 
-1 -0 -1 -0.52680943425183713 -0 -0.46395057409136903 -1 -0.026274929484491335 -0 -1 -0.43690071858052504 1 1 0.42165842840397083 1 0.28613825386151154 0.16618064699348167 1 0 0 0.21910877296299466 0.71325900223809624 0 0 0 0 1 0.75582772422019917 0 0 1 0.042074002911734493 0 0.14352191392763228 0 0 0 0 0 0 0 0 1:-0.9997 2:0.6 3:-0.904692 4:-1 5:-1 6:0.0228013 7:-0.410917 8:0.447608 9:-1 10:-0.793893 11:0.191489 12:0.721116 13:-0.381898 
-1 -1 -0 -0 -0 -0 -1 -0.14848217869056904 -1 -1 -0.61282501501378606 1 1 1 1 0.22046386018820913 0 0 0 0 0 0 0 0 0 0 0.38928638273120281 0 0 0 0 0 0 0 0 0 0 0 0 0 0 0 1:-0.996972 2:-1 3:-0.0131965 4:-1 5:-0.786008 6:-0.145813 7:0.134912 8:-0.0560249 9:-0.73913 10:-0.610687 11:-0.276596 12:1 13:-0.221302 
-1 -1 -0 -1 -1 -1 -1 -0.51967380747044423 -0.8484021195264263 -1 -0.90287355640515232 1 1 1 1 0 0 1 0.36372229646174631 0 0 1 0.078749098090681882 1 0 1 1 0.23950710144185811 1 0.31812986405387395 0.79116476088888432 0 0.90724568090509861 0.37011263051276877 0 0 0 0 0 0 0 0 1:-0.992288 2:-1 3:-0.307918 4:-1 5:-0.345679 6:-0.0760682 7:0.520082 8:-0.64119 9:-0.73913 10:-0.553435 11:0.234043 12:0.996672 13:-0.545254 
-1 -1 -0 -0 -0 -1 -1 -0 -0 -1 -0 1 1 0 0 0 0 0 0.46124284944585597 0.12617196157159535 0 1 0 0 0 0 0 0 0 0 0 0 0 0 0 0 0 0 0 0 0 0 1:-0.992249 2:-1 3:-0.492669 4:-1 5:-0.555556 6:-0.0496264 7:-0.0319258 8:-0.346816 9:-0.652174 10:-0.618321 11:0.489362 12:1 13:-0.67053 
-1 -1 -0 -1 -0.36858809296756989 -1 -1 -0.1597548379631219 -0 -0.91701228020290892 -0 1 1 0 0 0 0 0 1 1 0.22646333955098039 0.47068580401551025 0.087888304731897543 0 0 0 0 0.036986202188817797 0.35241776086152815 0 0 0.32796654298557487 0 0 0.41246617928655149 0 0 0 0 0 0 0 1:-0.999302 2:-1 3:-0.653226 4:-1 5:-0.465021 6:0.0534585 7:-0.266735 8:-0.0308541 9:-0.652174 10:-0.858779 11:0.617021 12:0.962177 13:-0.722958 
-1 -1 -0.040793717066898244 -0.68506637762150213 -0.53234980892765593 -1 -1 -0 -0 -0 -0 1 1 0 0 0 0 0 1 1 0.20779148071825077 0 0 0.23407451004323215 0 0 0 1 0.22081874739564381 0 0.018992335858991242 0 0 0 0 0 0 0 0 0 0 0 1:-0.999399 2:-1 3:-0.653226 4:-1 5:-0.465021 6:-0.0427285 7:-0.291452 8:-0.330248 9:-0.652174 10:-0.858779 11:0.617021 12:0.996167 13:-0.625828 
-1 -0 -0.19664574149041028 -0 -0 -0 -1 -0.26171100157116811 -0 -1 -0 1 1 0.38427853627297442 0.49427733740834234 0 0.009208157928438522 0.2936434074679613 0.14901980488850547 0 0 0 0 0 0.1675863210634578 0 0 0 0 0 0.11508333267331211 0.045225870327081613 0 0 0 0 0.27260146461301138 0.19709636728786964 0.10020482643938351 0.041759638044996335 0.037780234427542046 0.0087678474880758424 1:-0.997746 2:0.6 3:-0.893695 4:-1 5:-0.884774 6:-0.089864 7:-0.658084 8:0.719776 9:-0.73913 10:-0.438931 11:1 12:0.894801 13:-0.788079 
-0 -0.66688301798101057 -0 -0 -0 -0 -0 -1 -1 -0.53899652982221247 -1 1 1 1 1 1 1 0 0 0.14502444290195232 0 0 0 0 1 0 1 0 0 0 0 0 0 0 0 0 1 1 1 0.3315915747946685 0.32621625883569011 0 1:-0.917457 2:-1 3:0.293255 4:-1 5:0.584362 6:-0.309829 7:0.92173 8:-0.822859 9:1 10:0.828244 11:0.617021 12:0.918755 13:-0.533113 
-0.56685079153252771 -1 -0 -0 -0 -0 -1 -1 -1 -0.5608910654484327 -1 1 1 1 1 1 1 0 0 0.52201034648445521 0 0 0 0 1 0 1 0 0 0 0 0 0 0 0 0 1 1 1 1 1 0.33890407664463773 1:-0.729304 2:-1 3:0.293255 4:-1 5:-0.0576132 6:-0.20023 7:0.744593 8:-0.850576 9:1 10:0.828244 11:0.617021 12:0.468707 13:-0.317329 
-0 -1 -0 -0 -0 -0 -1 -0.21779253045704985 -1 -1 -1 1 1 1 1 1 1 0 0 0.054849285707595924 0 0 0 0 1 0 0.83994001474307556 0 0 0 0 0 0 0 0 0 1 1 1 0.90001811376485596 1 0.48255520310575961 1:-0.847255 2:-1 3:0.293255 4:-1 5:0.349794 6:-0.0342978 7:0.678682 8:-0.71121 9:1 10:0.828244 11:0.617021 12:1 13:-0.284216 
-0 -1 -0 -0 -0 -0 -1 -0.36746728897604691 -1 -0.28670435999529059 -1 1 1 1 1 1 1 0.066904420310851087 0 1 0 0.18151893060722477 0 0 1 0.12072100015775908 1 0.50277473516832683 0 0 0 0 0.054221748758892713 0.028709837127165412 0 0 1 1 0.26479217776925124 0 0 0 1:-0.869285 2:-1 3:0.293255 4:-1 5:0.349794 6:0.131251 7:0.791967 8:-0.695914 9:1 10:0.828244 11:0.617021 12:0.984467 13:-0.527594 
-0.32947651490745694 -1 -0 -0 -0 -0 -1 -0.27331397558933401 -1 -0 -1 1 1 1 1 1 1 0 0 0 0 0 0 0 1 0 0 0 0 0 0 0 0 0 0 0 1 1 1 0 0.28132922768429885 0.096107732212509817 1:-0.70622 2:-1 3:0.293255 4:-1 5:-0.197531 6:-0.175321 7:0.108136 8:-0.691895 9:1 10:0.828244 11:0.617021 12:1 13:-0.280905 
-1 -1 -0 -0 -0 -0 -1 -0 -0.053791193760013817 -0 -0.38539110614699634 1 1 0.81107065376727494 1 1 0.55746016783168861 0 0 0 0 0 0 0 0 0 0 0.34672213460421958 0 0 0 0.041715178723123393 0 0 0.077520997042107118 0 0.79282795002765838 0.50456006647317642 0 0 0 0 1:-0.946673 2:-1 3:0.293255 4:-1 5:-0.185185 6:-0.114773 7:-0.196704 8:-0.528158 9:1 10:0.828244 11:0.617021 12:0.868022 13:-0.359272 
-0 -1 -0 -0 -0 -0 -1 -0 -0.2919831557635556 -0 -0 1 1 0 1 1 1 0 0 0.43068807220065758 0 0 0 0 0 0 0.45618918435681044 0.037184012633600987 0 0 0 0 0 0 0 0 1 0 0 0 0 0 1:-0.891439 2:-1 3:0.293255 4:-1 5:-0.185185 6:-0.101744 7:0.0360453 8:-0.632133 9:1 10:0.828244 11:0.617021 12:0.956226 13:-0.463576 
-0 -0.20765749436552966 -0 -0 -0 -0 -1 -0.038828052713875169 -0.35731582231488146 -1 -1 1 1 1 1 1 0.4368282305217005 0 0 0 0 0 0 0 0.2290782880219247 0.058818684985971682 0.29161997985344357 0 0 0 0 0 0 0 0 0 0.31918906648260187 0.86183321635776766 0.86671929601723818 0 0 0 1:-0.99764 2:-1 3:1 4:-1 5:-0.0781893 6:-0.0718528 7:0.660144 8:-0.821713 9:-0.73913 10:1 11:0.595745 12:1 13:-0.35872 
-0.28527241751875565 -0.71047018803290818 -0 -0 -0 -0.014381651985331735 -1 -0 -0 -1 -0 1 1 0.0019310141261422234 0 0 0 0 0 0 0 0 0.17425186372239465 0 0 0 0 0 0.15925915210170177 0.23041010696870759 0 0 0 0 0 0 0 0 0 0 0 0 1:-0.999124 2:-1 3:-0.159091 4:-1 5:-0.226337 6:-0.0193524 7:0.520082 8:-0.789413 9:-1 10:-0.671756 11:0.787234 12:1 13:-0.594371 
-1 -1 -0 -0 -0 -0 -1 -0 -0 -1 -0 -1 1 0 0 0 0 0 0 0.22458209797776271 0 0 0 0 0 0 0 0 0 0 0 0 0 0 0 0 0 0 0 0 0 0 1:-0.986039 2:-1 3:-0.43695 4:-1 5:-0.37037 6:-0.128952 7:0.104016 8:-0.387282 9:-0.73913 10:-0.541985 11:0.787234 12:0.993545 13:-0.628035 
