svm_type c_svc
kernel_type precomputed
nr_class 3
total_sv 42
rho 1.1458505910329153 0.36791579813192216 -1.9962734596492746
label 1 2 3
nr_sv 3 21 18
SV
1 0.64384549151817416 0:24 
1 0.24709228172065922 0:42 
0.31821946604288798 0 0:44 
-0 1 0:53 
-0 1 0:55 
-0 1 0:57 
-1 0 0:58 
-0 1 0:64 
-0 1 0:67 
-0 1 0:69 
-0 1 0:71 
-0 1 0:73 
-0 1 0:77 
-0 1 0:78 
-0 1 0:79 
-0.23219374921067892 0 0:80 
-0 1 0:84 
-0 1 0:85 
-0 1 0:86 
-0 1 0:87 
-0 1 0:88 
-0 0.47348712248620367 0:92 
-0.086025716832209054 0 0:94 
-1 0 0:99 
-0 -0.038621276498717078 0:102 
-0 -1 0:104 
-0.77446595184589984 -1 0:107 
-0 -1 0:111 
-0 -1 0:117 
-0 -1 0:120 
-0 -1 0:124 
-0 -0.46853864793416711 0:126 
-0 -1 0:127 
-0 -1 0:128 
-0 -1 0:130 
-0.11647182139293337 -1 0:134 
-0 -1 0:135 
-0 -1 0:138 
-0 -1 0:139 
-0 -1 0:143 
-0 -0.96632719805331946 0:147 
-0 -1 0:150 
