svm_type nu_svr
kernel_type rbf
gamma 0.076923076923076927
nr_class 2
total_sv 258
rho -21.810509331961164
probA 3.8889897013621089
SV
-1 1:-1 2:-0.64 3:-0.86437 4:-1 5:-0.37037 6:0.155011 7:0.283213 8:-0.461594 9:-1 10:-0.583969 11:-0.425532 12:1 13:-0.82064 
-1 1:-0.999528 2:-1 3:-0.515396 4:-1 5:-0.654321 6:0.0959954 7:0.565396 8:-0.302076 9:-0.913043 10:-0.790076 11:0.106383 12:1 13:-0.59106 
1 1:-0.999529 2:-1 3:-0.515396 4:-1 5:-0.654321 6:0.388772 7:0.198764 8:-0.302076 9:-0.913043 10:-0.790076 11:0.106383 12:0.979475 13:-0.873068 
1 1:-0.999414 2:-1 3:-0.8739 4:-1 5:-0.699588 6:0.317111 7:-0.116375 8:-0.102911 9:-0.826087 10:-0.866412 11:0.297872 12:0.988552 13:-0.933223 
1 1:-0.99859 2:-1 3:-0.8739 4:-1 5:-0.699588 6:0.37421 7:0.0566426 8:-0.102911 9:-0.826087 10:-0.866412 11:0.297872 12:1 13:-0.801325 
1 1:-0.999471 2:-1 3:-0.8739 4:-1 5:-0.699588 6:0.0994443 7:0.149331 8:-0.102911 9:-0.826087 10:-0.866412 11:0.297872 12:0.98598 13:-0.807947 
1 1:-0.996893 2:-0.75 3:-0.456745 4:-1 5:-0.427984 6:0.000574823 7:0.91967 8:-0.123226 9:-0.652174 10:-0.526718 11:-0.446809 12:1 13:-0.0386313 
-1 1:-0.99632 2:-0.75 3:-0.456745 4:-1 5:-0.427984 6:-0.0638053 7:0.709578 8:-0.00653821 9:-0.652174 10:-0.526718 11:-0.446809 12:0.948611 13:-0.151766 
-1 1:-0.995087 2:-0.75 3:-0.456745 4:-1 5:-0.427984 6:0.0791339 7:0.882595 8:-0.051169 9:-0.652174 10:-0.526718 11:-0.446809 12:0.977911 13:0.0331126 
-1 1:-0.997501 2:-0.75 3:-0.456745 4:-1 5:-0.427984 6:-0.0618893 7:0.647786 8:-0.0729933 9:-0.652174 10:-0.526718 11:-0.446809 12:1 13:-0.363135 
-1 1:-0.972002 2:-1 3:-0.43695 4:-1 5:-0.37037 6:-0.230121 7:0.960865 8:-0.514718 9:-0.73913 10:-0.541985 11:0.787234 12:0.897473 13:0.0645695 
-1 1:-0.972437 2:-1 3:-0.43695 4:-1 5:-0.37037 6:-0.0109216 7:0.829042 8:-0.482163 9:-0.73913 10:-0.541985 11:0.787234 12:1 13:-0.062362 
-1 1:-0.977923 2:-1 3:-0.43695 4:-1 5:-0.37037 6:-0.136999 7:1 8:-0.460648 9:-0.73913 10:-0.541985 11:0.787234 12:0.988098 13:0.00165563 
-1 1:-0.983277 2:-1 3:-0.43695 4:-1 5:-0.37037 6:-0.0944625 7:0.878476 8:-0.405287 9:-0.73913 10:-0.541985 11:0.787234 12:0.987039 13:-0.195916 
-1 1:-0.981247 2:-1 3:-0.43695 4:-1 5:-0.37037 6:-0.219007 7:0.705458 8:-0.395284 9:-0.73913 10:-0.541985 11:0.787234 12:0.528569 13:-0.184327 
-1 1:-0.978657 2:-1 3:-0.43695 4:-1 5:-0.37037 6:-0.0473271 7:0.76931 8:-0.395502 9:-0.73913 10:-0.541985 11:0.787234 12:0.543497 13:-0.141832 
-1 1:-0.974722 2:-1 3:-0.43695 4:-1 5:-0.37037 6:-0.175321 7:0.878476 8:-0.435586 9:-0.73913 10:-0.541985 11:0.787234 12:0.814766 13:0.151766 
-1 1:-0.969689 2:-1 3:-0.43695 4:-1 5:-0.37037 6:-0.0377467 7:1 8:-0.446135 9:-0.73913 10:-0.541985 11:0.787234 12:0.89828 13:-0.375828 
-1 1:-0.974252 2:-1 3:-0.43695 4:-1 5:-0.37037 6:-0.17992 7:0.897013 8:-0.516664 9:-0.73913 10:-0.541985 11:0.787234 12:0.807706 13:-0.0827815 
-1 1:-0.963887 2:-1 3:-0.43695 4:-1 5:-0.37037 6:-0.0285495 7:0.936148 8:-0.521647 9:-0.73913 10:-0.541985 11:0.787234 12:0.250643 13:0.0270419 
-1 1:-0.9987 2:-1 3:-0.596774 4:-1 5:-0.530864 6:-0.0910136 7:0.345005 8:-0.594304 9:-0.652174 10:-0.648855 11:0.404255 12:1 13:-0.561258 
1 1:-0.999521 2:0.5 3:-0.817449 4:-1 5:-0.823045 6:0.162675 7:-0.610711 8:-0.223145 9:-0.826087 10:-0.751908 11:0.212766 12:0.993595 13:-0.857064 
1 1:-0.999387 2:0.5 3:-0.817449 4:-1 5:-0.823045 6:0.327074 7:-0.734295 8:-0.223145 9:-0.826087 10:-0.751908 11:0.212766 12:0.993545 13:-0.986203 
-1 1:-0.997384 2:-1 3:-0.527126 4:-1 5:-0.740741 6:-0.0388963 7:-0.235839 8:-0.164983 9:-0.826087 10:-0.824427 11:0.12766 12:0.962126 13:-0.568433 
-1 1:-0.996289 2:-1 3:-0.527126 4:-1 5:-0.740741 6:-0.187201 7:-0.363543 8:-0.277833 9:-0.826087 10:-0.824427 11:0.12766 12:1 13:-0.532009 
-1 1:-0.995908 2:-1 3:-0.527126 4:-1 5:-0.740741 6:-0.147346 7:-0.373841 8:-0.277833 9:-0.826087 10:-0.824427 11:0.12766 12:1 13:-0.31457 
-1 1:-0.994988 2:-1 3:-0.527126 4:-1 5:-0.740741 6:-0.0538417 7:0.701339 8:-0.170712 9:-0.826087 10:-0.824427 11:0.12766 12:0.979021 13:-0.057947 
-0.028673367277647105 1:-0.994435 2:-1 3:-0.527126 4:-1 5:-0.740741 6:-0.295651 7:0.903193 8:-0.137866 9:-0.826087 10:-0.824427 11:0.12766 12:1 13:0.604857 
-1 1:-0.998147 2:-0.58 3:-0.620235 4:-1 5:-0.777778 6:-0.0795171 7:-0.118435 8:0.0339459 9:-0.73913 10:-0.78626 11:-0.106383 12:0.993242 13:-0.353201 
-1 1:-0.999167 2:-0.58 3:-0.620235 4:-1 5:-0.777778 6:-0.0212684 7:0.237899 8:0.0339459 9:-0.73913 10:-0.78626 11:-0.106383 12:0.985224 13:-0.575055 
1 1:-0.999847 2:0.8 3:-0.944282 4:-1 5:-0.925926 6:0.413298 7:-0.608651 8:0.376206 9:-0.652174 10:-0.851145 11:0.12766 12:0.995108 13:-0.830022 
1 1:-0.99982 2:1 3:-0.93695 4:-1 5:-0.893004 6:0.247365 7:-0.225541 8:0.308587 9:-0.652174 10:-0.736641 11:-0.468085 12:0.979828 13:-0.877483 
-1 1:-0.99782 2:-0.5 3:-0.657625 4:-1 5:-0.720165 6:-0.0933129 7:-0.0875386 8:0.0552792 9:-0.391304 10:-0.629771 11:0.510638 12:1 13:-0.586645 
-1 1:-0.996282 2:-0.5 3:-0.657625 4:-1 5:-0.720165 6:-0.0783675 7:0.864058 8:0.034637 9:-0.391304 10:-0.629771 11:0.510638 12:0.905089 13:-0.298565 
1 1:-0.999703 2:-0.65 3:-0.932551 4:-1 5:-0.872016 6:0.357731 7:0.165808 8:0.471924 9:-0.826087 10:-0.889313 11:0.276596 12:0.981542 13:-0.651214 
-1 1:-0.999336 2:0.6 3:-0.786657 4:-1 5:-0.946502 6:0.0457942 7:-0.6931 8:-0.00300994 9:-0.73913 10:-0.427481 11:-0.255319 12:1 13:-0.837748 
-1 1:-0.999158 2:0.6 3:-0.786657 4:-1 5:-0.946502 6:-0.146963 7:-0.419156 8:-0.00300994 9:-0.73913 10:-0.427481 11:-0.255319 12:1 13:-0.530353 
-1 1:-0.997095 2:-0.75 3:-0.58871 4:-1 5:-0.901235 6:-0.220924 7:-0.301751 8:-0.0236521 9:-0.73913 10:-0.396947 11:0.340426 12:1 13:-0.373068 
-1 1:-0.99887 2:-1 3:-0.783724 4:-1 5:-0.572016 6:0.320559 7:0.717817 8:-0.583137 9:-0.913043 10:-0.683206 11:0.106383 12:1 13:-0.791943 
-1 1:-0.999089 2:-1 3:-0.783724 4:-1 5:-0.572016 6:0.0944625 7:0.301751 8:-0.643045 9:-0.913043 10:-0.683206 11:0.106383 12:0.976196 13:-0.609272 
-1 1:-0.999258 2:-1 3:-0.783724 4:-1 5:-0.572016 6:0.089864 7:0.46241 8:-0.643081 9:-0.913043 10:-0.683206 11:0.106383 12:0.983106 13:-0.642936 
-1 1:-0.999177 2:-0.44 3:0.068915 4:-1 5:-0.674897 6:0.0300824 7:0.532441 8:-0.547982 9:-0.73913 10:-0.683206 11:0.191489 12:1 13:-0.511038 
0.20301451731573922 1:-0.997399 2:-1 3:-0.821848 4:-1 5:-0.753086 6:0.174171 7:0.130793 8:-0.56977 9:-0.913043 10:-0.660305 11:0.148936 12:0.803722 13:-0.728477 
-0.90157168028783552 1:-0.997556 2:-1 3:-0.821848 4:-1 5:-0.753086 6:-0.00287411 7:0.373841 8:-0.56977 9:-0.913043 10:-0.660305 11:0.148936 12:0.974431 13:-0.469647 
1 1:-0.997426 2:-1 3:-0.821848 4:-1 5:-0.753086 6:0.727534 7:0.505664 8:-0.56977 9:-0.913043 10:-0.660305 11:0.148936 12:1 13:-0.863135 
1 1:-0.998302 2:-1 3:-0.821848 4:-1 5:-0.753086 6:0.632113 7:-0.299691 8:-0.56977 9:-0.913043 10:-0.660305 11:0.148936 12:0.983005 13:-0.898455 
1 1:-0.9986 2:-1 3:-0.821848 4:-1 5:-0.753086 6:0.477295 7:0.2276 8:-0.56977 9:-0.913043 10:-0.660305 11:0.148936 12:1 13:-0.753863 
1 1:-0.9968 2:-1 3:-0.406158 4:-1 5:-0.444444 6:0.213259 7:0.585994 8:-0.700243 9:-0.652174 10:-0.248092 11:0.765957 12:0.989208 13:-0.575607 
1 1:-0.997572 2:-1 3:-0.406158 4:-1 5:-0.444444 6:0.233953 7:0.408857 8:-0.686002 9:-0.652174 10:-0.248092 11:0.765957 12:0.993343 13:-0.672185 
-1 1:-0.996943 2:-1 3:-0.299853 4:-1 5:-0.333333 6:0.0319985 7:0.674562 8:-0.795051 9:-0.565217 10:-0.0648855 11:0.106383 12:0.958848 13:-0.518764 
-1 1:-0.996748 2:-1 3:-0.299853 4:-1 5:-0.333333 6:-0.0572907 7:0.641607 8:-0.705772 9:-0.565217 10:-0.0648855 11:0.106383 12:0.987947 13:-0.527042 
1 1:-0.986878 2:-1 3:0.571114 4:-1 5:-0.0164609 6:0.0772179 7:0.956746 8:-0.782157 9:-0.73913 10:-0.0458015 11:0.829787 12:0.94382 13:-0.481788 
-1 1:-0.925486 2:-1 3:0.40176 4:1 5:1 6:-0.294118 7:1 8:-0.965081 9:-0.652174 10:-0.175573 11:-0.553191 12:1 13:0.384658 
-1 1:-0.937655 2:-1 3:0.40176 4:-1 5:1 6:-0.485725 7:0.954686 8:-0.960662 9:-0.652174 10:-0.175573 11:-0.553191 12:1 13:0.520971 
-0.69818659039070796 1:-0.938684 2:-1 3:0.40176 4:-1 5:1 6:-0.219774 7:0.894954 8:-0.927962 9:-0.652174 10:-0.175573 11:-0.553191 12:0.772808 13:0.0883002 
-1 1:-0.974817 2:-1 3:0.40176 4:1 5:1 6:-0.443955 7:0.752832 8:-0.912594 9:-0.652174 10:-0.175573 11:-0.553191 12:0.729588 13:-0.4266 
-1 1:-0.968359 2:-1 3:0.40176 4:1 5:1 6:-0.0159034 7:0.917611 8:-0.887277 9:-0.652174 10:-0.175573 11:-0.553191 12:0.617328 13:-0.261038 
-1 1:-0.920677 2:-1 3:0.40176 4:1 5:1 6:-0.00708948 7:0.641607 8:-0.887987 9:-0.652174 10:-0.175573 11:-0.553191 12:-0.557769 13:-0.266556 
-1 1:-0.945142 2:-1 3:0.40176 4:-1 5:1 6:-0.344319 7:0.876416 8:-0.889642 9:-0.652174 10:-0.175573 11:-0.553191 12:-0.554642 13:-0.204746 
1 1:-0.972637 2:-1 3:0.40176 4:-1 5:-0.0946502 6:0.296034 7:0.946447 8:-0.864016 9:-0.652174 10:-0.175573 11:-0.553191 12:0.831207 13:-0.842163 
1 1:-0.967246 2:-1 3:0.40176 4:-1 5:-0.0946502 6:0.505269 7:0.810505 8:-0.846993 9:-0.652174 10:-0.175573 11:-0.553191 12:0.886681 13:-1 
1 1:-0.95892 2:-1 3:0.40176 4:1 5:-0.0946502 6:0.625216 7:0.962925 8:-0.834299 9:-0.652174 10:-0.175573 11:-0.553191 12:0.963236 13:-0.989514 
1 1:-0.965995 2:-1 3:0.40176 4:1 5:-0.0946502 6:0.844798 7:0.874356 8:-0.812238 9:-0.652174 10:-0.175573 11:-0.553191 12:0.957386 13:-0.912252 
1 1:-0.934412 2:-1 3:0.40176 4:-1 5:-0.0946502 6:-0.0266335 7:0.855819 8:-0.790159 9:-0.652174 10:-0.175573 11:-0.553191 12:0.209542 13:-0.554084 
1 1:-0.954954 2:-1 3:0.40176 4:-1 5:-0.0946502 6:0.673884 7:0.92173 8:-0.833353 9:-0.652174 10:-0.175573 11:-0.553191 12:0.86081 13:-0.89128 
1 1:-0.959673 2:-1 3:0.40176 4:-1 5:-0.0946502 6:-0.112474 7:0.571576 8:-0.764243 9:-0.652174 10:-0.175573 11:-0.553191 12:0.14625 13:-0.425497 
-1 1:-0.973 2:-1 3:0.40176 4:-1 5:-0.0946502 6:-0.11324 7:0.888774 8:-0.764243 9:-0.652174 10:-0.175573 11:-0.553191 12:0.472439 13:-0.299117 
-0.052175047402935562 1:-0.948127 2:-1 3:0.40176 4:-1 5:-0.0946502 6:-0.111324 7:0.944387 8:-0.771008 9:-0.652174 10:-0.175573 11:-0.553191 12:0.754047 13:-0.431567 
1 1:-0.998649 2:-1 3:-0.736804 4:-1 5:-0.485597 6:0.264227 7:0.472709 8:-0.675236 9:-0.652174 10:-0.583969 11:-0.148936 12:0.971607 13:-0.713576 
1 1:-0.998843 2:-1 3:-0.853372 4:-1 5:-0.576132 6:0.310213 7:0.143151 8:-0.690931 9:-0.826087 10:-0.977099 11:0.106383 12:1 13:-0.817329 
1 1:-0.998661 2:-1 3:-0.853372 4:-1 5:-0.576132 6:0.611037 7:0.656025 8:-0.706936 9:-0.826087 10:-0.977099 11:0.106383 12:0.993242 13:-0.678256 
1 1:-0.998594 2:-1 3:-0.853372 4:-1 5:-0.576132 6:-0.0101552 7:0.221421 8:-0.732961 9:-0.826087 10:-0.977099 11:0.106383 12:1 13:-0.573951 
1 1:-0.998096 2:-1 3:-0.853372 4:-1 5:-0.576132 6:0.377275 7:0.839341 8:-0.714283 9:-0.826087 10:-0.977099 11:0.106383 12:0.98598 13:-0.82947 
1 1:-0.997892 2:-1 3:-0.853372 4:-1 5:-0.576132 6:0.150412 7:0.909372 8:-0.687657 9:-0.826087 10:-0.977099 11:0.106383 12:1 13:-0.782009 
1 1:-0.998274 2:-1 3:-0.853372 4:-1 5:-0.576132 6:-0.217091 7:0.789907 8:-0.662032 9:-0.826087 10:-0.977099 11:0.106383 12:0.970246 13:-0.323951 
1 1:-0.998783 2:-1 3:-0.853372 4:-1 5:-0.576132 6:-0.00670627 7:0.357364 8:-0.608963 9:-0.826087 10:-0.977099 11:0.106383 12:0.950628 13:-0.369757 
1 1:-0.998883 2:-1 3:-0.853372 4:-1 5:-0.576132 6:0.636329 7:0.0442842 8:-0.623603 9:-0.826087 10:-0.977099 11:0.106383 12:0.978466 13:-0.84989 
1 1:-0.998372 2:-0.1 3:-0.781525 4:-1 5:-0.786008 6:0.234336 7:-0.213182 8:-0.516409 9:-0.652174 10:-0.194656 11:-0.446809 12:0.984719 13:-0.726821 
1 1:-0.998261 2:-0.1 3:-0.781525 4:-1 5:-0.786008 6:0.388772 7:-0.258496 8:-0.374897 9:-0.652174 10:-0.194656 11:-0.446809 12:1 13:-0.798013 
1 1:-0.998104 2:-0.1 3:-0.781525 4:-1 5:-0.786008 6:0.299099 7:-0.61689 8:-0.0269621 9:-0.652174 10:-0.194656 11:-0.446809 12:0.903071 13:-0.814018 
1 1:-0.998194 2:-0.1 3:-0.781525 4:-1 5:-0.786008 6:0.386089 7:-0.518023 8:-0.0269621 9:-0.652174 10:-0.194656 11:-0.446809 12:0.967674 13:-0.937086 
1 1:-0.999832 2:0.6 3:-1 4:-1 5:-0.847737 6:0.65319 7:-0.400618 8:-0.178168 9:-0.73913 10:-0.740458 11:-0.617021 12:0.986535 13:-0.931567 
1 1:-0.99924 2:0.6 3:-0.922287 4:-1 5:-0.921811 6:0.42786 7:-0.357364 8:0.123844 9:-0.913043 10:-0.458015 11:-1 12:1 13:-0.870309 
1 1:-0.999295 2:0.6 3:-0.922287 4:-1 5:-0.921811 6:0.422878 7:-0.270855 8:0.123844 9:-0.913043 10:-0.458015 11:-1 12:0.976297 13:-0.730132 
1 1:-0.999434 2:0.9 3:-0.925953 4:-1 5:-0.925926 6:0.308297 7:-0.744593 8:0.18648 9:-0.826087 10:-0.179389 11:-0.0638298 12:1 13:-0.843819 
1 1:-0.999742 2:0.9 3:-0.925953 4:-1 5:-0.925926 6:0.369611 7:-0.773429 8:0.18648 9:-0.826087 10:-0.179389 11:-0.0638298 12:0.936457 13:-0.84989 
-1 1:-0.999368 2:0.65 3:-0.884897 4:-1 5:-0.876543 6:-0.00325733 7:-0.268795 8:-0.0651184 9:-0.913043 10:-0.385496 11:-0.553191 12:0.984215 13:-0.68543 
1 1:-0.999653 2:0.65 3:-0.884897 4:-1 5:-0.876543 6:0.551638 7:-0.736354 8:-0.0651184 9:-0.913043 10:-0.385496 11:-0.553191 12:0.992334 13:-0.923841 
1 1:-0.999353 2:0.9 3:-0.837243 4:-1 5:-0.872016 6:0.64476 7:-0.375901 8:-0.274632 9:-0.73913 10:-0.858779 11:-0.553191 12:0.979222 13:-0.88521 
1 1:-0.99969 2:0.9 3:-0.837243 4:-1 5:-0.872016 6:0.714121 7:-0.402678 8:-0.274632 9:-0.73913 10:-0.858779 11:-0.553191 12:0.967976 13:-0.936534 
1 1:-0.994477 2:-1 3:-0.257331 4:-1 5:-0.572016 6:-0.148496 7:0.437693 8:-0.413417 9:-0.73913 10:-0.656489 11:0.276596 12:0.962328 13:-0.0987859 
1 1:-0.996983 2:-1 3:-0.257331 4:-1 5:-0.572016 6:0.0783675 7:-0.394439 8:-0.487892 9:-0.73913 10:-0.656489 11:0.276596 12:0.944072 13:-0.577815 
1 1:-0.993633 2:-1 3:-0.257331 4:-1 5:-0.572016 6:-0.290669 7:-0.857878 8:-0.552983 9:-0.73913 10:-0.656489 11:0.276596 12:0.758082 13:0.53532 
1 1:-0.998566 2:-1 3:-0.0153959 4:-1 5:-0.320988 6:0.180686 7:0.6931 8:-0.583246 9:-0.652174 10:-0.660305 11:-0.191489 12:0.979222 13:-0.560706 
1 1:-0.986324 2:-1 3:-0.579179 4:-1 5:-0.497942 6:0.171489 7:0.604531 8:-0.610345 9:-0.391304 10:-0.541985 11:0.0212766 12:1 13:-0.676049 
1 1:-0.993054 2:-1 3:-0.579179 4:-1 5:-0.510288 6:0.803027 7:0.553038 8:-0.679037 9:-0.391304 10:-0.541985 11:0.0212766 12:0.940239 13:-0.866998 
1 1:-0.988297 2:-1 3:-0.579179 4:-1 5:-0.510288 6:0.978923 7:0.649846 8:-0.679037 9:-0.391304 10:-0.541985 11:0.0212766 12:0.924858 13:-0.839956 
1 1:-0.991552 2:-1 3:-0.579179 4:-1 5:-0.510288 6:0.716421 7:0.721936 8:-0.620602 9:-0.391304 10:-0.541985 11:0.0212766 12:0.95199 13:-0.922737 
1 1:-0.990872 2:-1 3:-0.579179 4:-1 5:-0.510288 6:0.380341 7:0.585994 8:-0.620602 9:-0.391304 10:-0.541985 11:0.0212766 12:0.87483 13:-0.744481 
1 1:-0.993439 2:-1 3:-0.579179 4:-1 5:-0.510288 6:0.580763 7:-0.709578 8:-0.591612 9:-0.391304 10:-0.541985 11:0.0212766 12:0.902214 13:-0.879139 
1 1:-0.990211 2:-1 3:-0.579179 4:-1 5:-0.510288 6:0.146197 7:-0.61895 8:-0.591612 9:-0.391304 10:-0.541985 11:0.0212766 12:0.916486 13:-0.887969 
1 1:-0.989735 2:-1 3:-0.579179 4:-1 5:-0.510288 6:0.475762 7:0.524202 8:-0.537706 9:-0.391304 10:-0.541985 11:0.0212766 12:0.895305 13:-0.80574 
1 1:-0.98721 2:-1 3:-0.579179 4:-1 5:-0.497942 6:0.830236 7:0.450051 8:-0.507352 9:-0.391304 10:-0.541985 11:0.0212766 12:0.944576 13:-0.959161 
1 1:-0.992691 2:-1 3:-0.579179 4:-1 5:-0.497942 6:0.795746 7:0.390319 8:-0.541271 9:-0.391304 10:-0.541985 11:0.0212766 12:0.909476 13:-0.877483 
1 1:-0.988636 2:-1 3:-0.579179 4:-1 5:-0.497942 6:0.455068 7:0.415036 8:-0.451045 9:-0.391304 10:-0.541985 11:0.0212766 12:0.965555 13:-0.834437 
-1 1:-0.998289 2:-0.4 3:-0.672287 4:-1 5:-0.823045 6:0.118988 7:-0.678682 8:-0.0796861 9:-0.565217 10:-0.568702 11:-0.148936 12:0.911796 13:-0.744481 
-1 1:-0.998062 2:-0.4 3:-0.672287 4:-1 5:-0.823045 6:0.16689 7:-0.190525 8:-0.0796861 9:-0.565217 10:-0.568702 11:-0.148936 12:0.933834 13:-0.688742 
-1 1:-0.997595 2:-0.4 3:-0.672287 4:-1 5:-0.823045 6:0.278406 7:0.0587024 8:-0.0530968 9:-0.565217 10:-0.568702 11:-0.148936 12:0.971506 13:-0.467439 
-1 1:-0.997757 2:-0.4 3:-0.672287 4:-1 5:-0.823045 6:-0.0289327 7:0.281153 8:-0.0530968 9:-0.565217 10:-0.568702 11:-0.148936 12:0.988502 13:-0.411148 
-1 1:-0.997829 2:-0.4 3:-0.672287 4:-1 5:-0.823045 6:0.0718528 7:0.0298661 8:0.0741027 9:-0.565217 10:-0.568702 11:-0.148936 12:0.878209 13:-0.476269 
-1 1:-0.997274 2:-0.4 3:-0.672287 4:-1 5:-0.823045 6:0.0852654 7:-0.899073 8:0.0741027 9:-0.565217 10:-0.568702 11:-0.148936 12:0.888093 13:-0.809051 
-1 1:-0.995509 2:-0.56 3:-0.604106 4:-1 5:-0.8107 6:-0.221307 7:0.515963 8:0.241313 9:-0.478261 10:-0.454198 11:0.382979 12:0.876897 13:-0.405629 
1 1:-0.998294 2:-0.56 3:-0.604106 4:-1 5:-0.8107 6:0.301399 7:-0.91967 8:0.414417 9:-0.478261 10:-0.454198 11:0.382979 12:0.945484 13:-0.900662 
1 1:-0.991848 2:-0.56 3:-0.604106 4:-1 5:-0.8107 6:0.800345 7:-0.886715 8:0.414417 9:-0.478261 10:-0.454198 11:0.382979 12:1 13:-0.90011 
-1 1:-0.999059 2:0.6 3:-0.766862 4:-1 5:-0.971193 6:-0.0239509 7:-0.400618 8:0.471451 9:-1 10:-0.51145 11:-0.191489 12:0.979777 13:-0.732892 
-1 1:-0.999344 2:0.6 3:-0.766862 4:-1 5:-0.971193 6:-0.112857 7:-0.666323 8:0.471451 9:-1 10:-0.51145 11:-0.191489 12:0.991326 13:-0.584989 
1 1:-0.999796 2:0.8 3:-0.758798 4:-1 5:-0.962963 6:0.491857 7:-0.355304 8:-0.0530968 9:-0.826087 10:-0.782443 11:-0.297872 12:0.946745 13:-0.923841 
1 1:-0.986395 2:-0.6 3:-0.742669 4:-1 5:0.0781893 6:0.970876 7:0.730175 8:-0.877893 9:-0.652174 10:-0.706107 11:-0.914894 12:0.96369 13:-0.812914 
1 1:-0.985227 2:-0.6 3:-0.742669 4:-1 5:0.0781893 6:0.445488 7:1 8:-0.86087 9:-0.652174 10:-0.706107 11:-0.914894 12:0.931363 13:-0.665563 
1 1:-0.988001 2:-0.6 3:-0.742669 4:-1 5:0.0781893 6:0.39567 7:0.625129 8:-0.821313 9:-0.652174 10:-0.706107 11:-0.914894 12:0.979323 13:-0.566225 
1 1:-0.988135 2:-0.6 3:-0.742669 4:-1 5:0.0781893 6:0.517149 7:0.781668 8:-0.816275 9:-0.652174 10:-0.706107 11:-0.914894 12:0.956982 13:-0.694812 
1 1:-0.98845 2:-0.6 3:-0.742669 4:-1 5:0.0781893 6:0.853612 7:0.824923 8:-0.789232 9:-0.652174 10:-0.706107 11:-0.914894 12:0.949367 13:-0.769316 
1 1:-0.981591 2:-0.6 3:-0.742669 4:-1 5:0.0781893 6:0.443188 7:0.886715 8:-0.82737 9:-0.652174 10:-0.706107 11:-0.914894 12:0.98245 13:-0.474614 
1 1:-0.987777 2:-0.6 3:-0.742669 4:-1 5:0.0781893 6:0.396819 7:0.826982 8:-0.854414 9:-0.652174 10:-0.706107 11:-0.914894 12:0.954562 13:-0.648455 
-1 1:-0.983021 2:-0.6 3:-0.742669 4:-1 5:0.0781893 6:-0.233953 7:0.23378 8:-0.844156 9:-0.652174 10:-0.706107 11:-0.914894 12:0.977306 13:-0.518764 
1 1:-0.98248 2:-0.6 3:-0.742669 4:-1 5:0.0781893 6:0.323242 7:0.682801 8:-0.81753 9:-0.652174 10:-0.706107 11:-0.914894 12:0.935297 13:-0.279249 
1 1:-0.987141 2:-0.6 3:-0.742669 4:-1 5:-0.218107 6:0.814907 7:0.320288 8:-0.765025 9:-0.652174 10:-0.706107 11:-0.914894 12:0.937667 13:-0.684879 
1 1:-0.987992 2:-0.6 3:-0.742669 4:-1 5:-0.218107 6:0.497988 7:0.0236869 8:-0.683111 9:-0.652174 10:-0.706107 11:-0.914894 12:0.966715 13:-0.921082 
-1 1:-0.998104 2:-0.6 3:-0.52346 4:1 5:-0.674897 6:-0.0959954 7:0.207003 8:-0.492966 9:-0.826087 10:-0.862595 11:0.276596 12:0.97196 13:-0.342163 
1 1:-0.995154 2:-0.6 3:-0.52346 4:1 5:-0.674897 6:0.582679 7:0.00720906 8:-0.411307 9:-0.826087 10:-0.862595 11:0.276596 12:0.969086 13:-0.73234 
1 1:-0.998873 2:-0.2 3:-0.563783 4:1 5:-0.744856 6:0.225139 7:-0.38208 8:-0.463849 9:-0.73913 10:-0.744275 11:0.0638298 12:1 13:-0.900662 
1 1:-0.997983 2:-0.2 3:-0.563783 4:-1 5:-0.744856 6:0.261928 7:-0.178167 8:-0.429348 9:-0.73913 10:-0.744275 11:0.0638298 12:1 13:-0.931015 
1 1:-0.997789 2:-0.2 3:-0.563783 4:1 5:-0.744856 6:0.420195 7:-0.0504634 8:-0.334794 9:-0.73913 10:-0.744275 11:0.0638298 12:0.96142 13:-0.761589 
1 1:-0.998765 2:-0.2 3:-0.563783 4:1 5:-0.744856 6:0.251198 7:-0.491246 8:-0.321045 9:-0.73913 10:-0.744275 11:0.0638298 12:0.982601 13:-0.865894 
1 1:-0.995413 2:-0.6 3:-0.789589 4:-1 5:-0.761728 6:0.245833 7:-0.396498 8:-0.459648 9:-0.652174 10:-0.889313 11:-0.510638 12:1 13:-0.827815 
1 1:-0.999338 2:-0.6 3:-0.789589 4:-1 5:-0.761728 6:0.632113 7:0.268795 8:-0.351617 9:-0.652174 10:-0.889313 11:-0.510638 12:0.951636 13:-0.887969 
1 1:-0.999309 2:-0.6 3:-0.789589 4:-1 5:-0.761728 6:0.305614 7:-0.293512 8:-0.251589 9:-0.652174 10:-0.889313 11:-0.510638 12:0.976449 13:-0.842163 
1 1:-0.998764 2:-0.6 3:-0.789589 4:1 5:-0.761728 6:0.565051 7:-0.0360453 8:-0.257554 9:-0.652174 10:-0.889313 11:-0.510638 12:0.899995 13:-0.92936 
1 1:-0.999805 2:0.8 3:-0.945015 4:1 5:-0.934156 6:0.671585 7:-0.548919 8:-0.135138 9:-1 10:-0.958015 11:-0.787234 12:0.99304 13:-0.921082 
1 1:-0.999938 2:0.8 3:-0.815982 4:-1 5:-0.938272 6:0.3516 7:-0.631308 8:0.123535 9:-1 10:-0.625954 11:-0.425532 12:0.989006 13:-0.662252 
-1 1:-0.999896 2:0.1 3:-0.868768 4:-1 5:-0.983539 6:0.108258 7:-0.402678 8:0.123535 9:-1 10:-0.568702 11:-0.425532 12:0.989006 13:-0.64128 
-1 1:-0.9997 2:0.6 3:-0.904692 4:-1 5:-1 6:0.0228013 7:-0.410917 8:0.447608 9:-1 10:-0.793893 11:0.191489 12:0.721116 13:-0.381898 
-1 1:-0.999272 2:0.05 3:-0.643695 4:-1 5:-0.917695 6:0.0147538 7:-0.415036 8:0.125335 9:-0.565217 10:-0.59542 11:-0.148936 12:1 13:-0.701435 
-1 1:-0.99911 2:0.05 3:-0.643695 4:-1 5:-0.917695 6:0.0553746 7:-0.120494 8:0.125335 9:-0.565217 10:-0.59542 11:-0.148936 12:1 13:-0.676049 
1 1:-0.998369 2:0.6 3:-0.670821 4:-1 5:-0.893004 6:0.374593 7:-0.489186 8:-0.274868 9:-0.73913 10:-0.778626 11:0.404255 12:1 13:-0.899007 
-1 1:-0.998689 2:0.4 3:-0.869501 4:-1 5:-0.938272 6:0.066871 7:-0.645726 8:0.218198 9:-0.652174 10:-0.347328 11:-0.531915 12:0.855464 13:-0.821192 
-1 1:-0.999149 2:0.4 3:-0.869501 4:-1 5:-0.938272 6:0.268442 7:-0.0834192 8:0.218198 9:-0.652174 10:-0.347328 11:-0.531915 12:0.96954 13:-0.760486 
-1 1:-0.999347 2:-0.32 3:-0.587243 4:-1 5:-0.802469 6:0.160759 7:-0.2276 8:-0.206667 9:-0.478261 10:-0.458015 11:-0.255319 12:0.9942 13:-0.571192 
1 1:-0.997894 2:-0.32 3:-0.587243 4:-1 5:-0.802469 6:0.310979 7:-0.69516 8:-0.206667 9:-0.478261 10:-0.458015 11:-0.255319 12:0.967371 13:-0.827263 
1 1:-0.998902 2:-0.34 3:-0.8739 4:-1 5:-0.641975 6:0.408316 7:-0.213182 8:-0.473961 9:-0.478261 10:-0.866412 11:0.234043 12:0.983761 13:-0.713024 
1 1:-0.998455 2:-0.34 3:-0.8739 4:-1 5:-0.641975 6:0.478827 7:0.421215 8:-0.64179 9:-0.478261 10:-0.866412 11:0.234043 12:1 13:-0.738411 
-1 1:-0.940898 2:-1 3:-0.307918 4:-1 5:-0.345679 6:-0.4589 7:-0.281153 8:-0.747238 9:-0.73913 10:-0.553435 11:0.234043 12:0.765747 13:-0.397903 
-1 1:-0.994442 2:-1 3:-0.307918 4:-1 5:-0.345679 6:-0.178387 7:0.54068 8:-0.487965 9:-0.73913 10:-0.553435 11:0.234043 12:0.997579 13:-0.460817 
-1 1:-0.992249 2:-1 3:-0.492669 4:-1 5:-0.555556 6:-0.0496264 7:-0.0319258 8:-0.346816 9:-0.652174 10:-0.618321 11:0.489362 12:1 13:-0.67053 
-1 1:-0.998655 2:-1 3:-0.796188 4:-1 5:-0.691358 6:-0.115923 7:-0.528321 8:-0.257063 9:-0.73913 10:-0.0725191 11:-0.0851064 12:0.927077 13:-0.545254 
-1 1:-0.998631 2:-1 3:-0.796188 4:-1 5:-0.691358 6:0.0622725 7:-0.705458 8:-0.257063 9:-0.73913 10:-0.0725191 11:-0.0851064 12:0.890615 13:-0.690397 
-1 1:-0.999121 2:-1 3:-0.796188 4:-1 5:-0.691358 6:-0.0101552 7:-0.396498 8:-0.137211 9:-0.73913 10:-0.0725191 11:-0.0851064 12:0.857128 13:-0.593819 
-1 1:-0.999013 2:-0.3 3:-0.589443 4:-1 5:-0.782305 6:-0.178003 7:-0.474768 8:0.00230065 9:-1 10:-0.553435 11:-0.0851064 12:0.985476 13:-0.409492 
-1 1:-0.999363 2:-0.3 3:-0.589443 4:-1 5:-0.782305 6:-0.0534585 7:-0.579815 8:0.00230065 9:-1 10:-0.553435 11:-0.0851064 12:0.825256 13:-0.663355 
-1 1:-0.999302 2:-1 3:-0.653226 4:-1 5:-0.465021 6:0.0534585 7:-0.266735 8:-0.0308541 9:-0.652174 10:-0.858779 11:0.617021 12:0.962177 13:-0.722958 
-1 1:-0.999372 2:-1 3:-0.653226 4:-1 5:-0.465021 6:-0.115539 7:-0.106076 8:-0.254063 9:-0.652174 10:-0.858779 11:0.617021 12:1 13:-0.554636 
-1 1:-0.999458 2:-1 3:-0.653226 4:-1 5:-0.465021 6:-0.105576 7:0.167868 8:-0.184243 9:-0.652174 10:-0.858779 11:0.617021 12:0.98946 13:-0.512693 
-1 1:-0.999399 2:-1 3:-0.653226 4:-1 5:-0.465021 6:-0.0427285 7:-0.291452 8:-0.330248 9:-0.652174 10:-0.858779 11:0.617021 12:0.996167 13:-0.625828 
-1 1:-0.998906 2:-1 3:-0.653226 4:-1 5:-0.465021 6:-0.0710864 7:-0.124614 8:-0.330248 9:-0.652174 10:-0.858779 11:0.617021 12:1 13:-0.557947 
-1 1:-0.998759 2:-1 3:-0.653226 4:-1 5:-0.465021 6:-0.0776011 7:0.145211 8:-0.330248 9:-0.652174 10:-0.858779 11:0.617021 12:1 13:-0.582781 
1 1:-0.99985 2:-0.3 3:-0.922287 4:-1 5:-0.765432 6:0.410232 7:-0.0442842 8:0.0745392 9:-1 10:-0.629771 11:-0.382979 12:0.989107 13:-0.792494 
-1 1:-0.999581 2:-1 3:-0.895161 4:-1 5:-0.452675 6:0.141598 7:0.169928 8:-0.0656821 9:-1 10:-0.103053 11:-0.297872 12:0.965001 13:-0.618102 
-0.53960641624977523 1:-0.99957 2:0.1 3:-0.756598 4:-1 5:-0.592593 6:0.20138 7:0.101957 8:-0.162946 9:-0.652174 10:-0.301527 11:0.0638298 12:1 13:-0.699227 
1 1:-0.999457 2:0.1 3:-0.756598 4:-1 5:-0.592593 6:0.269592 7:-0.480947 8:-0.0295811 9:-0.652174 10:-0.301527 11:0.0638298 12:0.954965 13:-0.84106 
-1 1:-0.999442 2:-1 3:-0.711877 4:-1 5:-0.765432 6:-0.0599732 7:-0.0607621 8:0.251989 9:-0.826087 10:-0.370229 11:0.319149 12:0.943214 13:-0.514349 
-1 1:-0.998757 2:-1 3:-0.711877 4:-1 5:-0.765432 6:-0.104426 7:0.0175077 8:0.251989 9:-0.826087 10:-0.370229 11:0.319149 12:0.837158 13:-0.396247 
-1 1:-0.999722 2:0.7 3:-0.729472 4:-1 5:-0.81893 6:0.132401 7:-0.489186 8:0.34687 9:-0.73913 10:-0.374046 11:0.12766 12:0.977457 13:-0.744481 
-1 1:-0.999805 2:0.6 3:-0.886364 4:-1 5:-0.794239 6:0.178003 7:-0.447992 8:0.312079 9:-0.73913 10:-0.645038 11:-0.0638298 12:0.969943 13:-0.764901 
-1 1:-0.998514 2:0.2 3:-0.909824 4:-1 5:-0.893004 6:-0.109791 7:-0.678682 8:0.742437 9:-0.73913 10:-0.145038 11:0.212766 12:0.976953 13:-0.665563 
1 1:-0.999758 2:0.8 3:-0.88563 4:-1 5:-0.897119 6:0.213642 7:-0.316169 8:1 9:-0.652174 10:-1 11:-0.0638298 12:0.937264 13:-0.84713 
-1 1:-0.999175 2:0.6 3:-0.893695 4:-1 5:-0.884774 6:-0.194482 7:-0.608651 8:0.719776 9:-0.73913 10:-0.438931 11:1 12:0.928892 13:-0.651214 
1 1:-0.90435 2:-1 3:0.293255 4:-1 5:0.584362 6:-0.0224181 7:0.61483 8:-0.749111 9:1 10:0.828244 11:0.617021 12:0.968934 13:-0.396247 
1 1:-0.898042 2:-1 3:0.293255 4:-1 5:0.584362 6:0.0871815 7:0.752832 8:-0.747456 9:1 10:0.828244 11:0.617021 12:0.887337 13:-0.665563 
1 1:-0.913892 2:-1 3:0.293255 4:-1 5:0.584362 6:0.0308488 7:0.816684 8:-0.787958 9:1 10:0.828244 11:0.617021 12:0.766756 13:-0.312362 
1 1:-0.917457 2:-1 3:0.293255 4:-1 5:0.584362 6:-0.309829 7:0.92173 8:-0.822859 9:1 10:0.828244 11:0.617021 12:0.918755 13:-0.533113 
1 1:-0.897728 2:-1 3:0.293255 4:-1 5:0.37037 6:-1 7:0.750772 8:-0.912048 9:1 10:0.828244 11:0.617021 12:0.78718 13:-0.702539 
1 1:-0.917036 2:-1 3:0.293255 4:-1 5:0.37037 6:-0.462732 7:0.822863 8:-0.88675 9:1 10:0.828244 11:0.617021 12:0.592163 13:-0.322848 
1 1:-0.69617 2:-1 3:0.293255 4:-1 5:0.0123457 6:-0.884269 7:1 8:-0.930708 9:1 10:0.828244 11:0.617021 12:-0.338847 13:-0.359823 
1 1:-0.890032 2:-1 3:0.293255 4:-1 5:0.0123457 6:-0.46005 7:1 8:-0.963099 9:1 10:0.828244 11:0.617021 12:0.892178 13:-0.915563 
1 1:-0.872684 2:-1 3:0.293255 4:1 5:0.0123457 6:0.196398 7:0.934089 8:-0.958697 9:1 10:0.828244 11:0.617021 12:0.89122 13:-0.889625 
1 1:-0.853154 2:-1 3:0.293255 4:1 5:0.0123457 6:0.324008 7:0.948507 8:-0.98676 9:1 10:0.828244 11:0.617021 12:0.975541 13:-0.932119 
1 1:-0.792604 2:-1 3:0.293255 4:-1 5:0.0123457 6:0.0174363 7:1 8:-0.992816 9:1 10:0.828244 11:0.617021 12:0.844924 13:-0.569536 
1 1:-0.814298 2:-1 3:0.293255 4:1 5:0.164609 6:-0.11324 7:0.785788 8:-1 9:1 10:0.828244 11:0.617021 12:0.752786 13:-0.605408 
1 1:-0.584311 2:-1 3:0.293255 4:-1 5:0.164609 6:-0.778885 7:1 8:-0.998654 9:1 10:0.828244 11:0.617021 12:1 13:1 
-1 1:-0.559339 2:-1 3:0.293255 4:-1 5:0.176955 6:0.437823 7:0.956746 8:-0.966045 9:1 10:0.828244 11:0.617021 12:1 13:-0.353753 
-1 1:-0.779315 2:-1 3:0.293255 4:-1 5:0.176955 6:0.238935 7:0.975283 8:-0.958461 9:1 10:0.828244 11:0.617021 12:1 13:0.0767108 
-1 1:-0.598507 2:-1 3:0.293255 4:-1 5:0.176955 6:0.0201188 7:1 8:-0.95335 9:1 10:0.828244 11:0.617021 12:0.984064 13:0.106512 
-1 1:1 2:-1 3:0.293255 4:-1 5:0.176955 6:0.305614 7:0.833162 8:-0.947822 9:1 10:0.828244 11:0.617021 12:1 13:-0.145695 
-1 1:-0.643293 2:-1 3:0.293255 4:-1 5:0.176955 6:0.143514 7:0.981462 8:-0.929144 9:1 10:0.828244 11:0.617021 12:1 13:0.0678808 
-1 1:-0.793622 2:-1 3:0.293255 4:-1 5:0.296296 6:-0.24315 7:1 8:-0.918013 9:1 10:0.828244 11:0.617021 12:1 13:0.206954 
-1 1:-0.622221 2:-1 3:0.293255 4:-1 5:0.296296 6:-0.342403 7:0.960865 8:-0.946076 9:1 10:0.828244 11:0.617021 12:1 13:0.604857 
-1 1:-0.49217 2:-1 3:0.293255 4:-1 5:0.296296 6:-0.448553 7:0.783728 8:-0.929289 9:1 10:0.828244 11:0.617021 12:1 13:0.669978 
-1 1:-0.816895 2:-1 3:0.293255 4:-1 5:0.296296 6:-0.299099 7:0.977343 8:-0.891151 9:1 10:0.828244 11:0.617021 12:1 13:0.0551876 
1 1:-0.881157 2:-1 3:0.293255 4:-1 5:0.296296 6:-0.0457942 7:0.639547 8:-0.811183 9:1 10:0.828244 11:0.617021 12:0.906601 13:-0.0601545 
-1 1:-0.739876 2:-1 3:0.293255 4:-1 5:0.296296 6:-0.434758 7:0.938208 8:-0.883531 9:1 10:0.828244 11:0.617021 12:1 13:0.321744 
-1 1:-0.805812 2:-1 3:0.293255 4:-1 5:0.26749 6:0.00862234 7:0.84758 8:-0.879675 9:1 10:0.828244 11:0.617021 12:1 13:-0.258278 
-1 1:-0.69982 2:-1 3:0.293255 4:-1 5:0.26749 6:-0.108642 7:0.890834 8:-0.88133 9:1 10:0.828244 11:0.617021 12:1 13:-0.193157 
-1 1:-0.804194 2:-1 3:0.293255 4:-1 5:0.26749 6:0.115156 7:0.975283 8:-0.891588 9:1 10:0.828244 11:0.617021 12:0.975188 13:-0.150662 
-1 1:-0.868141 2:-1 3:0.293255 4:-1 5:0.26749 6:0.089864 7:0.917611 8:-0.900481 9:1 10:0.828244 11:0.617021 12:1 13:-0.0264901 
-1 1:-0.827679 2:-1 3:0.293255 4:-1 5:0.26749 6:-0.162292 7:0.977343 8:-0.908374 9:1 10:0.828244 11:0.617021 12:0.980836 13:0.00386313 
-1 1:-0.138012 2:-1 3:0.293255 4:-1 5:0.26749 6:-0.274957 7:1 8:-0.934527 9:1 10:0.828244 11:0.617021 12:1 13:0.592715 
-1 1:-0.777223 2:-1 3:0.293255 4:-1 5:0.26749 6:-0.122054 7:0.542739 8:-0.932563 9:1 10:0.828244 11:0.617021 12:0.703767 13:0.558499 
-1 1:-0.437118 2:-1 3:0.293255 4:-1 5:0.26749 6:-0.07032 7:1 8:-0.916486 9:1 10:0.828244 11:0.617021 12:1 13:0.381898 
-1 1:-0.680119 2:-1 3:0.293255 4:-1 5:0.26749 6:0.0661046 7:1 8:-0.919159 9:1 10:0.828244 11:0.617021 12:1 13:0.0259382 
-1 1:-0.784435 2:-1 3:0.293255 4:-1 5:0.26749 6:0.0894807 7:1 8:-0.907356 9:1 10:0.828244 11:0.617021 12:0.895154 13:0.0253863 
-1 1:-0.442612 2:-1 3:0.293255 4:-1 5:0.26749 6:-0.314811 7:0.917611 8:-0.895752 9:1 10:0.828244 11:0.617021 12:1 13:-0.00441501 
-1 1:-0.0665857 2:-1 3:0.293255 4:-1 5:0.26749 6:-0.245066 7:0.699279 8:-0.913103 9:1 10:0.828244 11:0.617021 12:0.659892 13:0.415563 
-1 1:0.526685 2:-1 3:0.293255 4:-1 5:0.26749 6:-0.186817 7:1 8:-0.946203 9:1 10:0.828244 11:0.617021 12:0.939836 13:0.172737 
1 1:-0.731487 2:-1 3:0.293255 4:-1 5:0.127572 6:-0.215559 7:1 8:-0.971701 9:1 10:0.828244 11:0.617021 12:0.673155 13:-0.426049 
1 1:-0.833706 2:-1 3:0.293255 4:-1 5:-0.127572 6:-0.21211 7:0.956746 8:-0.940874 9:1 10:0.828244 11:0.617021 12:0.585153 13:0.361479 
1 1:-0.675576 2:-1 3:0.293255 4:-1 5:-0.127572 6:0.261161 7:1 8:-0.93891 9:1 10:0.828244 11:0.617021 12:-0.09708 13:-0.00386313 
1 1:-0.684289 2:-1 3:0.293255 4:-1 5:-0.127572 6:0.186434 7:1 8:-0.927634 9:1 10:0.828244 11:0.617021 12:-0.824852 13:0.0756071 
1 1:-0.57728 2:-1 3:0.293255 4:-1 5:-0.127572 6:-0.591109 7:1 8:-0.922833 9:1 10:0.828244 11:0.617021 12:-0.856422 13:0.801325 
1 1:-0.355974 2:-1 3:0.293255 4:-1 5:-0.127572 6:-0.389155 7:1 8:-0.916376 9:1 10:0.828244 11:0.617021 12:0.0623329 13:0.0126932 
-1 1:0.0282082 2:-1 3:0.293255 4:-1 5:0.26749 6:-0.63288 7:1 8:-0.903864 9:1 10:0.828244 11:0.617021 12:-0.556458 13:0.945364 
-1 1:-0.593609 2:-1 3:0.293255 4:-1 5:0.209877 6:0.100977 7:1 8:-0.871764 9:1 10:0.828244 11:0.617021 12:-0.864189 13:0.507726 
-1 1:-0.756594 2:-1 3:0.293255 4:-1 5:0.209877 6:0.234336 7:0.810505 8:-0.874528 9:1 10:0.828244 11:0.617021 12:-0.892834 13:0.327815 
-1 1:0.652869 2:-1 3:0.293255 4:-1 5:0.209877 6:-0.0818164 7:1 8:-0.877602 9:1 10:0.828244 11:0.617021 12:-0.918654 13:0.0424945 
-1 1:-0.734607 2:-1 3:0.293255 4:-1 5:0.37037 6:0.250431 7:0.515963 8:-0.879166 9:1 10:0.828244 11:0.617021 12:-0.757275 13:0.159492 
1 1:-0.729304 2:-1 3:0.293255 4:-1 5:-0.0576132 6:-0.20023 7:0.744593 8:-0.850576 9:1 10:0.828244 11:0.617021 12:0.468707 13:-0.317329 
-1 1:-0.802499 2:-1 3:0.293255 4:-1 5:-0.18107 6:-0.232037 7:0.394439 8:-0.830152 9:1 10:0.828244 11:0.617021 12:-0.983206 13:-0.148455 
-1 1:-0.64361 2:-1 3:0.293255 4:-1 5:0.209877 6:-0.105193 7:0.905252 8:-0.858142 9:1 10:0.828244 11:0.617021 12:-0.962883 13:0.250552 
-1 1:-0.724831 2:-1 3:0.293255 4:-1 5:-0.18107 6:-0.127802 7:0.169928 8:-0.842137 9:1 10:0.828244 11:0.617021 12:-0.877301 13:-0.229581 
-1 1:-0.153521 2:-1 3:0.293255 4:-1 5:0.209877 6:0.0120713 7:0.561277 8:-0.866635 9:1 10:0.828244 11:0.617021 12:-0.906702 13:-0.29415 
-1 1:-0.834533 2:-1 3:0.293255 4:-1 5:0.209877 6:0.00862234 7:0.548919 8:-0.853413 9:1 10:0.828244 11:0.617021 12:-0.513793 13:0.0921634 
-1 1:-0.790208 2:-1 3:0.293255 4:-1 5:0.209877 6:0.0802836 7:0.909372 8:-0.847484 9:1 10:0.828244 11:0.617021 12:-0.695396 13:0.233444 
-0.93079605538991184 1:-0.687376 2:-1 3:0.293255 4:-1 5:0.349794 6:0.0143706 7:0.897013 8:-0.801289 9:1 10:0.828244 11:0.617021 12:-0.494125 13:-0.258278 
-1 1:-0.675969 2:-1 3:0.293255 4:-1 5:0.460905 6:0.111324 7:0.861998 8:-0.841228 9:1 10:0.828244 11:0.617021 12:-0.862978 13:-0.0993377 
-1 1:-0.658966 2:-1 3:0.293255 4:-1 5:0.460905 6:-0.00708948 7:1 8:-0.857305 9:1 10:0.828244 11:0.617021 12:-0.954612 13:0.364238 
-0.70028510526699073 1:-0.692665 2:-1 3:0.293255 4:-1 5:0.460905 6:-0.0902472 7:0.750772 8:-0.874328 9:1 10:0.828244 11:0.617021 12:-0.653891 13:0.782009 
-1 1:-0.504444 2:-1 3:0.293255 4:-1 5:0.460905 6:-0.135083 7:0.84346 8:-0.866035 9:1 10:0.828244 11:0.617021 12:0.972515 13:0.124724 
-1 1:-0.777036 2:-1 3:0.293255 4:-1 5:0.460905 6:0.0308488 7:0.929969 8:-0.805691 9:1 10:0.828244 11:0.617021 12:0.957739 13:-0.18819 
1 1:-0.847255 2:-1 3:0.293255 4:-1 5:0.349794 6:-0.0342978 7:0.678682 8:-0.71121 9:1 10:0.828244 11:0.617021 12:1 13:-0.284216 
1 1:-0.823918 2:-1 3:0.293255 4:-1 5:0.111111 6:0.0147538 7:0.287333 8:-0.666488 9:1 10:0.828244 11:0.617021 12:1 13:-0.365894 
0.29698548268426078 1:-0.929026 2:-1 3:0.293255 4:-1 5:0.111111 6:-0.157693 7:-0.0669413 8:-0.647737 9:1 10:0.828244 11:0.617021 12:0.684805 13:-0.315673 
1 1:-0.915282 2:-1 3:0.293255 4:-1 5:0.111111 6:-0.0837325 7:0.684861 8:-0.683202 9:1 10:0.828244 11:0.617021 12:-0.890615 13:-0.149007 
1 1:-0.900731 2:-1 3:0.293255 4:-1 5:-0.18107 6:-0.0641885 7:0.886715 8:-0.743437 9:1 10:0.828244 11:0.617021 12:0.669121 13:0.0811258 
1 1:-0.650008 2:-1 3:0.293255 4:-1 5:-0.197531 6:-0.0936961 7:0.402678 8:-0.676491 9:1 10:0.828244 11:0.617021 12:0.857986 13:-0.0949227 
1 1:-0.902383 2:-1 3:0.293255 4:-1 5:-0.197531 6:-0.00134125 7:0.670443 8:-0.653757 9:1 10:0.828244 11:0.617021 12:1 13:-0.196468 
1 1:-0.91992 2:-1 3:0.293255 4:-1 5:-0.197531 6:0.102127 7:0.485067 8:-0.678655 9:1 10:0.828244 11:0.617021 12:0.982198 13:-0.30298 
1 1:-0.895682 2:-1 3:0.293255 4:-1 5:-0.0576132 6:0.310213 7:0.332647 8:-0.744783 9:1 10:0.828244 11:0.617021 12:0.887942 13:-0.451987 
1 1:-0.677927 2:-1 3:0.293255 4:-1 5:-0.0576132 6:0.0224181 7:0.752832 8:-0.850576 9:1 10:0.828244 11:0.617021 12:0.931514 13:-0.371965 
1 1:-0.869221 2:-1 3:0.293255 4:-1 5:-0.395062 6:0.0273999 7:0.272915 8:-0.582682 9:1 10:0.828244 11:0.617021 12:1 13:-0.502759 
1 1:-0.871825 2:-1 3:0.293255 4:-1 5:-0.395062 6:0.222073 7:0.483007 8:-0.599505 9:1 10:0.828244 11:0.617021 12:0.980685 13:-0.668322 
1 1:-0.871308 2:-1 3:0.293255 4:-1 5:-0.395062 6:0.341253 7:0.526262 8:-0.585156 9:1 10:0.828244 11:0.617021 12:0.99183 13:-0.708609 
-1 1:-0.99602 2:-1 3:1 4:-1 5:-0.0781893 6:-0.289902 7:0.964985 8:-0.886186 9:-0.73913 10:1 11:0.595745 12:0.733471 13:0.227373 
-1 1:-0.995478 2:-1 3:1 4:-1 5:-0.0781893 6:-0.412914 7:0.958805 8:-0.873964 9:-0.73913 10:1 11:0.595745 12:0.604266 13:0.542494 
-0.64870573773419593 1:-0.997765 2:-1 3:1 4:-1 5:-0.0781893 6:-0.0718528 7:0.975283 8:-0.865689 9:-0.73913 10:1 11:0.595745 12:0.965757 13:-0.098234 
1 1:-0.99764 2:-1 3:1 4:-1 5:-0.0781893 6:-0.0718528 7:0.660144 8:-0.821713 9:-0.73913 10:1 11:0.595745 12:1 13:-0.35872 
1 1:-0.993857 2:-1 3:-0.323314 4:-1 5:-0.176955 6:-0.0936961 7:-0.182286 8:-0.772281 9:-0.565217 10:-0.221374 11:0.404255 12:1 13:-0.345475 
1 1:-0.996118 2:-1 3:-0.323314 4:-1 5:-0.176955 6:-0.191799 7:-0.466529 8:-0.69646 9:-0.565217 10:-0.221374 11:0.404255 12:0.981794 13:-0.124172 
-1 1:-0.995098 2:-1 3:-0.323314 4:-1 5:-0.176955 6:-0.0549914 7:0.581874 8:-0.751093 9:-0.565217 10:-0.221374 11:0.404255 12:1 13:-0.304636 
-1 1:-0.999076 2:-1 3:-0.159091 4:-1 5:-0.226337 6:-0.0538417 7:0.604531 8:-0.749857 9:-1 10:-0.671756 11:0.787234 12:1 13:-0.660596 
