svm_type c_svc
kernel_type linear
nr_class 43
total_sv 505
rho 0.77548290247037821 -1.9471678844437732 -2.4052762438434532 -1.8127026346265234 -2.7500196927313469 -0.24051221534341261 0.23198864329311991 -0.012971760135525529 -0.50500912532998832 0.47914793540486839 1.0764730059295973 0.18308752101386688 0.27061465244468241 0.35959871116444664 0.0015421473354313416 -0.22486342981077428 -0.42947009062036001 -0.85102709790693698 -1.5986860812919534 0.19092346727138065 -2.2537857184386949 -1.2098212799587484 -1.7061710849397311 -1.6787335162074799 -0.073439714777986678 -1.1180647510947648 -0.17210882736282784 -0.29207638158692856 -1.5491682976543943 -1.7432276012389427 -2.1210847835780671 -1.7846513044644328 -1.2006399112781942 -1.2407917559066091 -1.432280225610435 -1.4459918232242952 -0.22010143437654844 -0.4388376800316785 -0.49457780810661889 -0.3253725969690735 -0.36520600745751769 -0.29675826371742237 -1.7416247085040868 -2.1370430577433877 -2.2275512825593697 -2.6664771950260526 -0.74421865250895736 0.021765590784620904 0.10936851935350864 -1.8296968885206897 0.26121699230264617 0.36279209085998831 0.64657542712764082 0.24448046595298886 0.92159253888095938 -0.74457956808952519 -0.45965335315906974 -1.4626585332043363 -1.1759128175393776 -1.758504288017932 -0.85034129830121519 -1.8392860998924772 -2.3776508971966162 -1.7029668792448904 -2.0660242259733161 -0.58212464609613801 -1.9386129264319336 -1.841122494099183 -1.3923562854076155 -2.4129769601319659 -1.6479496450884357 -1.8140583191201078 -1.5062087159869626 -1.8629503199875814 -1.8350111385139236 -1.6880331114820677 -1.4498423936274778 -0.20510449466919925 -0.30969683422982935 -0.75529260299040779 -0.06011993389598811 -0.69723536190638391 -0.78720227237559071 1.0297387482196483 0.30501833948872953 0.71242860252105489 1.9370571676342534 1.2662336186706762 0.8539532232579059 1.4160337890597896 0.7619737042468514 1.7094092693176342 1.3856428138674743 2.3894302602751107 1.2338473308614908 0.70787620544433594 0.3887545314958829 0.29722924403583578 1.4915568600081133 0.73786464384464201 1.2464255673897537 -0.27277425038275055 1.2466171622757043 -1.431627030098463 -1.0137546653740985 0.0038275718688960958 -0.18991335054082426 0.40612468139906205 0.94119365024317136 0.22171241504564751 -1.2466652393341062 1.1908765873566705 -1.2179192261671563 -0.70285479547315743 -0.73897631105404682 -0.047173271310098158 -1.2815673736224522 0.011439138211575892 -0.033669424727381804 -0.047466488560902194 -0.053541751292725814 -0.098678972266473264 -0.063860474658117922 -0.20024896782394247 -0.09871628514377781 2.0918497592134853 1.8316211364364978 1.4019135080307539 2.0910415881655102 0.52960150748133561 2.1365556624183588 2.0184330611324106 2.8086083885666859 1.4169335463896462 0.63815687450354086 0.19901476855636011 0.2396052307130728 1.5776421395867146 1.2747417531456204 1.5249658496203875 -1.4229458050455543 2.5119031144696184 -1.3415845714834227 -1.4136614094344488 -0.053244408136152672 0.098957411249844987 -0.022175519056865194 1.3290487494196344 -0.94824212434504163 -1.5745305013405222 -0.98435086594871124 -1.3379148496560136 -1.1151621999221542 -0.87780682635651552 -1.34925543954835 -1.3828007819122836 -0.030133951699708054 -0.046438112373350736 -0.034291122896616934 -0.057382188669529099 -0.1058140285283883 -0.083521503274909009 0.67704552590780853 1.8494646322227426 2.6122722807330745 1.7165305585408686 2.0063230616604537 1.3566752000691686 1.8730515550626592 2.3540593233554277 2.3229251013207812 1.7167166605317294 1.0026381101186994 0.48203077022489949 0.59726834297180176 1.113087210531114 1.3440592943589835 2.5147626282895934 -0.049326335786163154 2.0397770016642225 -1.5321788942019965 -1.9655558877984458 0.027646640467431101 0.059090068009093083 0.29689989924449378 1.3775028752646084 -0.4161220155149582 -1.6040825670313286 -0.14556999251306321 -0.87235689163208008 -1.5492951499904353 -1.1717918650833548 -0.14572250654121149 -1.4802825656561178 -0.03299149725708235 0.016725168519943684 0.010268595735232599 -0.031080860650498816 -0.08338353558256692 -0.055291161714927872 2.165687969732506 1.414158397087367 1.5213073383790614 2.2193301324319736 0.72028785219134583 2.6757937560811555 2.4962334095913135 1.6319605161477206 2.3061618178121353 0.53554099568774383 -0.066971934978317951 -0.11955827018292307 0.46569238969921534 1.5112900898043231 2.8555770863106211 -0.58864682789189748 0.89569142519650358 -1.3933431837139412 -1.1655395875747427 -0.23613789250913461 -0.12833632189139627 0.30264641710544138 1.7630660995283851 -1.2757608102960891 -1.6454983704341668 0.026201605571298074 -0.9542772930858594 -0.90719723298409993 -0.96448609721717116 -0.20956551305862456 -1.307391985407744 -0.086080918294596784 -0.16665021437418001 -0.19413627007551135 -0.12919465916793604 -0.17052552160611709 -0.11120029604669979 -0.17714388584532575 0.25881040770706154 -0.21932674342649272 0.67823499579488811 0.87957486043594335 0.6401425898828258 1.8108003188989243 1.0221528379488294 -0.24366950851368108 -0.3846618199405456 -1.2754463519844528 -0.812477440624926 -1.3979975790347676 -0.79789095777840735 -2.1761254506005736 -1.5342948364950209 -1.591464814281049 -2.1061873180989141 -1.0850369893306244 -1.5024166337131535 -1.580218744142649 -1.2242634786834017 -2.3280274602549222 -1.4104107895962381 -1.8175058983667978 -1.3150419812814549 -1.7076649337031291 -1.5953188955475992 -1.6989790901640507 -1.6473229134504574 -0.58742582908242569 -1.0195823630908034 -1.0170110946617754 -0.4862944548315713 -0.65789936707880425 -0.52858731687258709 0.3278753231375629 -0.94059427244012916 1.2605711556213126 -0.15449228582192528 0.4413034730107091 0.81211113534356361 1.4089968658498202 -0.16439974776629376 0.10313586872379243 -0.024447900434070084 -0.54970955938729238 -1.1310013219420285 -0.68090680374905654 -1.6368467185905142 -1.6194063888886523 -2.0784039177534863 -2.1622787032442248 0.30012873340680785 -2.2467435646524616 -1.9672946309132564 -0.81452233733757318 -2.2591644387884151 -2.162533419692052 -1.6075962184751382 -0.7863033931957184 -1.4949930513604217 -1.6595317747082656 -1.6784378293364093 -1.8115335517186015 0.77305084695918325 0.18416128369753995 -0.16628930101300679 0.35432221455773921 -0.67463015746987431 -0.74669932810168382 -0.22230950032487681 -0.58272539832190251 -0.79078703940541373 -0.33089129727678124 -0.82680151801728796 1.6802465311928649 -1.5502383705852232 -1.9348218293738353 -2.2956339519356055 -0.30920539894891175 -0.94273007575564216 -0.6927756510219244 -0.71385970868436321 -1.1895974748482316 -1.7109599660559027 -1.2000949883157674 -1.0470327844547125 -1.5432201987683147 -2.2906377831442941 -1.0185514137370151 -1.5483519559174075 -1.7156837900164819 -1.5023399423385277 -0.4023631639389606 -1.0445981499110391 -0.90641236727368724 -0.74359311025486219 -1.0496506806131067 0.21678137047192619 -0.35818542064342518 -1.1731369677359238 -1.0921637173024175 -1.32416681845715 -0.95472376240167645 1.3612188438719999 1.9043860488250686 0.78376059427962519 0.62252479250357629 1.5534913177682981 0.58709343709928907 0.053106499992510457 -0.35477634517455747 -0.82660261077494368 -1.237074584037178 1.049876499315423 -1.1101852926403277 -0.98649647245998562 -1.6541125689649947 -1.4959209669890765 0.17292344605825199 -1.3815878441818152 -0.59482842465404184 0.13483406253502289 -2.1968858360840273 -1.756828007274045 -2.2178122253839136 -0.83951154524947547 -1.1076645627914121 -1.1129412214707233 -0.53885864849908027 -1.5032385843290212 -0.045628070631564724 -0.25568733946626609 -0.34945906770977242 -0.025106202367962543 -0.13435760204876135 -0.42348326132514924 -0.83860639984334251 -0.7327756819653144 -1.180860551434092 -0.12282961592449025 -1.2013291797073118 -0.70412024486750802 -0.90835267735911351 -0.93074306201030765 -0.92110996920009691 -0.69445008754151072 -0.41371601445264405 -1.3628931749629247 -1.4142461401366806 -1.4187113503431843 -0.52579715335115651 -1.8670570590906017 -1.8481594310582385 -0.65406080034927983 -1.340039520919974 -1.6244061201161846 -1.3248706913901209 -0.26573986919010134 -1.2905611347033654 -1.0847683186708055 -0.4529687037347081 -0.88381341893086507 0.61184074578305336 -0.080744093206113865 -1.120466498310531 -1.2154310808575848 -0.69604408019827346 -0.649034526983013 -0.26790499691159969 0.013119994008299957 0.82069749659391045 -0.7259059027387269 -0.67870305340892145 -0.94638656566045898 -1.3123875823093669 -1.4485370357159753 -0.26433344789264884 -1.5320754700569728 -1.5784715210888713 -1.8450210722401905 -1.4042204457225609 -0.47788118495084719 -1.4579012100275337 -1.6504686425256008 -1.1904014371150164 -2.1601570986437562 -1.8538984607079421 -2.2986146315585434 -1.3693563241247324 -1.2299422546695395 -1.4158989411903407 -1.0355424032654155 -1.3011382390364772 0.15761072765961653 -0.44236752563219434 -1.1367593696975817 -0.11529706981270391 -1.0502655946906256 -0.8369657162375812 -0.16211288380093516 1.8888833836364998 -0.779045078718828 -0.41325157607564078 -2.3296446812666649 -1.011160423462871 -1.4061328265502897 -0.36613784592213849 -1.658225033367341 -1.4654805547363763 -1.9111317187349168 -1.9004556497619751 -0.77646064758103839 -1.4777206097686477 -1.1262407985791496 -0.87474042612318426 -2.4143303532331704 -1.7761413268444166 -2.0361263331145136 -1.4051240822536446 -1.2240531756830708 -1.3388562659939596 -0.8861732371297617 -1.5461786666395523 -0.64528241795208707 -0.98789420723936094 -1.6307257974670204 -0.68610573882691606 -1.1502558223412331 -0.99678955615829279 1.1875372056832278 0.1416689727829604 0.066342302691051611 -0.33882524624310256 -1.6231314706269069 -1.1337656574547468 -0.96164598336683393 -2.4027892165837317 -1.5637656797669699 -1.351499431465087 -2.4750326964888716 -0.39597496116149788 -1.5350094789931366 -1.7744280642887935 -0.80418365011205195 -2.0322366397597622 -1.2274262689959134 -2.7769545588221445 -1.6857116343394167 -1.4364559272588404 -1.0800771186852181 -1.8453205886406723 -1.3948155757031717 0.04173795681082243 -0.35326228673358706 -0.76375180527074071 -0.21187824562296881 -0.70655739816896412 -1.0650326776325949 -1.3007991766738469 -2.0961354890326316 -2.3856626423174423 -0.96453002489840378 -1.1330859737079784 -1.5762957066582732 -1.125008804075424 -1.4307046340938505 -1.7542069079915372 -1.9595233761257591 -0.53336619904064964 -2.0431467508693117 -2.0309343379431208 -1.2130699662022029 -1.3879730310399498 -1.7517648389734899 -1.6859601879115182 -0.76243647375834844 -1.4736055996669926 -1.4805457628218839 -1.3659232898176072 -1.5301659756680395 -0.30708365574687174 -0.15543858643979416 -1.5389422091240148 -1.1701814056271511 -0.87258905778577889 -0.91326281117488239 -0.72118502753985558 -1.4219558175714273 -0.61873948880966767 -0.90919680604674147 0.03211364729340941 -0.2286066737130345 -0.64476645866362547 -0.94603673216820139 -0.65941458386224561 -0.9726371708731183 -1.0821562972117829 -0.74986188453340497 -0.12148878355591293 -1.0100173161089974 -0.9877623296721717 -1.0483580988834289 -0.29120343613244393 -0.6490401133840169 -0.71599232148539182 -0.2911166681933362 -0.47879183153852312 0.32394825608759964 -0.48768853610558099 -0.89064351132705022 -1.0994082799794906 -0.10550287515155288 -0.82956191738299323 -1.3137977650467854 -0.33542719074571087 -0.40592044925580134 0.42554109429963238 0.11828791800957858 -0.29731603775665721 -0.82921457290649436 -0.26736790326433663 -0.55401806393693176 -0.55576254314400508 -0.82550462136139779 -0.21030225476791672 -0.90644166446560148 -1.0613664615832239 -0.81908394542898455 -0.29967055738456366 -0.28982965082184503 -0.52729009615881062 -0.28822272693611756 -0.19511467247487815 -0.16737183417112134 -1.5399448351655844 -1.8211099468401719 -1.369100475577119 -0.84083510319091936 -1.0545414297265983 -0.43167298188375569 -0.21695438542708254 0.043954813114972263 0.14589828203717467 -0.30649870942339835 -0.70666801012890157 -0.23038142748982343 0.94315127203050175 -0.37096236471741151 -0.53434737567031132 0.26837010157562424 -0.82795108517094829 -0.87171291446403343 -0.93058969463394647 -0.17595386097959606 -0.36048357882469467 -0.52462400373020002 -0.12293362288209249 -0.2081166970021725 0.82396828720350868 1.0969113112960385 -0.1061576349557756 -0.15392492509036451 -0.40420452205704582 -0.81695871436185963 -0.032507818298615279 0.86391092035499961 -1.6930014975306942 -0.1830159531928103 -1.9221186160518398 -2.5627286126993338 -0.025517164920359086 -0.21472793851420297 -0.36962888936006416 -0.55273061576720584 -1.3060418956587658 -1.9079733909722614 -1.4258385939448055 -1.2704990817190644 -1.5898138639616568 -1.4183329531702231 -0.62326760668412695 -1.7522336228200972 -0.0556664518005901 -0.12931594241805658 -0.11712687555403356 -0.12219175058753308 -0.16261407405879913 -0.079664413022517533 1.1851324719095619 -1.7437924365100912 0.065952582372979712 -1.6312903221447084 -1.8498576636421713 0.055110205066867327 -0.98783370655241998 0.23661264042442162 1.3000190572932691 -1.5964850018053793 -1.5644371208425834 -1.0960943067758586 -1.5230960845947266 -1.218867183609375 -1.317016878720636 -1.455682089644833 -1.4413910356836117 -0.03506317228597397 -0.096302759612395247 -0.09886156419348574 -0.11837462623903355 -0.1770352343914845 -0.07173339768757496 -1.4617099133618399 -2.3346785999912418 -2.0616468601654994 -2.4679090095405583 -0.12288864942153341 -2.5072353698306897 -0.88681954749893444 -0.73952359274939716 -2.1044895759083251 -2.0960540847416316 -1.9292597757319108 -0.9482993105256573 -1.4657092558776574 -1.4405892437119163 -1.481520297949821 -1.7644062245178702 0.10888569909452467 -0.16876098989642932 -0.50142807638039677 -0.0505366074711458 -0.22909221524339352 -0.0951752845160036 1.1494704391474868 -1.4230739458989672 -0.84396268918594997 -0.41808061357724075 -0.54333390823234096 -0.019062313905049897 2.3109587632341322 -0.34084527713669366 -1.3563697991330907 1.0059321501106915 -0.60405670258635991 -0.34978066998631108 -0.37758388783798541 -0.79339197306639342 -1.1199880016574504 -0.0032632884269618461 -0.073493986808387105 -0.11065010393410799 -0.078505853438640458 -0.11815074999066588 -0.06850664028039212 -1.9515265183852615 -2.3440177552280868 0.061691430217718592 -0.77148335219595365 -0.3534283929035591 1.3859312078647179 -2.4857979775160381 -1.9147631279896571 -1.2187766696730189 -1.2680741461475173 -1.7623071131606158 -1.4061765119358385 -0.45860738030606474 -1.6942389133417013 -0.026874487694064111 -0.08944511343491493 -0.11261964653582908 -0.079493779994983624 -0.15661619158831364 -0.07794088711230257 1.3037852857829508 0.43559575080871582 1.3743658065795898 1.2764280978224081 1.7104482002648214 1.4141887178873378 -0.036052227020263672 1.2591628981577734 0.43037548905764228 1.6970938671402467 1.6553118573206951 1.3168998010899018 0.52751851081848145 0.19411871250873122 0.15306121347235283 0.15856176971486344 0.13826903050806588 0.086959223015328657 0.13775187733064842 -0.03496225183453102 0.22544321674054868 1.0605445622831389 1.4914763468658683 1.3316559218873385 -1.3820661175938946 1.0418917874801084 0.58955895975653261 0.24762329378689127 0.45135811855690333 0.7835350924439497 -0.95482808176035139 0.050553978244125997 0.030731715452822196 0.016287327158753705 0.033810106913124548 -0.021462579309742536 0.020929165074385702 -0.51563617492254143 -0.91656174400456814 0.2504444695701199 -0.10740733336847273 -0.50460577011108398 -0.048985276785611334 -0.15812721936305746 -0.25290689111411013 -0.45705359886569752 -0.13701017723081899 -0.00078916763867839263 0.39205045364387525 -0.50823634980550447 -0.77590900801414953 -1.0704611829973207 0.00050423841932356714 -0.86237823400958791 0.91983683741313993 1.1409254316438062 -0.15183641958015204 -1.3664741516113281 -0.12743254720780345 -0.032727312312639888 -0.38495544132105031 -0.11389263388125892 0.62298801552154048 -0.70812678337097168 -0.0075859235324035931 -0.015479825482290224 -0.050828637134898852 0.012841496435798889 -0.095373501495730095 -0.025152697965940329 0.37550948122163541 -0.9971709866583176 -1.2753517378325112 -0.099828760600683755 -0.40303707086231527 -0.83539016172730751 -0.91357148489226414 -1.1065562336426271 -1.1859039428968257 0.72367546650853343 0.6227613572291899 0.19533880533067358 0.56971807486085491 0.13403496541924761 0.21657699730849597 -2.2101978685168477 -1.6309114974249384 -1.5100966236963591 -1.4081458787786425 -1.1668614562968451 -1.1286297204532647 -1.9490665727152359 -1.5014281878797409 0.16487025139930819 -0.14976867631402191 -0.22596278435352674 -0.080558261481733881 -0.48869749374149135 -0.3340427296589088 -1.0755375257191826 0.74608584369450526 -1.1966118065011171 -1.0762226438694125 -1.2348702441245192 -0.079340963590759178 -1.3771881356328866 0.082232614778595267 0.046368827127587303 0.05037027647248498 0.055867215127073301 -0.024298072116445912 0.041514828799160297 1.1078535067733102 0.35273025198586527 1.5802266810169066 1.5399033709554488 1.1662467531850791 0.56357073783874512 0.18260555125040112 0.16005262667510001 0.17237791153077039 0.14088347768938023 0.095913317166689771 0.14727612040743482 -1.1404754746580703 -0.64699207389335955 -0.80340468549073984 -0.90824369956678319 -1.1533213601983023 0.013147108861350967 -0.029503497259011177 -0.030322088307785679 -0.039222917409306182 -0.067072873638688454 -0.057939118313816936 0.25853769272807459 0.13056674512973421 0.32360461673195257 -0.1896410837602244 0.13138559057525426 0.089741986808630353 0.042354452167684291 0.043999154781324538 -0.006819618007774586 0.038055316353851232 -0.68791683358556033 0.093725465918285192 -1.4290732537005466 0.045886617721699698 0.01392211254335291 -0.026132568890213575 0.0034720457435488488 -0.082281198911791767 -0.014147516334596752 0.043746475659832022 -1.4282105593510412 0.078080577355704103 0.049574001101355257 0.030144861598434242 0.043994459168469502 -0.039073582845234517 0.030524489913930059 -1.0793858066221 0.11426763867070533 0.06412962448809871 0.010598031832272262 0.012698093784286928 -0.054913133742896303 -0.00070189097831377389 0.099773598728099974 0.057492324919917716 0.040605600804462016 0.044240165239253892 -0.0061161580346308364 0.041045286286922777 0.043247174186573568 -0.68796724670590115 -1.526081541912526 -1.2110193336672288 -0.91409974878822942 -1.252324863798602 -0.99856073734210704 -1.4204219171392485 -1.0082291294582588 -0.90702875690705831 -0.54438138451344598 -0.94518391220297215 -0.098823413768526353 -0.7498296322040664 -0.45417785644531244
label 24 21 34 33 36 28 22 27 16 18 15 20 19 23 17 13 14 12 30 26 25 35 31 38 43 11 41 50 29 37 39 32 42 48 44 46 45 10 8 7 9 5 6
probA -0.99264417518029924 -1.7249813761412682 -1.6216106483049559 -1.6883221971799456 -1.0731206794509178 -0.39164316542815908 -0.8337722500592778 -1.2738321791370746 -2.1517985503255104 -1.9577945402291512 -1.4387343827796213 -1.4729350599228919 0.061671012972584906 -1.6118154738951855 -2.0866941037205784 -2.2317400204703159 -1.9205704267129597 -0.6559286305308849 0.60377993105737626 -0.31626326527508214 -1.5820088810266459 -2.0488229317191102 -2.944515123494154 -2.4006231029129941 -1.5155482974831957 -0.73524736953292547 -2.58452886880763 -0.28130143288534354 -1.9985665926712712 -1.667535525451258 -0.79630931780249259 -1.9269997039819964 -3.1479745784466999 -4.6440707786736093 -0.98310735540873928 -2.2359975098386151 -2.3232324175143022 -2.1620198279563776 -1.9893217116972539 -2.1281711901652152 -1.8925782941420535 -1.6576959381518854 -1.8624263877765677 -1.3784514980956462 -2.0915064232512761 -1.1052556507244813 -0.12972279676796575 1.2000998735519555 -0.94385022745317948 -1.1714681079152474 -1.4993957514076997 0.53106910821092257 -0.53572714764096174 0.020899249253359172 -1.2182988920985265 -1.5692925071686863 -2.1430526197259181 -1.6682981063018303 -1.7612166494459043 -0.37070340235272153 0.45804786873829212 -1.5671337524483115 -2.2520749108710514 -1.848326434822821 -1.9965060739215115 -1.6045634546708656 -1.0078221468013935 -2.153321491622699 -0.76991324191453858 -1.830255661451897 -1.4987138602575456 -1.3453517201846232 -1.1650236054741776 -1.9378409681141271 -2.8577165722428162 -1.9440921051936526 -0.90923508905035932 -2.0020941805537169 -1.9767935861086845 -1.9007865567418147 -0.82169248451106536 -1.9272333096972132 -1.3860249305823165 0.49528648907432771 -0.58666423880162033 -1.0813065490009328 -1.888139577854874 -0.51677527356694797 -1.4541604549108569 -2.0358512799115509 -1.7038311744687058 -2.7657516001549114 -2.4485741087004538 -0.93423146682034286 -1.7432100075258314 -1.691272175684468 -1.6049315245181404 -1.3524477027635333 0.27955534496469614 -1.3740169208667883 -1.366436306770799 1.7740693924996291 1.1334222287668927 0.25024848273169858 -0.36527264582696589 -1.4378323273131195 -0.39124407678584056 -0.59967445512440343 0.60283927314421726 0.81050321373093115 0.06824543647082465 0.99911705608325574 5.8343711979184816 -0.53194353484592594 0.94817760052546363 0.066402780917211482 0.35058340255193371 -1.8925001667936425 -1.9676500615007242 -1.7454419695648444 -1.5592636931792585 -1.4751570431448331 -0.99261325443689696 0.79020954760313833 -1.1738357200157097 -3.2134721312466632 -0.69910806679972037 -1.5299328943687529 -2.443559318109422 -1.7785567439759566 -2.4501842970146974 -3.1366931089040091 -1.1830237671769719 -2.1478205485470205 -1.9863125870941687 -1.7759405218520159 -1.5365839842882218 0.45684494926690827 -0.23805759198412085 -1.0951315510575308 3.542355797336608 0.62441933998757271 -0.25896761965800857 0.15722030979308818 -1.7937714558696993 -1.5881909785895618 -1.0939469474155179 -0.33680759854182518 2.4346315906566884 -0.3963878104192336 1.2469430362440241 0.044192571358190429 0.77574020032992519 2.651281022059317 0.91290145584718585 1.1128632277754722 -2.2022525065198004 -2.2144454003975604 -2.0564976132562585 -1.9027732043294825 -1.7475001954408662 -0.80187507850304029 -0.75581684408152283 -3.1271659558890028 -0.53571143536933874 -1.4946003850721084 -2.4088460305543355 -1.7327943784516096 -2.9426894318911172 -2.8899997441339593 -2.3237137865904818 -2.3926575505532401 -1.8225121815849878 -1.7054347131244516 -1.34427254978233 0.23701272035492776 0.051957535707290538 -0.75526705612073641 0.55657791815971103 1.028659246150591 0.97524007064020712 0.16434949196135848 -1.7813038523276346 -4.3702898400915009 -0.57942330682501986 -0.58391230563437135 1.2634877000927527 -0.35968126576628101 -0.12773341427959814 -0.58270059165924903 1.278489579549303 4.0724380183135134 2.5353166195136621 1.801352515640765 -2.097243866686187 -2.2113502498461974 -2.030480076294721 -1.7647184491356989 -1.6430418324685687 0.52129781837581191 -0.44061575767058286 -1.1476802012279008 -1.2931001416424799 -1.8292278075788659 -2.2229559912563777 -3.4992772912504542 -2.4249249092550493 -1.8596528783517259 -2.2437489801439079 -2.2679771057950298 -2.1893165462440787 -1.7936793605530637 -1.9828115239615784 1.3934176602402917 -0.39756252232136724 -0.64550566784231778 -1.6924516889609948 -0.63998253308251818 0.096323833616544341 -1.5746352737765315 -1.1086667117917863 -1.8640179941559687 -0.22977324402459054 1.1371910617064915 -0.68514082317174463 -1.0721826843905586 -0.39611994731784922 -2.1609832505925772 0.12965868241017325 -0.42831582046574529 -2.9188498925812403 -2.1982834990969304 -2.1048553790959614 -1.9916140471504433 -1.8375033320017087 -1.7200079331507236 -1.0628308247224243 -0.41599189121838998 -1.6267458814060656 -2.0051739584510364 -1.6324846882911777 -1.2463758762449928 -1.1864503169832299 0.57950742047210857 -1.3270003490898874 -1.719405447317055 -2.2011033123779407 -1.771304963063647 -1.977182099723974 0.087630795308381401 0.34000581457634832 -3.7074176545014215 -2.5952207936633251 -2.9256507325379744 -2.3229908361746885 -1.5388392098765873 -6.0255147962599338 -2.0919920482798675 -0.066422478975425914 -3.1530645022319819 -3.1036574348570247 -2.0953010714774547 -2.7856802809842338 -3.0035039893923821 -2.9273750835605119 -2.0056760469972761 -1.9858611122028202 -2.1051048645001136 -2.0475744003308138 -1.9423379660923692 -1.5937479202184082 -1.7556781652362494 -0.59282287968187664 -0.31236277052074973 -1.0632568207465845 -0.73024512176605016 0.12216096020793406 0.48690641202544649 0.87738379531609645 -0.41773973027314654 -1.5955365681027958 -1.2304087863426583 -0.82305726269140866 -1.4242002345495794 -0.072011660935111119 0.2792624139482428 -0.33786211568068558 -1.1268552928750228 -0.12955136542488277 -1.2809272260462232 -0.85850572748523957 0.019473913720766844 -0.4690737344294868 -0.25044084291959517 -0.34849343865398408 -0.1554176114350968 -0.68821780389904108 -0.74795190265342337 -1.4792242968681928 -0.4087043259509231 -0.25738583245011332 -0.02725166657487026 -1.7150996242170375 -1.0329892882940417 -1.7222998875640041 -0.86419423092659409 -1.653891993722705 -0.2938365916957687 -0.76859976948641595 -0.84005897768874405 -0.89364544039555216 0.30142026219897061 -1.0353120017514128 1.1126889854451527 -1.0559834576672962 -0.45460392925606202 -0.31128613328352478 -1.9686233642565505 -1.0276942941795699 -1.0261296751608435 -1.4194820479049943 -2.3065253785428022 -0.63940124268823129 -1.8106055388403812 -0.50752544243949238 -4.371271522514415 -2.3903661528553934 -1.6399121148840659 -1.684467965253996 -0.93008437985505876 -1.293979834877091 -2.1617040529041902 -3.2070566321115503 -2.1232833560981788 -1.9231519239878387 -0.59278941398010609 -1.4526858030525489 -1.8593029009780202 -1.4929404249244596 -0.86275305240367695 -1.9129333413671152 -0.95878413265462759 -0.9964824923330966 -1.046337373563448 -0.77273939865672936 -1.1718394527094389 -0.62214662580894597 -1.2020364859292396 -1.6023047177973202 -1.7946427577393724 -1.9857293081586302 -1.5323384956728965 -1.7168372221721051 -2.3527279350211763 -2.7171972004118268 -1.3133703824917156 -2.0467461918240417 -1.5072588317101532 -1.17803457504429 -2.4245106570622532 -1.5338866240732789 -2.3191097494232586 -1.0777610542315457 -2.4483409728202532 -2.5549682528276043 -2.5819531341877568 -3.8012494038513296 -2.9526128168164298 -1.2890124884751122 -2.1183053240567391 -1.7020428916868733 -1.7795551902066273 -1.2507229425493638 -1.7870949231835964 -0.17270197016541791 -0.99758051681427651 -0.52802176088279906 -1.705435555595467 -0.0038183766868997737 -0.17972270731160389 -0.59655654403035652 -1.4324515223805381 -1.86230892704016 -1.6097892748599554 -1.4308910835683841 -1.6920739917807537 -2.0314224179399156 -0.79444027828387542 -1.8170192948802264 -0.24111889114163959 -2.2949129234066303 -1.7518432984397949 -1.3323233355453055 -2.08172072783784 -1.2598504545662008 -1.6987750885270159 -2.0273159817642616 -1.975953698842404 -1.7923346125015009 -1.362796639421386 -0.51938975696098144 -1.4325221168134745 -1.3416369511932578 -1.2899740628458749 -0.30583207519188793 -2.1364618954399575 -0.71877525686793386 -0.31546671957136779 -0.62249689246120965 -0.72870838649682901 -1.6797812098903235 -2.25565824653262 -1.9495644184020109 -1.9243609087106883 -1.595254055698436 -2.5084945787129875 -2.3589484060629839 -3.2943618729182176 -1.6203169006367162 -2.3189777321102882 -1.7025259260889509 -1.7272308971076884 -2.5023135493695463 -2.7969098863801607 -2.9476504006553927 -0.96606910667302759 -2.5859968476576438 -3.6497324509742919 -2.8244526461744472 -3.7818754835098516 -3.689134104397938 -1.9505974147310039 -1.9996571020249878 -1.9759278396284219 -1.7990122999246385 -1.6653337261382894 -1.9500822910057047 -1.3409124067184117 -0.77720448244966411 0.10581309521238465 -1.1475405983406599 -1.4756825450275075 -1.2038390221224158 -1.9770785242273312 -0.84835720235444978 -2.442296041173913 -2.0870744795181184 -2.9883454724632585 -0.97743284487456916 -3.5882994001769717 -1.1795246940083925 -6.164262479982856 -2.540023067945953 -2.478019784991671 -2.4966115884758944 -0.87783977294463511 -2.1553779036106797 -1.0736128976232322 -2.3916448951678144 -1.96884392953942 -4.1866616854081311 -1.342393600631369 -2.0327263971408787 -1.9657880686287783 -2.1011499723480083 -0.87668662511760387 -2.8785930677675493 -1.7610782276777066 -1.3446730144415344 -1.7577178186617644 -1.7665421612990808 -1.1300665912069454 -1.8493028280873551 -1.1863579223637846 1.2641074069052971 -0.93494835427164225 -1.2906383687091987 -1.2775527830065043 -1.9665867120922751 -1.1949001226617157 -0.9317671508546157 -2.0216317391984564 -0.3899949548788445 -1.6495263050245388 -3.7264378919466248 -1.2865712895898966 -1.8320996359898374 -2.6101802024881415 -1.9130326414853995 -3.1685908191203187 -1.5068716963097444 -1.4510977508034111 -1.4180177291303804 -1.8120672395944395 -1.5184270826492294 -2.0401734695176308 -0.86656491534640367 0.046786392367003403 -0.23118105092847596 -0.40690483347429374 -2.2914443725685789 -1.6005605077399427 -1.6045760584320949 -1.9335473185935865 -2.3203506390688875 -0.66008819803148222 -1.9498964206067284 -0.34070226377548346 -2.2098685706170098 -2.6213992374401078 -2.0595283676447607 -2.0491183653879581 -0.89463759322100744 -2.2006601416817659 -1.8600174902346516 -2.1734966752400213 -0.93142256969921833 -1.9844713436561179 -0.6517150226357491 -0.73845018483473202 -0.94844894199686325 -0.70999209465326529 0.29659019248593738 -2.2409026545223925 -1.2024292166525843 1.0755197072378213 -0.42870702932023341 -2.1975422457632727 -1.8478283642122499 -2.0262484116553967 -1.9237503246824408 -2.2218708380263119 -1.4137441527986061 -2.091107504839222 1.7935667910619155 -2.0070081691530812 -2.3677027302354627 -1.7041881027659658 -1.8647915489029891 -0.83227578522373447 -1.8585305519239903 -2.1865130431141422 -1.822348385235552 -2.5080845560610179 -2.3918522516604139 -1.3302746547452315 -0.28761662577598907 -0.4492007267062304 -0.83935612874884213 1.7743741901762726 -4.3522508230616621 -7.2153397460695619 -0.36577862232923181 -2.2172213593481134 -2.2197105965964443 -1.7819262349898377 -2.0641790192767138 -2.2433668993587728 -1.1161196852493094 -2.1450677616686336 0.52906734142063849 -0.9307332660341312 -2.0227650823466017 -1.7865633100986018 -1.9059006509584808 -1.1038384084522399 -1.8605084041812039 -2.1474210182881799 -2.2709397622173118 -1.9277074095246693 -2.570271142744577 -1.3266112017108607 -1.5959000283729654 -1.3068954412426332 -0.74529205960022182 -3.6412001348620229 -1.9083892045954662 -0.97480517318646898 -1.5840410656712209 -1.5275036445374892 -1.2739818590020386 -1.7314880965669768 -1.7422517423143791 -2.7160307933376351 -1.5667089632723785 -0.2139462265001314 -1.4488275376865571 -2.0296293708421973 -1.2663507905271356 -1.4989849132998825 -0.25359367154559326 -1.5264653691043029 -1.7258767853299344 -1.466366649391134 -1.1168582928093131 -1.6649169259270238 -0.046529198240197939 -0.93720648226570802 -1.0641363077004637 -0.16404575888245998 0.5625934941489994 -2.7795952320408439 0.4244349978171944 -1.2169413253759542 -1.7931002025057963 0.49282210699548279 0.92686607368821416 0.021460277385272081 0.12562909857159085 -1.7836186556967268 0.049498876303722357 -1.5216865983701482 -0.71551659376393872 -0.37137248040958387 0.0036435341031468699 1.3057161389176766 -0.28897616464363707 -1.0125628614135802 1.8959014939102841 -0.59354274540779994 0.76510987149367871 -1.8671353433139437 -1.8216838446920134 -1.6875598390984707 -1.5434103879510903 -1.4792406567023015 -0.58765784424923939 1.2255705640270229 -0.61898142991573391 -0.7591252076960654 -0.67998748489575089 -1.2318971359615378 -1.5588337838257249 0.1805059271127013 -1.7917380661339577 0.76142287868283465 -0.0029246723061677315 -0.21190150691992285 -0.9541639937068086 -0.40707690082724463 -1.699289981431914 -0.49309230077671395 0.0018531820393219269 0.25553957772203029 -1.9241722940723274 -1.8357691374559075 -1.7920977240434273 -1.7091979867983031 -1.5485893145216998 -0.76480954654177769 -0.77911693856553366 -0.96456073877042936 0.057867295893495645 -1.6398170538875787 -1.274536243690894 -0.79430844228216002 -0.9775578122246803 0.097143721945900777 -2.092488058915956 -0.20278448330922963 -1.0120592813539766 -1.7305340772907805 -1.6064286032300328 -0.2932390715581884 -0.3016521820242391 -0.010732176889006162 -1.2328949776696447 -1.5621171374519327 -1.4204626468566255 -1.3467823183550247 -1.5986029018603001 0.21347914669667584 0.73444509248814616 0.17901556091175583 -0.083553602274784117 -1.6329172953474782 -0.70692720213993798 0.3208979936604725 0.60830779004213487 1.1040946849700073 0.074829766992911315 1.1437743197790577 0.76610361197784815 0.50639044143399803 1.3142292036432397 0.68463083330957386 0.44775241262757354 -1.9581445864978821 -1.966269416758057 -1.8568951274905554 -1.5718076065173407 -1.493867809715528 0.60570975131528004 -0.096400035860755018 -1.0576918324767439 -1.8012793323646588 -0.25427935017753678 -0.30862278531204068 0.30992652149234884 1.5300201416061481 -0.65875558577544635 0.36002997356043304 0.67903514312608704 -0.43671467766336347 0.91456038665187056 -0.51706119758688507 0.15896061142089921 -1.9749557325085316 -1.9987399081615982 -1.8478767963501921 -1.7147222754571749 -1.6683711989324626 -1.9757597639428759 0.47822340753223641 -0.23689186846430277 1.0598379769448687 -0.65680556470166918 -0.63405847361400069 5.9497575033562526 0.69314717840248341 0.52320913784313772 1.9507726165460157 0.59858655631746815 0.96989264467807013 1.1883266470188583 0.69314717840248341 -2.7527284054767058 -0.6951962824940805 -0.2511542670291671 2.3193030017916438 -0.83269466708602757 0.69314717840248341 -1.3746629418839953 0.26279983386013017 0.86661121888014958 -1.6790698300744535 0.3011998733916168 0.48844465651942476 -0.42103101544265631 -1.444286765480447 1.3871461073873139 1.1785200440423074 0.73100870628212122 2.0817307006355477 -1.9160462225533526 -1.9166470599722012 -1.7787807725669746 -1.5155086167674514 -1.4116437723445487 2.3692156070053114 -0.86096006802558123 -1.5869160971673089 -1.3310288724829615 -1.7490695454997334 -0.082071180677294367 -1.5376196111709091 -0.19267557448224312 -1.3810051568909543 -1.1100641656124468 -1.211270087420601 0.041553248183971173 0.93945551367219526 0.20482727470365186 -0.3199918503574693 2.0928996875549495 -2.8845036068933081 -2.0574951212840982 7.8499448307845601 -0.21814363475275858 0.4481646524299141 1.1360481147547796 -0.80465573084033393 -0.8656857609790507 0.59375226892508659 1.017875538901261 0.77790314822885975 1.1375194020973449 -1.9472154693452541 -1.8205273928646477 -1.3593671463331878 -1.5006465626596652 -1.3895626207349174 3.7704537723550815 -1.1463279775727107 -0.17116214066472632 0.045506741640232946 -0.92070092277935933 -0.83641299427382665 2.9015355557919338 -0.096335241275280106 0.14865580810957812 -1.2084437591315358 -2.2284401430747374 -2.2231971826927359 -2.2309477717031627 -1.4797827605889473 -1.8312816310318083 -1.9476927519437723 -0.59089090397146304 -0.86739254898804419 0.42801573853969338 0.92353909481805763 -1.7900572796600405 -0.49781838322484945 0.46109448911325784 -0.67542259001989668 -1.5673824878051408 -1.5540924389078761 -1.4431603290514439 -1.047976377291054 -1.084084236851605 -1.0962241609603041 3.9377246969933566 0.98246855090102669 0.76224836034756349 0.78333429758519657 1.6345672005058642 0.58397805316658047 1.2503206052937479 -1.8593366934953228 -1.9848480473083052 -1.7187038587544941 -1.6177390442935322 -1.4586819522067636 -0.8826357020425023 -0.00098370705013119879 2.432440110668975 0.77183549817890651 1.0104942458720163 1.2736107048837459 0.69314717840248341 -3.4902295766562736 0.074475403294743364 -0.011569769357008916 2.1908690333253484 -1.0268021594698542 0.69314717840248341 -0.027103726238347725 0.15623081259181457 2.9331640601808506 0.17723101710985578 0.96697408081727421 -2.0476823919215454 -2.0797246339931896 -1.9386134022412209 -1.7155021311488396 -1.6215063485374805 -0.76097925663131627 -0.13002863050340466 1.6486979375599204 1.3762229334149207 1.8389789339508511 -1.7922920567996194 -1.7867585795903893 -1.6838344181809524 -1.3815491141587173 -1.3081247141686536 1.3757640122276116 1.212503618323536 0.70108180159252409 1.3956728585788576 -1.6664711592991088 -2.0583298661719258 -1.5492823348439249 -1.3566631401036653 -1.2681779497949139 -0.24497858907232736 1.3051897945273512 0.72423565341437068 -1.6205284258329018 -1.6319907425119222 -1.427929702597051 -1.2164374824189019 -1.1442889849060687 0.35805174884168911 1.0218328389991103 -2.2339950665982324 -1.6494162605473415 -1.7452645076739537 -1.4198855854226038 -1.3464717955926873 0.72301327597494636 -3.0392646242424748 -0.64677188285508302 -0.19917843283553671 2.5832007512417796 -0.88704145753254637 0.69314717840248341 0.14770536533716833 1.1436883257483803 1.0459016043389358 0.12043667563447139 -0.55143325807233112 1.7361264152641143 5.0979963386592457 -0.32545363534494692 -0.21800525940782309 1.0924021651559312 0.072864172372473279 -0.87298368659547498 -0.81540547103536543 0.36000473022884966 0.43585832902572746
probB -0.012549737862340302 0.058950881000436203 0.11537510442594771 0.1065907801222305 -0.089501684486950589 0.24581975608674747 -0.29324397082744719 0.13235799446797142 -0.0034238352606970534 -0.15867362102426105 -0.012467824611404438 0.11086376183983432 0.41745343304067761 0.2383183531501914 0.083927793730822625 0.068343709520053669 0.050522535754621616 -0.62553594846265992 -1.7513917391875335 -0.57042834240103735 -0.18927271988603162 0.46452740713958324 0.50973684666052688 0.12942001786955534 0.057234565263547393 -1.601551601189185 0.075391497550609879 -0.63494623744266587 0.42172682537418471 -0.72860250549809213 -0.5699780163136664 -0.062112046148844573 0.76394377575146677 2.6657266888207207 -1.2218407822100692 -0.33978049693976059 -0.17852244538686426 -0.084783748759181612 -0.22820080486640903 -0.38377022233114449 -0.7045960579610987 -0.58671496732290385 -0.45576910998458608 -0.46735628229912746 -0.025073182199786267 -0.37060148439521062 0.088588679985002541 -2.5338160307281674 -0.22571785567327049 -0.082252292724167786 0.10394105861628752 0.32096499152458524 0.13033541583773436 0.18248229076392808 -0.033160266180713889 -0.055190652794568279 -0.19368667663627517 -0.40570417522674307 -0.32583439434587691 -0.94731562268984504 -1.5073167098797291 -0.46696474879121846 -0.072504263021596072 -0.76764964931399238 -0.54481788319934343 -0.26251174685440909 -1.4709267135051953 0.17474037631949302 -0.50954314892136254 -0.22398127385708774 -1.1729872566994706 -0.567944338554629 -1.1031928308234749 -0.76344272735490826 0.43463241988623663 -0.23187437329464225 -1.8912242236950427 -0.46060737920703448 -0.19120046961810516 -0.1572306104144951 -1.1387561122319276 -0.46858970412473511 -1.3012774613229472 0.93074889595752697 0.11986026010421968 0.18795608638158354 -0.061827538457457351 0.45501268829096464 0.39360591293173908 0.19927647328020728 0.19089437675955773 -0.048418472361673945 0.20369386348215762 0.76262136229957811 0.38755049115106149 0.47268116117633852 0.3740565541981774 0.37879914947778265 0.31942129805093927 -0.013512562426969792 0.26674746329821591 -0.70378462911788253 1.2024065247282782 -1.4137050914612568 -0.38315495780688585 0.32939978603738657 -0.47502013325297276 0.81904745212054186 1.0255096812261224 -0.39714003671833514 -1.2723369096295787 0.75185173769725355 -6.3362167241679019 -0.11579378064268755 -1.7357635032714194 -0.82575775417549768 -1.5088536265458743 0.32533088349341921 0.3277399777038128 0.22436440231538216 -0.028258816643512315 -0.15524871790083786 -0.13369581114142343 -0.53590588509057457 -0.27951910848992584 -0.92701640084892778 -0.012271976461037634 -0.10531821254152193 -0.097408761183095147 -0.034146536118799288 -0.49726153429513748 -0.99595245109594821 -8.954436361652946e-05 0.11966736967096846 -0.14273084535397387 0.073267000084810172 0.051061749155991765 -0.40355923627804791 -0.060912517825829515 -0.035980057913196785 -4.1614546164191077 -0.2187511178912975 -1.4829246624622348 -1.159642294776484 0.23307726483161686 0.031211487482438908 0.18134241996266959 0.035648118060850054 -2.442072559637039 -1.311039326328965 -0.28780518965759128 -1.3625828037685614 -1.5060784876466051 -3.972286029061312 -2.2636003316931919 -2.7836560109450699 0.056674642199603886 0.063034794317777337 -0.080963986194070373 -0.36491867949637613 -0.43193224147647519 -0.91120630422445104 0.083989215727868799 -1.4254652120101678 0.32390260892232903 0.12746549017495448 -0.16286422425623606 0.27436333379467176 -0.76253809684794971 -0.751962399267047 -0.80025125926992358 -0.43633870639167427 0.21253831131334411 0.095862800439190904 0.12094576340495689 0.1610421190610084 0.28063270228063991 0.38458981867091235 -0.70460707645657217 0.74950690479848414 -2.3141183623109463 -0.74816696674439764 0.25492273704984125 2.3659796946889542 0.63595012555420893 0.23470925243466242 -0.74813077351734891 -1.0004849495610291 0.12702780749084164 -0.34261691465401761 -1.5619358450674159 -5.8149002131807475 -3.2453415674841883 -3.0643398586677151 0.16918166675523155 0.098588378023544171 0.10134088557235828 -0.15894930699921742 -0.28924356055591377 -1.8920754746878403 0.77357303463235483 0.29969471398018155 -0.090080764283428191 0.37141468435208475 0.14887748388495831 -1.3374132868420163 -0.46531340257114856 -0.67705036267966667 0.22953100023830489 0.1650785688181364 0.05113543755094882 0.1395398621132784 0.52383937611751052 -0.95869396209966462 0.042831682883876357 -0.44486483761255335 0.48552133610279852 -1.1876230554877278 -1.2032087165171566 0.28905838518211202 -0.40279209245068287 0.3507648226049413 0.053701866899068473 -1.6942027840952414 -1.1123540632832667 0.18133487725089331 -1.041245074768623 0.51753505363104468 -1.5492565354027932 -0.99036716519393297 1.2529248273251543 0.0307535716945481 0.14151212504572439 0.10844006281476673 -0.24582218201025635 -0.43816236656448421 -0.71031068314669366 -0.93177752238330991 0.024533484320677687 0.029080296480110492 -0.13848771206525026 0.12442364761922127 0.060546988749818703 -0.018891404667892523 -0.096166260445542759 -0.04985881016956701 -0.3460853020290578 -0.61655654066282128 0.31934709085537394 -1.5518698299361433 -1.4793280552524257 1.3461657447194006 0.97991994252499859 0.15305346562432623 0.48317788387103194 -0.55470843385999868 3.9384157852561907 -0.094546039746855617 -1.1778051704595405 1.6436833116980178 0.43115872394755667 0.089046999125256071 0.52824975000498831 0.69457650943491367 0.74247912222767964 -0.36991825017418428 -0.80912741199157223 -0.82353667080492621 -0.54445902294890725 0.022363578701942693 -0.87363463343139702 -0.98424559010597068 -2.3601743951116938 0.31209869738036394 0.28106371840248184 0.16863496949165768 1.5061861986341381 1.9274819834499897 2.3171936885026545 0.56510146339044365 -0.31884780268389229 -0.029166976409060817 -0.26551132557524637 -0.25298444873427117 -0.11771756857678535 0.3288220865017582 -0.49612208342112818 -0.28690354147751701 -1.5957525933777612 -0.39833801816905356 -0.2005138375221763 -1.3345438954464139 0.3151792470744631 0.039943147559605124 -0.42397609126230512 -1.5595613073813654 -0.14690818575132916 -0.57958098905282229 -0.58432023282108914 -0.92238438294894787 -1.0760251411245834 -1.718436522143566 -0.56178692391916862 -0.091468387652803629 -0.19748727795154303 -0.44209238586674682 -0.25893005275042669 -1.4424645348976128 -0.0091587171141983663 0.29591731919815606 0.22690740899872341 1.1112990103063645 0.42628130237149553 0.85258385229803613 -0.1374108245221157 0.074902444283117167 -0.46776539538774214 -0.11884325140392843 0.041676234154096978 -0.11825815276252102 -0.41717804673012859 -0.30106351575884377 -1.5382446809601391 -0.19274535646660268 -0.34599321044846493 2.1043040842347391 0.16470479009244546 0.033621267194363716 0.21338523413391383 -1.1869483391734788 -0.11473538813056645 -0.039105670433023806 0.69926672257118383 0.26984827670845218 0.010936909655459027 -1.5451066815738523 -0.24606620795810574 0.20421960506851225 -0.047725623071916572 -0.71266107022982517 -0.19522748310966176 -1.2451402670391125 0.03290357797312151 0.16878278775876415 0.077387514658046094 0.14524385582582638 0.14784754905255421 0.069410208877127691 0.15041144443494048 -0.36057509713435376 -0.21061202865941975 0.008938821214054234 0.078455149117914277 0.35928448175120387 0.0049843232202460615 -1.270236239807373 -0.30883671028615006 -0.15695925471068933 -0.96548640747212466 -0.10516572677645654 0.12159728151817134 -0.15424929078484281 -1.4892133306501665 0.24388070949623136 0.27795293966915385 0.042868329798838603 1.2867327350228894 0.67104592164501253 -1.1595675786172368 -0.5370241347767879 -0.17860584606608476 -0.30715034032977184 -0.91895923285040015 -0.71756707401182163 -2.5472506951054403 0.25258862683589384 0.4047817103341757 0.11689842022700128 0.3137513419095071 0.32200424726101723 -0.07607984880389293 -0.55804228870855366 -0.41360010828768151 -0.10953078362101791 0.038604980656989432 -0.30492618712095804 -0.57821894871422497 -1.2517246550221097 -0.52773188584204134 -0.4776142590340573 -0.012038914167316447 -0.36619161402423372 -0.097108577816417213 -0.3862553127551922 -0.5777387599517515 0.12586892446000922 -0.30647197841151602 -0.18414390917685777 -0.23797151685139561 -0.28897830681049747 -1.6527153677820814 -0.60656830992557509 -0.031249555645021767 -0.37658178121862296 -1.18860768733167 -0.22171882721689157 -1.5482477432193982 0.031801894604728244 0.079341545813446143 -0.15216921065397646 -0.10792160521733882 -0.46277727860474599 -0.25303548971432427 -0.22004953752755943 0.11178849799816516 0.90686104082044483 -0.12296043815461176 0.63753633128387222 -1.2046921004511546 -0.051908941499937897 0.017383599784176619 -0.62585760574030802 0.17266351438619154 0.77853296899659752 0.30959358007529186 -1.8708516977711931 0.037911590497255787 1.1742006355122192 0.12223715002879522 1.0639896466095256 1.0625874865951848 -0.85118390229566254 -0.2262553645726636 0.055723062716355888 -0.18516634480764999 -0.55042240169934031 -0.40008810332786715 -1.5138513456552201 -0.017039706795119829 -0.58869407796878459 0.075054060446134177 0.064678574437612088 -0.25531970004290416 -0.07050603699343623 -0.62646852716058132 0.79715455112988298 0.10432743015861023 0.17601332875724574 -1.8543123531462284 1.2648301861613869 -0.38544147947377344 3.3797392159094066 0.35708334054782476 0.29600877698298145 0.10333294504585264 -1.9964078664624176 0.14174581589217392 -1.1368918873601739 -0.4269882655472641 -0.50359995994497264 1.6694034533177782 -1.5026907067551432 0.16099384233619454 0.071415215157352621 0.193659375254983 -1.2759053816676771 0.63783601886407382 -0.99343729600367114 -0.021565431213414494 -0.31379015560182888 -0.41091286862197285 0.10945578761007896 0.34982910726185795 -0.17302888024903609 -2.5058459313230657 -0.96322794114676424 -0.17806964777925144 -1.694085953308208 -0.12841777090555537 -0.60422437692774722 -1.675808825996804 -0.0030666031120567283 -0.90354916661635032 -0.15009668985849381 0.98461878139897185 -0.16671832060778591 -0.3408445178330729 0.30279439342432252 -0.55581096621491355 1.3836500142894483 -1.3375658600881597 -0.56800695932409462 -0.40499816380382647 0.07644892255854123 -0.55427198069402117 -0.30537695761386524 -1.8900196507288654 0.094358980545657764 -0.18674347983381717 -0.72227005502172981 -0.014826851022536652 0.00010245423026484593 0.2434729998131456 -0.2243691801357369 -0.46998227961489347 -1.8021380826436648 -0.45998911180740359 -0.69441739033813144 -0.057348015385732233 0.072458086454548432 0.49258835789522659 -0.38286257155782205 -1.4677482448982719 -0.13051238985236771 0.24621671756462835 -0.38282223019221046 -1.09875449448006 -0.014842896355499603 -1.7739386662870442 -0.55068826192953635 -0.43647217076227296 -0.46417445820436143 -2.2819081034510238 -0.14701163855595231 -1.3307276674209823 -0.88552422224666505 -0.58306709977472337 -0.2423564902559375 -0.046045898877099339 -0.0046522132477389341 -0.35486423012895357 -0.52192330397453834 -0.74996160111048016 -0.32915150042863545 -2.7709531401711267 -0.69209271297819219 0.16753805078301673 -0.1215942723852468 -0.2570066669189533 -1.4761883879128628 0.086353591957911688 -0.52316654150208086 -0.87443789073126732 0.61372605593608509 -0.14719329332406247 -1.0809123755536512 -0.67024104462906708 -0.60262641854205434 -0.44100728373802844 -3.807629878523751 2.3669732584612158 4.7101720701245453 -0.50254187119810556 -0.15197874341550455 0.32040324219215977 0.32594419395113855 -0.30560449189514205 -0.19102686695891505 -0.77521145468560881 -0.11782645274783875 -1.0979364991860361 -0.98221756839752938 0.34809104228945947 -0.06452207245240868 -0.046027709527955651 -0.79976735533067644 -0.085289351056450718 -0.46024550743766024 0.051634120897219429 -0.43011042953976392 0.078231681783787949 -0.85488830002666905 0.20875058008533817 0.1839776933199537 -0.48686649017191863 1.9593587859478061 -0.43505957638298148 -1.3384540204197666 -0.21919354254481091 -0.26850685905159538 0.17871044243083922 -0.36001465888989992 -0.42611148418644584 1.8528043045402647 -0.49005926962228469 0.051402255099024838 -0.50581114679406791 0.35910955727306565 -0.1554568843662428 -0.31389055315126096 -1.440191762246924 0.024811786243405087 -0.5403172253130365 -0.51166959133515877 -0.71220726412336388 -0.41870990892915433 -1.6993045282772841 0.2131782085847313 0.2043652012410421 -0.17086495572120275 -1.5222176962970422 0.86320531154708457 -2.1597998788483919 0.030534235758827546 0.0090133939451242373 -0.79561433376763613 -0.031918622212734109 -1.5338728151571859 -0.82735259826595664 0.21133023686621463 -1.1265728588991784 0.094428372811017527 0.040238948792023409 -0.2393440808931285 -1.5162193914296005 0.15768123273829485 -0.81164633742161707 -0.085749354163659378 -2.6932978143527024 -0.50749727295528024 -2.2580964195111939 0.21371842527061255 0.36888120894203658 0.24186605377395101 -0.033318976077387444 -0.24172303202230294 -0.87737595292698134 0.51511722798485193 -0.31458457000996859 -0.15850922630796066 -0.91503620758380033 0.1661909785455376 0.28448047082633748 -1.3814969389574268 0.29908378113939682 0.39367114256838337 -0.44147298797558393 -1.4188953837105642 0.12918937170470529 -0.66002400921032234 0.039454729292542581 -0.77862011276706 -1.2101179682330758 -1.8860288265980136 0.18747256184975036 0.27725922911890166 0.11370673229565496 -0.1884173358005081 -0.36948444828084165 -0.78054778231079502 -0.3957492508490893 -0.26701866674136254 -1.9932228118768693 -0.34633776796514792 -0.013179173755458079 -0.87945735705510752 0.17706945168900673 -0.1246158611577895 0.099974767464403536 -1.7178641397232468 -0.32718236516772298 0.37227048661980905 -0.065119566451456348 -1.2340825222442631 -1.2308507266876856 -1.9254173585659895 -0.27904340115200582 -0.014662831040868471 -0.044173606528611568 -0.40053640551722591 -0.45054438480167514 -2.1207548190444183 1.1944195204219545 -1.1765825307237157 -0.23589010782037201 0.32850414181452681 -0.51015379567525709 1.6809212993276677 1.2870702945173076 0.50127436824062244 -1.0833659896223908 1.3655825316998937 -1.1622691137367411 -0.36022511576620941 -1.4706072153062586 -0.81773017972794648 -1.4489885308793131 0.31266457928389241 0.32909046613634219 0.22005593271442428 -0.047386486479818114 -0.14314043669201451 -1.6086407222682841 -1.5396895772011099 -0.016063973264638945 -0.22412554752062522 -0.91671186000697302 0.57386632397563153 0.28880109838329326 -1.6173096172458876 -0.96379978955552004 -0.12393978978622039 -1.7509689929138341 -0.57906304112952522 -2.0786835934053021 -0.70493939954758567 -1.7939718498936674 0.17813139632532574 0.27996602378423252 0.15140563732035298 -0.093993760166475024 -0.16897919623605642 0.57543379265550909 1.0451560606211048 1.468070221116816 0.81542054434975098 1.5950054843815236 1.1741520642426668 6.9157449875544295 2.3918953807395669e-16 1.9408730704276109 1.6480012493132279 1.13734413626958 0.41395642063540272 0.6170627302767584 2.3918953807395669e-16 -1.0681874899507413 1.1231365609594384 1.2534385574032274 2.9013282688190891 -0.072715961857397732 2.3918953807395669e-16 0.3038596712042525 -0.42771730200448899 2.3670380823074004 -0.20114390276870348 0.54932105952349097 -1.0520627055058478 0.50153906456899622 0.21488427191722351 -0.12816831497478592 -1.2815368219980625 -0.8116049832183827 -2.4164844243340737 0.36076367763671197 0.37905176093415305 0.27487570897936636 0.049434077152813734 -0.06664490893221528 -2.9852798808015693 -0.90189805308086279 -0.26757076474282149 -0.10402438830345828 -0.53172740325000878 -1.6608542328921954 -0.2899871038920584 -1.1201253659516435 -0.73350245354687837 -0.68566012899702466 -0.68071268717134659 -1.787570435706731 0.38690858403259515 0.1492985146058855 -0.090024472292713431 -3.101467272905968 0.71044714114785745 0.41239674323461417 10.008009257692173 1.2153619988099478 1.2233342088654342 -0.85333533680128648 0.40185848853770612 0.21152479675442645 0.61609802782738055 -0.0068485536388413516 -0.27013186474728174 -0.92161912615795705 0.23747235903978778 0.40843478022145013 0.47917301264214529 0.10162055836585455 -0.05655894212187125 -3.6019848681580138 -0.37463350581629878 -0.96425407209415182 -2.3402564957239025 -0.42536351147573742 -1.2632935776228829 -4.3575574234117935 -1.7756694172602518 -2.0322316578103576 -0.99798860700327052 -0.36481036052953703 -0.23827890711755445 -0.079123435906286441 -0.55169322224634343 -0.58191076870293001 0.059854206972073727 -0.39031138690236633 -0.90130614944306409 -0.58599296782530197 -2.2652299599962809 0.037913320037055095 -0.95533360711861193 -1.8289917972228145 -1.1234830354719005 0.16507768251433083 0.0098500854725377413 -0.11905970284350646 -0.34847771918880172 -0.39982286040945536 -0.30208561563830716 -4.9871976285020567 0.63193147572121822 -1.3706811503592513 -0.78523003336254238 -2.0920325567617617 -1.3111389337159902 -2.3725758651813389 0.33235595389366934 0.37587280735380363 0.23639689194425734 -0.024801827081160587 -0.14556011250386025 -0.28708044356948187 1.5115958616999183 2.0952365066461969 1.2708156611940282 0.54951422393002602 0.71905881775910008 2.3918953807395669e-16 -1.8096987397868671 1.9200553578308557 1.5009986911969966 2.7748975295918452 -0.27019297163903222 2.3918953807395669e-16 -1.0566193868094376 -0.88529837919895638 -4.0366218894498207 -1.2366504946361356 -2.3466006068828382 0.17170452811108303 0.14924854892592823 0.062126973063828451 -0.17659027707642255 -0.32393849896275967 -0.70872563042479686 0.26751518654747786 -0.026775913352907882 -0.1026258842040727 -1.1458318293753824 0.43012215493497508 -0.43341318636346127 0.3539597254662139 0.10333425422359938 0.029982689533424488 -1.6911059328225289 -0.52600920323044709 -0.64448676388674786 -1.3999657441244282 0.47319070445712552 -0.0092780140405120601 0.39772872310188956 0.12645652967299176 0.0055924339567283918 -0.51503646030190897 0.086302871915002424 -0.045515167568314654 0.42689129989552971 0.43983890911170637 0.40384316081885141 0.1129385603894458 0.011065577773248058 -0.76242539914323637 -0.34615482090995114 -0.91313000738733796 -0.31246169865616147 0.23251916414381607 0.019769643651993341 -0.074755369689522025 -1.0512487602486296 -1.3649851315320842 1.1861815205589767 1.3108543491635709 3.1648102210341396 -0.12598860571803583 2.3918953807395669e-16 -0.044309405581098006 -0.57796490969581193 -2.2268357361218722 -1.2171763467384358 -1.2886427312386972 -1.5227171076888699 -6.2066284130904403 -0.86059639886520511 -1.62348698055375 -1.4953578313987317 -0.80252693311006562 -0.62519901236272601 -0.12400895665316278 -0.95090043119960688 -1.1831543143117278
nr_sv 25 31 5 9 6 10 35 9 16 25 16 36 37 37 22 24 18 9 7 8 11 4 8 1 3 9 2 15 10 5 1 7 2 3 2 2 1 10 10 7 3 3 1
SV
1 0.7662974581135501 1 1 1 1 0 0 0 0 0 1 1 0 0 0 0 1 0.79305815260112622 0 0.43401557665299734 1 0.040910570084182606 1 0 0 0.47529945638786814 1 1 0 1 0 1 0.073395675030694718 0.3945859948063416 0.32336939612346322 0 0 0 0 0 0 1:-1 2:-0.64 3:-0.86437 4:-1 5:-0.37037 6:0.155011 7:0.283213 8:-0.461594 9:-1 10:-0.583969 11:-0.425532 12:1 13:-0.82064 
1 0 0 0 0.080593663843314373 1 0 0 0.036667245045051061 0 1 1 1 0 0 0 0 0 0 0 0 0 0 0 0 0 0 0 0 0 0 0 0 0 0 0 0 0 0 0 0 0 1:-0.996207 2:-1 3:-0.596774 4:-1 5:-0.530864 6:-0.0783675 7:-0.437693 8:-0.505733 9:-0.652174 10:-0.648855 11:0.404255 12:0.9825 13:-0.536424 
0 0 0.52786651004317453 0.093533811772230538 0 1 0 0 0 0 0 0 1 0 0 0 0 0 0 0 0.84069422589933007 0 0 0.26001670473985272 0 0 0 0 0 0 0 0 0 0 0.3440734593722175 0 0 0 0 0 0 0 1:-0.99656 2:-1 3:-0.527126 4:-1 5:-0.740741 6:0.0155202 7:-0.92585 8:-0.164983 9:-0.826087 10:-0.824427 11:0.12766 12:0.987695 13:-0.684879 
0 0.3911182734169637 0 0 0.19336445374467132 0.95123813057330653 0 0 0.42383814711308765 0 1 0 0.080182256295714377 0 0 0 0 0.28328824541173064 0 0 0 0 0 0 0 0 0 0 0 0 0.39146482908576463 0 0 0 0 0 0 0 0 0 0 0 1:-0.99968 2:0.7 3:-0.979472 4:-1 5:-0.897119 6:0.0814332 7:-0.324408 8:0.465504 9:-0.913043 10:-0.519084 11:2.22045e-16 12:1 13:-0.777042 
1 0.41106531621389331 0 0 0.51893536246280425 1 0 0 0 0 1 0 1 0 0 0 0 0 0 0 0 0 0 0 0 0 0 0 0 0 0 0 0 0 0 0 0 0 0 0 0 0 1:-0.998158 2:-1 3:-0.241202 4:-1 5:-0.884774 6:0.0944625 7:-0.92379 8:-0.243841 9:-0.73913 10:-0.549618 11:0.404255 12:0.933582 13:-0.724614 
1 0.41309101587024843 0 0 0 0.81961506512488902 0 0 0 0 0.38659776729340439 0.91498124315495644 1 0 0 0 0 0 0 1 0 0 0 0 0 0 0.24710943762066376 1 0 0 0.131110138905776 0.088612645700408679 0 0 0 0 0 0 0 0 0 0 1:-0.998367 2:-1 3:-0.0931085 4:-1 5:-0.786008 6:0.0392796 7:-0.936148 8:-0.432222 9:-0.652174 10:-0.194656 11:0.297872 12:0.990015 13:-0.721302 
1 0 0.42366902727227657 0 1 1 0 0 0 0 1 1 1 0 0 0 0 0 1 0 0 0 0 0 0 0 0 0 1 0 0.56913116164348976 0 0 0 0 0 0 0 0 0 0 0 1:-0.99932 2:-0.5 3:-0.677419 4:-1 5:-0.831276 6:0.0503928 7:-0.396498 8:-0.223217 9:-0.73913 10:-0.641221 11:0.361702 12:1 13:-0.724614 
1 0 0 0 0.14499466529271637 1 1 1 1 1 1 1 1 1 1 0.78948793709245746 0.18925143667572158 0.67944847325899471 0 1 0 0.65045540386531486 0 0.37051662863432527 1 1 1 0.00040047711540133112 0 0 0 0 0.26184387728906139 0.057837141916217499 0 0 0.17470014909521273 0.3034331517973835 0.36413132455833092 0.16000989631742762 0.14793785759256503 0.092160699843427799 1:-0.969956 2:-1 3:0.40176 4:-1 5:-0.0946502 6:-0.040046 7:1 8:-0.885841 9:-0.652174 10:-0.175573 11:-0.553191 12:0.783095 13:-0.740618 
1 0 1 1 1 1 0.23609987303339663 0.5560660511355402 1 0.13180438990361745 1 1 1 0.14606106785291234 0 0 0 1 1 0 0 1 0.5611090746997881 1 0 0.78873064833551676 1 1 1 0.65935855796204568 0 0 0.058114021879191992 0 0 0.34367961285368248 0 0 0 0 0 0 1:-0.998923 2:-1 3:-0.736804 4:-1 5:-0.485597 6:0.0553746 7:0.452111 8:-0.602088 9:-0.652174 10:-0.583969 11:-0.148936 12:0.993444 13:-0.748344 
0 1 0.24127175120793393 0 0 1 0 0 0 0 0 0.037366174084443884 1 0 0 0 0 1 0 0 0 0 0 0 0 0 0 0.63187508400521641 0 0 1 0 0 0 0 0 0 0 0 0 0 0 1:-0.999368 2:0.65 3:-0.884897 4:-1 5:-0.876543 6:-0.00325733 7:-0.268795 8:-0.0651184 9:-0.913043 10:-0.385496 11:-0.553191 12:0.984215 13:-0.68543 
1 0 0 0 1 1 0 0.4426805622282351 1 0 1 1 1 1 0 0 0 0 0 0.82836973412018045 0 0 0 0 0 0 0 0 0 0 0 0 0 0 0 0 0 0 0 0 0 0 1:-0.994979 2:-1 3:-0.257331 4:-1 5:-0.572016 6:0.05959 7:0.0216272 8:-0.413417 9:-0.73913 10:-0.656489 11:0.276596 12:0.989762 13:-0.490066 
1 0 1 0 0.062111854656493798 1 1 0.42188347949434929 0.24100624732196488 0.93239607288352022 1 1 1 1 0.59215028503918898 0.058006922591984159 0.023784999499940476 0 0.98369992878166468 0.9669088451731388 0.79885646002136157 0 0 0 0.04037805058283922 0 0 0.81995736484568604 0 0 0.77522909618477975 0 0 0 0.79004103792200941 0 0 0 0 0 0 0 1:-0.997088 2:-1 3:-0.257331 4:1 5:-0.572016 6:-0.0408124 7:0.15757 8:-0.434459 9:-0.73913 10:-0.656489 11:0.276596 12:0.921428 13:-0.286424 
1 0 0 0.4750299414445654 1 1 1 1 1 1 1 1 1 1 0 0.79931506326962054 0.59500659965697733 0.24829516040285804 0 0.88798432000668259 0 0.15751243408602017 0 0 0.0064906232299124251 0 0 0.38086111405891299 0 0 0 0 0 0 0 0 0 0 0 0 0 0 1:-0.988071 2:-1 3:-0.579179 4:-1 5:-0.510288 6:-0.0726193 7:0.342945 8:-0.537706 9:-0.391304 10:-0.541985 11:0.0212766 12:0.90645 13:-0.452539 
1 0 0.46942700029942946 1 1 1 0 1 1 0 1 1 1 1 0 0 0 0 0.31517244410743001 1 0 1 0 0 0 0 0 1 0.091698996001225705 0 0 0 0 0 0 0 0 0 0 0 0 0 1:-0.992714 2:-1 3:-0.579179 4:-1 5:-0.497942 6:-0.0323817 7:0.207003 8:-0.541271 9:-0.391304 10:-0.541985 11:0.0212766 12:0.898381 13:-0.495033 
1 0 0 0 0 1 0 0.14438871353468136 1 0 1 1 1 0.76391663578437152 0 0 0 0 0 0 0 0 0 0 0 0 0 0 0 0 0 0 0 0 0 0 0 0 0 0 0 0 1:-0.992503 2:-0.56 3:-0.604106 4:-1 5:-0.8107 6:-0.0239509 7:-0.340886 8:0.25961 9:-0.478261 10:-0.454198 11:0.382979 12:0.96611 13:-0.589956 
1 0 0 0 0 1 0.97799230224102041 1 1 0 1 1 1 1 0 0 0 0 1 0.33263011463348074 0 0 0 0 0 0.035263810441220698 0 0 0 0 0 0 0 0 0 0 0 0 0 0 0 0 1:-0.996447 2:-0.56 3:-0.604106 4:-1 5:-0.8107 6:0.100594 7:-0.0484037 8:0.217961 9:-0.478261 10:-0.454198 11:0.382979 12:0.888093 13:-0.570088 
0 0 0 0 0 1 0 0 0 0 1 0 1 0 0 0 0 0 0.76397000958731309 1 0 0 0 0 0 0 0 0.5347109713821997 0 0 0 0 0 0 0 0 0 0 0 0 0 0 1:-0.996988 2:-0.56 3:-0.604106 4:-1 5:-0.8107 6:0.121288 7:-0.791967 8:0.139794 9:-0.478261 10:-0.454198 11:0.382979 12:0.996873 13:-0.769868 
0 0 0 0 0 0 0 0 0 0 0 0 1 0 0 0 0 0 0 1 0 0 0 0 0 0 0 1 0 0 0 0.79075483640076438 0 0 0.23245794602796688 0 0 0 0 0 0 0 1:-0.995329 2:-0.56 3:-0.604106 4:-1 5:-0.8107 6:0.10251 7:-0.876416 8:0.139794 9:-0.478261 10:-0.454198 11:0.382979 12:0.899995 13:-0.897351 
1 0 1 1 1 1 0.36224303463832186 0 1 0 1 1 1 0 0 0 0 0 1 0.72542878365751795 0.13717091634741982 0.84095126800003961 0.3979803552160292 0 0 0.019074768195673844 0.4789342153680462 0 1 0.34064144203795432 0.90900663672486737 0 0.45460357634002563 0.97629038833163251 0 0.073741622993619471 0 0 0 0 0 0 1:-0.997566 2:-0.6 3:-0.52346 4:-1 5:-0.674897 6:0.140832 7:0.149331 8:-0.492966 9:-0.826087 10:-0.862595 11:0.276596 12:0.990216 13:-0.668874 
0 0.018427936385344627 0.54773996376880407 0 0 1 0 0 0 0 0.99183671844227683 0 1 0 0 0 0 0.65884518670592584 0 0.27920783308536173 0 0.87840716792193263 0 0 0 0 0 1 0 0 0.22405813745532238 0 0 0 0 0 0 0 0 0 0 0 1:-0.999176 2:0.05 3:-0.643695 4:-1 5:-0.917695 6:0.151178 7:-0.588054 8:0.125335 9:-0.565217 10:-0.59542 11:-0.148936 12:0.873014 13:-0.57064 
0 1 1 1 0 1 0.56690870953330486 0 0 0 0 0 1 0 0 0 0 1 0 0.012827938047591124 0.78926282107889123 1 0 0.369466666625822 0 0.043280405207439067 1 1 0.70812834017943294 0 1 0.50494859077454191 0.9739125978020492 0.89247679472145514 0.23884156187146457 0.25920936802923478 0 0 0 0 0 0 1:-0.999149 2:0.4 3:-0.869501 4:-1 5:-0.938272 6:0.268442 7:-0.0834192 8:0.218198 9:-0.652174 10:-0.347328 11:-0.531915 12:0.96954 13:-0.760486 
1 0 0.030811344224890048 0 1 1 0 0 0 0 0.31133424063106785 0 1 0 0 0 0 0 1 0.7445158033965108 0 0.47267372612669289 0 0 0 0.11365036782014959 0 0 0.16844135434605276 0 0 0 0 0 0 0 0 0 0 0 0 0 1:-0.995829 2:-1 3:-0.492669 4:-1 5:-0.555556 6:0.0998276 7:-0.756952 8:-0.220453 9:-0.652174 10:-0.618321 11:0.489362 12:0.983761 13:-0.815121 
0 1 1 0.055684192086901604 1 0 0 0 0 0 0 0 1 0 0 0 0 1 0 0 1 1 0 0 0 0 0.70640992993859386 0 0.03173130947328856 0 1 0.61568392712428499 0 0 0 0 0 0 0 0 0 0 1:-0.999805 2:0.6 3:-0.886364 4:-1 5:-0.794239 6:0.178003 7:-0.447992 8:0.312079 9:-0.73913 10:-0.645038 11:-0.0638298 12:0.969943 13:-0.764901 
0.30478976193328944 0 0 0 0 0.7785920237048326 0 0.031816008855009022 1 0 1 1 0.22384319999765623 0.76848506431079189 0 0 0 0 0.14409946492246606 0 0 0 0 0 0 0 0 0 0 0 0 0 0 0 0 0 0 0 0 0 0 0 1:-0.998355 2:0.2 3:-0.909824 4:-1 5:-0.893004 6:0.156543 7:-0.320288 8:0.742437 9:-0.73913 10:-0.145038 11:0.212766 12:0.868274 13:-0.792494 
1 0 0 0 0 1 0.71786020254114402 1 1 0.49796296903878662 1 1 1 1 0.91948570404656282 0.80120515717750629 0.52172992632185289 0 0 0.13210815566378703 0 0 0 0 1 0 0.057391463410111282 0.47930468991640829 0 0 0 0 0 0 0 0 0.23347931024847376 0.23846826148784497 0.23649145072157807 0.20601284755515539 0.19363284025077568 0.2726671521316324 1:-0.993857 2:-1 3:-0.323314 4:-1 5:-0.176955 6:-0.0936961 7:-0.182286 8:-0.772281 9:-0.565217 10:-0.221374 11:0.404255 12:1 13:-0.345475 
-1 0 1 0.9567174369915985 1 1 0.32028607744581805 1 1 0 1 1 1 1 0 0 0 0.24522588046410868 1 0.19565530960052252 0 0.4959998968038421 0.50183674856393379 0.24793747970845609 0 0.82727669808179327 1 0.063544560809998485 1 0.54607902600616487 1 0 0.23188590378460133 0.44289532423526518 0 0.64348933465487501 0 0 0 0 0 0 1:-0.999528 2:-1 3:-0.515396 4:-1 5:-0.654321 6:0.0959954 7:0.565396 8:-0.302076 9:-0.913043 10:-0.790076 11:0.106383 12:1 13:-0.59106 
-1 0 0 0.44381353290152675 0 1 0 0 0 0 1 1 1 0.38337166930225614 0 0 0 1 0 0 0.30837369728686737 0.80470909966948068 0 0.24374414359251895 0 0 0 1 0 0 0.41664525911308486 0 0 0 0 0.10332188149147019 0 0 0 0 0 0 1:-0.998034 2:-0.75 3:-0.456745 4:-1 5:-0.427984 6:-0.107875 7:-0.256437 8:-0.214088 9:-0.652174 10:-0.526718 11:-0.446809 12:0.967724 13:-0.228477 
-0 0 0 0 0.24705162651478813 1 0 1 1 1 1 1 1 1 1 1 0.86617540272891003 0 0 0 0 0 0 0 0.45034538227282117 0 0 0 0 0.019291439097337076 0 0 0 0 0 0 0 0 0 0 0 0 1:-0.977607 2:-1 3:-0.43695 4:-1 5:-0.37037 6:0.192949 7:0.738414 8:-0.434495 9:-0.73913 10:-0.541985 11:0.787234 12:0.915931 13:-0.434327 
-1 0.081018125441186001 0 1 1 1 0 0 0 0 1 1 1 0 0 0 0 0 1 1 0 1 0 0 0 0 0 1 0.74421003138222797 0 0 0 0 0 0 0 0 0 0 0 0 0 1:-0.998341 2:-1 3:-0.596774 4:-1 5:-0.530864 6:-0.12282 7:-0.204943 8:-0.489929 9:-0.652174 10:-0.648855 11:0.404255 12:1 13:-0.611479 
-1 0.57160394831270933 1 0 1 1 0 0 0 0 1 1 1 0 0 0 0 0 1 1 1 0.88790885369849182 0 0 0 0 0 1 0.11094315956271104 0 0 0 0 0 0.99513678383652004 0 0 0 0 0 0 0 1:-0.997384 2:-1 3:-0.527126 4:-1 5:-0.740741 6:-0.0388963 7:-0.235839 8:-0.164983 9:-0.826087 10:-0.824427 11:0.12766 12:0.962126 13:-0.568433 
-1 0 0 0 0 1 0 0 0 0 1 0 1 0 0 0 0 0 0.86541722672988608 1 0 0 0 0 0 0 0 0.13182177725018832 0 0 0 0.71641116426318607 0 0 0 0 0 0 0 0 0 0 1:-0.996573 2:-1 3:-0.241202 4:-1 5:-0.884774 6:-0.0802836 7:-0.699279 8:-0.243841 9:-0.73913 10:-0.549618 11:0.404255 12:0.899339 13:-0.550221 
-1 0.036787073733526444 0 0 0 1 0 0 0 0 1 1 1 0 0 0 0 0 0 0.50160039408504975 0 0 0 0 0 0 0 0 0 0 0 0 0 0 0 0 0 0 0 0 0 0 1:-0.998004 2:-1 3:-0.0931085 4:-1 5:-0.786008 6:0.0442614 7:-0.132853 8:-0.386554 9:-0.652174 10:-0.194656 11:0.297872 12:0.931061 13:-0.602097 
-0.94105356920745664 0 0 0 0 1 0 0 1 0 1 1 1 1 0 0 0 0 0 0 0 0 0 0 0 0 0 0 0 0 0 0 0 0 0 0 0 0 0 0 0 0 1:-0.998873 2:-1 3:-0.0931085 4:-1 5:-0.786008 6:0.0235677 7:0.046344 8:-0.293528 9:-0.652174 10:-0.194656 11:0.297872 12:0.947047 13:-0.414459 
-1 0.48308453159900006 1 1 1 1 1 0.67865263034138634 1 0 1 1 1 0 0 0 0 1 1 0 0 1 0.44639583655337833 1 0 0 0.61112307759576123 1 1 0.40522825545036129 1 0 0.49179128282191259 0.29974839836341111 0 0 0 0 0 0 0 0 1:-0.997556 2:-1 3:-0.821848 4:-1 5:-0.753086 6:-0.00287411 7:0.373841 8:-0.56977 9:-0.913043 10:-0.660305 11:0.148936 12:0.974431 13:-0.469647 
-0.6258378444627053 0 0 0 0 1 0 1 1 0 1 1 1 1 0 0 0 0 0 0 0 0 0 0 0 0 0 0 0 0 0 0 0 0 0 0 0 0 0 0 0 0 1:-0.997716 2:-1 3:-0.406158 4:-1 5:-0.444444 6:0.00938877 7:0.0607621 8:-0.700243 9:-0.652174 10:-0.248092 11:0.765957 12:0.982803 13:-0.378035 
-0 0 0 0 0.091625837780239042 1 0.49011647862096203 0.99272876192597437 1 1 1 1 1 1 0 0 0 0 0 0 0 0 0 0 0 0 0.23465794783402474 0.082905336222487219 0 0 0 0 0 0 0 0 0 0 0 0 0 0 1:-0.997184 2:-1 3:-0.299853 4:-1 5:-0.333333 6:0.00210768 7:0.433574 8:-0.708918 9:-0.565217 10:-0.0648855 11:0.106383 12:0.981845 13:-0.431015 
-0 0 0 0 0 1 0.3866448385608508 0.52767476205722297 1 1 1 1 1 1 0.98134271910266635 1 0 0 0 0.020520681591011367 0 0 0 0 0.43695071216226833 0 0 0 0 0 0 0 0 0 0 0 0 0 0.098219723770363976 0 0 0 1:-0.996343 2:-1 3:0.846774 4:-1 5:-0.193416 6:-0.0707032 7:0.761071 8:-0.842992 9:-0.913043 10:-0.996183 11:0.382979 12:0.940088 13:-0.278146 
-0 0 0 0 0 1 0.25655071558857595 0.94679270127823911 0.97886472138416525 1 0 1 1 1 1 1 0.40176786475427434 0.24783646227031295 0 0.45632256776411356 0 0 0 0.32674945837360947 1 0.43499555937023304 0 0 0 0 0 0 0.057834304178258474 0 0 0 0.209581219612927 0.2417734454440518 0.23081327971256227 0.060335080476542381 0.036309553009890881 0 1:-0.962903 2:-1 3:0.40176 4:-1 5:1 6:-0.0185859 7:0.944387 8:-0.911175 9:-0.652174 10:-0.175573 11:-0.553191 12:0.878461 13:-0.317329 
-0 0 0 0 0 0.63127477703885826 0 0 0.5750343716622921 0 1 0.51136620430800062 0.28945904489527818 1 0 0 0 0 0 0 0 0 0 0 0 0 0 0 0 0 0 0 0 0 0 0 0 0 0 0 0 0 1:-0.99622 2:-1 3:-0.257331 4:1 5:-0.572016 6:-0.0806668 7:0.837281 8:-0.500314 9:-0.73913 10:-0.656489 11:0.276596 12:0.981593 13:-0.142384 
-0 0 0 0 0 1 1 0 0 0.12420107924261417 0 0 0.95329310847074167 0 0 0 0 0 0 0 0 0 0 0 0 0 0 0 0 0 0 0 0 0 0 0 0 0 0 0 0 0 1:-0.997654 2:-1 3:-0.0153959 4:1 5:-0.320988 6:-0.0841157 7:0.872297 8:-0.679964 9:-0.652174 10:-0.660305 11:-0.191489 12:1 13:-0.106512 
-0.018352047120639804 0 0 0 0 0 0.17769212271711979 0.66900726360598395 0 0.75672503917922462 0.31301003232583297 0.82825948257350379 0 0.27655103155162025 0.75002193988908217 0.021784550996806533 0 0 0.24477314611519924 0 0.23754497439543776 0 0 0 0.10191788832639179 0 0 0 0 0 0 0 0 0 0.15274359092700726 0 0 0 0 0 0.018111938449250187 0.035706699989835958 1:-0.990977 2:-1 3:-0.579179 4:1 5:-0.497942 6:-0.0024909 7:0.820803 8:-0.651102 9:-0.391304 10:-0.541985 11:0.0212766 12:0.991628 13:0.0888521 
-1 1 1 0.98458404978420544 1 1 1 0 1 0 1 1 1 0.80215842062945431 0 0 0 1 1 0.95765510414318888 1 1 0 0.23650346269173766 0 0 0 1 1 0 1 1 0.99798996978097587 0.93142520732440437 0.25364780779674068 0.22244162794884154 0 0 0 0 0 0 1:-0.999059 2:0.6 3:-0.766862 4:-1 5:-0.971193 6:-0.0239509 7:-0.400618 8:0.471451 9:-1 10:-0.51145 11:-0.191489 12:0.979777 13:-0.732892 
-1 0.6667275226625371 0.42057847168551671 0 1 1 0 0 1 0 1 1 1 0 0 0 0 0.44318636045339349 0.29515548286382426 0.63384750488360442 0.59683233382846179 0 0 0 0 0 0 1 0 0 0.70289571149140651 0 0 0 0 0 0 0 0 0 0 0 1:-0.993417 2:-0.6 3:-0.52346 4:-1 5:-0.674897 6:-0.120521 7:-0.192585 8:-0.39994 9:-0.826087 10:-0.862595 11:0.276596 12:0.958394 13:-0.378035 
-1 0 0 0 0.73200494517288761 1 0 0 0 0 1 0.65765852194323116 1 0 0 0 0 0 0 1 0 0 0 0 0 0.17766246066884467 0 0.25278467918836112 0 0 0 0 0 0 0 0 0 0 0 0 0 0 1:-0.998299 2:-1 3:-0.0131965 4:-1 5:-0.786008 6:-0.0618893 7:-0.188465 8:-0.204667 9:-0.73913 10:-0.610687 11:-0.276596 12:1 13:-0.521523 
-0.91675819532750435 0 0 0 1 1 1 0 1 0.2612664479193858 1 1 1 0.26126679628790828 0 0 0 0 0 1 0 0.18418092614783502 0 0 0 0.32032105245683512 1 0 0.63290445897593572 0 0 0 0 0.11555824514541387 0 0 0 0 0 0 0 0 1:-0.994087 2:-1 3:-0.307918 4:-1 5:-0.345679 6:0.036597 7:0.645726 8:-0.612036 9:-0.73913 10:-0.553435 11:0.234043 12:0.982299 13:-0.659492 
-1 0 0 0 0 1 0 0 1 0 1 1 1 1 0 0 0 0 0 0 0 0 0 0 0 0 0 0 0 0 0 0 0 0 0 0 0 0 0 0 0 0 1:-0.989454 2:-1 3:-0.307918 4:-1 5:-0.345679 6:-0.0220349 7:0.15139 8:-0.477616 9:-0.73913 10:-0.553435 11:0.234043 12:0.996621 13:-0.392936 
-1 0 0.98027472002780836 0.0022990012398067861 1 1 0 0 0.6314064969406965 0 1 0.86340683477973024 1 0 0 0 0 0 1 1 0 0 0 0 0 0 0 0.42876990904555129 0 0 0 0.030185762712306292 0 0 0 0 0 0 0 0 0 0 1:-0.999252 2:-1 3:-0.653226 4:-1 5:-0.465021 6:-0.0511592 7:-0.349125 8:-0.116897 9:-0.652174 10:-0.858779 11:0.617021 12:1 13:-0.653422 
-0 0 0 0 0 0 0 0.62167597038484435 0 1 1 0.14499282824432222 0 1 0.53058488426739003 0.29723455310752689 0.30717627486946036 0 0 0 0 0 0 0 0.051737504194417312 0 1 0 0 0 0 0 0 0 0 0 0.218030000904992 0.074501491845493137 0.069173735737188491 0.022241927125368703 0.0090903281494353217 0 1:-0.913603 2:-1 3:0.293255 4:1 5:0.584362 6:0.0860318 7:0.814624 8:-0.74982 9:1 10:0.828244 11:0.617021 12:0.97196 13:-0.363135 
-0.80278810581498306 0.18200138515542696 0.42544390155659473 0.16680391172984763 0.28908617717423579 0.57367037344634053 0.84444888419494357 0 0 0 0 0 1 0 0 0 0 0.21736792962918353 0.59465414429109031 1 0.15481736468121224 0.52166250571376416 0.0517674148826879 0.072436529726391599 0 0.23764248690176004 1 1 0.25721572692596278 0.029401279446136831 0.28480888224540379 0.11816229383701723 0.22049853943425182 0.21037282493150564 0.31105963929362351 0.030747155904813382 0 0 0 0 0 0 1:-0.922042 2:-1 3:0.293255 4:1 5:0.37037 6:1 7:0.647786 8:-0.859033 9:1 10:0.828244 11:0.617021 12:0.786424 13:-0.803532 
-0 0 0 0 0 0 1 1 1 1 1 1 1 1 1 1 1 0 0 0 0 0 0 0 1 0 0.42460921673317509 0 0 0 0 0 0 0 0 0 1 1 1 1 0.58699526203034647 0.5491413207475887 1:-0.917036 2:-1 3:0.293255 4:-1 5:0.37037 6:-0.462732 7:0.822863 8:-0.88675 9:1 10:0.828244 11:0.617021 12:0.592163 13:-0.322848 
-0 0 0 0 0 0 0 1 0 1 1 1 0.49191140561840924 1 1 1 1 0 0 0 0 0 0 0 0.82618408126918841 0 0 0 0 0 0 0 0 0 0 0 1 0.69651695511903033 0.23901536172103563 0 0 0.38317784444509922 1:-0.823918 2:-1 3:0.293255 4:-1 5:0.111111 6:0.0147538 7:0.287333 8:-0.666488 9:1 10:0.828244 11:0.617021 12:1 13:-0.365894 
-0 0 0 0 0 0 1 1 1 1 1 1 1 1 1 1 1 0 0 0 0 0 0 0 1 0.0021017425205338172 1 0 0 0 0 0 0 0 0 0 1 1 1 0.65021859825667205 1 0.031974134817476227 1:-0.677927 2:-1 3:0.293255 4:-1 5:-0.0576132 6:0.0224181 7:0.752832 8:-0.850576 9:1 10:0.828244 11:0.617021 12:0.931514 13:-0.371965 
-0 0 0 0 0 0.50908369882861115 0.52426088287173012 0 0 0 1 1 1 0 0 0 0 0 0 0.23439843793250961 0 0 0 0 0 0 0 0 0 0 0 0 0 0 0 0 0 0 0 0 0 0 1:-0.936786 2:-1 3:0.293255 4:-1 5:-0.395062 6:-0.156543 7:-0.22966 8:-0.460084 9:1 10:0.828244 11:0.617021 12:0.979928 13:-0.520419 
-0 0 0 0 0 1 0 1 0 0 1 1 1 0.34345257247723582 0 0 0.074057706085105646 0 0 1 0 0.092596027124164121 0 0 0 0 0.53622457685137925 0.1446901021521376 0 0 0 0 0 0 0 0 0.18283963750921331 0 0 0 0 0 1:-0.91756 2:-1 3:0.293255 4:-1 5:-0.185185 6:0.0542249 7:0.0092688 8:-0.479471 9:1 10:0.828244 11:0.617021 12:0.958243 13:-0.511589 
-1 0 0 0 0 1 0 0 0.53935142834902428 0 1 1 1 0 0 0 0 0 0 0 0 0 0 0 0 0 0 0 0 0 0 0 0 0 0 0 0 0 0 0 0 0 1:-0.996246 2:-1 3:-0.323314 4:-1 5:-0.176955 6:-0.17762 7:0.0525232 8:-0.772281 9:-0.565217 10:-0.221374 11:0.404255 12:1 13:-0.432671 
-0 0 0 0 0 1 0 0.9087136763353586 1 0 1 1 1 1 0.24924030649956708 0.92216246103147959 0 0 0 0 0 0 0 0 0 0 0 0 0 0 0 0 0 0 0 0 0 0 0 0 0 0 1:-0.994767 2:-1 3:-0.323314 4:-1 5:-0.176955 6:-0.0580571 7:0.285273 8:-0.767298 9:-0.565217 10:-0.221374 11:0.404255 12:1 13:-0.38245 
-1 -1 1 1 1 1 1 1 1 1 1 1 1 1 1 1 0.79421857509677862 1 1 1 1 1 0.98450623721904196 1 1 1 1 1 1 1 1 0.4948530678226204 1 0.81086991004041875 0.81796095925749546 0.69653751687600929 0.13030545021951181 0.18044456822359414 0.20311850272718229 0.12345630189321935 0.12099030573005119 0.10380092951962985 1:-0.999529 2:-1 3:-0.515396 4:-1 5:-0.654321 6:0.388772 7:0.198764 8:-0.302076 9:-0.913043 10:-0.790076 11:0.106383 12:0.979475 13:-0.873068 
-1 -1 1 1 1 1 0.7187826879094531 0 0 0 0.93947656725899875 0.52444030007351938 1 0 0 0 0 1 1 1 1 1 0 0 0 0 1 1 1 0 1 0.28521424366581805 0 0.33981050877743374 0.053186476323892826 0 0 0 0 0 0 0 1:-0.999387 2:0.5 3:-0.817449 4:-1 5:-0.823045 6:0.327074 7:-0.734295 8:-0.223145 9:-0.826087 10:-0.751908 11:0.212766 12:0.993545 13:-0.986203 
-1 -1 1 1 1 1 1 1 1 0.16002705516843652 0.57648471194593531 1 1 1 0 0 0 1 1 1 0.68465082909420394 1 0.015493762780958072 1 0 0.35690391411502304 1 1 1 0 1 0.21993268851156161 1 0.57618050831453271 0.57800879257171522 0 0.084154644237036696 0.046089714054691908 0.0388627542227441 0.062699501403069999 0.061457059021038991 0.084518085822187644 1:-0.998261 2:-0.1 3:-0.781525 4:-1 5:-0.786008 6:0.388772 7:-0.258496 8:-0.374897 9:-0.652174 10:-0.194656 11:-0.446809 12:1 13:-0.798013 
-1 -0 1 0.15279987718976049 0 1 0 0 0 0 0 0 1 0 0 0 0 1 0 0 0.68733604985670727 1 0 0.1253350499591297 0 0 1 1 0.18175928132538705 0 1 0 0.50729898783043981 0.27313907286761452 0 0.3034624831239906 0 0 0 0 0 0 1:-0.999295 2:0.6 3:-0.922287 4:-1 5:-0.921811 6:0.422878 7:-0.270855 8:0.123844 9:-0.913043 10:-0.458015 11:-1 12:0.976297 13:-0.730132 
-1 -0.021222586904385929 0.014212351789724301 0 0.38368620419324168 1 0 0 0.52822760425953075 0 1 0.83879390388193864 1 0.1783539464206616 0 0 0 1 0.09577167833481548 0 0 0.54019363303807155 0 0 0 0 0 0.84425748973331582 0.17293953797277795 0 1 1 0 0 0 0 0 0 0 0 0 0 1:-0.999434 2:0.9 3:-0.925953 4:-1 5:-0.925926 6:0.308297 7:-0.744593 8:0.18648 9:-0.826087 10:-0.179389 11:-0.0638298 12:1 13:-0.843819 
-1 -1 -0.088938356734232213 1 1 1 0 0.26672601321274075 1 0 1 1 1 0.8744555176515787 0 0 0 0.011316571624259454 1 1 0.83463079965702325 1 0 0.079729985443842216 0 0 0 1 1 0 0 0 0 0 0.26284368067165609 0.077146403462190996 0 0 0 0 0 0 1:-0.999414 2:-1 3:-0.8739 4:-1 5:-0.699588 6:0.317111 7:-0.116375 8:-0.102911 9:-0.826087 10:-0.866412 11:0.297872 12:0.988552 13:-0.933223 
-1 -1 -0.52774969650106829 0.17414222497057155 1 1 0.79119067660792941 1 1 0.68300846140526739 1 1 1 1 0.15594947992710076 0.15003191142109329 0.12743243988293346 1 1 1 0.16425772371522021 1 0 0 0 0 0 0.63703908549703669 0.13627462623276812 0 0.79267708754660693 0.32701464049440326 0 0 0 0.087708947230678763 0 0 0 0 0 0 1:-0.999703 2:-0.65 3:-0.932551 4:-1 5:-0.872016 6:0.357731 7:0.165808 8:0.471924 9:-0.826087 10:-0.889313 11:0.276596 12:0.981542 13:-0.651214 
-1 -1 -0.12389667072374461 1 1 1 1 1 0.40008649513342592 0.16123287958077021 0.78915753607829531 1 1 0.35295929163573919 0.61174400271423779 0.67211319188051177 0.45412164297247148 0.46072090587535541 1 1 0 1 0.92255010909215007 1 0.82930756658753091 0.95582477395416188 1 1 1 0.65654377993505098 0.74530835879710466 0 0.19400759660558209 0.17228181397237061 0.22679856549663649 0.28643062902288768 0 0.044847695789775197 0.086967439526859647 0 0 0 1:-0.9986 2:-1 3:-0.821848 4:-1 5:-0.753086 6:0.477295 7:0.2276 8:-0.56977 9:-0.913043 10:-0.660305 11:0.148936 12:1 13:-0.753863 
-1 -0 -1 0.36848265634920363 0 1 0 0 0 0 0 0 1 0 0 0 0 1 0 0 0.82537651547844249 1 0 0.19453689047104405 0 0 1 1 0.24692638234256242 0 1 0.62134858291735828 0.69610475809802463 0.52368294615608291 0 0.19894692727715996 0 0 0 0 0 0 1:-0.99924 2:0.6 3:-0.922287 4:-1 5:-0.921811 6:0.42786 7:-0.357364 8:0.123844 9:-0.913043 10:-0.458015 11:-1 12:1 13:-0.870309 
-1 -0.41531436246453607 -0.13111565113276644 1 1 1 0.84008518351958783 0.79393618945200539 0.41382062759181132 0.75806071051954493 0.13400250613865641 0.58949593719990045 1 0 0 0.025947868625227855 0.027586087006748802 1 0.41211211790404251 0.0051770007320249729 0 1 0.017434249325026518 1 0 0.80995693201607266 1 1 0.60782036093413194 0.14621739056915301 0.47755386067579614 0 1 0.0034747218235302506 0.29096449081680825 0.26833419504425282 0.08331372019294872 0.1110361012895216 0.11248219163358444 0.098408958574720221 0.095451657806347373 0.086419693752732382 1:-0.988001 2:-0.6 3:-0.742669 4:-1 5:0.0781893 6:0.39567 7:0.625129 8:-0.821313 9:-0.652174 10:-0.706107 11:-0.914894 12:0.979323 13:-0.566225 
-0.24078559681650857 -0 -0 0.053116490733393605 0 0 1 0 0 0 0.093737754188884456 0 0.3117152391250293 0 0 0 0 0.23391396278315335 0.1300858211829749 0.066841814621483225 0.0039064577818589572 0 0 0 0 0 1 0.16701318483848229 0.11438019283348375 0 0.17030404636436292 0 0.021018498267468658 0.028934864479831335 0 0 0 0 0 0 0 0 1:-0.997789 2:-0.2 3:-0.563783 4:1 5:-0.744856 6:0.420195 7:-0.0504634 8:-0.334794 9:-0.73913 10:-0.744275 11:0.0638298 12:0.96142 13:-0.761589 
-1 -0.53328198642872859 -0.21565604730987437 0 0.43983686677515654 0.68649723169967714 0.0012261854607868545 0 0.034918848294104576 0 1 0.24524720559412583 1 0.014197066885817726 0 0 0 0 1 1 1 0.37663096270919089 0 0 0 0 0.38401978028147804 1 0 0 1 0.051636776588238453 0 0 0.91304225087410795 0 0 0 0 0 0 0 1:-0.998765 2:-0.2 3:-0.563783 4:1 5:-0.744856 6:0.251198 7:-0.491246 8:-0.321045 9:-0.73913 10:-0.744275 11:0.0638298 12:0.982601 13:-0.865894 
-1 -1 -1 0.91096616908247152 1 1 0.51279234209392188 0 0.8369537374002739 0 1 1 1 1 0 0 0 1 1 1 0.6072845523511754 1 0 0.48423388886867591 0 0 1 1 0.89459843765705394 0 1 1 0.088869147028924567 0.27162565356818491 0.30635101214079125 0 0.006448972474846229 0 0 0 0 0.032486644024809566 1:-0.997894 2:-0.32 3:-0.587243 4:-1 5:-0.802469 6:0.310979 7:-0.69516 8:-0.206667 9:-0.478261 10:-0.458015 11:-0.255319 12:0.967371 13:-0.827263 
-1 -0.87770074437665513 -0.92685592938803874 1 1 1 0.44759190111628461 0 0.59107494502883406 0 0.9210363382389799 0 1 0 0.26634146818148308 0.36487636072676838 0.24063340983134757 1 1 0.25837082095853114 0.56454395101627952 1 0.060015641582823374 0.2414992352164379 0.20484118972575383 0 1 0.98956749874483707 1 0.19723882949579605 1 0 1 1 0 0.081432897962829709 0.14579109828446438 0.084351553536430257 0.053195880166175498 0.11004917489552167 0.11147332469461863 0.088094613293128884 1:-0.998455 2:-0.34 3:-0.8739 4:-1 5:-0.641975 6:0.478827 7:0.421215 8:-0.64179 9:-0.478261 10:-0.866412 11:0.234043 12:1 13:-0.738411 
-1 -1 -0.90916643132791486 -1 1 1 1 1 1 0.52486917661855725 1 1 1 1 0.21296829678239595 0.24770914941564931 0 0.17361060648576232 1 1 0.98413197474538849 1 0.7480045276974876 0.50185149203499468 0.0098182725740510492 0.75262233078947971 1 1 1 0.40968002373047313 0.99262513422027221 0 0 0 0.36364532552019568 0.35670153981871905 0 0 0 0 0 0 1:-0.99859 2:-1 3:-0.8739 4:-1 5:-0.699588 6:0.37421 7:0.0566426 8:-0.102911 9:-0.826087 10:-0.866412 11:0.297872 12:1 13:-0.801325 
-1 -1 -0 -1 1 1 1 1 1 0.59134185235006442 1 1 1 1 1 1 1 0.85533775274039159 1 1 0 1 0 0.2827787868457351 1 0 0.092997546582247667 1 1 0.30634900164819662 0.63262405786133069 0 0 0 0.13862501430611174 0 0.0018095001383191516 0.12676732617572836 0.12326825186795433 0.049621865388992561 0.033643183623951682 0.032007463783410683 1:-0.998594 2:-1 3:-0.853372 4:-1 5:-0.576132 6:-0.0101552 7:0.221421 8:-0.732961 9:-0.826087 10:-0.977099 11:0.106383 12:1 13:-0.573951 
-1 -1 -1 -1 1 1 0.93212052658339484 0.47870068745853522 0.91973383402532005 0 1 1 1 1 0 0 0 1 1 1 1 1 0 0.65223807282082213 0 0.017457167879047622 1 1 1 0 1 1 0.81405727089107183 0.66076801376164596 0.46321564251808506 0.26474317354819743 0 0.00021883585144864728 0.0061199334649086976 0 0 0 1:-0.998194 2:-0.1 3:-0.781525 4:-1 5:-0.786008 6:0.386089 7:-0.518023 8:-0.0269621 9:-0.652174 10:-0.194656 11:-0.446809 12:0.967674 13:-0.937086 
-0.62424794530369798 -0 -0 -0.50670754113564032 0.082482631364229966 1 0.51868779555193278 0 0 0.64407437871937567 0 0 0.85244330629369958 0 0 0.11409357077674269 0 1 0 0 0 1 0.25199547230251246 0.47685019689040703 0.099600246184355867 1 1 0.0051021627952560784 0.92363377027718163 0.2839709746213302 0.73438786984727766 0 1 0.35949135154854489 0 0.34735494466806 0.1211976249942219 0.11385304432104852 0.12219552690583288 0.11030140931384429 0.11660829509210735 0.046866379424345933 1:-0.985227 2:-0.6 3:-0.742669 4:-1 5:0.0781893 6:0.445488 7:1 8:-0.86087 9:-0.652174 10:-0.706107 11:-0.914894 12:0.931363 13:-0.665563 
-1 -0.55421793264698538 -0.24363344586184568 -1 1 1 0 0.50723889010081202 0 0 0.12881894895730073 0.15167195858582969 1 0 0 0 0 1 0.33678190041795258 0 0.21948330880506631 1 0 1 0 0 1 1 0 0 0 0 0.31387188482209394 0 0.060446788157575614 0 0 0 0 0 0 0.043115518595363986 1:-0.987777 2:-0.6 3:-0.742669 4:-1 5:0.0781893 6:0.396819 7:0.826982 8:-0.854414 9:-0.652174 10:-0.706107 11:-0.914894 12:0.954562 13:-0.648455 
-1 -1 -1 -1 1 1 0.58421334480955067 0 0.92644602863054548 0 1 1 1 0 0 0 0 1 1 1 1 1 0 0.086281451408041013 0 0 1 1 1 0 1 1 0.87207084428683412 0.97974063468980921 0.43070637808021212 0.031200341965023616 0.1074267627014085 0 0 0.046637767881077867 0.053151213147086658 0.082029859636473468 1:-0.998902 2:-0.34 3:-0.8739 4:-1 5:-0.641975 6:0.408316 7:-0.213182 8:-0.473961 9:-0.478261 10:-0.866412 11:0.234043 12:0.983761 13:-0.713024 
-1 -1 -0 -1 -0 1 0.24794666545534413 1 1 0.68076439987398085 1 1 1 1 0.21484622312972643 0.52300481135301446 0.13469441476495586 0 1 1 0.077464530036058174 0 0 0 0 0 0 0 0 0 0 0 0 0 0 0 0 0 0 0 0 0 1:-0.999471 2:-1 3:-0.8739 4:-1 5:-0.699588 6:0.0994443 7:0.149331 8:-0.102911 9:-0.826087 10:-0.866412 11:0.297872 12:0.98598 13:-0.807947 
-1 -1 -1 -0 -0 1 0.26415715896630682 0 0.715669405155268 0 1 1 1 1 0 0 0 0 1 1 0.42826441041912933 1 0 0 0 0 0 1 0 0 0 0.4359724786692844 0 0 0.31500684924476691 0 0 0 0 0 0 0 1:-0.999217 2:-0.5 3:-0.677419 4:-1 5:-0.831276 6:0.213259 7:-0.369722 8:-0.223217 9:-0.73913 10:-0.641221 11:0.361702 12:1 13:-0.803532 
-1 -1 -0.089616201096283418 -1 -1 1 0 0.043837665496673145 0 0 0.58809945494646287 0.12853283328316256 1 0 0 0 0 0 0.81588003828646416 0.040532569796521672 0 1 0.98025213422364432 1 0 0.85607372905023893 0.90266935929919989 0.81297904811489397 1 0.70078198293909144 1 0 0.13191312009359424 0.19363066084927799 0.319661601554659 0.24651770245684224 0 0 0 0 0 0 1:-0.99895 2:-1 3:-0.783724 4:-1 5:-0.572016 6:0.348151 7:0.239959 8:-0.584447 9:-0.913043 10:-0.683206 11:0.106383 12:0.995764 13:-0.780905 
-1 -1 -0 -0.61053321446134956 -0.68903016430100517 1 0.01008354867352431 1 0.73749955398731737 0 1 1 1 0.40812683139013772 0.19107288520903773 0 0 0 1 1 0 0 0 0 0 0 0 1 0.93813268725449517 0 0.22608463128422138 0 0 0 0 0 0 0 0 0 0 0 1:-0.997399 2:-1 3:-0.821848 4:-1 5:-0.753086 6:0.174171 7:0.130793 8:-0.56977 9:-0.913043 10:-0.660305 11:0.148936 12:0.803722 13:-0.728477 
-1 -1 -0 -0 -0 1 0.16558789542175636 1 1 0 1 1 1 1 0.07037751379194479 0 0.019196750911476799 0 1 1 0 0 0 0 0.43613804688974661 0 0 1 0 0 0 0 0 0 0 0 0 0 0 0 0 0.02917382418558814 1:-0.996983 2:-1 3:-0.257331 4:-1 5:-0.572016 6:0.0783675 7:-0.394439 8:-0.487892 9:-0.73913 10:-0.656489 11:0.276596 12:0.944072 13:-0.577815 
-1 -1 -0 -0.18452147503789262 -0.25576333569945481 1 1 1 1 1 1 1 1 1 1 1 0.75069930065555301 0.32085623657347673 0 1 0 1 0 0.5386551886360712 1 1 1 0.25922425095257029 0.40492503254067519 0.10205444603598267 0 0 0.3198314892730808 0.24858777693521716 0 0 0.30473317811949713 0.36644975064307866 0.39698819860663614 0.27231678661870218 0.26620113977450083 0.23266391647418014 1:-0.998566 2:-1 3:-0.0153959 4:-1 5:-0.320988 6:0.180686 7:0.6931 8:-0.583246 9:-0.652174 10:-0.660305 11:-0.191489 12:0.979222 13:-0.560706 
-1 -0.35976858664215072 -1 -0.6447821772759148 -0.271179257329072 1 0.24839748571409306 0 0 0 0.8824536797456306 0.66450515880386962 1 0 0 0 0 1 0.64088859174824009 1 1 0.96829333869687717 0 0 0 0 1 1 1 0 1 1 0.69622113677730668 0.75047695033734041 0 0 0 0 0 0 0 0 1:-0.999355 2:0.6 3:-0.670821 4:-1 5:-0.893004 6:0.26461 7:-0.485067 8:-0.274868 9:-0.73913 10:-0.778626 11:0.404255 12:1 13:-0.9117 
-1 -1 -0.71628054666730667 -1 -0.86650987403469759 1 0.87376324921391713 0 0.21093760444998225 0 1 1 1 0.33994430508950463 0 0 0 1 1 1 1 1 0 0.29670590049532447 0 0.1439262709497611 0.38236929881478365 1 0.37027011676540628 0 0.966562050084525 0.56402752133071565 0.24116372538402561 0.19360304537971368 0.59583755009915307 0.27594406531898918 0 0 0 0 0 0 1:-0.997235 2:-1 3:-0.0131965 4:-1 5:-0.786008 6:0.194482 7:-0.419156 8:-0.121425 9:-0.73913 10:-0.610687 11:-0.276596 12:1 13:-0.749448 
-1 -1 -0 -1 -1 1 0.60612666784301328 0.45206949896220394 1 0 1 1 1 0.20379872584566341 0 0 0.12887256833663924 0.96366974626551294 1 0.455374939457658 1 1 0 0 0 0 0.25658348056003299 1 0.28667216343942348 0 0.51935117428881783 0 0 0 0.18471713583045341 0 0 0 0 0 0 0 1:-0.99891 2:-0.34 3:-0.8739 4:-1 5:-0.641975 6:0.170722 7:0.136972 8:-0.59254 9:-0.478261 10:-0.866412 11:0.234043 12:0.982147 13:-0.602649 
-1 -1 -0.57778945642965174 -1 -1 1 1 0.13715086217546693 0.69950494772064942 0.55815292011349016 1 0.99659186740334726 1 0 0.13040202303693396 0.26246741281213143 0.087210134247698037 1 0 0 0 0.92614451856367042 0.019747865776355678 0.64972473905046768 0.0095640354681552631 0 1 0.19462948889616924 1 0.19716357102492585 1 0 0.84980444281028367 0.61370156649845098 0 0.47753823222416858 0 0 0 0 0 0 1:-0.999033 2:-0.34 3:-0.8739 4:-1 5:-0.641975 6:0.260011 7:0.38826 8:-0.626604 9:-0.478261 10:-0.866412 11:0.234043 12:1 13:-0.679912 
-1 -1 -0 -0 -0 -0 0 0.11572141705846953 1 0 1 1 1 1 0 0 0 0 0 0 0 0 0 0 0 0 0 0 0 0 0 0 0 0 0 0 0 0 0 0 0 0 1:-0.998157 2:-0.75 3:-0.456745 4:-1 5:-0.427984 6:-0.0607396 7:0.312049 8:-0.194155 9:-0.652174 10:-0.526718 11:-0.446809 12:0.993444 13:-0.409492 
-1 -1 -0 -0 -0 -0 1 1 1 0 1 1 0.67934380421737539 0.73162962109398755 0 0 0 0.040038677476468276 0.84553032106589032 1 0 0.11877281257438849 0 0 0 0 0 0 0.070352586801518083 0 0 0 0 0 0 0 0 0 0 0 0 0 1:-0.997663 2:-0.5 3:-0.657625 4:-1 5:-0.720165 6:0.109408 7:0.336766 8:0.108658 9:-0.391304 10:-0.629771 11:0.510638 12:1 13:-0.724062 
-1 -1 -0 -0 -0 -0 0 0 0 0 1 1 1 0 0 0 0 0 0 0 0 0 0 0 0 0 0 0 0 0 0 0 0 0 0 0 0 0 0 0 0 0 1:-0.998841 2:-0.75 3:-0.58871 4:-1 5:-0.901235 6:-0.11209 7:-0.61895 8:-0.0236521 9:-0.73913 10:-0.396947 11:0.340426 12:0.99652 13:-0.648455 
-1 -1 -0 -0 -0 -0.36116595015752478 0 0 0 0 1 0 1 0 0 0 0 0 0.43550778564078291 1 0 0 0 0 0 0 0 1 0 0 0 0.42449971075973708 0 0 0 0 0 0 0 0 0 0 1:-0.998082 2:-1 3:-0.241202 4:-1 5:-0.884774 6:-0.0404292 7:-0.899073 8:-0.243841 9:-0.73913 10:-0.549618 11:0.404255 12:0.969792 13:-0.790839 
-1 -0.061338027057006014 -0 -0 -0 -0.68927010160180002 0 0 1 0 1 1 1 0 0 0 0 0 0.398192518945233 0 0 0 0 0 0 0 0 0 0 0 0 0 0 0 0 0 0 0 0 0 0 0 1:-0.999344 2:-0.5 3:-0.677419 4:-1 5:-0.831276 6:-0.00134125 7:-0.0978373 8:-0.223217 9:-0.73913 10:-0.641221 11:0.361702 12:0.96843 13:-0.681015 
-1 -1 -0 -0 -0 -0 0 0.37279317588312133 1 0 1 1 1 0.41367269099564113 0 0 0 0 0 0 0 0 0 0 0 0 0 0 0 0 0 0 0 0 0 0 0 0 0 0 0 0 1:-0.998976 2:-1 3:-0.704545 4:-1 5:-0.736626 6:-0.05959 7:-0.130793 8:-0.400267 9:-0.826087 10:-0.770992 11:0.255319 12:0.995411 13:-0.385762 
-1 -1 -0 -0 -0 -1 0 0 0 0 1 1 1 0 0 0 0 0 0 0 0 0 0 0 0 0 0 0 0 0 0 0 0 0 0 0 0 0 0 0 0 0 1:-0.998535 2:-1 3:-0.704545 4:-1 5:-0.736626 6:-0.0189692 7:0.110196 8:-0.523866 9:-0.826087 10:-0.770992 11:0.255319 12:0.991175 13:-0.629691 
-0.049276942461638933 -0 -0 -1 -1 -1 0 0 0.097122384109398982 0 0 1 0.81524154142728222 0 0 0 0 0 1 0 0.16186021202770209 1 0 0.90276549765604175 0 0 0 1 0.7214328605634871 0 0 0 0 0 0 0 0 0 0 0 0 0 1:-0.999089 2:-1 3:-0.783724 4:-1 5:-0.572016 6:0.0944625 7:0.301751 8:-0.643045 9:-0.913043 10:-0.683206 11:0.106383 12:0.976196 13:-0.609272 
-0 -0 -0 -1 -1 -1 0 0 1 0 0.021868236134431368 1 0 0 0 0 0 0 0.28251402343095766 0 0 0.074830282928250544 0.72211420663193548 0 0 0 0 0.41583180400989506 1 0.91333390918718427 0.45473924259993165 0 0 0 0 0.23064537210303906 0 0 0 0 0 0 1:-0.999258 2:-1 3:-0.783724 4:-1 5:-0.572016 6:0.089864 7:0.46241 8:-0.643081 9:-0.913043 10:-0.683206 11:0.106383 12:0.983106 13:-0.642936 
-1 -1 -0.24018248043442778 -0 -0 -1 0.4617315866016673 0 0 0 1 0 1 0 0 0 0 0 0 1 0 0 0 0 0 0 0.043703708638138931 0 0 0 0.24854466382655907 0 0 0 0 0 0 0 0 0 0 0 1:-0.999197 2:-0.44 3:0.068915 4:-1 5:-0.674897 6:0.104043 7:0.0442842 8:-0.538725 9:-0.73913 10:-0.683206 11:0.191489 12:0.990469 13:-0.645143 
-0.090483280974883229 -1 -0 -0 -0 -0 1 1 1 0.63307123486701355 1 1 1 1 0 0 0.32530371138845759 0 0 0 0 0 0 0 0 0.069983897619775387 1 0 0 0 0 0 0 0 0 0 0.042109967931892103 0 0 0 0 0 1:-0.997875 2:-1 3:-0.299853 4:-1 5:-0.333333 6:0.208661 7:0.621009 8:-0.718484 9:-0.565217 10:-0.0648855 11:0.106383 12:0.993394 13:-0.534768 
-0 -1 -0 -0 -0 -0 0 0 0.71394858468986888 0 1 1 1 1 0 0.10768227774974372 0 0 0 0.20609221665490496 0 0 0 0 0.31299174531891838 0 0 0 0 0 0 0 0 0 0 0 0 0 0 0 0 0 1:-0.998591 2:-1 3:0.846774 4:-1 5:-0.193416 6:-0.115156 7:0.375901 8:-0.794833 9:-0.913043 10:-0.996183 11:0.382979 12:0.960916 13:-0.302428 
-0 -1 -0 -0 -0 -0 0.43961228208308045 1 1 1 1 1 1 1 0.21396164786507069 0 0 0 0 0 0 0 0 0 0 0 0 0 0 0 0 0 0 0 0 0 0 0 0 0 0 0 1:-0.949735 2:-1 3:0.40176 4:-1 5:-0.0946502 6:-0.121288 7:0.831102 8:-0.764952 9:-0.652174 10:-0.175573 11:-0.553191 12:0.990973 13:-0.453091 
-0 -1 -0 -0 -0 -0 1 0.16654379690756585 0 1 0.26632535963775894 1 1 1 1 0.71026768010602748 0 0.08476756267575003 0 0.59244213182252925 0 0 0 0.042442349827623418 0.84958512822799825 0.7657180191003865 1 0 0 0 0 0 0 0 0 0 0.16913112670081187 0.25959568264097332 0.37165719273414466 0.099916730791981156 0 0 1:-0.945078 2:-1 3:0.40176 4:-1 5:-0.0946502 6:0.0887143 7:0.901133 8:-0.79396 9:-0.652174 10:-0.175573 11:-0.553191 12:0.662817 13:-0.470751 
-0 -1 -0 -0 -0.12403409393091097 -0 0.76899084049091304 0.61026951921190786 1 0 0.63439353945327581 1 1 0 0 0 0 0 0 0 0 0 0 0 0 0 0 0 0 0 0 0 0 0 0 0 0 0 0 0 0 0 1:-0.998243 2:-1 3:-0.736804 4:-1 5:-0.485597 6:-0.119372 7:0.355304 8:-0.714047 9:-0.652174 10:-0.583969 11:-0.148936 12:0.981492 13:-0.563466 
-1 -1 -0 -0 -0 -0 0 0 0 0 1 1 1 0 0 0 0 0 0 1 0 0 0 0 0 0 0 0 0 0 0 0 0 0 0 0 0 0 0 0 0 0 1:-0.997075 2:-1 3:-0.257331 4:-1 5:-0.572016 6:-0.107109 7:-0.600412 8:-0.487892 9:-0.73913 10:-0.656489 11:0.276596 12:1 13:-0.495585 
-0 -1 -0 -0 -0 -0 0 1 1 1 1 1 0.72735823162488444 1 1 1 0.83568858241461497 0 0 0 0 0 0 0 0.80558050421461957 0 0 0 0 0 0 0 0 0 0 0 0.10262609284399109 0.12991555393658449 0.07622121630658682 0.084871481021600817 0.11311833827253315 0.083468297952205381 1:-0.994477 2:-1 3:-0.257331 4:-1 5:-0.572016 6:-0.148496 7:0.437693 8:-0.413417 9:-0.73913 10:-0.656489 11:0.276596 12:0.962328 13:-0.0987859 
-0.43563287992439897 -1 -0 -0.34632632797931884 -0 -0 0.92899755251307981 0.1037429826454182 0 0.30603058358264557 1 0.30175805024559338 1 0.55997735935790527 0 0 0 0 0.91228606279439517 0 0.79569109057398923 0 0 0 0 0 0 0 0 0 0.0055544387267935248 0 0 0 0.81173395748092159 0 0 0 0 0 0 0 1:-0.99526 2:-1 3:-0.257331 4:1 5:-0.572016 6:-0.139299 7:0.0484037 8:-0.541143 9:-0.73913 10:-0.656489 11:0.276596 12:0.969943 13:-0.210817 
-1 -0.66410454666197449 -0 -1 -1 -1 0 0 0 0 1 0 1 0 0 0 0 1 1 0.42710587621111096 0.41722944621145736 1 0.13675523181633298 0.19607834308801911 0 0.0289306842833226 0 1 0.70910279256240427 0.0015070906282545291 0 0 0.87360411483900191 0.64481863048002774 0 0.56272647878167437 0 0 0 0 0 0 1:-0.997595 2:-0.4 3:-0.672287 4:-1 5:-0.823045 6:0.278406 7:0.0587024 8:-0.0530968 9:-0.565217 10:-0.568702 11:-0.148936 12:0.971506 13:-0.467439 
-1 -1 -0 -0 -0 -0 0 0 1 0 1 1 1 0.40001913766018671 0 0 0 0.090226966510105228 0 0 0 0 0 0 0 0 0 0 0 0 0 0 0 0 0 0 0 0 0 0 0 0 1:-0.997829 2:-0.4 3:-0.672287 4:-1 5:-0.823045 6:0.0718528 7:0.0298661 8:0.0741027 9:-0.565217 10:-0.568702 11:-0.148936 12:0.878209 13:-0.476269 
-0.87553792427183841 -0 -0.099466352693772825 -0.15777776489870018 -1 -0 0 0 0 0 0 0.28225683256496897 1 0 0 0 0 1 0 0 0.00051229658260119686 1 0 1 0 0 0.25529120552136236 0.30027287430018945 0 0 0.43601241605678498 0 0.4382437677947506 0 0.09588917406689508 0.14484703441855265 0 0 0 0 0 0 1:-0.983021 2:-0.6 3:-0.742669 4:-1 5:0.0781893 6:-0.233953 7:0.23378 8:-0.844156 9:-0.652174 10:-0.706107 11:-0.914894 12:0.977306 13:-0.518764 
-1 -0 -1 -1 -0 -0 0 0 0 0 0 0 1 0 0 0 0 1 0 0 1 0.44923344776821378 0 0 0 0 0 1 0 0 1 0.20162426951870813 0 0 0 0.051398151728774454 0 0 0 0 0 0 1:-0.999896 2:0.1 3:-0.868768 4:-1 5:-0.983539 6:0.108258 7:-0.402678 8:0.123535 9:-1 10:-0.568702 11:-0.425532 12:0.989006 13:-0.64128 
-1 -0 -1 -0.39351459604109162 -0 -0 0.69271740991036479 0 0 0 1 0 1 0 0 0 0 1 0 0 0 0.79350577537192535 0 0 0 0 0 0.54771532577326154 0 0 1 0 0 0 0 0 0 0 0 0 0 0 1:-0.99911 2:0.05 3:-0.643695 4:-1 5:-0.917695 6:0.0553746 7:-0.120494 8:0.125335 9:-0.565217 10:-0.59542 11:-0.148936 12:1 13:-0.676049 
-1 -0 -1 -1 -0.83524341819305836 -0.80981036025426556 0 0 0 0 0 0 1 0 0 0 0 1 0.083682164624174174 0.089821475437475096 1 1 0 0.3403897392085084 0 0 0.63527088501413975 1 1 0 1 1 0.59305635151096436 0.73652685762078718 0.30858643932343288 0 0 0 0 0 0 0 1:-0.998689 2:0.4 3:-0.869501 4:-1 5:-0.938272 6:0.066871 7:-0.645726 8:0.218198 9:-0.652174 10:-0.347328 11:-0.531915 12:0.855464 13:-0.821192 
-1 -0 -1 -0.69787463537321726 -0.040722487876030403 -1 0 0 0 0 0 0 1 0 0 0 0 0.65140210889885619 0.43881994602813118 1 0 1 0 0 0 0.12257210432775352 1 1 0.48027009133244469 0 1 0 0 0 0.27021608514450079 0 0 0 0 0 0 0 1:-0.999347 2:-0.32 3:-0.587243 4:-1 5:-0.802469 6:0.160759 7:-0.2276 8:-0.206667 9:-0.478261 10:-0.458015 11:-0.255319 12:0.9942 13:-0.571192 
-0 -0.49664135577224916 -0 -0.68269573507236114 -1 -0 0.080668637326222814 0 0 0 0 0 1 0 0 0 0 0.48359930425281955 0 0.41499950013211317 0 1 0.045801727234410325 0.51613006857798749 0 1 1 0 0.29050594032091198 0 0 0 0.60893281238339314 0.2560655191292282 0.0081743063497768699 0.010382962967959498 0 0 0 0 0 0 1:-0.98906 2:-1 3:-0.307918 4:-1 5:-0.345679 6:0.178003 7:0.639547 8:-0.602088 9:-0.73913 10:-0.553435 11:0.234043 12:1 13:-0.844923 
-1 -1 -0 -0 -0 -0.14823867019189904 0 0 0 0 0 0 1 0 0 0 0 0 0 0.6572068361296427 0 0 0 0 0 0 0 0.61702454561085252 0 0 0 0 0 0 0 0 0 0 0 0 0 0 1:-0.982374 2:-1 3:-0.307918 4:-1 5:-0.345679 6:-0.0185859 7:0.0278064 8:-0.72525 9:-0.73913 10:-0.553435 11:0.234043 12:1 13:-0.765453 
-1 -1 -0 -0 -0 -0 0 1 1 0 1 1 1 1 0 0 0 0 0 0 0 0 0 0 0 0 0 0 0 0 0 0 0 0 0 0 0 0 0 0 0 0 1:-0.994724 2:-1 3:-0.492669 4:-1 5:-0.555556 6:-0.0335313 7:-0.159629 8:-0.220453 9:-0.652174 10:-0.618321 11:0.489362 12:1 13:-0.389625 
-1 -1 -0 -0 -0 -0 0 0 0 0 0 0.14923866024629973 1 0 0 0 0 0 0.9769878633957858 1 0 0 0 0.0021940016418195308 0 0 0 1 0 0 0 0 0 0 0.41762246872195075 0 0 0 0 0 0 0 1:-0.998631 2:-1 3:-0.796188 4:-1 5:-0.691358 6:0.0622725 7:-0.705458 8:-0.257063 9:-0.73913 10:-0.0725191 11:-0.0851064 12:0.890615 13:-0.690397 
-1 -0.49194491982258026 -0 -0.40830817233498795 -0 -1 0 0 0 0 1 0 1 0 0 0 0 0 1 1 0.62470695460425019 0.14941619649980295 0 0 0 0 0 0.22007839340260735 0.020706585843010342 0 0 0 0 0 0.087777568912522141 0 0 0 0 0 0 0 1:-0.998999 2:-1 3:-0.653226 4:-1 5:-0.465021 6:0.0557578 7:-0.274974 8:-0.0308541 9:-0.652174 10:-0.858779 11:0.617021 12:0.96374 13:-0.782009 
-1 -0 -0.6603511668717994 -0 -0 -0 0 0 1 0 1 1 1 1 0 0 0 0.15424362277041614 0.31390600367744664 0 0 0 0.0088514915162861332 0 0 0 0 0 0 0 0.89709970900186353 0.37387601972155488 0 0 0 0 0 0 0 0 0 0 1:-0.998746 2:-0.2 3:-0.942082 4:-1 5:-0.81893 6:0.122437 7:-0.145211 8:0.393575 9:-1 10:-0.435115 11:0.510638 12:1 13:-0.765453 
-0.56170342011482932 -1 -0 -0 -0 -0 1 1 0.25375265599967939 1 1 1 1 1 1 0.30040627382122109 0.38093662600298428 0 0 1 0 0.013606602545189 0 0 0.29499481676975942 0.0089191857248067663 1 0.89907705690319428 0 0 0 0 0 0 0 0 0.30609088878761354 0.29538899088639436 0.17336718206481241 0.14338229334566474 0.064137976753944906 0 1:-0.883209 2:-1 3:0.293255 4:1 5:0.584362 6:-0.0166699 7:0.658084 8:-0.710264 9:1 10:0.828244 11:0.617021 12:0.992587 13:-0.461921 
-0 -1 -0 -0 -0 -0 1 1 1 1 1 1 1 1 1 1 1 0 0 0.61233196361222375 0 0.17372430152743898 0 0 1 0.0038761089439552942 1 0 0 0 0 0 0 0 0 0 1 1 1 1 1 0.91653170204779466 1:-0.90435 2:-1 3:0.293255 4:-1 5:0.584362 6:-0.0224181 7:0.61483 8:-0.749111 9:1 10:0.828244 11:0.617021 12:0.968934 13:-0.396247 
-0.536810771655439 -1 -0 -0 -0 -0 0 0.69043523659495187 1 0 1 1 1 1 0 0.66467723493926711 0 0 0 0 0 0 0 0 0 0 0 0 0 0 0 0 0 0 0 0 0 0 0 0 0 0 1:-0.998734 2:-1 3:-0.159091 4:-1 5:-0.226337 6:0.161908 7:0.363543 8:-0.754658 9:-1 10:-0.671756 11:0.787234 12:0.975238 13:-0.56181 
-0 -1 -0 -0 -0 -0.99151491779451084 0 1 1 1 1 1 1 0.24793029271882072 0.96965117684496738 1 0.11645496092449691 0 0.31257331039720343 0 0 0.22691058078479123 0.086477342801035015 0 0 0 0.15568880944817826 0 0.70762914257622345 0.085159000184561115 0.23925498211661259 0 0.0088781737577058248 0.36258899276995687 0 0 0 0 0 0 0 0 1:-0.997679 2:-1 3:-0.159091 4:-1 5:-0.226337 6:0.238935 7:0.779609 8:-0.770972 9:-1 10:-0.671756 11:0.787234 12:0.982601 13:-0.737859 
-1 -1 -0.25432905881570478 -1 -0.95546064724644597 -1 -1 1 1 1 1 1 1 1 1 1 0.53544549597319768 1 1 0.62590373664939614 0.035900775384643327 1 0.063714081490413299 0.21946998176178067 0.34073867082829684 0.27569006202395474 0 0.89948714273136066 0.74792005162009167 0.26599734309616807 0.35652378177335731 0 0.44330605390623995 0.43455636622793498 0 0.28707432174915526 0.16334733815368424 0.18736485820708362 0.23484846440510465 0 0.072551572739224066 0.048772261729686475 1:-0.996893 2:-0.75 3:-0.456745 4:-1 5:-0.427984 6:0.000574823 7:0.91967 8:-0.123226 9:-0.652174 10:-0.526718 11:-0.446809 12:1 13:-0.0386313 
