svm_type one_class
kernel_type precomputed
nr_class 2
total_sv 137
rho 201.25959864208303
SV
1 0:1 
1 0:2 
1 0:5 
1 0:7 
1 0:10 
1 0:14 
1 0:17 
1 0:18 
1 0:19 
1 0:20 
1 0:21 
1 0:25 
0.83726148487131957 0:29 
1 0:30 
1 0:34 
1 0:36 
1 0:44 
1 0:45 
1 0:46 
1 0:49 
1 0:50 
1 0:51 
1 0:52 
1 0:53 
1 0:54 
1 0:55 
1 0:56 
1 0:57 
1 0:58 
1 0:59 
1 0:60 
1 0:61 
1 0:62 
1 0:64 
1 0:65 
1 0:66 
1 0:68 
1 0:69 
1 0:71 
1 0:72 
1 0:76 
1 0:86 
1 0:87 
1 0:88 
1 0:89 
1 0:93 
1 0:100 
1 0:104 
1 0:108 
1 0:110 
1 0:111 
1 0:114 
1 0:116 
1 0:118 
1 0:119 
1 0:120 
1 0:121 
1 0:122 
1 0:123 
1 0:124 
1 0:126 
1 0:127 
1 0:130 
1 0:131 
1 0:134 
1 0:136 
1 0:137 
1 0:138 
1 0:139 
0.44520992309066282 0:141 
1 0:144 
0.56351243007149221 0:145 
1 0:146 
1 0:149 
1 0:152 
1 0:154 
1 0:157 
1 0:159 
1 0:160 
1 0:161 
1 0:162 
1 0:164 
1 0:166 
1 0:168 
0.15401616196652529 0:169 
1 0:170 
1 0:171 
1 0:172 
1 0:173 
1 0:174 
1 0:176 
1 0:177 
1 0:178 
1 0:179 
1 0:181 
1 0:182 
1 0:185 
1 0:186 
1 0:187 
1 0:188 
1 0:189 
1 0:190 
1 0:192 
1 0:195 
1 0:196 
1 0:198 
1 0:199 
1 0:203 
1 0:205 
1 0:206 
1 0:209 
1 0:210 
1 0:211 
1 0:212 
1 0:214 
1 0:216 
1 0:221 
1 0:224 
1 0:227 
1 0:228 
1 0:229 
1 0:231 
1 0:235 
1 0:236 
1 0:241 
1 0:244 
1 0:245 
1 0:250 
1 0:255 
1 0:256 
1 0:257 
1 0:258 
1 0:262 
1 0:265 
1 0:266 
1 0:268 
1 0:270 
