svm_type c_svc
kernel_type sigmoid
gamma 0.076923076923076927
coef0 0
nr_class 43
total_sv 506
rho 0.27740807131777273 -1.0666459844287757 -0.99969162136106782 -1.0690948705457111 -1.1285574488876204 0.59581492606616926 -0.078432669746847331 -0.055352701811713832 0.023868581995843768 0.13516421158525363 0.30589014702312523 0.13555777939827865 0.67871194417009273 0.13322122939562275 0.09674491609821767 -0.23191523961110494 -0.21747664679330936 -0.98806801517786058 -1.0377700139018202 -0.72669363456299918 -1.0925562369013888 -1.0123541956679465 -1.042377044208284 -1.0479573122865482 -0.12527396536323662 -1.008288391088715 -0.060082439129162529 -0.92163192500803226 -1.0315321457993241 -1.0445227815113254 -1.0884688665816205 -1.052223906438611 -1.016021794026398 -1.0136566324097342 -1.0361634933462602 -1.0318508403678273 -0.080253145367207068 -0.11221836509551676 -0.18351753187799269 -0.33892252668738365 -0.41425216943025589 -0.86720524571968993 -0.87567620820685832 -0.99324863906455174 -1.1166255113007422 -1.0962839400233946 -0.01484621668097035 -0.92237077760173303 -0.61402192536626254 -0.84770996207602822 -0.37032055363863514 0.45090540766202691 0.33930249717575389 0.16714945109561086 -0.30263378421001291 -0.42532579689538463 -0.38566762922909581 -0.95484885873281311 -0.75415840351726848 -1.0980872169645906 -0.98637365141215183 -1.0361672436606577 -0.99662088855280617 -1.0526879627103436 -1.1352546667519858 -0.59871404371160786 -1.0830523092429307 -0.73182047270347717 -0.86115541938155871 -1.1395960135944552 -1.045151799416481 -0.81785621802270481 -1.0325021842716795 -1.0915291753031366 -1.0724188928350351 -1.0871068442589473 -1.0352312959861454 -0.33399745173528927 -0.38759987600356699 -0.68498490377390564 -0.82724873398910292 -0.92313713604734338 -0.98671737661663073 0.95240139609784702 0.65206660330295563 0.86551077663898468 1.0611643726781663 0.51249474927317351 0.5410868376493454 1.0300192468869376 0.23946549658844493 1.0178114099549327 0.96762709319591522 1.0955310758606469 0.75899492104843358 0.18353679694740541 0.12837224881136178 0.041318333539644717 1.0385790945299509 0.81186459709177694 0.81785898344804997 -0.79514620453119278 0.96113712386017569 -1.0268887953565209 -0.87660917567041585 0.16728519972680675 -0.82988949120044708 0.97730949103643328 0.98667664326325144 0.0090096741914749146 -1.014584481716156 1.0115623969585357 -1.0132709826932456 -0.90723459422588348 -0.98350016578238975 -0.87319988312351249 -1.0193327999955368 0.13505439696581903 0.080815480094621278 0.038143681369444481 0.068794520069257806 0.037254004177776939 -0.64620885377753678 -0.91361104643714031 0.57747085982049229 1.0607389005741779 -0.018083145570373008 0.1797279647991081 0.72041211059778776 0.20459577100229728 0.95746439392071303 0.90382022323407185 1.1732120652258415 0.61007228866219521 0.16815018138626225 -0.032241018131353653 -0.027778412749035104 -0.7107156583486105 -0.72056645237711059 0.6609413456171751 -1.020519313403341 -0.64143032533137101 -1.0204793547974091 -1.0275124773719493 0.051925691941271737 -0.91482731699943542 0.61288498775875588 0.83152993465773761 -0.99609322650217114 -1.0348357425282524 -0.94550835476250239 -1.0230918442845816 -1.0088771709544087 -0.99181210233825978 -1.0261529133692571 -1.0252899569357712 0.014873441478104857 -0.0066801374629804136 -0.034967894235354048 -0.027548923562755928 -0.068175117277438635 -0.68371912957296355 0.9535697239987766 1.0583471015758914 0.84927950614183234 0.89955091949434041 1.0464545132190861 0.42757825423361434 1.090533666025989 1.1589703385404264 1.101219771810408 1.1198664016831041 0.53315378272874236 0.26855862963817112 -0.078515075479237195 0.88814620523835108 0.98215378098046036 1.1293391585459125 -0.79232593808409435 1.0743455794835848 -1.0324050624001218 -1.0636882718248544 0.0096589819561728758 -0.92010835092963239 1.0012392213236938 1.0310148167617907 -0.93965965509414673 -1.0370745034104873 0.72082286328077316 -0.99218212068080902 -1.0361871200863202 -1.0116718768956818 -0.88536078962018649 -1.0317009190017121 -0.014437380794611931 -0.012636667433398687 -0.044035583149433344 -0.023774431402838934 -0.04953134365433156 -0.67026298737429535 1.087918944422789 0.34212957916264869 0.3083666835839885 1.1086491572019663 0.18337488735949545 1.1325618747531832 1.1403564387505623 1.063221650124978 0.75085283970328098 0.22897242487216349 0.01715985557859737 -0.13821785543698342 -0.69164144992828369 -0.73065349283575576 0.87054578773677349 -0.90378101170315783 -0.76326073706150055 -1.0236828755591325 -1.0145147453774024 -0.010323954188767078 -0.94464294939272708 0.80287003607519303 0.37617024406790733 -1.0153769145244906 -1.0430636757731415 -0.65598020411931701 -0.99762444100303693 -0.98900327026764356 -0.99742928919853868 -0.87235940520797939 -1.0233981578812095 -0.013724171094421242 -0.074466873698340791 -0.10747641509993225 -0.090669029050132285 -0.13778940476895232 -0.76347328128293745 -0.78039578543553312 0.0048469040822239533 -0.53569218481425196 0.062530270670473578 0.24724413131847753 -0.13478861350211255 0.70047938788775355 0.068244709351191507 0.071220038956022538 -0.24468443129603323 -0.370902998524065 -0.98864926656331953 -1.0340819594607396 -0.962035294898263 -1.0888584597767093 -1.0453853462843854 -1.0417495548033724 -1.0804648170047155 -0.21096101625240626 -1.0382235356199225 -0.28795383332706853 -1.038135204285509 -1.100652036109335 -1.0298558214991453 -1.0859789844331753 -1.0210350862962481 -1.0530334947296378 -1.0416857350304995 -1.0578335277320703 -1.0455049259006439 -0.21213625156621108 -0.30495011275285311 -0.38672091204055592 -0.80841178447008133 -0.87541133782452718 -0.96988693359229794 0.78151531023787113 0.48037283991659291 0.5435030187803096 0.90002895744754274 0.85345774989218814 0.94484035656698184 1.0463151201808778 0.37723416844063257 0.26053147367782586 -0.22578412515137605 -0.2674856792308577 -0.2483772531102543 0.20558329885898274 -0.92627300833323356 -0.38939373306046993 -1.07483662794074 -1.1344881432397704 -0.079994936610235975 -1.0969466694653418 0.638776339427513 -0.24752527881010969 -0.99071569426450878 -1.0809477250888198 -0.20425264854870018 -0.95033540576696396 -1.0607536249399125 -1.0504101435856288 -1.0525180361565909 -1.0582228490153185 -0.085382071511713967 -0.090589983856523199 -0.23148881760425866 -0.81060075093997974 -0.91580363372915308 -0.98573602238176627 -0.085155435305102625 -0.34855111984568338 0.68322781265241728 0.88376288981019147 0.52418338293510269 1.0711444046161398 0.27889093359718242 -0.036642188206315041 -1.2028769581401093 -0.39806129038333893 -0.54730850343210069 -0.38599419353230846 -0.7129480242729187 -0.52231272202189993 -1.0496416174194252 -0.96891160923500286 -0.90763821473698858 -1.046396969001093 -0.43322716873754696 -0.2306068295331693 -0.92095095775794666 -1.0468496426675327 -0.29054226862979016 -0.87379979054687573 -0.87549762604346448 -0.94206065702636743 -0.93215841126770405 -1.0038409861606346 -0.32342433375174795 -0.29543671621236151 -0.93649795900330801 -1.0049812011387733 -0.97284361800468044 -0.9979336414015948 0.25936174606349788 1.1357348181768758 0.85058289581921764 1.0041670456192033 0.32030478306114674 0.2464379686323539 -0.048366721726362791 -0.26155972656716542 -0.85208102420514376 -0.91967805225327792 -0.68017153497827809 -0.91668529159399648 -0.90548214813337435 -1.0491990088303451 -1.0443561298336872 -0.1184935874171224 -1.028037698636262 -0.10081556169075637 -0.66107885624506646 -1.0862626370379556 -1.0491163219936785 -0.89180000622582967 -1.0079274313783624 -1.0050843217380854 -1.0158625942367496 -0.86940006509724521 -1.0343453687074546 -0.14810166213269582 -0.15825182199478149 -0.31616746170341736 -0.67540881195348224 -0.66672583824144716 -0.96147209138839074 0.16515694389017971 0.50411379741537643 0.2673458456993103 0.80763553855019621 0.52978773931138334 0.12488099043403758 -0.77409026797809755 -0.29836394758769036 -0.20882776214329135 -0.16688180637209943 -0.35966879054289141 -0.37331954984969712 -1.0266612930142713 -0.94352727488195431 -0.75778262252864337 -1.0795927751768215 -0.46386184937360514 -0.22375409447300607 -0.49744808620867881 -1.0397821157339435 -0.2858831280777826 -0.67507199198007584 -0.81029342002452343 -0.81941698491573334 -0.87975110061609896 -0.99252205950295713 -0.10573487572592227 -0.26862280711765146 -0.81352869949452489 -1.0226786150792904 -0.97326481866731207 -0.97808747547994779 -0.057526936175249926 0.15145527787535684 -0.21160851625672505 -0.021116345199000769 -0.22145832502319621 -0.93567712678499015 -0.88774738827639277 -1.025482719310034 -0.93630976082535489 -1.0399556351972208 -1.0599131425720278 -1.0536534665406909 -1.0446683428634993 -0.62571578239861414 -1.0378788025688472 -0.51749056085028167 -1.0018331753520004 -1.0716097230388477 -1.057117072846544 -1.0367490763578591 -1.0393257825605089 -0.99913050173720652 -1.0231088995780533 -1.0103334561177981 -1.0212414137497199 -0.14705937815404302 -0.2947911279836643 -0.62993617264151669 -0.81206896549550933 -0.94224510332584421 -0.98931845768807336 0.19598789393101143 -0.49167241510870729 -0.13067009386017178 -0.54836692910842988 -1.1294333157773209 -0.8870977677045464 -1.0334658322151575 -0.93174206131412407 -1.0150301814635381 -0.98910685604202375 -1.0606070390443523 -1.1330772976548864 -0.87908995947309776 -1.0380035355001032 -0.57512584683287349 -0.80977013913187035 -1.1026908814663674 -1.0512951439519926 -0.86632825073702646 -1.0260504822049614 -1.0519229392372693 -1.02284441846709 -1.0033936799838161 -1.0399395355103711 -0.72920288890600204 -0.55626311139332085 -0.88936395053196859 -0.98189681894673919 -0.97245345217675139 -1.0008896916744359 -0.089130135998150326 -0.080442722886800766 -0.23138600781295027 -0.63715363293886185 -1.0605796291758463 -1.0095135242200908 -0.98608666295610314 -1.1105790929439794 -1.0511103000854751 -1.0223393777366601 -1.1153289584958992 -0.54811149565412931 -1.0385331800855264 -0.5012923887066324 -0.97822585969343834 -1.0715567850322738 -1.014324934991327 -1.1362187529161403 -1.044749054645308 -1.0527498576489274 -1.0015011382407495 -1.072105726465838 -1.0256670160568377 -0.14843994291234316 -0.28092651706185284 -0.61631103905543716 -0.90800903655822129 -0.9238519343730115 -1.0069651481539517 -0.29764894791831437 -0.45479910561591019 -1.1891566881857394 -0.73290607278836761 -0.92190640027257054 -0.72942385337667026 -0.93816215120442092 -0.8079562915516324 -1.0520566273439833 -1.131702945098557 -0.88699832577533011 -1.0935242759170203 -0.57855160658627958 -0.39756610945987492 -1.0578415546181161 -1.0496765305226852 -0.61986213161742076 -0.94278599739194213 -1.0229068586119785 -1.0039239796913304 -1.0394960016208514 -1.038601357914716 -0.51415727069828954 -0.40671573013703866 -0.93682975318908035 -1.0257472047480036 -0.96647367771051895 -0.99945760658280736 -0.99248559711936535 -1.0220999990891839 -0.29738234833605059 -0.094712551006327875 -0.079599834997226809 -0.3334327430718011 -0.41264287803395339 -0.99578458312356721 -0.8341647716438646 -0.99054688309540229 -0.97895715098857183 -0.40416757765297684 -0.18775483367673351 -0.50178772145106998 -1.000368178146736 -0.29427436167240956 -0.56799829006195068 -0.67053129541295731 -0.73578338697552681 -0.74626310924187789 -0.93170909667484936 -0.79872651660785043 -0.9110830002160365 -1.0002880533767649 -1.0179940691549623 -0.94321815669536591 -0.98980051161176097 -1.0768369639985802 -0.1473170082997631 0.071000147867158192 0.034613528183263492 -0.21781526692211628 -0.27524623987796448 -0.98965726792812347 -0.79167829429553749 -0.97318087349887283 -0.94092142958701397 -0.2170174383917029 0.012818750160024537 -0.39724459254680894 -1.0038094404680651 -0.037215770522036833 -0.61367263184394605 -0.65384822829253864 -0.75062119434323016 -0.63824314272047578 -0.91626857637005998 -0.86343041643226226 -0.94417318019626717 -1.0766973885036824 -1.0267840620488018 -0.94788347099759496 -1.002203621584659 0.041085538818693076 0.17820616739810988 0.28214147783100063 0.12268990313168615 0.10220574525186725 -0.95925230532884598 -0.21667945345204076 0.23083566129207611 -0.78282186388969421 0.12998130072774708 0.17898951738917004 -0.050748303139491475 -0.9700792208313942 0.026944163568746543 -0.26127502135932446 -0.15696223530902154 -0.44772293034455091 -0.349100511521101 -0.87242666631937027 0.70099567058813195 0.46606814116239548 -0.74839612797339883 -0.93744015693664551 -0.93496672637709399 -0.98908717482215025 0.61368996633634398 0.76546583984463734 -0.96324481574706267 0.8319942749701299 -1.0594211147650918 -1.1047855961013551 0.064930154358692413 -0.9484958665218165 0.86063049733638741 0.77008152847048306 -1.0391184887305274 -1.059466532297954 -0.065106898546218872 -1.0171575353088538 -1.0408545155496669 -1.0247561973213721 -0.91789952961908128 -1.0516047596447939 0.013042257411273859 -0.012732109957481572 -0.034715937476241437 0.0043301352621507028 -0.037623641696478777 -0.75437162071466446 1.0060158639757819 -1.0265056019198355 -0.060286156833171844 -1.0412228197616067 -1.0404441146708303 -0.063195441567832356 -0.98136913672575377 0.84321293304168421 1.0142928614017392 -1.0398589844636226 -1.0367903341614979 -0.72001749277114868 -1.0336811989545822 -0.96611596511566145 -1.0239909580660804 -1.0346004500497459 -1.0358204278188272 -0.093082552439246374 -0.14194391042767643 -0.16864077457321808 -0.11156536511018457 -0.14431023558158268 -0.78036296740174294 -1.0171184907331623 -0.96158928000223332 -1.0805989820738811 -1.1494519812624189 -0.12548706232305645 -1.1181401494078882 0.5582751827314496 -0.65142610640032217 -1.1472125376927604 -1.0842254197123715 -0.79042141030456492 -0.98223484760783275 -1.0758090368935551 -1.0247486161040336 -1.0362344405121813 -1.0550128508790464 -0.11461813353327151 -0.1270033983089669 -0.20326106761719154 -0.66621918603777885 -0.66390737355686724 -0.93845508155549151 0.94208158913591844 -1.0287977086219209 -0.88635941531152085 0.065068832340579766 -0.85643860426649931 0.95120434319203406 1.0954072986571366 0.77941933274269104 -1.0246121400224557 1.0012767181066375 -0.9747410068916107 -0.88739142675732996 -0.95914735031952147 -0.98904915749749778 -1.0083082554222775 -0.0057392350413955776 -0.081215689914402922 -0.12347874724264962 -0.076085579233596864 -0.11392799167634034 -0.58921417923892061 -1.0594595182238677 -1.0870799953068966 0.017476614564657201 -0.98550567254811028 0.9680096859448315 1.0238875626691579 -1.0918556958036447 -1.0578135901076224 -0.78051840374187653 -1.0174092776583683 -1.0492834757442222 -1.0267863909222157 -0.91172084151297594 -1.0462352102986494 0.014704432010672499 -0.028638812123679098 -0.063057878646796878 -0.09611833468079567 -0.17713845148682594 -0.75386812537908554 1.018654746542925 0.95832168310880661 1.0222147852182388 1.0170236925450167 1.0444815492756048 1.0278489138026128 -0.0018718540668487549 1.0168289132874655 0.94319915396556464 1.042894712363128 1.0410999094787297 1.0223126774832498 0.028738081455230713 0.72665272954753668 0.73917413003205423 0.76050241503291605 0.66293012323719225 0.63881887122988701 0.043648973107337952 0.39217709076564272 -0.88796070865432863 1.0121581044575554 1.0327868235919366 1.0230719134197026 -1.0233970875971696 0.98669215101551511 -0.76985146105289459 0.014155954122543335 -0.88316432502335651 -0.79208652675151825 -0.99821638696098891 0.084428981160816638 0.062850823105921286 0.014366190458440719 0.038809953132286891 -0.0046818368912402274 -0.63471809160894122 -0.88965279478950143 0.061329651575211495 0.054556481372364983 -0.14545729882527331 -0.96829171478748322 -0.053338235797054434 -0.40664676221263013 -0.29581629348262495 -0.59019335355034053 -0.5160333297021984 -0.88125974196009338 0.45829714834690094 0.44583404436707497 -1.0124865380115817 -1.0047505379330226 -0.90622147541804332 -0.99084492370492916 1.011844001510348 1.0160130714899425 0.89564303968322312 -1.0219360589981079 0.87942284013954586 0.020631074905395508 0.8809405118227005 -0.019519463181495667 0.042610257863998413 -0.9819166511297226 0.56333917337497419 0.58107939857034729 0.59247718006372452 0.42811926454305649 0.36359519329923118 -0.75202830701855716 -0.43973434809062789 -1.0629282966039797 -1.0160825055455165 -0.65861812002863951 -0.95604440420311743 -1.0044554007048205 -1.0085635909072057 -1.03059625165418 -1.0181320453621086 -0.033272229445115452 -0.081113558000558333 -0.30316283483698964 -0.66983943840190041 -0.72479883933710454 -0.92568600177764915 -1.1034869708039294 -1.036561072242371 -0.99158847590362797 -1.0261937756611559 -1.0125422850400834 -1.0075657211601075 -1.0742754963551406 -1.0368689692900777 -0.070877959499145965 -0.070893878873471705 -0.11737509697258 -0.23387774205688985 -0.29092376439316969 -0.95494011044502258 -1.0047964056262475 0.92838127179866736 -1.0134023049838792 -0.99446766762855199 -1.0147301150119694 -0.88067689840751728 -1.024617728323467 0.094718328373160396 0.069500901196695219 0.037773893387159141 0.05043820058194709 0.036347581249099793 -0.68366895243525505 1.0070049128510796 0.91398992638610932 1.0349219919788388 1.0337007032150005 1.0137282113431425 0.030609935522079468 0.72319208690182069 0.74306516036791503 0.76163028839874181 0.67344741294034827 0.65190767869353294 0.045520827174186707 -1.0098638898026338 -0.95776154867357288 -0.98313853804205553 -0.99579945059748842 -1.0099332036470228 0.033363544783596578 -0.025514472275972366 -0.069001107095513561 -0.014885970386363162 -0.043055885939706939 -0.66231499541656325 0.86438004672527313 0.011408314108848572 0.038101226091384888 -0.94495544772958628 0.13766398810990041 0.081827543945399345 0.051237853243947029 0.059716823130163237 0.016035698484615068 -0.5010232962667942 -0.98114454546716712 -0.82769049463755207 -1.0286714437248174 0.19476068829388238 0.19686003865625179 0.15482947636308866 0.18591747879706658 0.13564793518814303 -0.68661066144704819 0.009475409984588623 -1.0293737600776842 0.2769409485495874 0.24637803945461881 0.2549412939697504 0.10743193791051214 0.067433401084444858 -0.62954402714967728 -1.0078940862955643 0.20310217637351519 0.15050942145546203 0.1475493386387825 0.040362575803597402 -0.0076286054421613502 -0.61456787586212158 0.64982145982283868 0.63778953463071897 0.65827363396898342 0.57796029793657133 0.54670151369646192 0.014910891652107239 0.080985501408576965 -0.93430834099628057 -1.0320936399914766 -1.0137815060866817 -0.99433176174351345 -1.0132080058124751 -0.99858657094819081 -1.02895156907351 -1.0008801840676345 -0.99502328141588836 -0.97464263105513593 -0.99784001075795836 -0.024956956505775452 -0.98556967185254496 -0.9684663861989975
label 24 21 34 33 36 28 22 27 16 18 15 20 19 23 17 13 14 12 30 26 25 35 31 38 43 11 41 50 29 37 39 32 42 48 44 46 45 10 8 7 9 5 6
nr_sv 25 31 5 9 6 10 35 9 16 25 16 36 37 37 22 24 18 9 7 8 11 4 8 1 3 9 2 16 10 5 1 7 2 3 2 2 1 10 10 7 3 3 1
SV
1 0.74182381253737084 1 1 1 1 0 0.77595989986652336 1 1 1 1 1 1 0 0 0 1 0.87526306269258203 0 0.34493086498740383 1 0.007456321276223199 1 0 0 1 0.94830912021034697 1 0 1 0 1 0.075121127572487345 0.35104028842474999 0.18298559442545842 0 0 0 0 0 0 1:-1 2:-0.64 3:-0.86437 4:-1 5:-0.37037 6:0.155011 7:0.283213 8:-0.461594 9:-1 10:-0.583969 11:-0.425532 12:1 13:-0.82064 
1 0 0 0 0 1 0 1 1 0.56703513882058909 1 1 1 1 1 0.62011710557607713 0 0 0 0 0 0 0 0 0 0 0 0 0 0 0 0 0 0 0 0 0 0 0 0 0 0 1:-0.996207 2:-1 3:-0.596774 4:-1 5:-0.530864 6:-0.0783675 7:-0.437693 8:-0.505733 9:-0.652174 10:-0.648855 11:0.404255 12:0.9825 13:-0.536424 
1 0 0.68030699248772664 0 0 1 0 0 0.35952378823826753 0 1 1 1 0 0 0 0 0 0 0 0.84391468670569603 0 0 0.22138764849206674 0 0 0 0 0 0 0 0 0 0 0.36326082824976541 0 0 0 0 0 0 0 1:-0.99656 2:-1 3:-0.527126 4:-1 5:-0.740741 6:0.0155202 7:-0.92585 8:-0.164983 9:-0.826087 10:-0.824427 11:0.12766 12:0.987695 13:-0.684879 
0 0.40577387801725656 0.57984379510809025 0 0.23244045974205177 1 0 0 1 0 1 0 1 0 0 0 0 0.37413730369031117 0 0 0 0 0 0 0 0 0 0 0 0 0.73784695393156707 0 0 0 0 0 0 0 0 0 0 0 1:-0.99968 2:0.7 3:-0.979472 4:-1 5:-0.897119 6:0.0814332 7:-0.324408 8:0.465504 9:-0.913043 10:-0.519084 11:2.22045e-16 12:1 13:-0.777042 
1 0.20738417107233775 0 0 0.54925628800959081 1 0 0 1 0 1 1 1 0 0 0 0 0 0 0 0 0 0 0 0 0 0 0 0 0 0.16223385989630817 0 0 0 0 0 0 0 0 0 0 0 1:-0.998158 2:-1 3:-0.241202 4:-1 5:-0.884774 6:0.0944625 7:-0.92379 8:-0.243841 9:-0.73913 10:-0.549618 11:0.404255 12:0.933582 13:-0.724614 
1 0.6450181383730349 0 0 0 1 0.40291444095654905 0.027977212290052525 1 0 1 1 1 1 0 0 0 0 0 1 0 0 0 0 0 0 0.833025147434309 1 0 0 0.33139891960481377 0.2050030489136217 0 0 0 0 0.13492226623071368 0 0 0 0 0 1:-0.998367 2:-1 3:-0.0931085 4:-1 5:-0.786008 6:0.0392796 7:-0.936148 8:-0.432222 9:-0.652174 10:-0.194656 11:0.297872 12:0.990015 13:-0.721302 
1 0 0 0 1 1 0 0 1 0 1 1 1 1 0 0 0 0 1 0 0 0 0 0 0 0 0 0 1 0 0 0 0 0 0 0 0 0 0 0 0 0 1:-0.99932 2:-0.5 3:-0.677419 4:-1 5:-0.831276 6:0.0503928 7:-0.396498 8:-0.223217 9:-0.73913 10:-0.641221 11:0.361702 12:1 13:-0.724614 
1 0 0 0.14725336583445467 0.20763087590215901 1 1 1 1 1 1 1 1 1 1 1 1 0.71200789370295936 0 1 0 0.67094656041708367 0 0.38255387835835597 1 1 1 0.16053112104493031 0 0 0 0 0.33977546495905508 0.046374416917450978 0 0 1 1 1 1 1 0.25933122868912278 1:-0.969956 2:-1 3:0.40176 4:-1 5:-0.0946502 6:-0.040046 7:1 8:-0.885841 9:-0.652174 10:-0.175573 11:-0.553191 12:0.783095 13:-0.740618 
1 0 1 1 1 1 1 1 1 1 1 1 1 1 1 1 0 1 1 0.83250072143302123 0 1 0.58390952214137959 1 0.43748785351819341 0.79055173255302569 1 1 1 0.63829659211695933 0 0 0.26739439131830767 0 0 0.45545229265778847 0 0 0 0 0 0 1:-0.998923 2:-1 3:-0.736804 4:-1 5:-0.485597 6:0.0553746 7:0.452111 8:-0.602088 9:-0.652174 10:-0.583969 11:-0.148936 12:0.993444 13:-0.748344 
0.45970069723295659 1 0.38872330837507113 0.17228793254061978 0 1 0 0 0.37476165910354453 0 1 0.32274343369454156 1 0 0 0 0 1 0 0 0 0 0 0 0 0 1 0.47218644794132181 0 0 1 0 0 0 0 0 0 0 0 0 0 0 1:-0.999368 2:0.65 3:-0.884897 4:-1 5:-0.876543 6:-0.00325733 7:-0.268795 8:-0.0651184 9:-0.913043 10:-0.385496 11:-0.553191 12:0.984215 13:-0.68543 
1 0 0 0 1 1 1 1 1 1 1 1 1 1 1 1 0.94498114887272522 0 0 1 0 0 0 0 1 0 1 0 0 0 0 0 0 0 0 0 0 0.29369154239567458 0.23350112183541602 0 0 0 1:-0.994979 2:-1 3:-0.257331 4:-1 5:-0.572016 6:0.05959 7:0.0216272 8:-0.413417 9:-0.73913 10:-0.656489 11:0.276596 12:0.989762 13:-0.490066 
1 0 1 0 0.10042383090657764 1 1 1 1 1 1 1 1 1 1 1 0.075816721671267892 0 0.9960475369479409 0.91881389654825918 0.82816270511845469 0 0 0 0.24507409593170132 0 1 0.77713866973316637 0 0 0.82697920059777796 0 0 0 0.79570840863406322 0 0 0.10277932979427851 0.14352903837322356 0 0 0 1:-0.997088 2:-1 3:-0.257331 4:1 5:-0.572016 6:-0.0408124 7:0.15757 8:-0.434459 9:-0.73913 10:-0.656489 11:0.276596 12:0.921428 13:-0.286424 
1 0 0 0.68045870162492561 1 1 1 1 1 1 1 1 1 1 1 1 1 0 0 1 0 0.076307807497290742 0 0 1 0 1 0.34737964638378172 0 0 0 0 0 0 0 0 1 1 1 1 1 0 1:-0.988071 2:-1 3:-0.579179 4:-1 5:-0.510288 6:-0.0726193 7:0.342945 8:-0.537706 9:-0.391304 10:-0.541985 11:0.0212766 12:0.90645 13:-0.452539 
1 0 0.89234228036516938 1 0.91024854543962086 1 1 1 1 1 1 1 1 1 1 1 1 0.38919341641955052 0.29744466797930308 1 0 1 0 0 1 0 1 1 0.0087669934677137677 0 0 0 0 0 0 0 1 1 1 0 0 0 1:-0.992714 2:-1 3:-0.579179 4:-1 5:-0.497942 6:-0.0323817 7:0.207003 8:-0.541271 9:-0.391304 10:-0.541985 11:0.0212766 12:0.898381 13:-0.495033 
1 0 0 0 0 1 0.11494517809947072 1 1 0 1 1 1 1 0 0 0 0 0 0 0 0 0 0 0 0 0 0 0 0 0 0 0 0 0 0 0 0 0 0 0 0 1:-0.992503 2:-0.56 3:-0.604106 4:-1 5:-0.8107 6:-0.0239509 7:-0.340886 8:0.25961 9:-0.478261 10:-0.454198 11:0.382979 12:0.96611 13:-0.589956 
1 0 0 0 0 1 1 1 1 0 1 1 1 1 1 1 0.34389233941885322 0 1 1 0 0 0 0 0 0.0082821706458640551 1 0 0 0 0 0 0 0 0 0 0.23657259991680932 0 0 0 0 0 1:-0.996447 2:-0.56 3:-0.604106 4:-1 5:-0.8107 6:0.100594 7:-0.0484037 8:0.217961 9:-0.478261 10:-0.454198 11:0.382979 12:0.888093 13:-0.570088 
1 0 0 0 0 1 0 0 1 0 1 1 1 0 0 0 0 0 0.81250438198956099 1 0 0 0 0 0 0 0 0.70333187389254337 0 0 0 0 0 0 0 0 0 0 0 0 0 0 1:-0.996988 2:-0.56 3:-0.604106 4:-1 5:-0.8107 6:0.121288 7:-0.791967 8:0.139794 9:-0.478261 10:-0.454198 11:0.382979 12:0.996873 13:-0.769868 
1 0 0 0 0 1 0 0 0 0 1 1 1 0 0 0 0 0 0 1 0 0 0 0 0 0 0 1 0 0 0 0.62827790219024993 0 0 0.18117342431726249 0 0 0 0 0 0 0 1:-0.995329 2:-0.56 3:-0.604106 4:-1 5:-0.8107 6:0.10251 7:-0.876416 8:0.139794 9:-0.478261 10:-0.454198 11:0.382979 12:0.899995 13:-0.897351 
1 0 1 1 1 1 0.48214038094398026 1 1 1 1 1 1 1 1 1 0 0 1 0 0.13674730712068539 0.926395918248755 0.40863415658239721 0 0 0 1 0 1 0.36170340788304067 0.94154106596953313 0 0.39283014372263725 1 0 0.060555664985874412 0 0 0 0 0 0 1:-0.997566 2:-0.6 3:-0.52346 4:-1 5:-0.674897 6:0.140832 7:0.149331 8:-0.492966 9:-0.826087 10:-0.862595 11:0.276596 12:0.990216 13:-0.668874 
1 0 0.18638354017032444 0 0 1 0 0 0 0 1 1 1 0 0 0 0 0.52466138618717895 0 0 0 0.85318534986426553 0 0 0 0 0 1 0 0 0 0 0 0 0 0 0 0 0 0 0 0 1:-0.999176 2:0.05 3:-0.643695 4:-1 5:-0.917695 6:0.151178 7:-0.588054 8:0.125335 9:-0.565217 10:-0.59542 11:-0.148936 12:0.873014 13:-0.57064 
1 1 1 1 0 1 0 0 1 0 1 1 1 0 0 0 0 1 0 0 0.84624443606776023 1 0 0.39605847314957732 0 0.056644373910686878 1 1 0.75472018992980883 0 1 0.45890804835063731 1 0.87850445551006195 0.3088170503741588 0.30100644793087866 0 0 0 0 0 0 1:-0.999149 2:0.4 3:-0.869501 4:-1 5:-0.938272 6:0.268442 7:-0.0834192 8:0.218198 9:-0.652174 10:-0.347328 11:-0.531915 12:0.96954 13:-0.760486 
1 0 0.27240008349361811 0 1 1 0 0 1 0 1 1 1 0.85087081529042141 0 0 0 0 0.91337990012711789 0.24868538201871962 0 0.47316436397260514 0 0 0 0.14452172289042359 0 0 0.23651281660247753 0 0 0 0 0 0 0 0 0 0 0 0 0 1:-0.995829 2:-1 3:-0.492669 4:-1 5:-0.555556 6:0.0998276 7:-0.756952 8:-0.220453 9:-0.652174 10:-0.618321 11:0.489362 12:0.983761 13:-0.815121 
0 1 1 0 1 1 0 0 0 0 1 0 1 0 0 0 0 1 0 0 1 1 0 0 0 0 0 0 0 0 1 0.70781100054549095 0 0 0 0 0 0 0 0 0 0 1:-0.999805 2:0.6 3:-0.886364 4:-1 5:-0.794239 6:0.178003 7:-0.447992 8:0.312079 9:-0.73913 10:-0.645038 11:-0.0638298 12:0.969943 13:-0.764901 
1 0 0 0 0 1 0 0 1 0 1 1 1 0 0 0 0 0 0.10536045026349508 0 0 0 0 0 0 0 0 0 0 0 0 0 0 0 0 0 0 0 0 0 0 0 1:-0.998355 2:0.2 3:-0.909824 4:-1 5:-0.893004 6:0.156543 7:-0.320288 8:0.742437 9:-0.73913 10:-0.145038 11:0.212766 12:0.868274 13:-0.792494 
1 0 0 0 0 1 1 1 1 1 1 1 1 1 1 1 1 0 0 1 0 0 0 0 1 0 1 0.5911231207939095 0 0 0 0 0 0 0 0 1 1 1 1 1 0.74066877131087727 1:-0.993857 2:-1 3:-0.323314 4:-1 5:-0.176955 6:-0.0936961 7:-0.182286 8:-0.772281 9:-0.565217 10:-0.221374 11:0.404255 12:1 13:-0.345475 
-1 0 1 1 1 1 1 0.52222522900785684 1 0.74667639762843052 1 1 1 1 0 0 0 1 1 0.83993005174491553 0 1 0.47147862740362451 0.28487593587936877 0 1 1 0.072430647375848617 1 0.54794534866588418 0.93408882578208319 0 0.443728663388748 0.46743955513405538 0 0.63139171273714745 0 0 0 0 0 0 1:-0.999528 2:-1 3:-0.515396 4:-1 5:-0.654321 6:0.0959954 7:0.565396 8:-0.302076 9:-0.913043 10:-0.790076 11:0.106383 12:1 13:-0.59106 
-1 1 1 1 0.37967252112425964 1 0 0 1 0 1 1 1 1 0 0 0 1 0 0 0.20955109951524778 1 0 0.49003672440746598 0 0 1 1 0 0 1 0.075601870964857376 0 0 0 0.087182901845241786 0 0 0 0 0 0 1:-0.998034 2:-0.75 3:-0.456745 4:-1 5:-0.427984 6:-0.107875 7:-0.256437 8:-0.214088 9:-0.652174 10:-0.526718 11:-0.446809 12:0.967724 13:-0.228477 
-1 0 0 0 0.40386303712087046 1 0 1 1 1 1 1 1 1 1 1 1 0 0 0 0 0 0 0 0.27646319040387662 0 0 0 0 0 0 0 0 0 0 0 0 0 0 0 0 0 1:-0.977607 2:-1 3:-0.43695 4:-1 5:-0.37037 6:0.192949 7:0.738414 8:-0.434495 9:-0.73913 10:-0.541985 11:0.787234 12:0.915931 13:-0.434327 
-1 0 0 0 1 1 0 0 1 0 1 1 1 0 0 0 0 0 0.63765210346847145 1 0 0.29825070771700768 0 0 0 0 0 1 0.18764563027302875 0 0 0 0 0 0 0 0 0 0 0 0 0 1:-0.998341 2:-1 3:-0.596774 4:-1 5:-0.530864 6:-0.12282 7:-0.204943 8:-0.489929 9:-0.652174 10:-0.648855 11:0.404255 12:1 13:-0.611479 
-1 1 1 0.39971106895591924 1 1 0 0 1 0 1 1 1 0 0 0 0 1 1 1 1 1 0 0 0 0 0 1 0.34681619934446634 0 1 0 0 0 0.92883892362413667 0 0 0 0 0 0 0 1:-0.997384 2:-1 3:-0.527126 4:-1 5:-0.740741 6:-0.0388963 7:-0.235839 8:-0.164983 9:-0.826087 10:-0.824427 11:0.12766 12:0.962126 13:-0.568433 
-1 0.30063603685970997 0 0 0.42777346466975369 1 0 0 1 0 1 1 1 0 0 0 0 0 0.59031616435132572 1 0 0 0 0 0 0 0 1 0 0 0.65857166246358489 0.80315210222544609 0 0 0 0 0 0 0 0 0 0 1:-0.996573 2:-1 3:-0.241202 4:-1 5:-0.884774 6:-0.0802836 7:-0.699279 8:-0.243841 9:-0.73913 10:-0.549618 11:0.404255 12:0.899339 13:-0.550221 
-1 0 0 0 0 1 0 0 1 0 1 1 1 0.25523287024354263 0 0 0 0 0 0.074031757378874671 0 0 0 0 0 0 0.54126258090083545 0.21095293243493213 0 0 0 0 0 0 0 0 0 0 0 0 0 0 1:-0.998004 2:-1 3:-0.0931085 4:-1 5:-0.786008 6:0.0442614 7:-0.132853 8:-0.386554 9:-0.652174 10:-0.194656 11:0.297872 12:0.931061 13:-0.602097 
-1 0 0 0 0 1 0 0.56987381739203968 1 0 1 1 1 1 0.71291662821255486 0.66025239125731294 0 0 0 0 0 0 0 0 0 0 0 0 0 0 0 0 0 0 0 0 0 0 0 0 0 0 1:-0.998873 2:-1 3:-0.0931085 4:-1 5:-0.786008 6:0.0235677 7:0.046344 8:-0.293528 9:-0.652174 10:-0.194656 11:0.297872 12:0.947047 13:-0.414459 
-1 0.55417795118689706 1 1 1 1 1 1 1 0 1 1 1 1 0 0 0 1 1 0 0 1 0.44508541032752752 1 0 0 1 1 1 0.40704086782997717 1 0 0.83998322063948361 0.35225050940526909 0 0 0 0 0 0 0 0 1:-0.997556 2:-1 3:-0.821848 4:-1 5:-0.753086 6:-0.00287411 7:0.373841 8:-0.56977 9:-0.913043 10:-0.660305 11:0.148936 12:0.974431 13:-0.469647 
-1 0 0 0 0 1 0 1 1 0 1 1 1 1 1 1 0 0 0 0 0 0 0 0 0 0 0 0 0 0 0 0 0 0 0 0 0 0 0 0 0 0 1:-0.997716 2:-1 3:-0.406158 4:-1 5:-0.444444 6:0.00938877 7:0.0607621 8:-0.700243 9:-0.652174 10:-0.248092 11:0.765957 12:0.982803 13:-0.378035 
-1 0 0 0 0 1 0.68898501309205629 1 1 1 1 1 1 1 1 1 0 0 0 0 0 0 0 0 0.17000136823828008 0 1 0.010039297432088133 0 0 0 0 0 0 0 0 0.92416660673550366 0 0 0 0 0 1:-0.997184 2:-1 3:-0.299853 4:-1 5:-0.333333 6:0.00210768 7:0.433574 8:-0.708918 9:-0.565217 10:-0.0648855 11:0.106383 12:0.981845 13:-0.431015 
-0 0 0 0 0 1 0.8100644345415916 1 1 1 1 1 1 1 1 1 0.32202317323935392 0 0 0.165970404267169 0 0 0 0 1 0 0 0 0 0 0 0 0 0 0 0 0.075833393264496313 0.97262315467977223 0.31160095348217065 0 0 0 1:-0.996343 2:-1 3:0.846774 4:-1 5:-0.193416 6:-0.0707032 7:0.761071 8:-0.842992 9:-0.913043 10:-0.996183 11:0.382979 12:0.940088 13:-0.278146 
-0 0 0 0.40702917685772522 0 1 0 1 1 1 1 1 1 1 1 1 1 0.37963029785490926 0 0.3423682402700422 0 0 0 0.60146322594554358 1 0.44927561596886184 1 0 0 0 0 0 0.46274935041973669 0 0 0 1 1 1 0.18279438454372726 0.11086120312955759 0 1:-0.962903 2:-1 3:0.40176 4:-1 5:1 6:-0.0185859 7:0.944387 8:-0.911175 9:-0.652174 10:-0.175573 11:-0.553191 12:0.878461 13:-0.317329 
-1 0 0 0 0 1 0 0 1 0 1 1 1 0.065262771112515577 0 0 0 0 0 0 0 0 0 0 0 0 1 0 0 0 0 0 0 0 0 0 0 0 0 0 0 0 1:-0.99622 2:-1 3:-0.257331 4:1 5:-0.572016 6:-0.0806668 7:0.837281 8:-0.500314 9:-0.73913 10:-0.656489 11:0.276596 12:0.981593 13:-0.142384 
-0 0 0 0 0 1 0 0 0 1 1 1 1 1 0.37072216854298834 0 0 0 0 0 0 0 0 0 0 0 1 0 0 0 0 0 0 0 0 0 0 0 0 0 0 0 1:-0.997654 2:-1 3:-0.0153959 4:1 5:-0.320988 6:-0.0841157 7:0.872297 8:-0.679964 9:-0.652174 10:-0.660305 11:-0.191489 12:1 13:-0.106512 
-0.58137348725674454 0 0.86709603960529658 0 0 1 0 0.90790095360010348 0.82045454486610847 0.25332360237156953 1 1 1 0.82317938984477745 0.91200351004356872 0 0 0 0 0 0.37624505276551168 0 0 0 0 0 1 0 0 0 0 0 0 0 0.26525531720451012 0 0 0 0 0 0 0.03019076492755314 1:-0.990977 2:-1 3:-0.579179 4:1 5:-0.497942 6:-0.0024909 7:0.820803 8:-0.651102 9:-0.391304 10:-0.541985 11:0.0212766 12:0.991628 13:0.0888521 
-1 1 1 1 1 1 0.88587713272830948 0 1 0 1 1 1 0 0 0 0 1 1 1 1 1 0.015685402775778085 0.52733744458854692 0 0 1 1 1 0 1 1 1 0.93969076420507558 0.42063963488084294 0.24164870108265962 0 0 0 0 0 0 1:-0.999059 2:0.6 3:-0.766862 4:-1 5:-0.971193 6:-0.0239509 7:-0.400618 8:0.471451 9:-1 10:-0.51145 11:-0.191489 12:0.979777 13:-0.732892 
-1 1 1 0 1 1 0 0 1 0 1 1 1 0 0 0 0 1 1 0.25764259377196186 1 1 0 0 0 0 0 1 0.83349339794906863 0 1 0 0 0 0 0 0 0 0 0 0 0 1:-0.993417 2:-0.6 3:-0.52346 4:-1 5:-0.674897 6:-0.120521 7:-0.192585 8:-0.39994 9:-0.826087 10:-0.862595 11:0.276596 12:0.958394 13:-0.378035 
-1 0.042846752825100129 0.54630793429665525 0 0.4795040963643778 1 0.51718640333439536 0 0 0 1 1 1 0 0 0 0 0.46060929165108122 0 1 0 0.58454002012027395 0 0 0 0.22356176193539298 1 1 0 0 0.0019356980985366201 0 0 0 0 0 0 0 0 0 0 0 1:-0.998299 2:-1 3:-0.0131965 4:-1 5:-0.786008 6:-0.0618893 7:-0.188465 8:-0.204667 9:-0.73913 10:-0.610687 11:-0.276596 12:1 13:-0.521523 
-1 0 0 1 1 1 0.66640048286039477 1 1 1 1 1 1 1 1 1 0 0 0 1 0 0.44364083166255547 0 0 0 0.041101718581683322 1 0 0.23701943394630243 0 0 0 0 0 0 0 0 0 0 0 0 0 1:-0.994087 2:-1 3:-0.307918 4:-1 5:-0.345679 6:0.036597 7:0.645726 8:-0.612036 9:-0.73913 10:-0.553435 11:0.234043 12:0.982299 13:-0.659492 
-1 0 0 0 0 1 0 0 1 1 1 1 1 1 1 1 0 0 0 0 0 0 0 0 0 0 0 0 0 0 0 0 0 0 0 0 0 0 0 0 0 0 1:-0.989454 2:-1 3:-0.307918 4:-1 5:-0.345679 6:-0.0220349 7:0.15139 8:-0.477616 9:-0.73913 10:-0.553435 11:0.234043 12:0.996621 13:-0.392936 
-1 0 1 0 1 1 0 0 1 0 1 1 1 0 0 0 0 0 1 1 0.18813594379783755 0 0 0 0 0 0 0.70657712275713103 0 0 0 0 0 0 0 0 0 0 0 0 0 0 1:-0.999252 2:-1 3:-0.653226 4:-1 5:-0.465021 6:-0.0511592 7:-0.349125 8:-0.116897 9:-0.652174 10:-0.858779 11:0.617021 12:1 13:-0.653422 
-0 0 0 0 0 0 1 1 0 1 1 1 1 1 1 1 1 0 0 0.034155995242447834 0 0 0 0 1 0 1 0 0 0 0 0 0 0 0 0 1 1 0.99430910473632661 0.1067846548654726 0.091051162701246233 0 1:-0.913603 2:-1 3:0.293255 4:1 5:0.584362 6:0.0860318 7:0.814624 8:-0.74982 9:1 10:0.828244 11:0.617021 12:0.97196 13:-0.363135 
-0 0.10233925912829288 0.58659602609804817 0.19325975418635571 0.30918688072073841 0.084098322560783673 1 0 0 1 1 1 1 0.80587609849937147 1 1 0.46249795192071264 0.1597604104940096 0.77203173218020282 1 0.22606790392140294 0.67356844050016296 0.06775055949306992 0.096286669179074663 0.046931975683855459 0.28606090351406177 1 1 0.39502533848713406 0.045013783504138843 0.40540381365579525 0.12124602680969655 0.25353876555203164 0.24061917125559984 0.38526612429051027 0.039776684334951129 1 0.61739699041652052 0 0 0 0 1:-0.922042 2:-1 3:0.293255 4:1 5:0.37037 6:1 7:0.647786 8:-0.859033 9:1 10:0.828244 11:0.617021 12:0.786424 13:-0.803532 
-0 0 0 0 0 1 1 1 1 1 1 1 1 1 1 1 1 0 0 0 0 0 0 0 1 0 0 0 0 0 0 0 0 0 0 0 1 1 1 1 1 0.57590295190618634 1:-0.917036 2:-1 3:0.293255 4:-1 5:0.37037 6:-0.462732 7:0.822863 8:-0.88675 9:1 10:0.828244 11:0.617021 12:0.592163 13:-0.322848 
-0 0 0 0 0 1 0 1 1 1 1 1 1 1 1 1 1 0 0 0 0 0 0 0 1 0 0.45873741909916455 0 0 0 0 0 0 0 0 0 1 1 1 0.71042096059080007 0.79808763416919604 0.38071233722269282 1:-0.823918 2:-1 3:0.293255 4:-1 5:0.111111 6:0.0147538 7:0.287333 8:-0.666488 9:1 10:0.828244 11:0.617021 12:1 13:-0.365894 
-0 0 0 0 0 1 0.43148653344325216 1 1 1 1 1 1 1 1 1 1 0 0 0 0 0 0 0 1 0 1 0 0 0 0 0 0 0 0 0 1 1 1 1 1 0.013193945943567641 1:-0.677927 2:-1 3:0.293255 4:-1 5:-0.0576132 6:0.0224181 7:0.752832 8:-0.850576 9:1 10:0.828244 11:0.617021 12:0.931514 13:-0.371965 
-1 0 0 0 0 1 0 1 0 0 1 1 1 1 1 1 1 0 0 1 0 0 0 0 1 0 0 0 0 0 0 0 0 0 0 0 1 1 0.69408994178150274 0 0 0 1:-0.936786 2:-1 3:0.293255 4:-1 5:-0.395062 6:-0.156543 7:-0.22966 8:-0.460084 9:1 10:0.828244 11:0.617021 12:0.979928 13:-0.520419 
-0.87832720997621183 0 0 0 0 1 0 1 0.1795454551338915 1 1 1 1 1 1 1 1 0 0 0.28590095732458876 0 0 0 0 1 0 1 0 0 0 0 0 0 0 0 0 1 1 1 0 0 0 1:-0.91756 2:-1 3:0.293255 4:-1 5:-0.185185 6:0.0542249 7:0.0092688 8:-0.479471 9:1 10:0.828244 11:0.617021 12:0.958243 13:-0.511589 
-1 0 0 0 0 1 0 0 1 1 1 1 1 1 1 1 0 0 0 0 0 0 0 0 0 0 0 0 0 0 0 0 0 0 0 0 0 0 0 0 0 0 1:-0.996246 2:-1 3:-0.323314 4:-1 5:-0.176955 6:-0.17762 7:0.0525232 8:-0.772281 9:-0.565217 10:-0.221374 11:0.404255 12:1 13:-0.432671 
-1 0 0 0 0 1 0 1 1 1 1 1 1 1 1 1 0.21547887483993336 0 0 0 0 0 0 0 0.50660346567398784 0 0 0 0 0 0 0 0 0 0 0 1 0.15204240274840028 0 0 0 0 1:-0.994767 2:-1 3:-0.323314 4:-1 5:-0.176955 6:-0.0580571 7:0.285273 8:-0.767298 9:-0.565217 10:-0.221374 11:0.404255 12:1 13:-0.38245 
-1 -1 1 1 1 1 1 1 1 1 1 1 1 1 1 1 1 1 1 1 1 1 0.96007168627592399 1 1 1 1 1 1 1 1 0.54130372494322421 1 0.82125640116531662 1 0.68904776640598575 1 1 1 1 1 0.64977503730945352 1:-0.999529 2:-1 3:-0.515396 4:-1 5:-0.654321 6:0.388772 7:0.198764 8:-0.302076 9:-0.913043 10:-0.790076 11:0.106383 12:0.979475 13:-0.873068 
-1 -1 1 1 1 1 1 1 1 1 1 1 1 1 1 1 0.90040918266934522 1 1 1 1 1 0 0.017350819182862198 1 0 1 1 1 0 1 0.30682012247015517 0 0.31799323840587462 0.053570289090622294 0 0.42576254814736175 0.43474747764772415 0.35260497970697785 0.043706374050744026 0 0 1:-0.999387 2:0.5 3:-0.817449 4:-1 5:-0.823045 6:0.327074 7:-0.734295 8:-0.223145 9:-0.826087 10:-0.751908 11:0.212766 12:0.993545 13:-0.986203 
-1 -1 1 1 1 1 1 1 1 1 1 1 1 1 1 1 1 1 1 1 1 1 0.039928313724076014 1 1 1 1 1 1 0 1 0.15187615258662054 1 0.6172833003353676 0.94642971090937766 0 1 1 1 1 1 0.35022496269054648 1:-0.998261 2:-0.1 3:-0.781525 4:-1 5:-0.786008 6:0.388772 7:-0.258496 8:-0.374897 9:-0.652174 10:-0.194656 11:-0.446809 12:1 13:-0.798013 
-1 -1 1 1 1 1 1 1 1 1 1 1 1 1 0.92515105712811829 1 0 1 1 1 1 1 0 0.98264918081713781 0.11158961187850566 0 1 1 1 0 1 0 1 0.24346706009344118 0 0.31095223359401425 0 0 0 0 0 0 1:-0.999295 2:0.6 3:-0.922287 4:-1 5:-0.921811 6:0.422878 7:-0.270855 8:0.123844 9:-0.913043 10:-0.458015 11:-1 12:0.976297 13:-0.730132 
-1 -1 1 1 1 1 1 1 1 0.17435279067318624 1 1 1 1 0.37947755756517493 0.29107668799218012 0 1 1 1 0 1 0 0 0 0 1 1 1 0 1 1 0 0 0 0 0 0 0 0.024667687839986088 0.047792613098330376 0 1:-0.999434 2:0.9 3:-0.925953 4:-1 5:-0.925926 6:0.308297 7:-0.744593 8:0.18648 9:-0.826087 10:-0.179389 11:-0.0638298 12:1 13:-0.843819 
-1 -1 -0.24508186960018621 1 1 1 1 1 1 1 1 1 1 1 1 1 0.52551151852064559 0.56391168896726396 1 1 1 1 0 0.045828150516271246 0.54623048403940311 0 1 1 1 0 0.81462980250756234 0 0 0 0.26792772457110486 0.16671042903305816 0 0 0 0 0 0 1:-0.999414 2:-1 3:-0.8739 4:-1 5:-0.699588 6:0.317111 7:-0.116375 8:-0.102911 9:-0.826087 10:-0.866412 11:0.297872 12:0.988552 13:-0.933223 
-1 -1 -1 0.42104479435680048 1 1 0.70231617202204688 1 1 1 1 1 1 1 1 1 0 1 1 1 0.10331234502288937 1 0 0 0 0 1 1 0.1644673679825937 0 1 0.33001465927411405 0 0 0 0.062054499967845018 0 0 0 0 0 0 1:-0.999703 2:-0.65 3:-0.932551 4:-1 5:-0.872016 6:0.357731 7:0.165808 8:0.471924 9:-0.826087 10:-0.889313 11:0.276596 12:0.981542 13:-0.651214 
-1 -1 -0 1 1 1 1 1 1 1 1 1 1 1 1 1 1 1 1 1 0 1 0.90199328019487801 1 1 1 1 1 1 0.61854649589997213 0.10237816375378854 0 0.18545844698346478 0.17618269522211422 0.22506701076945054 0.20370023307543911 1 1 1 0.57325005168040144 0.6185453996880238 0 1:-0.9986 2:-1 3:-0.821848 4:-1 5:-0.753086 6:0.477295 7:0.2276 8:-0.56977 9:-0.913043 10:-0.660305 11:0.148936 12:1 13:-0.753863 
-1 -1 -1 0.57452945489026452 1 1 0 0.54842426780587616 1 0 1 1 1 1 0 0 0 1 0.12572307059074991 1 0.89575815403173265 1 0 0.20505548474965438 0 0 1 1 0.23717769184641477 0 1 0.61012994882113958 0.67193304865893966 0.51251301911309322 0 0.20516453492721634 0 0 0 0 0 0 1:-0.99924 2:0.6 3:-0.922287 4:-1 5:-0.921811 6:0.42786 7:-0.357364 8:0.123844 9:-0.913043 10:-0.458015 11:-1 12:1 13:-0.870309 
-1 -1 -0.20923632439971479 1 1 1 1 1 1 1 1 1 1 1 1 1 1 1 1 1 0 1 0.026476316308189429 1 1 1 1 1 0.57584749297732585 0.15851717035212529 0.67257980304881826 0 1 0 0.3308098942263219 0.28202600123099475 1 1 1 1 1 0.45264137997609927 1:-0.988001 2:-0.6 3:-0.742669 4:-1 5:0.0781893 6:0.39567 7:0.625129 8:-0.821313 9:-0.652174 10:-0.706107 11:-0.914894 12:0.979323 13:-0.566225 
-1 -1 -0 0.10182475935861961 1 1 1 1 1 1 1 1 1 1 1 0.772520923135394 0 0.43608831103273604 0.87427692940925006 1 0 0.6654038613713007 0 0 0 0 1 1 0.11164821318170876 0 0.41041223068983085 0 0.026096725579996111 0.027413498729160747 0 0 0 0 0 0 0 0 1:-0.997789 2:-0.2 3:-0.563783 4:1 5:-0.744856 6:0.420195 7:-0.0504634 8:-0.334794 9:-0.73913 10:-0.744275 11:0.0638298 12:0.96142 13:-0.761589 
-1 -1 -0.54568180600009908 0 1 1 0.89216255986483961 1 1 0.49363874542709096 1 1 1 1 0.25354243428764617 0 0 0 1 1 1 0.33459613862869925 0 0 0 0 1 1 0 0 1 0.059855391904746306 0 0 0.91182610559378474 0 0 0 0 0 0 0 1:-0.998765 2:-0.2 3:-0.563783 4:1 5:-0.744856 6:0.251198 7:-0.491246 8:-0.321045 9:-0.73913 10:-0.744275 11:0.0638298 12:0.982601 13:-0.865894 
-1 -1 -1 0.90260099139431538 1 1 1 1 1 0.10450075924287774 1 1 1 1 0.27819796814602821 0.65520145948574049 0.28126890045702985 1 1 1 0.42834304090641684 1 0 0.48449300507069065 0.52096215891482123 0 1 1 0.91085923401195701 0 1 1 0.11651177877759944 0.28389078693563174 0.26436926483933798 0 0.15862919537105474 0.16117287760429605 0.045987772920520149 0 0 0.055648897535336229 1:-0.997894 2:-0.32 3:-0.587243 4:-1 5:-0.802469 6:0.310979 7:-0.69516 8:-0.206667 9:-0.478261 10:-0.458015 11:-0.255319 12:0.967371 13:-0.827263 
-1 -1 -1 1 1 1 1 1 1 1 1 1 1 1 1 1 1 1 1 1 0.57258646003896108 1 0.071530403496932557 0.26462335966338368 1 0 1 1 1 0.22293633374790259 1 0 1 1 0 0.080344301765446671 1 1 1 1 1 0.49170972248856443 1:-0.998455 2:-0.34 3:-0.8739 4:-1 5:-0.641975 6:0.478827 7:0.421215 8:-0.64179 9:-0.478261 10:-0.866412 11:0.234043 12:1 13:-0.738411 
-1 -1 -1 -1 1 1 1 1 1 1 1 1 1 1 1 1 0.046188238824583845 1 1 1 1 1 0.73766166803129241 0.45545318024905374 0.37446694768629463 0.77270879731226993 1 1 1 0.46227252865826729 1 0 0 0 0.72960996875307715 0.34493408965467598 0 0 0 0 0 0 1:-0.99859 2:-1 3:-0.8739 4:-1 5:-0.699588 6:0.37421 7:0.0566426 8:-0.102911 9:-0.826087 10:-0.866412 11:0.297872 12:1 13:-0.801325 
-1 -1 -1 -1 1 1 1 1 1 1 1 1 1 1 1 1 1 1 1 1 0.8569102455624249 1 0 0.27788122258668169 1 0 1 1 1 0.22761542408845614 1 0 0 0 0.063463077156492353 0 0.66071271644876428 1 1 0.68504812592326969 1 0.3293136483936453 1:-0.998594 2:-1 3:-0.853372 4:-1 5:-0.576132 6:-0.0101552 7:0.221421 8:-0.732961 9:-0.826087 10:-0.977099 11:0.106383 12:1 13:-0.573951 
-1 -1 -1 -1 1 1 1 1 1 1 1 1 1 1 1 1 0 1 1 1 1 1 0 0.67069036666242454 0 0 1 1 1 0 1 1 0.81175842604885962 0.63691480583832649 0.63757499678552465 0.27206682785894248 0 0 0 0 0 0 1:-0.998194 2:-0.1 3:-0.781525 4:-1 5:-0.786008 6:0.386089 7:-0.518023 8:-0.0269621 9:-0.652174 10:-0.194656 11:-0.446809 12:0.967674 13:-0.937086 
-1 -1 -0 -1 1 1 1 1 1 1 1 1 1 1 1 1 1 1 1 1 0 1 0.26233833196870765 0.49930190472708424 1 1 1 1 1 0.31011204725327662 1 0 1 0.36308519416167351 0 0.35663384620516086 1 1 1 1 1 0.43625245863022266 1:-0.985227 2:-0.6 3:-0.742669 4:-1 5:0.0781893 6:0.445488 7:1 8:-0.86087 9:-0.652174 10:-0.706107 11:-0.914894 12:0.931363 13:-0.665563 
-1 -1 -1 -1 1 1 1 1 1 1 1 1 1 1 1 1 1 1 1 1 0.1430897544375751 1 0 1 1 0.22729120268773004 1 1 0 0 1 0 0.32590482727492165 0 0.20870433754876774 0 0.77576900315217223 0.95889495654784074 0.988129976949644 0.59103753142613402 0.62413746327137809 0 1:-0.987777 2:-0.6 3:-0.742669 4:-1 5:0.0781893 6:0.396819 7:0.826982 8:-0.854414 9:-0.652174 10:-0.706107 11:-0.914894 12:0.954562 13:-0.648455 
-1 -1 -1 -1 1 1 1 1 1 1 1 1 1 1 1 1 1 1 1 1 1 1 0 0.096673325774755792 0.91845226302695038 0 1 1 1 0 1 1 0.86233674667621873 1 0.36064761975613813 0.02636523628122061 0.79142020095819188 0.28883101643782011 0.20027010408934912 0.35352104027454478 0.063744325817783318 0.2344338929761321 1:-0.998902 2:-0.34 3:-0.8739 4:-1 5:-0.641975 6:0.408316 7:-0.213182 8:-0.473961 9:-0.478261 10:-0.866412 11:0.234043 12:0.983761 13:-0.713024 
-1 -1 -0 -1 -0 1 1 1 1 0.83141456368936362 1 1 1 1 1 1 0 0 1 1 0.25302444147816966 0 0 0 0 0 1 1 0 0 0.13359773626840149 0 0 0 0 0 0 0 0 0 0 0 1:-0.999471 2:-1 3:-0.8739 4:-1 5:-0.699588 6:0.0994443 7:0.149331 8:-0.102911 9:-0.826087 10:-0.866412 11:0.297872 12:0.98598 13:-0.807947 
-1 -1 -1 -1 -0 1 0.38568147088460925 1 1 0 1 1 1 1 0 0 0 1 1 1 0.64659069214039133 1 0 0 0 0 1 1 0 0 1 0.42149023566119809 0 0 0 0 0 0 0 0 0 0 1:-0.999217 2:-0.5 3:-0.677419 4:-1 5:-0.831276 6:0.213259 7:-0.369722 8:-0.223217 9:-0.73913 10:-0.641221 11:0.361702 12:1 13:-0.803532 
-1 -1 -0 -1 -1 1 1 1 1 1 1 1 1 1 1 1 0.3113606334500586 1 1 1 0 1 0.94653729099785888 1 0.78749236371303166 0.89206030304451023 1 1 1 0.58684425749505842 0.86640226373159845 0 0.39762105502079759 0.048673491455616648 0.8855709395147402 0.15553863791246253 0 0.032567978444615828 0.11978146699294974 0 0 0 1:-0.99895 2:-1 3:-0.783724 4:-1 5:-0.572016 6:0.348151 7:0.239959 8:-0.584447 9:-0.913043 10:-0.683206 11:0.106383 12:0.995764 13:-0.780905 
-1 -1 -0 -1 -1 1 1 1 1 1 1 1 1 1 1 1 0 0 1 1 0 1 0 0 0 0 1 1 0.78862782405300236 0 1 0 0 0 0 0 0 0 0 0 0 0 1:-0.997399 2:-1 3:-0.821848 4:-1 5:-0.753086 6:0.174171 7:0.130793 8:-0.56977 9:-0.913043 10:-0.660305 11:0.148936 12:0.803722 13:-0.728477 
-1 -1 -0 -0.051617073611149214 -0 1 1 1 1 1 1 1 1 1 1 1 1 0 1 1 0 0 0 0 1 0 1 1 0 0 0 0 0 0 0 0 1 1 1 1 1 0.040503925638252301 1:-0.996983 2:-1 3:-0.257331 4:-1 5:-0.572016 6:0.0783675 7:-0.394439 8:-0.487892 9:-0.73913 10:-0.656489 11:0.276596 12:0.944072 13:-0.577815 
-1 -1 -0 -0.9483829263888508 -1 1 1 1 1 1 1 1 1 1 1 1 1 1 0 1 0 1 0 0.6558568531174106 1 1 1 1 0.27680306237490371 0.15574526784053672 0 0 0.91499843511055701 0.12418531742376525 0 0 1 1 1 1 1 0.95949607436174766 1:-0.998566 2:-1 3:-0.0153959 4:-1 5:-0.320988 6:0.180686 7:0.6931 8:-0.583246 9:-0.652174 10:-0.660305 11:-0.191489 12:0.979222 13:-0.560706 
-1 -1 -1 -1 -0.3590585849516098 1 0 0.87669690379200949 1 0 1 1 1 1 0 0 0 1 0.32795797433814433 1 1 1 0 0 0 0 1 1 0.92051278798451763 0 1 1 0.68738050986864541 0.63055429081819081 0.25026384937274343 0 0 0 0 0 0 0 1:-0.999355 2:0.6 3:-0.670821 4:-1 5:-0.893004 6:0.26461 7:-0.485067 8:-0.274868 9:-0.73913 10:-0.778626 11:0.404255 12:1 13:-0.9117 
-1 -1 -1 -1 -0.6409414150483902 1 1 1 1 1 1 1 1 1 1 0.91475187999995122 0 1 1 1 1 1 0 0.46644917589668156 0.079192485107475702 0.10793969695548983 1 1 0.52651213572015587 0 1 0.57850976433880197 0 0.33202685453461345 0.79224163879219112 0.31065691946860563 0 0.14500005056670229 0 0 0 0 1:-0.997235 2:-1 3:-0.0131965 4:-1 5:-0.786008 6:0.194482 7:-0.419156 8:-0.121425 9:-0.73913 10:-0.610687 11:-0.276596 12:1 13:-0.749448 
-1 -1 -1 -1 -1 1 1 1 1 1 1 1 1 1 1 1 1 1 1 1 1 1 0 0 0.80080085199121986 0 1 1 0.48754418986742026 0 1 0 0 0 0.071923572320325188 0 0.52591953635133726 0.27978055707477184 0.26786943935214974 0 0 0 1:-0.99891 2:-0.34 3:-0.8739 4:-1 5:-0.641975 6:0.170722 7:0.136972 8:-0.59254 9:-0.478261 10:-0.866412 11:0.234043 12:0.982147 13:-0.602649 
-1 -1 -1 -1 -1 1 1 1 1 1 1 1 1 1 1 1 1 1 0.67204202566185567 1 0.10038486638143906 1 0.053462709002141104 0.87769397098590796 1 0 1 1 1 0.25741047466440503 1 0 1 0.86456004576781387 0 0.5338044426189319 1 1 1 0.81805621568432463 0.90799785107617637 0 1:-0.999033 2:-0.34 3:-0.8739 4:-1 5:-0.641975 6:0.260011 7:0.38826 8:-0.626604 9:-0.478261 10:-0.866412 11:0.234043 12:1 13:-0.679912 
-1 -1 -0 -0 -0 -0 0 1 1 1 1 1 1 1 1 0 0 0.23645782974705423 0 0 0 0 0 0 0 0 0 0 0 0 0 0 0 0 0 0 0 0 0 0 0 0 1:-0.998157 2:-0.75 3:-0.456745 4:-1 5:-0.427984 6:-0.0607396 7:0.312049 8:-0.194155 9:-0.652174 10:-0.526718 11:-0.446809 12:0.993444 13:-0.409492 
-1 -1 -0 -0 -0 -0 1 1 1 0 1 1 1 1 0 0.76049558049353394 0.57447841940549826 0 0 1 0 0.39370168857266485 0 0 0 0 0 0 0 0 0 0 0 0 0 0 0.13848951303655083 0 0 0 0 0 1:-0.997663 2:-0.5 3:-0.657625 4:-1 5:-0.720165 6:0.109408 7:0.336766 8:0.108658 9:-0.391304 10:-0.629771 11:0.510638 12:1 13:-0.724062 
-1 -1 -0 -0 -0 -0 0 0 0 0 1 1 1 0 0 0 0 0 0 0 0 0 0 0 0 0 0 0 0 0 0 0 0 0 0 0 0 0 0 0 0 0 1:-0.998841 2:-0.75 3:-0.58871 4:-1 5:-0.901235 6:-0.11209 7:-0.61895 8:-0.0236521 9:-0.73913 10:-0.396947 11:0.340426 12:0.99652 13:-0.648455 
-1 -1 -0 -0 -0 -0.3943308170067461 0 0 0 0 1 0 1 0 0 0 0 0 0.77662644354470733 1 0 0 0 0 0 0 0 1 0 0 0 0.43048463471252912 0 0 0 0 0 0 0 0 0 0 1:-0.998082 2:-1 3:-0.241202 4:-1 5:-0.884774 6:-0.0404292 7:-0.899073 8:-0.243841 9:-0.73913 10:-0.549618 11:0.404255 12:0.969792 13:-0.790839 
-1 -0 -0 -0 -0 -0 0.28109764570805135 0 1 0 1 1 1 0 0 0 0 0 0.32213048218712542 0 0 0 0 0 0 0 0 0.29841273097687721 0 0 0.13634779171749034 0 0 0 0 0 0 0 0 0 0 0 1:-0.999344 2:-0.5 3:-0.677419 4:-1 5:-0.831276 6:-0.00134125 7:-0.0978373 8:-0.223217 9:-0.73913 10:-0.641221 11:0.361702 12:0.96843 13:-0.681015 
-1 -1 -0 -0 -0 -0 0 0 1 0 1 1 1 0 0 0 0 0 0 0 0 0 0 0 0 0 0 0 0 0 0 0 0 0 0 0 0 0 0 0 0 0 1:-0.998976 2:-1 3:-0.704545 4:-1 5:-0.736626 6:-0.05959 7:-0.130793 8:-0.400267 9:-0.826087 10:-0.770992 11:0.255319 12:0.995411 13:-0.385762 
-1 -1 -0 -0 -0 -1 0 0 1 0 1 1 1 0 0 0 0 0 1 0 0 0 0 0 0 0 0 0.42264552674294897 0 0 0 0 0 0 0 0 0 0 0 0 0 0 1:-0.998535 2:-1 3:-0.704545 4:-1 5:-0.736626 6:-0.0189692 7:0.110196 8:-0.523866 9:-0.826087 10:-0.770992 11:0.255319 12:0.991175 13:-0.629691 
-1 -1 -0 -1 -1 -1 0 0 1 0 1 1 1 0 0 0 0 0 1 0 0 0.86310841690437567 0 0.75432393886288096 0 0 0 1 0.37619357776334433 0 0 0 0 0 0 0 0 0 0 0 0 0 1:-0.999089 2:-1 3:-0.783724 4:-1 5:-0.572016 6:0.0944625 7:0.301751 8:-0.643045 9:-0.913043 10:-0.683206 11:0.106383 12:0.976196 13:-0.609272 
-1 -1 -0 -1 -1 -1 0 0 1 0 1 1 1 1 0 0 0 0.17243327151551208 0.49528669735263708 0 0 0 0.60538033045268647 0 0 0 0.72814463806735708 0.23713945711851561 1 0.81403140762115445 0 0 0 0 0 0.12865958703801361 0 0 0 0 0 0 1:-0.999258 2:-1 3:-0.783724 4:-1 5:-0.572016 6:0.089864 7:0.46241 8:-0.643081 9:-0.913043 10:-0.683206 11:0.106383 12:0.983106 13:-0.642936 
-1 -1 -0.2361059071157752 -0 -0 -0.82795992850903211 0.2839952242173438 0 1 0 1 1 1 1 0 0 0 0 0 1 0 0 0 0 0 0 1 0.17663799743896175 0 0 0.51250718723126321 0 0 0 0 0 0 0 0 0 0 0 1:-0.999197 2:-0.44 3:0.068915 4:-1 5:-0.674897 6:0.104043 7:0.0442842 8:-0.538725 9:-0.73913 10:-0.683206 11:0.191489 12:0.990469 13:-0.645143 
-0 -1 -0 -0 -0 -0 1 1 1 1 1 1 1 1 1 1 1 0 0 0 0 0 0 0 1 0.04262225615492065 1 0 0 0 0 0 0 0 0 0 1 1 1 0 0.078359728895708178 0 1:-0.997875 2:-1 3:-0.299853 4:-1 5:-0.333333 6:0.208661 7:0.621009 8:-0.718484 9:-0.565217 10:-0.0648855 11:0.106383 12:0.993394 13:-0.534768 
-0 -1 -0 -0 -0 -0 0 1 1 1 1 1 1 1 1 1 0.19088679160695043 0 0 0.19418104257962093 0 0 0 0 1 0 0 0 0 0 0 0 0 0 0 0 0.29218029561270742 0.17842254468769411 0 0 0 0 1:-0.998591 2:-1 3:0.846774 4:-1 5:-0.193416 6:-0.115156 7:0.375901 8:-0.794833 9:-0.913043 10:-0.996183 11:0.382979 12:0.960916 13:-0.302428 
-0 -1 -0 -0 -0 -0 1 1 1 1 1 1 1 1 1 1 1 0 0 0 0 0 0 0 1 0 1 0 0 0 0 0 0 0 0 0 1 1 1 0 0.61931838626542735 0 1:-0.949735 2:-1 3:0.40176 4:-1 5:-0.0946502 6:-0.121288 7:0.831102 8:-0.764952 9:-0.652174 10:-0.175573 11:-0.553191 12:0.990973 13:-0.453091 
-0 -1 -0 -0 -0 -0 1 1 1 1 1 1 1 1 1 1 1 0.11965330091826655 0 0.55977449114142186 0 0 0 0.057908565243691541 1 0.7621779251330244 1 0 0 0 0 0 0 0 0 0 1 1 1 1 0 0 1:-0.945078 2:-1 3:0.40176 4:-1 5:-0.0946502 6:0.0887143 7:0.901133 8:-0.79396 9:-0.652174 10:-0.175573 11:-0.553191 12:0.662817 13:-0.470751 
-0.034656556898275626 -1 -0 -0 -0.10598676720384077 -0 0.44942465680315713 1 1 0.54976689680580548 1 1 1 1 1 1 0 0 0 0 0 0 0 0 0 0 1 0 0 0 0 0 0 0 0 0 0 0 0 0 0 0 1:-0.998243 2:-1 3:-0.736804 4:-1 5:-0.485597 6:-0.119372 7:0.355304 8:-0.714047 9:-0.652174 10:-0.583969 11:-0.148936 12:0.981492 13:-0.563466 
-1 -1 -0 -0 -0 -0 0 0 0 0 1 1 1 0.18022945780109498 0 0 0 0 0 1 0 0 0 0 0 0 0 0 0 0 0 0 0 0 0 0 0 0 0 0 0 0 1:-0.997075 2:-1 3:-0.257331 4:-1 5:-0.572016 6:-0.107109 7:-0.600412 8:-0.487892 9:-0.73913 10:-0.656489 11:0.276596 12:1 13:-0.495585 
-0 -1 -0 -0 -0 -0 0 1 1 1 1 1 1 1 1 1 1 0 0 0 0 0 0 0 1 0 0 0 0 0 0 0 0 0 0 0 1 1 0.95121394757060984 0 0.30232188483886457 0.065972690434661641 1:-0.994477 2:-1 3:-0.257331 4:-1 5:-0.572016 6:-0.148496 7:0.437693 8:-0.413417 9:-0.73913 10:-0.656489 11:0.276596 12:0.962328 13:-0.0987859 
-1 -1 -0 -1 -0 -0 0.83887737209691327 0.1510762887759558 0 1 1 1 1 1 0.38013625346887714 0 0 0 0.47639381046663515 0 0.82213069360896707 0 0 0 0 0 1 0 0 0 0.67956888949145144 0 0 0 0.84776394097273455 0 0 0 0 0 0 0 1:-0.99526 2:-1 3:-0.257331 4:1 5:-0.572016 6:-0.139299 7:0.0484037 8:-0.541143 9:-0.73913 10:-0.656489 11:0.276596 12:0.969943 13:-0.210817 
-1 -0.64701902645396159 -0 -1 -1 -1 0 0 1 0 1 1 1 0 0 0 0 1 1 0.46086160817000166 0.48202032667924832 1 0.21869547851766813 0.030049142395708758 0 0.081639736551385345 1 1 0.68742788808170763 0.066036964501680534 0.10567446701680716 0 1 0.51126871158208043 0 0.57416986864744668 0 0 0 0 0 0 1:-0.997595 2:-0.4 3:-0.672287 4:-1 5:-0.823045 6:0.278406 7:0.0587024 8:-0.0530968 9:-0.565217 10:-0.568702 11:-0.148936 12:0.971506 13:-0.467439 
-1 -1 -0 -0 -0 -0 0.53778128549752957 0.20261049357472175 1 0 1 1 1 0 0 0 0 0.13519174086340383 0 0 0 0 0 0 0 0 0 0 0 0 0 0 0 0 0 0 0 0 0 0 0 0 1:-0.997829 2:-0.4 3:-0.672287 4:-1 5:-0.823045 6:0.0718528 7:0.0298661 8:0.0741027 9:-0.565217 10:-0.568702 11:-0.148936 12:0.878209 13:-0.476269 
-1 -0.43707929610682206 -0.10118103060836633 -0.041473724172565576 -1 -0 0 0 0 1 0 1 1 0.65418709284840959 0 0 0 1 0 0 0 1 0 1 0 0 1 0.3977498838664833 0 0 0.56590166454298785 0 0.79869779641296357 0 0.074485455052508434 0.15949368393682103 0 0 0 0 0 0 1:-0.983021 2:-0.6 3:-0.742669 4:-1 5:0.0781893 6:-0.233953 7:0.23378 8:-0.844156 9:-0.652174 10:-0.706107 11:-0.914894 12:0.977306 13:-0.518764 
-1 -0 -1 -1 -0 -0.18762634627921856 0 0 0 0 0.71662462913712144 0 1 0 0 0 0 1 0.58919037892811088 0 1 0.98817401540072958 0 0 0 0 0 1 0 0 1 0.16020845746863321 0 0 0 0.055523208031668651 0 0 0 0 0 0 1:-0.999896 2:0.1 3:-0.868768 4:-1 5:-0.983539 6:0.108258 7:-0.402678 8:0.123535 9:-1 10:-0.568702 11:-0.425532 12:0.989006 13:-0.64128 
-1 -0 -1 -1 -0 -0 0 0 0 0 1 0 1 0 0 0 0 1 0 0 0 0.13072462342954821 0 0 0 0 0.16686503171469788 0.2373340139592513 0 0 1 0 0 0 0 0 0 0 0 0 0 0 1:-0.99911 2:0.05 3:-0.643695 4:-1 5:-0.917695 6:0.0553746 7:-0.120494 8:0.125335 9:-0.565217 10:-0.59542 11:-0.148936 12:1 13:-0.676049 
-1 -0 -1 -1 -0.86891570341000846 -1 0 0 0 0 0.37291889233158049 0 1 0 0 0 0 1 0 0 1 1 0 0.45962398746251759 0 0.01679937099642019 1 1 1 0 1 1 0.48873030376618509 0.84545730238972672 0.53065722402632709 0 0 0 0 0 0 0 1:-0.998689 2:0.4 3:-0.869501 4:-1 5:-0.938272 6:0.066871 7:-0.645726 8:0.218198 9:-0.652174 10:-0.347328 11:-0.531915 12:0.855464 13:-0.821192 
-1 -1 -1 -0.90925361407157568 -0 -1 0.024899859484407073 0 0 0 1 0.8879863500058115 1 0 0 0 0 0.74361228326601025 0 1 0 1 0 0 0 0.065597807945488446 1 1 0.75265518105325646 0 1 0.017415181043309604 0 0 0 0 0 0 0 0 0 0 1:-0.999347 2:-0.32 3:-0.587243 4:-1 5:-0.802469 6:0.160759 7:-0.2276 8:-0.206667 9:-0.478261 10:-0.458015 11:-0.255319 12:0.9942 13:-0.571192 
-0 -1 -0 -0.60651167564734454 -1 -0 0.58392395619259785 1 1 1 1 1 1 1 1 1 0 0.59265157368975319 0 0.65789619561144774 0 1 0.010917457943662875 0.69809436603520125 0 1 1 0 0.16760705258110919 0 0 0 0.71257189982085134 0 0.1390438680210915 0.082153652346050127 0 0 0 0 0 0 1:-0.98906 2:-1 3:-0.307918 4:-1 5:-0.345679 6:0.178003 7:0.639547 8:-0.602088 9:-0.73913 10:-0.553435 11:0.234043 12:1 13:-0.844923 
-1 -1 -0 -0 -0 -0 0 0.64631321764932237 1 0.64561173080237122 1 1 1 1 1 0 0 0 0 0.64488936550140497 0 0 0 0 0 0 0.45642737450265836 0 0 0 0 0 0 0 0 0 0 0 0 0 0 0 1:-0.982374 2:-1 3:-0.307918 4:-1 5:-0.345679 6:-0.0185859 7:0.0278064 8:-0.72525 9:-0.73913 10:-0.553435 11:0.234043 12:1 13:-0.765453 
-1 -1 -0 -0 -0 -0 0 1 1 0 1 1 1 1 0.47534433089416644 1 0 0 0 0 0 0 0 0 0 0 0 0 0 0 0 0 0 0 0 0 0.013277497749186929 0 0 0 0 0 1:-0.994724 2:-1 3:-0.492669 4:-1 5:-0.555556 6:-0.0335313 7:-0.159629 8:-0.220453 9:-0.652174 10:-0.618321 11:0.489362 12:1 13:-0.389625 
-1 -1 -0 -0 -0 -0 0 0 0 0 1 1 1 0 0 0 0 0 0.18011345053744732 1 0 0 0 0 0 0 0 1 0 0 0 0 0 0 0.39086317940996201 0 0 0 0 0 0 0 1:-0.998631 2:-1 3:-0.796188 4:-1 5:-0.691358 6:0.0622725 7:-0.705458 8:-0.257063 9:-0.73913 10:-0.0725191 11:-0.0851064 12:0.890615 13:-0.690397 
-1 -1 -0 -0.081409231696140644 -0 -1 0 0 1 0 1 1 1 0 0 0 0 0 1 1 0.64827234890107599 0.044163273548722952 0 0 0 0 0 0.26850445953446173 0.016116300520582331 0 0 0 0 0 0.017186332517376449 0 0 0 0 0 0 0 1:-0.998999 2:-1 3:-0.653226 4:-1 5:-0.465021 6:0.0557578 7:-0.274974 8:-0.0308541 9:-0.652174 10:-0.858779 11:0.617021 12:0.96374 13:-0.782009 
-1 -0 -0.66271306227585847 -0.22952304297551498 -0 -0 0 0 1 0 1 0.82021259747073394 1 0 0 0 0 0 0.76186552769415772 0 0 0 0 0 0 0 0 0 0 0 1 0.39189172677552808 0 0 0 0 0 0 0 0 0 0 1:-0.998746 2:-0.2 3:-0.942082 4:-1 5:-0.81893 6:0.122437 7:-0.145211 8:0.393575 9:-1 10:-0.435115 11:0.510638 12:1 13:-0.765453 
-0 -1 -0 -0.13182871143685862 -0 -0 1 1 1 1 1 1 1 1 1 1 1 0 0.39839320928917854 1 0 0.025670889290543109 0 0 1 0.017611199062097259 1 0.96157593036250011 0 0 0 0 0 0 0 0 1 1 1 1 1 0 1:-0.883209 2:-1 3:0.293255 4:1 5:0.584362 6:-0.0166699 7:0.658084 8:-0.710264 9:1 10:0.828244 11:0.617021 12:0.992587 13:-0.461921 
-0.55301883096951954 -1 -0 -0 -0 -0 1 1 1 1 1 1 1 1 1 1 1 0 0 0.48239729699610312 0 0.20360224267887983 0 0 1 0.01355170415666359 1 0 0 0 0 0 0 0 0 0 1 1 1 1 1 0.93402730956533841 1:-0.90435 2:-1 3:0.293255 4:-1 5:0.584362 6:-0.0224181 7:0.61483 8:-0.749111 9:1 10:0.828244 11:0.617021 12:0.968934 13:-0.396247 
-0.41232461213220506 -1 -0 -0 -0 -0.59008290820500287 0 1 1 1 1 1 1 1 1 1 0 0 0 0 0 0 0 0 0 0 0 0 0 0 0 0 0 0 0 0 0 0 0 0 0 0 1:-0.998734 2:-1 3:-0.159091 4:-1 5:-0.226337 6:0.161908 7:0.363543 8:-0.754658 9:-1 10:-0.671756 11:0.787234 12:0.975238 13:-0.56181 
-0 -1 -0 -0 -0.025097529386150726 -1 0 1 1 1 1 1 1 1 1 1 1 0 0 0 0.047576630810708703 0.35085485017453616 0.16500673308598254 0 0.58720780559647157 0 1 0 1 0.11993162787716506 0 0 0 0.64327398602819275 0 0 0 0 0 0 0 0 1:-0.997679 2:-1 3:-0.159091 4:-1 5:-0.226337 6:0.238935 7:0.779609 8:-0.770972 9:-1 10:-0.671756 11:0.787234 12:0.982601 13:-0.737859 
-1 -1 -1 -1 -1 -1 -1 1 1 1 1 1 1 1 1 1 1 1 1 1 0.88264261955511614 1 0.085154284182632267 0.94002790353781596 1 0.26129235264388628 1 1 1 0.29185209716366273 1 0 1 0.45342767083481728 0 0.29524230892048636 1 1 1 0.03350574869536755 0.14092995142787729 0.042219463875966222 1:-0.996893 2:-0.75 3:-0.456745 4:-1 5:-0.427984 6:0.000574823 7:0.91967 8:-0.123226 9:-0.652174 10:-0.526718 11:-0.446809 12:1 13:-0.0386313 
-1 -1 -1 -1 -1 -1 -1 1 1 1 1 1 1 1 1 1 1 1 1 1 0.11735738044488388 1 0.48409616030896296 0.12225762539734705 1 0.43975471340717959 1 1 1 0.44935020622570621 1 0 0 0 0 0 1 1 1 0 0 0 1:-0.9968 2:-1 3:-0.406158 4:-1 5:-0.444444 6:0.213259 7:0.585994 8:-0.700243 9:-0.652174 10:-0.248092 11:0.765957 12:0.989208 13:-0.575607 
-1 -1 -0 -1 -0.56835219822958272 -1 -1 1 1 1 1 1 1 1 1 1 1 1 1 1 0 1 0 0.16954596806488453 1 0.27132164290221134 1 1 0 0 1 0 0.11988287037726339 0 0 0 1 1 1 0 0 0 1:-0.971515 2:-1 3:0.40176 4:1 5:-0.0946502 6:0.0304656 7:0.84758 8:-0.878366 9:-0.652174 10:-0.175573 11:-0.553191 12:0.7076 13:-0.791943 
-1 -1 -1 -1 -1 -1 -1 1 1 1 1 1 1 1 1 1 0.47655785333297807 1 1 1 1 1 0.083314814878874585 0.15826467161063085 0.47653085903049763 0 1 1 1 0.09850383540520756 1 0 0.19086456337230989 0.12182240189885138 0.93142879072831608 0.083523123773369443 0.0049606716319306144 0 0 0 0 0 1:-0.986125 2:-1 3:-0.579179 4:1 5:-0.497942 6:0.271508 7:0.54068 8:-0.610345 9:-0.391304 10:-0.541985 11:0.0212766 12:0.967169 13:-0.547461 
-1 -1 -1 -1 -1 -1 -1 1 1 1 1 1 1 1 1 1 0 1 1 1 1 1 0.10595707545742641 0.64150484391805873 0.05217481167096668 0 1 1 1 0.10171936685297681 1 1 1 1 0.52932869926262605 0.27050049286830502 0 0 0 0 0 0 1:-0.999329 2:0.6 3:-0.670821 4:-1 5:-0.893004 6:0.176087 7:-0.577755 8:-0.274868 9:-0.73913 10:-0.778626 11:0.404255 12:1 13:-0.836093 
-1 -1 -1 -1 -1 -1 -1 1 1 1 1 1 1 1 1 1 1 1 1 1 1 1 0.24147766517210376 0.96839898747126296 1 0.79694380273249454 1 1 1 0.058574494352446667 1 1 0.68870158565814932 0.39413881432163139 0.53924251000905776 0.35073407443783916 0.51576244349450862 0.3815806857186253 0 0 0 0 1:-0.998934 2:-1 3:-0.0131965 4:-1 5:-0.786008 6:0.145047 7:-0.0092688 8:-0.121425 9:-0.73913 10:-0.610687 11:-0.276596 12:0.979575 13:-0.687638 
-1 -1 -0 -0.09404659407799984 -0 -0.98196165864220608 -1 1 1 1 1 1 1 1 1 1 1 0.47111085821137189 1 1 0 0.27439435780803112 0 0 1 0 1 1 0 0 0.34188149956735425 0 0 0 0 0 1 1 1 0.9664942513046324 0.85907004857212266 0.22768231426648636 1:-0.897728 2:-1 3:0.293255 4:-1 5:0.37037 6:-1 7:0.750772 8:-0.912048 9:1 10:0.828244 11:0.617021 12:0.78718 13:-0.702539 
-1 -1 -0 -1 -0.43164780177041728 -1 -1 1 1 1 1 1 1 1 1 1 1 0.046923041279733381 0.5258837450383117 1 0 1 0 0 1 0.088214662767975238 1 1 0 0 0 0 0 0 0 0 1 1 1 1 1 0.23637180512993361 1:-0.731487 2:-1 3:0.293255 4:-1 5:0.127572 6:-0.215559 7:1 8:-0.971701 9:1 10:0.828244 11:0.617021 12:0.673155 13:-0.426049 
-1 -1 -0 -0.50043213780888673 -0 -0.40371981224240311 -1 1 1 1 1 1 1 1 1 1 1 0.20700487263195688 0.35793034378160105 1 0 0.30851640333159436 0 0 1 0.14247282554625301 1 0.364350795854612 0 0 0.043960544875986267 0 0.00055098059227743149 0.030611112944699967 0 0 1 1 1 1 1 0.4937264167276138 1:-0.675576 2:-1 3:0.293255 4:-1 5:-0.127572 6:0.261161 7:1 8:-0.93891 9:1 10:0.828244 11:0.617021 12:-0.09708 13:-0.00386313 
-1 -1 -0 -1 -0.04456067639062096 -1 -1 -0 1 1 1 1 1 1 1 1 0.89912991635393147 1 0.65229958561963486 1 0 1 0 0 0.788483396501657 0 0.99458298284666291 1 0 0 0.71377388862384294 0 0 0 0 0 0.97011499335208318 1 0.50280452211827475 0 0.018592117478378582 0.034522800063631391 1:-0.995393 2:-0.75 3:-0.456745 4:-1 5:-0.427984 6:-0.206745 7:1 8:-0.0992916 9:-0.652174 10:-0.526718 11:-0.446809 12:0.948207 13:0.556291 
-1 -1 -0 -1 -0 -1 -1 -0 1 1 1 1 1 1 1 1 0 0 1 1 0 0.7161650380047524 0.045934300993445726 0 0 0 1 1 0 0 0.28622611137615711 0 0 0 0 0 0 0 0 0 0 0 1:-0.985038 2:-1 3:-0.43695 4:-1 5:-0.37037 6:-0.136999 7:0.800206 8:-0.353927 9:-0.73913 10:-0.541985 11:0.787234 12:0.899037 13:-0.278146 
-1 -1 -1 -1 -1 -1 -1 -0.83283564878307892 1 1 1 1 1 1 1 1 0 1 1 1 1 1 0.17254422226246216 0.33135237704019643 0 0 1 1 0.99129755702236588 0.46342642802599665 1 0 0 0 0.10372198047847177 0.1569355869165642 0 0 0 0 0 0 1:-0.994988 2:-1 3:-0.527126 4:-1 5:-0.740741 6:-0.0538417 7:0.701339 8:-0.170712 9:-0.826087 10:-0.824427 11:0.12766 12:0.979021 13:-0.057947 
-1 -1 -1 -1 -1 -1 -1 -1 1 0.64968778595627641 1 1 1 1 1 1 0 1 1 1 1 1 0.097775045499589069 0 0 0 1 1 1 0.01593781938690705 1 0.47941548386158339 0.89989096573296123 0.84457023400173104 0 0.15464557952837893 0 0 0 0 0 0 1:-0.996282 2:-0.5 3:-0.657625 4:-1 5:-0.720165 6:-0.0783675 7:0.864058 8:0.034637 9:-0.391304 10:-0.629771 11:0.510638 12:0.905089 13:-0.298565 
-1 -1 -0 -0 -0 -1 -1 -0.16716435121692105 1 1 1 1 1 1 1 1 1 0 0 1 0 0 0 0 1 0 0 0 0 0 0 0 0 0 0 0 1 1 0.32991318346852266 0 0 0 1:-0.994317 2:-1 3:0.571114 4:-1 5:-0.0164609 6:-0.182985 7:0.917611 8:-0.880203 9:-0.73913 10:-0.0458015 11:0.829787 12:0.975843 13:-0.146799 
-1 -1 -1 -1 -1 -1 -1 -1 1 1 1 1 1 1 1 1 0 1 1 1 1 1 0 0.57785488759518311 0.5050791901293824 0 1 1 1 0 1 0.52058451613841661 0.10991324427190088 0.15542976599826899 0.61997483724587976 0 0.029885006647916816 0 0 0 0 0 1:-0.940898 2:-1 3:-0.307918 4:-1 5:-0.345679 6:-0.4589 7:-0.281153 8:-0.747238 9:-0.73913 10:-0.553435 11:0.234043 12:0.765747 13:-0.397903 
-1 -1 -1 -1 -1 -1 -1 -1 1 1 1 1 1 1 1 1 0 1 1 1 0 1 0.061699947485388894 1 0 0.86357287697609642 1 1 1 0.056105847266841993 1 0 0.99019578999513791 0 0 0 0 0 0 0 0 0 1:-0.994442 2:-1 3:-0.307918 4:-1 5:-0.345679 6:-0.178387 7:0.54068 8:-0.487965 9:-0.73913 10:-0.553435 11:0.234043 12:0.997579 13:-0.460817 
-1 -1 -1 -1 -1 -1 -1 -1 1 1 1 1 1 1 1 1 0 1 1 1 1 1 0.51465404163426209 1 0 0.75049413650781183 1 1 1 0.26053415788001183 1 1 1 1 1 0.68841883355505684 0 0 0 0 0 0 1:-0.999581 2:-1 3:-0.895161 4:-1 5:-0.452675 6:0.141598 7:0.169928 8:-0.0656821 9:-1 10:-0.103053 11:-0.297872 12:0.965001 13:-0.618102 
-0.80393711215657593 -1 -0 -0.54842426780587616 -0 -0 -1 -1 0.78017496149413845 1 1 1 1 1 1 1 1 0 0.15901631837494104 0.98606174435785987 0 0 0 0 0.70643741336896049 0 1 0.3868632159305091 0 0 0 0 0 0 0.27630318227564843 0 1 1 0.16728229441320258 0.0036104390468585362 0 0 1:-0.905225 2:-1 3:0.293255 4:1 5:0.584362 6:-0.140832 7:0.773429 8:-0.859033 9:1 10:0.828244 11:0.617021 12:0.778809 13:-0.287528 
-0 -1 -0 -0 -0 -0 -0 -0 1 1 1 1 1 1 1 1 1 0 0 0 0 0 0 0 1 0 0 0 0 0 0 0 0 0 0 0 1 1 1 1 1 0.28042328533142813 1:-0.355974 2:-1 3:0.293255 4:-1 5:-0.127572 6:-0.389155 7:1 8:-0.916376 9:1 10:0.828244 11:0.617021 12:0.0623329 13:0.0126932 
-0 -1 -0 -0 -0 -0 -1 -0.30069917470840252 1 1 1 1 1 1 1 1 1 0 0 0 0 0 0 0 1 0.38593298651609176 1 0 0 0 0 0 0 0 0 0 1 1 1 0.24873110570220558 0 0 1:-0.750903 2:-1 3:0.293255 4:-1 5:0.37037 6:0.0921632 7:1 8:-0.867363 9:1 10:0.828244 11:0.617021 12:0.60588 13:-0.266556 
-1 -1 -0 -0 -0 -0.87669690379200949 -1 -1 1 1 1 1 1 1 1 1 1 0 0.18868409600542407 1 0 0.2838349619952476 0 0 1 0 1 1 0 0 0 0 0 0 0 0 1 1 1 0.74765845525093588 0 0 1:-0.855283 2:-1 3:0.293255 4:-1 5:-0.18107 6:0.0975283 7:0.480947 8:-0.805254 9:1 10:0.828244 11:0.617021 12:-0.50764 13:-0.431567 
-0 -1 -0 -0 -0 -0 -1 -0 1 1 1 1 1 1 1 1 1 0 0 0 0 0 0 0 1 0 0.38830559820438754 0 0 0 0 0 0 0 0 0 1 1 1 0 1 0.68505391460494058 1:-0.885718 2:-1 3:0.293255 4:-1 5:0.349794 6:0.0484767 7:0.831102 8:-0.774737 9:1 10:0.828244 11:0.617021 12:0.940441 13:-0.142384 
-0 -1 -0 -0 -0 -0 -1 -0 1 1 1 1 1 1 1 1 1 0 0 0 0 0 0 0 1 0 0.86588617940425594 0 0 0 0 0 0 0 0 0 1 1 1 1 0 0 1:-0.891968 2:-1 3:0.293255 4:-1 5:0.349794 6:0.203296 7:0.794027 8:-0.733034 9:1 10:0.828244 11:0.617021 12:0.285541 13:-0.189294 
-1 -1 -0 -0 -0 -0 -1 -0.69930082529159754 1 1 1 1 1 1 1 1 1 0 0 0.01393825564214015 0 0 0 0 1 0 1 0 0 0 0 0 0 0 0 0 1 1 1 0 0.98140788252162148 0 1:-0.890635 2:-1 3:0.293255 4:-1 5:-0.0576132 6:0.120138 7:0.868177 8:-0.786176 9:1 10:0.828244 11:0.617021 12:0.99652 13:-0.0645695 
-1 -1 -0 -1 -0.955439323609379 -1 -1 -1 1 1 1 1 1 1 1 1 0.10087008364606853 1 1 1 0 1 0.10739244212485209 0.090792735364620528 0 0 1 1 0.0087024429776341172 0.2039957474402426 1 0 0 0 0 0 1 0.7420033942624531 0 0 0 0 1:-0.995098 2:-1 3:-0.323314 4:-1 5:-0.176955 6:-0.0549914 7:0.581874 8:-0.751093 9:-0.565217 10:-0.221374 11:0.404255 12:1 13:-0.304636 
-1 -1 -0.57985820137986166 -1 -1 -0.68251427222255157 -1 -0 -1 1 1 1 1 1 1 0 0 1 0 0 0 1 0 0.16240424661045255 0 0 1 1 0 0 1 0 0.23918584708523119 0 0 0 0 0 0 0 0 0 1:-0.99632 2:-0.75 3:-0.456745 4:-1 5:-0.427984 6:-0.0638053 7:0.709578 8:-0.00653821 9:-0.652174 10:-0.526718 11:-0.446809 12:0.948611 13:-0.151766 
-1 -1 -1 -1 -1 -1 -1 -0.81891651047835745 -0.32787867216527944 1 1 1 1 1 0.28655070556599471 0 0 1 1 1 1 1 0.15419353739198841 1 0 0.68744668547756038 1 1 0.84415450587684548 0.20578169050946479 1 0.25480776245139347 1 0.62844307154037538 0.30534404948020938 0.61383823318669606 0 0 0 0 0 0 1:-0.997501 2:-0.75 3:-0.456745 4:-1 5:-0.427984 6:-0.0618893 7:0.647786 8:-0.0729933 9:-0.652174 10:-0.526718 11:-0.446809 12:1 13:-0.363135 
-1 -1 -0 -0 -0 -0 -1 -0 -0.45229628932885901 0.79981241578784568 1 1 1 1 1 1 0 0 0 0 0 0 0 0 0 0 0 0 0 0 0 0 0 0 0 0 0 0 0 0 0 0 1:-0.985801 2:-1 3:-0.43695 4:-1 5:-0.37037 6:-0.0285495 7:0.680742 8:-0.393956 9:-0.73913 10:-0.541985 11:0.787234 12:0.914872 13:-0.529249 
-1 -1 -0 -0 -0 -0.75645140705486968 -1 -0 -1 0 1 1 1 1 1 0.19329931341940565 0 0 0.14113958022148942 0 0 0 0 0 0 0 0 0 0 0 0 0 0 0 0 0 0 0 0 0 0 0 1:-0.983826 2:-1 3:-0.43695 4:-1 5:-0.37037 6:-0.169956 7:0.371782 8:-0.514972 9:-0.73913 10:-0.541985 11:0.787234 12:0.969993 13:-0.472958 
-1 -1 -0 -0 -0 -0 -1 -0 -1 1 1 1 1 1 1 1 0 0 0 0 0 0 0.10394942354554199 0 0 0 0 0 0 0.15249224311401907 0 0 0 0 0 0 0 0 0 0 0 0 1:-0.982766 2:-1 3:-0.43695 4:-1 5:-0.37037 6:0.124353 7:0.884655 8:-0.395266 9:-0.73913 10:-0.541985 11:0.787234 12:0.954814 13:-0.389073 
-1 -1 -0.28935994483221783 -1 -1 -1 -1 -0 -0 0 1 1 1 1 0 0 0 1 1 1 1 1 0.63316028771869715 0.92210423836561395 0 0 1 1 1 0.63660940531383425 1 0 0.22975242797731568 0.29964374779041292 1 0.2511102895669754 0 0 0 0 0 0 1:-0.9987 2:-1 3:-0.596774 4:-1 5:-0.530864 6:-0.0910136 7:0.345005 8:-0.594304 9:-0.652174 10:-0.648855 11:0.404255 12:1 13:-0.561258 
-1 -1 -0.88017610279512482 -0.49485294775747213 -0 -0 -1 -0 -0 0 1 1 1 0 0 0 0 0.56849905358310149 0 0 0 0 0 0 0 0 0 0.68657776362255707 0 0 1 0 0 0 0 0 0 0 0 0 0 0.023450153302128962 1:-0.999836 2:0.5 3:-0.740469 4:-1 5:-0.897119 6:-0.108258 7:-0.0792997 8:0.12579 9:-0.826087 10:0.0763359 11:0.808511 12:1 13:-0.278698 
-1 -1 -0 -0.10322032201082582 -0 -0 -1 -0.043919921488550603 -1 0 1 1 1 1 0 0 0 0 0 0 0 0 0 0 0 0 0 0 0 0 0 0 0 0 0 0 0 0 0 0 0 0 1:-0.996785 2:-0.5 3:-0.657625 4:-1 5:-0.720165 6:-0.164591 7:0.303811 8:0.10864 9:-0.391304 10:-0.629771 11:0.510638 12:0.990973 13:-0.369757 
-1 -1 -0 -0 -0 -0.11487554790870795 -1 -0.79751687043702757 -1 1 1 1 1 1 1 1 0.16057342546650147 0 0.045057309696656118 0.24033575003870475 0 0 0.02744466102348975 0 1 0.075119034469335808 0.86316954943534541 0 0 0.0051166610626818508 0 0 0 0 0 0 0.25460420978899689 1 1 1 0 0.0208434419421668 1:-0.995 2:-1 3:-0.406158 4:-1 5:-0.444444 6:0.089864 7:0.699279 8:-0.711719 9:-0.652174 10:-0.248092 11:0.765957 12:-0.644561 13:-0.50883 
-1 -1 -0 -0 -0 -0 -1 -1 -1 1 1 1 1 1 1 1 1 0 0 0 0 0 0 0 1 0 1 0 0 0 0 0 0 0 0 0 1 0 0 0 0 0 1:-0.997371 2:-1 3:-0.299853 4:-1 5:-0.333333 6:-0.0986779 7:0.853759 8:-0.777428 9:-0.565217 10:-0.0648855 11:0.106383 12:0.990166 13:-0.200883 
-1 -1 -0 -0 -0 -0 -1 -0.53272268279959567 -1 1 1 1 1 1 1 1 1 0 0 0 0 0 0 0 1 0 1 0 0 0 0 0 0 0 0 0 1 1 0.3446667232356182 0 0.81848637033424376 0 1:-0.995149 2:-1 3:-0.299853 4:-1 5:-0.333333 6:-0.0300824 7:0.905252 8:-0.742036 9:-0.565217 10:-0.0648855 11:0.106383 12:1 13:-0.152318 
-1 -1 -0.25060575099279569 -1 -1 -1 -1 -1 -1 1 1 1 1 1 1 1 0.50557185674554861 1 1 1 0 1 0.047488322399076077 0.70572997300491425 0 1 1 1 1 0 0.40864729878182487 0.26817146247806806 0.888483501053275 0.36683043539803667 0 0 0 0 0 0 0 0 1:-0.996943 2:-1 3:-0.299853 4:-1 5:-0.333333 6:0.0319985 7:0.674562 8:-0.795051 9:-0.565217 10:-0.0648855 11:0.106383 12:0.958848 13:-0.518764 
-1 -1 -0 -0 -0 -0 -1 -1 -1 1 1 1 1 1 1 1 1 0.18278475611659861 0 0.24019668370804156 0 0.69528659871434118 0 0 1 0 1 0.31342223637744293 0 0 0 0 0 0 0 0 1 1 1 0.20625797744091004 0 0 1:-0.99629 2:-1 3:-0.299853 4:-1 5:-0.333333 6:-0.0929297 7:0.756952 8:-0.757477 9:-0.565217 10:-0.0648855 11:0.106383 12:0.737808 13:-0.225717 
-0.734285447341812 -1 -0 -0 -0 -0.44615877281387112 -1 -0 -0 1 1 1 1 1 1 1 0 0 0 0.88285402135277879 0 0 0 0 0 0.1786001901944993 0 0 0 0 0 0 0 0 0 0 0 0 0 0 0 0 1:-0.997928 2:-1 3:0.846774 4:-1 5:-0.193416 6:-0.111707 7:0.913491 8:-0.840555 9:-0.913043 10:-0.996183 11:0.382979 12:0.911645 13:-0.125276 
-0 -1 -0 -0 -0 -0 -1 -1 -1 1 1 1 1 1 1 1 1 0 0 0 0 0 0 0 1 0 1 0 0 0 0 0 0 0 0 0 1 1 1 0 0.18151362966575624 0 1:-0.992827 2:-1 3:0.571114 4:-1 5:-0.0164609 6:0.0998276 7:0.975283 8:-0.875801 9:-0.73913 10:-0.0458015 11:0.829787 12:1 13:-0.246137 
-0 -1 -0 -0 -0 -0 -1 -0 -1 1 1 1 1 1 1 1 1 0 0 0 0 0 0 0 1 0 0 0 0 0 0 0 0 0 0 0 1 1 1 0 0 0 1:-0.992728 2:-1 3:0.571114 4:-1 5:-0.0164609 6:-0.13355 7:0.905252 8:-0.75624 9:-0.73913 10:-0.0458015 11:0.829787 12:0.958596 13:-0.266004 
-0 -1 -0 -0 -0 -0 -1 -0 -1 1 1 1 1 1 1 1 1 0 0 0 0 0 0 0 1 0 0.92704207780638548 0 0 0 0 0 0 0 0 0 1 1 1 0.79374202255908999 1 0 1:-0.987603 2:-1 3:0.571114 4:-1 5:-0.0164609 6:0.0630389 7:0.962925 8:-0.821568 9:-0.73913 10:-0.0458015 11:0.829787 12:0.988754 13:-0.159492 
-1 -1 -0 -0 -0 -0 -1 -0 -1 0 1 1 1 1 0 1 0 0 0 0 0 0 0 0 0 0 0 0 0 0 0 0 0 0 0 0 0 0 0 0 0 0 1:-0.995841 2:-0.56 3:-0.604106 4:-1 5:-0.8107 6:-0.216708 7:0.3862 8:0.241313 9:-0.478261 10:-0.454198 11:0.382979 12:0.960815 13:-0.0767108 
-1 -1 -0 -0.40192673023170206 -0 -1 -1 -0 -0 0 1 1 1 1 0 0 0 0 1 0.63661354490047484 0 0 0 0 0 0 0 0 0 0 0 0 0 0 0 0 0 0 0 0 0 0 1:-0.99376 2:-1 3:-0.492669 4:-1 5:-0.555556 6:-0.177237 7:0.470649 8:-0.346816 9:-0.652174 10:-0.618321 11:0.489362 12:0.970901 13:-0.447572 
-1 -1 -0 -1 -0.10750936494083463 -1 -1 -0 -0 0 1 1 1 0 0 0 0 0 1 1 0 0.30471340128565882 0 0 0 0 0 1 0 0 0 0 0 0 0 0 0 0 0 0 0 0 1:-0.999458 2:-1 3:-0.653226 4:-1 5:-0.465021 6:-0.105576 7:0.167868 8:-0.184243 9:-0.652174 10:-0.858779 11:0.617021 12:0.98946 13:-0.512693 
-1 -1 -0 -1 -1 -1 -1 -0 -0 0 1 1 1 0 0 0 0 0.24871619030029987 1 1 0.47513543471118397 1 0 0 0 0 0.32405673626479398 1 1 0 0.59135270121817518 0 0 0 0.19525048854443666 0 0 0 0 0 0 0 1:-0.998759 2:-1 3:-0.653226 4:-1 5:-0.465021 6:-0.0776011 7:0.145211 8:-0.330248 9:-0.652174 10:-0.858779 11:0.617021 12:1 13:-0.582781 
-1 -1 -1 -1 -0.89249063505916526 -1 -1 -0.8069240147964688 -0 0 1 1 1 0 0 0 0 1 1 1 1 1 0.033763767921206521 0.20976154201901923 0 0 1 1 1 0 1 1 0.64257822388417807 0.46665119230412849 0.49940546197535396 0.13505147724632849 0 0 0 0 0 0 1:-0.998514 2:0.2 3:-0.909824 4:-1 5:-0.893004 6:-0.109791 7:-0.678682 8:0.742437 9:-0.73913 10:-0.145038 11:0.212766 12:0.976953 13:-0.665563 
-1 -1 -1 -1 -0 -1 -1 -0 -0 0 1 1 1 0 0 0 0 1 0.79055670361892716 1 0.52486456528881598 1 0 0 0 0 0 1 0.15584549412315435 0 1 0.47702077507053847 0 0.23843155296704666 0 0 0 0 0 0 0 0 1:-0.999175 2:0.6 3:-0.893695 4:-1 5:-0.884774 6:-0.194482 7:-0.608651 8:0.719776 9:-0.73913 10:-0.438931 11:1 12:0.928892 13:-0.651214 
-0 -1 -0 -0 -0 -0 -1 -1 -1 1 1 1 1 1 1 1 1 0 0 1 0 0 0 0 1 0.058834089858604416 1 0 0 0 0 0 0 0 0 0 1 1 1 1 1 0.95570640475570423 1:-0.872765 2:-1 3:0.293255 4:-1 5:0.460905 6:0.0185859 7:1 8:-0.840828 9:1 10:0.828244 11:0.617021 12:0.993898 13:-0.179912 
-1 -1 -0 -0 -0 -0 -1 -1 -1 1 1 1 1 1 1 1 1 0 0.02324640646292736 1 0 0 0 0 0.47348364280406352 0 1 1 0 0 0 0 0 0 0 0 0 0 0 0 0 0 1:-0.994109 2:-1 3:-0.323314 4:-1 5:-0.176955 6:-0.144281 7:0.394439 8:-0.679346 9:-0.565217 10:-0.221374 11:0.404255 12:1 13:-0.317329 
-1 -1 -1 -1 -1 -1 -1 -1 -1 -1 1 1 1 1 1 1 0 1 1 1 1 1 0.40850366101509072 1 0 1 1 1 1 0.41649615131276041 1 1 1 1 1 0.95114541373592831 0 0 0 0 0 0 1:-0.995087 2:-0.75 3:-0.456745 4:-1 5:-0.427984 6:0.0791339 7:0.882595 8:-0.051169 9:-0.652174 10:-0.526718 11:-0.446809 12:0.977911 13:0.0331126 
-1 -1 -1 -1 -1 -1 -1 -1 -1 -1 1 1 1 1 1 1 1 1 1 1 1 1 0.034426891958193706 0.88232727436701841 0.50881002348391224 0 1 1 1 0.58350384868723959 1 0 1 0 0.50945342169700703 0 0.90091441098027092 0.2683545458481944 0 0 0 0 1:-0.972437 2:-1 3:-0.43695 4:-1 5:-0.37037 6:-0.0109216 7:0.829042 8:-0.482163 9:-0.73913 10:-0.541985 11:0.787234 12:1 13:-0.062362 
-1 -1 -1 -1 -1 -1 -1 -1 -1 -1 1 1 1 1 1 1 0.13400561761471153 1 1 1 1 1 0.55706944702671557 0.59612678025255772 0 0.32406650597563741 1 1 1 0 1 1 0.6670429981989745 1 0.015206587518057119 0.0488545862640717 0 0 0 0 0 0 1:-0.983277 2:-1 3:-0.43695 4:-1 5:-0.37037 6:-0.0944625 7:0.878476 8:-0.405287 9:-0.73913 10:-0.541985 11:0.787234 12:0.987039 13:-0.195916 
-1 -1 -0.37231521886419755 -1 -0.82794304862392099 -1 -1 -0.82655836481258416 -1 -1 1 1 1 1 1 1 0 0.29459049944303356 1 1 0.12027152279384443 1 0 0 0 0 0.29127131758121749 1 0.95889337082046544 0 0.82748759220842882 0 0 0 0 0 0 0 0 0 0 0.051281265049105872 1:-0.991435 2:-1 3:0.846774 4:-1 5:-0.193416 6:-0.213642 7:0.909372 8:-0.885859 9:-0.913043 10:-0.996183 11:0.382979 12:0.810328 13:0.40894 
-1 -1 -0 -0.66102381373306018 -0 -1 -1 -0.4539632047890591 -1 -1 1 1 1 1 1 1 0.85950438033109366 0 1 1 0 0 0 0 1 0 0.27931359611739587 0.72126908502042764 0 0 0 0 0 0 0 0 1 1 0.63656851423493988 0 0 0 1:-0.978198 2:-1 3:0.571114 4:-1 5:-0.0164609 6:-0.158459 7:0.967044 8:-0.778774 9:-0.73913 10:-0.0458015 11:0.829787 12:0.323516 13:-0.140177 
-0.17303276140680796 -1 -0 -0 -0 -0 -1 -0 -1 -1 1 1 1 1 1 1 1 0 0 0 0 0 0 0 0 0 0 0 0 0 0 0 0 0 0 0 1 0.65116089458190929 0.18630841183742247 0 0.15010746362675792 0 1:-0.908034 2:-1 3:0.40176 4:-1 5:1 6:-0.269209 7:1 8:-0.948676 9:-0.652174 10:-0.175573 11:-0.553191 12:1 13:0.362583 
-0.20080346442936886 -1 -0 -0 -0.18807463984155193 -0.075277070555810816 -1 -0 -1 -1 1 1 1 1 1 1 0 0.41474499938563769 0 0 0 0.47500380712611129 0 0 1 0.11734463443556119 0 0 0 0 0 0 0 0 0 0 1 1 0.40982607030382828 0.1493004564572242 0 0 1:-0.951698 2:-1 3:0.40176 4:-1 5:1 6:-0.207894 7:1 8:-0.929617 9:-0.652174 10:-0.175573 11:-0.553191 12:-0.147965 13:-0.1766 
-1 -1 -0.13293620488869731 -0 -1 -1 -1 -0 -1 -1 1 1 1 1 1 1 0.0064900020541947727 1 0 0 0 0.38911217602322679 0 0.23635441505366514 0 0 1 0 0 0 0 0 0 0 0 0 0 0 0 0 0 0 1:-0.938684 2:-1 3:0.40176 4:-1 5:1 6:-0.219774 7:0.894954 8:-0.927962 9:-0.652174 10:-0.175573 11:-0.553191 12:0.772808 13:0.0883002 
-1 -1 -0.15565501923893185 -1 -0.45842974843367701 -0.75613749313355283 -1 -1 -1 -1 1 1 1 1 1 0.88697170783799462 0 0.45356936696450362 1 1 0.57931717208850819 0.52307172269557245 0 0 0 0 1 1 0.081846760205087229 0 1 0 0 0 0.13199854190173005 0 0 0 0 0 0 0 1:-0.974817 2:-1 3:0.40176 4:1 5:1 6:-0.443955 7:0.752832 8:-0.912594 9:-0.652174 10:-0.175573 11:-0.553191 12:0.729588 13:-0.4266 
-0.42739842986949983 -1 -0.2487733647906317 -0.38878785676929922 -0 -0 -1 -0.59677060779903568 -0.64968778595627641 -0.22713155968997939 0.72508296955785967 1 1 1 1 1 0 0 0 0.25681196973221299 0.30041130511764741 0 0 0.28519153032675876 0.49118997651608759 0.13548413040228158 1 0.25274625468543321 0.24917585453688368 0 0.09146838149390793 0 0.28414658134922632 0 0.34334144888320584 0 0.099085589019729053 0.86537651523185855 0.031663477704709279 0.082987232972381766 0 0 1:-0.920677 2:-1 3:0.40176 4:1 5:1 6:-0.00708948 7:0.641607 8:-0.887987 9:-0.652174 10:-0.175573 11:-0.553191 12:-0.557769 13:-0.266556 
-1 -1 -0.26467298289072777 -0.54832783416760944 -0.52555256310084986 -1 -1 -1 -1 -1 1 1 1 1 1 1 1 0.37663071276410232 0.93665887146825655 1 0 1 0 0 1 0.42310472918651981 1 1 0.71008401443756364 0 0.26006022915516303 0 0.048810420451799022 0 0 0 1 1 1 0 0.49378000724510279 0 1:-0.559339 2:-1 3:0.293255 4:-1 5:0.176955 6:0.437823 7:0.956746 8:-0.966045 9:1 10:0.828244 11:0.617021 12:1 13:-0.353753 
-0.0040800975759619877 -1 -0 -0 -0 -0 -1 -1 -1 -1 1 1 1 1 1 1 1 0 0 1 0 0 0 0 1 0 1 0.29265084931291752 0 0 0 0 0 0 0 0 1 1 1 0 1 0.36460715828893625 1:-0.843636 2:-1 3:0.293255 4:-1 5:0.296296 6:-0.175321 7:0.938208 8:-0.855068 9:1 10:0.828244 11:0.617021 12:0.987543 13:-0.151214 
-0 -1 -0 -0 -0 -0 -0 -0.55648244263287128 -1 -0.57268085609786634 1 1 1 1 1 1 1 0 0 0.11231906609690492 0 0 0 0 1 0 0.76135189818176352 0 0 0 0 0 0 0 0 0 1 1 1 1 0.3561125291281394 0.050380291567711705 1:0.149366 2:-1 3:0.293255 4:-1 5:-0.127572 6:-0.158459 7:1 8:-0.948458 9:1 10:0.828244 11:0.617021 12:-0.988502 13:-0.537528 
-0 -1 -0 -0 -0 -0 -0.1953786276081767 -0 -1 -1 1 1 1 1 1 1 1 0 0 0 0 0 0 0 1 0 1 0 0 0 0 0 0 0 0 0 1 1 1 0.76771231057039424 1 0.53373128509424617 1:-0.776099 2:-1 3:0.293255 4:-1 5:0.460905 6:0.120521 7:1 8:-0.845629 9:1 10:0.828244 11:0.617021 12:0.948711 13:-0.0551876 
-0 -1 -0 -0 -0 -0 -1 -0.52205120039240416 -1 -1 1 1 1 1 1 1 1 0 0 0.36793047613444663 0 0 0 0 1 0 1 0 0 0 0 0 0 0 0 0 1 1 1 1 0 0 1:-0.877828 2:-1 3:0.293255 4:-1 5:0.349794 6:0.185668 7:0.962925 8:-0.777101 9:1 10:0.828244 11:0.617021 12:0.790156 13:-0.116998 
-0.76172038553895061 -1 -0 -0 -0 -0 -1 -0.044174179574045569 -1 -1 1 1 1 1 1 1 1 0 0 0.28738200860358259 0 0 0 0 1 0 0.81587831940757549 0 0 0 0 0 0 0 0 0 1 1 0.73563352591910025 0 0 0 1:-0.996751 2:-1 3:1 4:-1 5:-0.0781893 6:-0.274574 7:0.84964 8:-0.874274 9:-0.73913 10:1 11:0.595745 12:0.990872 13:-0.0987859 
-1 -0.84442686553529556 -0 -0 -0 -0 -1 -0 -0 -1 -0 1 1 0 0 0 0 0 0 0 0 0 0 0 0 0 0 0 0 0 0 0 0 0 0 0 0 0 0 0 0 0 1:-0.985985 2:-1 3:-0.43695 4:-1 5:-0.37037 6:-0.0848822 7:0.213182 8:-0.349289 9:-0.73913 10:-0.541985 11:0.787234 12:1 13:-0.639625 
-1 -0 -0 -0 -0 -0 -1 -0 -0.054471430982004583 -1 -0 1 1 1 0 0.55297431682028875 0 0 0 0 0 0 0 0 0 0 0 0 0 0 0 0 0 0 0 0 0 0 0 0 0 0 1:-0.982098 2:-1 3:-0.43695 4:-1 5:-0.37037 6:-0.273807 7:-0.30587 8:-0.514972 9:-0.73913 10:-0.541985 11:0.787234 12:0.455797 13:-0.450331 
-1 -1 -0 -0 -1 -1 -1 -0 -0.21765124193639404 -1 -0 1 1 0.049485869843580603 0.37881274989349212 0 0 0 0 0 0 0 0 0 0 0 0 0 0 0.0076758300385391205 0 0 0 0 0 0 0 0 0 0 0 0 1:-0.997952 2:-1 3:-0.596774 4:-1 5:-0.530864 6:-0.126269 7:0.204943 8:-0.591103 9:-0.652174 10:-0.648855 11:0.404255 12:0.902466 13:-0.465784 
-1 -1 -0 -0 -0 -0.1247305823394925 -1 -0 -0 -0 -0 1 1 0 0 0 0 0.0061725019729831597 0 0 0 0 0 0 0 0 0 1 0 0 0 0 0 0 0.0079978175400408098 0 0 0 0 0 0 0 1:-0.995908 2:-1 3:-0.527126 4:-1 5:-0.740741 6:-0.147346 7:-0.373841 8:-0.277833 9:-0.826087 10:-0.824427 11:0.12766 12:1 13:-0.31457 
-1 -1 -1 -1 -1 -1 -1 -1 -0 -1 -0 1 1 0 0 0 0 1 1 1 1 1 0.53020636307495572 1 0 0.2833976790076711 1 1 1 0.40163289684790154 1 0 1 0.066085523048337383 0.26368070253426457 0.87387090404038348 0 0 0 0 0 0 1:-0.999167 2:-0.58 3:-0.620235 4:-1 5:-0.777778 6:-0.0212684 7:0.237899 8:0.0339459 9:-0.73913 10:-0.78626 11:-0.106383 12:0.985224 13:-0.575055 
-1 -0.91696339668783011 -0 -0.03254573708507414 -0 -0 -1 -0 -0 -0 -0 1 1 0 0 0 0 0 0.92936739801058765 0 0 0 0 0 0 0 0 0.72869145925283907 0 0 0.83829162605862739 0 0 0 0 0 0 0 0 0 0 0 1:-0.997261 2:-0.75 3:-0.58871 4:-1 5:-0.901235 6:-0.109408 7:-0.380021 8:-0.0236521 9:-0.73913 10:-0.396947 11:0.340426 12:1 13:-0.610375 
-1 -1 -0 -0 -0 -0 -1 -0.44065865351889116 -0.49516155660966243 -1 -0 1 1 1 1 1 0 0 0 0 0 0 0 0 0 0 1 0 0 0 0 0 0 0 0 0 0 0 0 0 0 0 1:-0.99786 2:-1 3:-0.0931085 4:-1 5:-0.786008 6:0.0415788 7:0.474768 8:-0.468468 9:-0.652174 10:-0.194656 11:0.297872 12:0.882798 13:-0.434879 
-1 -1 -0.59806455336356668 -0 -0 -0.37338849790630119 -1 -0 -0 -0 -0 1 1 0 0 0 0 0 0.88629856455987632 1 0 0 0 0 0 0 0.29443942888501123 0.39530198303511976 0 0 0 0 0 0 0 0 0 0 0 0 0 0 1:-0.998185 2:-1 3:-0.0931085 4:-1 5:-0.786008 6:-0.0116881 7:-0.116375 8:-0.461503 9:-0.652174 10:-0.194656 11:0.297872 12:0.949871 13:-0.528698 
-1 -1 -0 -0 -0 -0 -1 -0 -0 -0 -0 1 1 0 0 0 0 0 0 0.70833039292245215 0 0 0 0 0 0 0 1 0 0 0 0.0040354015939220904 0 0 0.052723940216150331 0 0 0 0 0 0 0 1:-0.998257 2:-1 3:-0.0931085 4:-1 5:-0.786008 6:-0.113623 7:-0.30587 8:-0.386554 9:-0.652174 10:-0.194656 11:0.297872 12:0.995764 13:-0.593267 
-1 -0.86294268346997549 -0 -0.42640592707080605 -0.022698722723353121 -1 -1 -1 -0 -1 -0.61025750258322542 1 1 1 0.93682364586754274 0 0 1 0 0.27530599862587141 0 0.49955860092594978 0 0 0 0.31889395194944187 1 0 0.57258007989334192 0 0.83980542106473 0 0.67428313413168317 0.5717600020661896 0 0 0 0 0 0 0 0 1:-0.999177 2:-0.44 3:0.068915 4:-1 5:-0.674897 6:0.0300824 7:0.532441 8:-0.547982 9:-0.73913 10:-0.683206 11:0.191489 12:1 13:-0.511038 
-0 -1 -0 -0 -0 -0 -1 -0 -1 -1 -1 1 1 1 1 1 0 0 0 0 0 0 0.35383760286721411 0 0 0 0 0 0 0.15682366877431383 0 0 0 0 0 0 0 0 0 0 0 0 1:-0.997004 2:-1 3:-0.406158 4:-1 5:-0.444444 6:-0.00134125 7:0.794027 8:-0.765134 9:-0.652174 10:-0.248092 11:0.765957 12:0.978768 13:-0.415011 
-0.59834685610162852 -1 -0 -0 -0 -0 -1 -0 -1 -1 -1 1 1 1 1 1 0.52204961792349602 0 0 0 0 0 0 0 0 0 0 0 0 0 0 0 0 0 0 0 0.85627646343719177 0 0 0 0 0 1:-0.997193 2:-1 3:-0.406158 4:-1 5:-0.444444 6:-0.0166699 7:0.69516 8:-0.81944 9:-0.652174 10:-0.248092 11:0.765957 12:0.953553 13:-0.317881 
-1 -1 -0 -0 -0.90984486081826454 -0 -1 -1 -1 -1 -1 1 1 1 1 1 0 0.69301803712143906 0 0 0 0.70102534800018201 0 0.33890969901554713 1 0 1 0 0 0 0 0 0 0 0 0 1 1 0 0.057101458226669732 0 0 1:-0.997207 2:-1 3:-0.299853 4:-1 5:-0.333333 6:-0.11439 7:0.445932 8:-0.754858 9:-0.565217 10:-0.0648855 11:0.106383 12:0.706137 13:-0.247241 
-0 -1 -0 -0 -0 -0 -1 -0 -0.21084233092749655 -0.76771163771435291 -1 1 1 1 1 1 0 0 0 0.4702437600835031 0 0 0 0 0 0.050687329898488453 0.096113363446844735 0 0 0 0 0 0 0 0 0 0 0 0 0 0 0 1:-0.998531 2:-1 3:0.846774 4:-1 5:-0.193416 6:-0.0638053 7:0.672503 8:-0.8058 9:-0.913043 10:-0.996183 11:0.382979 12:0.903021 13:-0.307947 
-0 -0.91388489167571707 -0 -0 -0 -0 -1 -0 -1 -1 -1 1 1 1 1 1 0.50381931662862611 0 0 0 0 0 0 0 1 0 0 0 0 0 0 0 0 0 0 0 0.087859832221300879 0.28503201604234579 0.23997450912560372 0 0 0 1:-0.998052 2:-1 3:0.846774 4:-1 5:-0.193416 6:-0.0802836 7:0.853759 8:-0.825896 9:-0.913043 10:-0.996183 11:0.382979 12:0.905139 13:-0.10596 
-0 -1 -0 -0.26040391539505958 -0 -0 -1 -0.74393188207529082 -1 -1 -1 1 1 1 1 1 0.416228319942547 0 0 0 0 0 0 0 0.16451894251888843 0 1 0 0 0 0 0 0 0 0 0 0.055863704341507329 0.030748451781041103 0.28743567209515997 0 0.077668579429945206 0.01677120956112832 1:-0.990348 2:-1 3:-0.257331 4:1 5:-0.572016 6:-0.316727 7:1 8:-0.500696 9:-0.73913 10:-0.656489 11:0.276596 12:1 13:0.178808 
-1 -1 -1 -1 -1 -1 -1 -0.38636406124763817 -1 -1 -0 1 1 0 0 0 0 1 1 0.021635672702121578 0.042205073795761334 1 0 0.61922192123616426 0 0 1 1 1 0 1 0 1 0.78443745644304685 0 0.08696254080295332 0 0 0 0 0 0 1:-0.997757 2:-0.4 3:-0.672287 4:-1 5:-0.823045 6:-0.0289327 7:0.281153 8:-0.0530968 9:-0.565217 10:-0.568702 11:-0.148936 12:0.988502 13:-0.411148 
-1 -0 -0 -0 -0 -0 -1 -0 -1 -1 -0 1 1 1 0 0 0 0.21811338182165119 0 0 0 0 0 0 0 0 0 0 0 0 0 0 0 0 0 0 0 0 0 0 0 0 1:-0.995723 2:-0.56 3:-0.604106 4:-1 5:-0.8107 6:0.0212684 7:0.571576 8:0.25961 9:-0.478261 10:-0.454198 11:0.382979 12:0.895305 13:-0.53532 
-1 -0.76332240612144409 -1 -1 -0.74875444677693381 -1 -1 -0 -0 -0.14628505820651949 -0 0.94238636680205623 1 0 0 0 0 1 0.16422702096625619 0.69392180440286755 1 1 0 0.04186837974828847 0 0 1 1 0.33359079844560302 0 1 1 0.16754548471292063 0.31442999597046356 0.1931721002940964 0 0 0 0 0 0 0 1:-0.999344 2:0.6 3:-0.766862 4:-1 5:-0.971193 6:-0.112857 7:-0.666323 8:0.471451 9:-1 10:-0.51145 11:-0.191489 12:0.991326 13:-0.584989 
-1 -1 -0 -1 -0.075144730654836747 -0.083335346837533755 -1 -1 -0 -0 -0.05517330988356399 1 1 0.95051413015641939 0 0 0 0.04828198452929091 0.95897873854124038 0.87968936812731469 0.92912837919668301 0 0 0 0 0 1 0.88279464622899051 0.0013024229480608461 0.021996432403952295 0.98498057502699121 0 0 0 0.87765411720082886 0 0 0 0 0 0 0 1:-0.998104 2:-0.6 3:-0.52346 4:1 5:-0.674897 6:-0.0959954 7:0.207003 8:-0.492966 9:-0.826087 10:-0.862595 11:0.276596 12:0.97196 13:-0.342163 
-1 -0 -1 -1 -0 -0.088365141186290103 -1 -0 -0 -1 -0 1 1 0 0 0 0 1 0 0 0.23094152477286553 1 0 0 0 0 0 0.85300385568285775 0.1315578554253512 0 1 0.34038097374486714 0 0.11378207132165789 0 0 0 0 0 0 0 0 1:-0.9997 2:0.6 3:-0.904692 4:-1 5:-1 6:0.0228013 7:-0.410917 8:0.447608 9:-1 10:-0.793893 11:0.191489 12:0.721116 13:-0.381898 
-1 -1 -0 -0 -0 -0 -1 -0 -0 -1 -0.18841217926647044 1 1 1 0 0 0 0 0 0 0 0 0 0 0 0 0 0 0 0 0 0 0 0 0 0 0 0 0 0 0 0 1:-0.996972 2:-1 3:-0.0131965 4:-1 5:-0.786008 6:-0.145813 7:0.134912 8:-0.0560249 9:-0.73913 10:-0.610687 11:-0.276596 12:1 13:-0.221302 
-1 -1 -0 -1 -1 -1 -1 -0.15991915884216601 -1 -1 -1 1 1 1 1 1 0 1 0 1 0 1 0 1 0 1 1 0 0.75417829098264177 0.29915218086171191 0 0 0.050518965334859632 0 0 0.039166555156663313 0 0 0 0 0 0 1:-0.992288 2:-1 3:-0.307918 4:-1 5:-0.345679 6:-0.0760682 7:0.520082 8:-0.64119 9:-0.73913 10:-0.553435 11:0.234043 12:0.996672 13:-0.545254 
-1 -1 -0 -1 -0 -1 -1 -0 -0 -1 -0 1 1 0 0 0 0 0 1 1 0 0 0 0 0 0 0 0 0 0 0 0 0 0 0 0 0 0 0 0 0 0 1:-0.992249 2:-1 3:-0.492669 4:-1 5:-0.555556 6:-0.0496264 7:-0.0319258 8:-0.346816 9:-0.652174 10:-0.618321 11:0.489362 12:1 13:-0.67053 
-1 -1 -0 -1 -0 -1 -1 -0 -0 -1 -0 1 1 0 0 0 0 0 1 1 0.7416481049994349 0.56420138100342876 0.048474419050335435 0 0 0 0 0 0.20391369897579867 0 0 0.48341201204544321 0 0.11711240994511268 0.51028163331065601 0 0 0 0 0 0 0 1:-0.999302 2:-1 3:-0.653226 4:-1 5:-0.465021 6:0.0534585 7:-0.266735 8:-0.0308541 9:-0.652174 10:-0.858779 11:0.617021 12:0.962177 13:-0.722958 
-1 -1 -0 -0.28064442044906024 -0.24355723902661164 -1 -1 -0 -0 -0.11265892799936261 -0 1 1 0 0 0 0 0 1 0.78336243786986415 0.056076917235255264 0.68787474539896509 0 0 0 0 0 1 1 0 0 0 0 0 0 0 0 0 0 0 0 0 1:-0.999399 2:-1 3:-0.653226 4:-1 5:-0.465021 6:-0.0427285 7:-0.291452 8:-0.330248 9:-0.652174 10:-0.858779 11:0.617021 12:0.996167 13:-0.625828 
-1 -0 -0.40193544663643327 -0 -0 -0 -1 -0 -0 -1 -0 0 1 0 0 0 0 0.034414094554635594 0 0 0 0 0 0 0 0 0 0 0 0 0.33692237784965129 0 0 0 0 0 0 0 0 0 0 0 1:-0.997746 2:0.6 3:-0.893695 4:-1 5:-0.884774 6:-0.089864 7:-0.658084 8:0.719776 9:-0.73913 10:-0.438931 11:1 12:0.894801 13:-0.788079 
-0 -1 -0 -0 -0 -0 -0 -1 -1 -1 -1 1 1 1 1 1 1 0 0 0 0 0 0 0 1 0 1 0 0 0 0 0 0 0 0 0 1 1 1 1 0.62495619442220884 0 1:-0.917457 2:-1 3:0.293255 4:-1 5:0.584362 6:-0.309829 7:0.92173 8:-0.822859 9:1 10:0.828244 11:0.617021 12:0.918755 13:-0.533113 
-0 -1 -0 -0 -0 -0 -0 -1 -1 -0 -1 1 1 1 1 1 1 0 0 0 0 0 0 0 1 0 1 0 0 0 0 0 0 0 0 0 1 1 1 1 1 0.3627703829658474 1:-0.729304 2:-1 3:0.293255 4:-1 5:-0.0576132 6:-0.20023 7:0.744593 8:-0.850576 9:1 10:0.828244 11:0.617021 12:0.468707 13:-0.317329 
-0 -1 -0 -0 -0 -0 -0.089543521468701953 -0 -1 -1 -1 1 1 1 1 1 1 0 0 0 0 0 0 0 1 0 1 0 0 0 0 0 0 0 0 0 1 1 1 0.94289854177333021 1 0.55630992165022553 1:-0.847255 2:-1 3:0.293255 4:-1 5:0.349794 6:-0.0342978 7:0.678682 8:-0.71121 9:1 10:0.828244 11:0.617021 12:1 13:-0.284216 
-0 -1 -0 -0 -0 -0 -1 -1 -1 -0.97334437607976498 -1 1 1 1 1 1 1 0 0.061128277922039322 0.16751056526600544 0 0.54733992467147441 0 0 1 0.34702103914439875 1 1 0.0028768533292026252 0 0 0 0.10765241582053665 0.032392541205191819 0 0 1 1 1 0 0 0 1:-0.869285 2:-1 3:0.293255 4:-1 5:0.349794 6:0.131251 7:0.791967 8:-0.695914 9:1 10:0.828244 11:0.617021 12:0.984467 13:-0.527594 
-0 -1 -0 -0 -0 -0 -1 -0 -1 -0 -1 1 1 1 1 1 1 0 0 0 0 0 0 0 1 0 0 0 0 0 0 0 0 0 0 0 1 1 1 0 0.29737522614784601 0.064148485822798695 1:-0.70622 2:-1 3:0.293255 4:-1 5:-0.197531 6:-0.175321 7:0.108136 8:-0.691895 9:1 10:0.828244 11:0.617021 12:1 13:-0.280905 
-1 -1 -0 -0 -0 -0 -1 -0 -0.67961912289121618 -0 -0 1 1 1 1 1 1 0 0 1 0 0 0 0 1 0 0 0 0 0 0 0.17217161261576758 0 0 0.094489688903963059 0 1 1 0.51549881057317926 0 0 0 1:-0.946673 2:-1 3:0.293255 4:-1 5:-0.185185 6:-0.114773 7:-0.196704 8:-0.528158 9:1 10:0.828244 11:0.617021 12:0.868022 13:-0.359272 
-0.40165314389837153 -1 -0 -0 -0 -0 -1 -0.24815251897775753 -1 -0 -0.87123997782459994 1 1 1 1 1 1 0 0 1 0 0 0 0 0.41355288477003699 0 0.75942740340711123 0.14020805580019302 0 0 0 0 0 0 0 0 1 1 0 0 0 0 1:-0.891439 2:-1 3:0.293255 4:-1 5:-0.185185 6:-0.101744 7:0.0360453 8:-0.632133 9:1 10:0.828244 11:0.617021 12:0.956226 13:-0.463576 
-0 -0.69845975650973757 -0 -0 -0 -0 -1 -0.020973725338256435 -0.34225431665322625 -1 -1 1 1 1 1 1 0.55790274550533081 0 0 0 0 0 0 0 0.42192817271107452 0 0 0 0 0 0 0 0 0 0 0 1 1 0.95709100820605719 0 0 0 1:-0.99764 2:-1 3:1 4:-1 5:-0.0781893 6:-0.0718528 7:0.660144 8:-0.821713 9:-0.73913 10:1 11:0.595745 12:1 13:-0.35872 
-1 -1 -0 -0 -0 -0.33018043173038236 -1 -0 -0 -1 -1 1 1 1 1 0.43704287258399427 0 0 0 0 0 0 0.067481615007494736 0 0 0 0.61921811003103533 0 0 0.1127189910735813 0 0 0 0 0 0 0 0 0 0 0 0 1:-0.999124 2:-1 3:-0.159091 4:-1 5:-0.226337 6:-0.0193524 7:0.520082 8:-0.789413 9:-1 10:-0.671756 11:0.787234 12:1 13:-0.594371 
-1 -1 -0 -0 -0 -0 -1 -0 -0 -1 -0 -1 1 0 0 0 0 0 0 0.39148252287434376 0 0 0 0 0 0 0 0 0 0 0 0 0 0 0 0 0 0 0 0 0 0 1:-0.986039 2:-1 3:-0.43695 4:-1 5:-0.37037 6:-0.128952 7:0.104016 8:-0.387282 9:-0.73913 10:-0.541985 11:0.787234 12:0.993545 13:-0.628035 
-1 -1 -0 -0 -0 -0 -1 -0 -1 -1 -0 -1 1 1 0 0 0 0 0 0 0 0 0 0 0 0 0 0 0 0 0 0 0 0 0 0 0 0 0 0 0 0 1:-0.980989 2:-1 3:-0.43695 4:-1 5:-0.37037 6:-0.0787507 7:0.777549 8:-0.475725 9:-0.73913 10:-0.541985 11:0.787234 12:0.977962 13:-0.33223 
-1 -1 -0 -1 -0 -1 -1 -0 -0 -1 -0 -1 1 0 0 0 0 0 0.4429065329679191 1 0 0 0 0 0 0 0 1 0 0 0.49044129898684735 0 0 0 0 0 0 0 0 0 0 0 1:-0.996289 2:-1 3:-0.527126 4:-1 5:-0.740741 6:-0.187201 7:-0.363543 8:-0.277833 9:-0.826087 10:-0.824427 11:0.12766 12:1 13:-0.532009 
-1 -1 -0 -0 -0 -0 -1 -0 -0 -1 -0 -1 1 1 0 0 0 0 0 0 0 0 0 0 0 0 0 0 0 0 0 0 0 0 0 0 0 0 0 0 0 0 1:-0.995202 2:-1 3:-0.527126 4:-1 5:-0.740741 6:-0.217858 7:0.217302 8:-0.0982731 9:-0.826087 10:-0.824427 11:0.12766 12:1 13:-0.201435 
-1 -1 -1 -1 -1 -1 -1 -0 -0.39898331247616525 -1 -0 -1 1 0.9907944748238624 0 0 0 1 0 0 0.96975750248930592 1 0.063305060931842766 0.17857616091580367 0 0 0 1 0.12677583587685631 0.20740581011703002 1 0 0.13665345832480527 0 0 0.49677403444826229 0 0 0 0 0 0 1:-0.998147 2:-0.58 3:-0.620235 4:-1 5:-0.777778 6:-0.0795171 7:-0.118435 8:0.0339459 9:-0.73913 10:-0.78626 11:-0.106383 12:0.993242 13:-0.353201 
-1 -1 -1 -1 -0 -0.90942637737625376 -1 -0 -1 -1 -0 -1 1 0 0 0 0 1 1 1 0 1 0 0 0 0 0.30481692597153626 1 0 0 1 0 0 0 0 0 0 0 0 0 0 0 1:-0.99782 2:-0.5 3:-0.657625 4:-1 5:-0.720165 6:-0.0933129 7:-0.0875386 8:0.0552792 9:-0.391304 10:-0.629771 11:0.510638 12:1 13:-0.586645 
-1 -1 -1 -1 -1 -1 -1 -0.97385166604163032 -0.099318604878958411 -1 -0 -1 1 0.14467399292894131 0 0 0 1 0.52554057235550899 0.46226802434443348 1 1 0 0.42067520285840121 0 0 1 1 1 0 1 0.77579374047880856 1 0.88867099483228718 0 0.15689348341827736 0 0 0 0 0 0 1:-0.999158 2:0.6 3:-0.786657 4:-1 5:-0.946502 6:-0.146963 7:-0.419156 8:-0.00300994 9:-0.73913 10:-0.427481 11:-0.255319 12:1 13:-0.530353 
-1 -1 -0 -0 -0 -0 -1 -0 -0 -1 -0 -1 1 0 1 0 0 0 0 0 0 0 0 0 0 0 0 0 0 0 0 0 0 0 0 0 0 0 0 0 0 0 1:-0.995385 2:-1 3:-0.406158 4:-1 5:-0.444444 6:-0.0128377 7:0.740474 8:-0.711719 9:-0.652174 10:-0.248092 11:0.765957 12:0.987745 13:-0.353753 
-0 -0 -0 -0 -0 -0 -1 -0 -1 -1 -0.73651163867521241 -1 1 1 1 1 0 0 0 0 0 0 0 0 0 0 0 0 0 0 0 0 0 0 0 0 0 0 0 0 0 0 1:-0.997161 2:-1 3:-0.406158 4:-1 5:-0.444444 6:-0.122437 7:0.932029 8:-0.822259 9:-0.652174 10:-0.248092 11:0.765957 12:0.985627 13:-0.186534 
-0 -0 -0 -0 -0 -0 -1 -0 -0.52695399421477562 -1 -0 -1 1 1 1 1 0.58992907228242109 0 0 0 0 0 0 0 0.57810240318764916 0 0 0 0 0 0 0 0 0 0 0 0 0 0 0 0 0 1:-0.996294 2:-1 3:-0.406158 4:-1 5:-0.444444 6:-0.128185 7:0.833162 8:-0.803326 9:-0.652174 10:-0.248092 11:0.765957 12:0.993797 13:-0.0656733 
-1 -1 -0 -0 -0 -1 -1 -0.41077486269562846 -0.8837761146167652 -1 -0 -1 1 0 1 0.50909778543909201 0 0 0.83824300351193293 0 0 0 0.44398503544748247 0 0 0.38794554891919864 1 0 0.77022455044382165 0.098116221199846143 0 0 0 0.34641471011608344 0 0 0 0 0 0 0 0 1:-0.997264 2:-1 3:-0.406158 4:-1 5:-0.444444 6:0.116306 7:0.940268 8:-0.76297 9:-0.652174 10:-0.248092 11:0.765957 12:0.991628 13:-0.418322 
-0.75750286966837166 -0.74221440023579777 -0 -0 -0 -0 -1 -0 -1 -1 -0 -1 1 1 1 1 0 0 0 0 0 0 0 0 0 0 0 0 0 0 0 0 0 0 0 0 0 0 0 0 0 0 1:-0.994216 2:-1 3:-0.406158 4:-1 5:-0.444444 6:0.0224181 7:0.818744 8:-0.742564 9:-0.652174 10:-0.248092 11:0.765957 12:0.971406 13:-0.237307 
-1 -1 -0 -0 -0.77110073809480861 -0.32500507657205563 -1 -1 -0 -1 -1 -1 1 0 0 0 0 0 0 0 0 0.93074317653096761 0 0 0 0 1 1 0 0 0 0 0 0 0 0 0 0 0 0 0 0 1:-0.996748 2:-1 3:-0.299853 4:-1 5:-0.333333 6:-0.0572907 7:0.641607 8:-0.705772 9:-0.565217 10:-0.0648855 11:0.106383 12:0.987947 13:-0.527042 
-1 -1 -0 -0 -0 -0 -1 -0 -0 -0 -0 -1 1 0 0.87911525515550926 0 0 0 0 0 0 0 0 0 0 0 0 0 0 0 0 0 0 0 0 0 0 0 0 0 0 0 1:-0.996888 2:-1 3:-0.299853 4:-1 5:-0.333333 6:-0.168423 7:0.283213 8:-0.703626 9:-0.565217 10:-0.0648855 11:0.106383 12:0.972767 13:-0.344371 
-0 -1 -0 -0 -0 -0 -1 -0 -0 -1 -1 -1 1 1 1 1 0 0 0 0.52844049062484122 0 0 0 0 0 0 0 0 0 0 0 0 0 0 0 0 0 0 0 0 0 0 1:-0.992498 2:-1 3:0.571114 4:-1 5:-0.0164609 6:0.110174 7:0.977343 8:-0.820149 9:-0.73913 10:-0.0458015 11:0.829787 12:0.99062 13:-0.40011 
-0 -1 -0 -0 -0 -0 -1 -0 -0 -1 -1 -1 1 1 1 1 0 0 0 0 0 0 0 0 0 0 0 0 0 0 0 0 0 0 0 0 0 0 0 0 0 0 1:-0.973325 2:-1 3:0.571114 4:-1 5:-0.0164609 6:0.05959 7:0.952626 8:-0.792414 9:-0.73913 10:-0.0458015 11:0.829787 12:1 13:-0.418874 
-0 -1 -0 -0 -0.25407923153746037 -0 -1 -0.13356636790205523 -1 -0 -1 -1 1 1 1 1 0 0.14295499268391498 0 0 0 0 0 0.56827431693554376 0.85359218031258577 0 1 0 0 0 0 0 0 0 0 0 0 0.34179228552624741 0 0 0.062410693200197882 0 1:-0.966506 2:-1 3:0.40176 4:-1 5:1 6:-0.293734 7:1 8:-0.915976 9:-0.652174 10:-0.175573 11:-0.553191 12:0.721116 13:-0.362583 
-0 -0.63292644914659957 -0 -0 -0.27485828182216709 -0 -1 -0 -1 -0.59536751492319007 -1 -0.78608287357715889 1 1 1 1 0.90264706072052081 0.027058428485575964 0 0 0 0 0 0 1 0 1 0 0 0 0 0 0.20788347797557169 0 0 0 1 1 1 0.14779258145453414 0 0.033073110604591803 1:-0.95183 2:-1 3:0.40176 4:-1 5:1 6:-0.176854 7:0.969104 8:-0.910229 9:-0.652174 10:-0.175573 11:-0.553191 12:0.319431 13:-0.224062 
-0.74710374110304045 -1 -0 -0 -0 -0.25992943969717724 -1 -1 -0.11127263812134817 -0.40323856966876392 -1 -1 1 1 1 0.29834613788573067 0 1 0 1 0 0.82805251801405344 0 0 0 1 1 0.17724752324412976 0 0 0 0 0.25786067084528114 0.0010602587074690951 0 0.10288093001641585 0 0 0 0 0 0 1:-0.948127 2:-1 3:0.40176 4:-1 5:-0.0946502 6:-0.111324 7:0.944387 8:-0.771008 9:-0.652174 10:-0.175573 11:-0.553191 12:0.754047 13:-0.431567 
-0.81813682292312961 -1 -0 -1 -0 -0 -1 -1 -1 -0.40445435213877828 -1 -1 1 1 1 0.19255607667517741 0 0 0.67376712857810928 0.43582555569291392 0.45844847664159705 0 0 0 0 0 1 0.27041796329419215 0 0 0.46121549483885615 0 0 0 0.60011546647667124 0 0 0 0 0 0 0 1:-0.991695 2:-1 3:-0.257331 4:1 5:-0.572016 6:-0.293734 7:0.765191 8:-0.538888 9:-0.73913 10:-0.656489 11:0.276596 12:0.991628 13:0.227925 
-1 -1 -0 -1 -1 -1 -1 -1 -0 -1 -1 -1 1 0.6891069276544094 0 0 0 0.48230176320110973 0 0 0 0.45657955506281206 0.15039852866180006 0.71230301116472883 0 0.1752189252750638 1 0 1 0.56508526553761285 0.17983814677157767 0 0.94604973173705831 0.38875650614985463 0 0.2024019468951114 0 0 0 0 0 0 1:-0.994259 2:-1 3:-0.307918 4:-1 5:-0.345679 6:-0.0565242 7:0.802266 8:-0.690022 9:-0.73913 10:-0.553435 11:0.234043 12:0.996974 13:-0.448675 
-1 -1 -0 -0 -0 -0 -1 -0 -0 -1 -0.84644197250862929 -1 1 1 0 0 0 0 0 0 0 0 0 0 0 0 0 0 0 0 0 0 0 0 0 0 0 0 0 0 0 0 1:-0.99463 2:-1 3:-0.307918 4:-1 5:-0.345679 6:-0.148879 7:0.417096 8:-0.472197 9:-0.73913 10:-0.553435 11:0.234043 12:1 13:-0.215784 
-1 -1 -0 -0.59899230763647171 -0 -0 -1 -0 -0 -0 -0 -1 1 0 0 0 0 0.34768481562939924 0.53483789913219471 0.39693239549965276 0 0.12776133471155873 0 0 0 0 0.083914595359901825 1 0 0 0.86850505940271883 0 0 0 0 0 0 0 0 0 0 0 1:-0.998655 2:-1 3:-0.796188 4:-1 5:-0.691358 6:-0.115923 7:-0.528321 8:-0.257063 9:-0.73913 10:-0.0725191 11:-0.0851064 12:0.927077 13:-0.545254 
-1 -1 -1 -1 -0.56035053119242317 -0.50563910635451337 -1 -0 -0.40070603456322657 -0.45956980372857664 -0 -1 1 0 0 0 0 1 1 1 0 1 0.13291598608625671 0.76871955739110887 0 0.29142555809988402 1 1 0.28804844655577833 0 1 0.22420625952119136 0 0 0.58766344732582243 0.041049605221932989 0 0 0 0 0 0 1:-0.999121 2:-1 3:-0.796188 4:-1 5:-0.691358 6:-0.0101552 7:-0.396498 8:-0.137211 9:-0.73913 10:-0.0725191 11:-0.0851064 12:0.857128 13:-0.593819 
-1 -1 -1 -1 -0.47652132870933334 -1 -1 -0.218202373270766 -0 -1 -0 -1 1 0 0 0 0 1 1 1 1 1 0.20939538887261791 0.35145175073441348 0 0.10848833574030367 1 1 1 0 1 1 0.45155266111728354 0.37509753019430581 0.81222108619750633 0 0 0 0 0 0 0 1:-0.999363 2:-0.3 3:-0.589443 4:-1 5:-0.782305 6:-0.0534585 7:-0.579815 8:0.00230065 9:-1 10:-0.553435 11:-0.0851064 12:0.825256 13:-0.663355 
-1 -1 -0 -0 -0 -1 -1 -0 -0 -1 -0 -1 1 0 0 0 0 0 0.98470486345433506 1 0 0 0 0 0 0 0 0 0 0 0 0 0 0 0 0 0 0 0 0 0 0 1:-0.999372 2:-1 3:-0.653226 4:-1 5:-0.465021 6:-0.115539 7:-0.106076 8:-0.254063 9:-0.652174 10:-0.858779 11:0.617021 12:1 13:-0.554636 
-1 -1 -0 -0.40100769236352829 -0.66308988864380747 -1 -1 -0.39522271739245418 -0 -1 -0 -1 1 0 0 0 0 0 1 1 0.57179402086909703 0.65686341568060813 0 0 0 0 0 1 0.81495116712354376 0.12939270314551099 0 0 0 0 0 0 0 0 0 0 0 0 1:-0.998906 2:-1 3:-0.653226 4:-1 5:-0.465021 6:-0.0710864 7:-0.124614 8:-0.330248 9:-0.652174 10:-0.858779 11:0.617021 12:1 13:-0.557947 
-0 -0.15646889617501455 -0 -0 -0 -0 -0 -0 -0.56006307490774854 -0 -1 -0 0 1 1 1 1 0 0 0 0 0 0 0 1 0 1 0 0 0 0 0 0 0 0 0 1 1 1 0.85220741854546589 0.93758930679980212 0.097818719783421257 1:-0.913892 2:-1 3:0.293255 4:-1 5:0.584362 6:0.0308488 7:0.816684 8:-0.787958 9:1 10:0.828244 11:0.617021 12:0.766756 13:-0.312362 
-0 -1 -0 -0 -0 -0 -0 -1 -0 -0 -1 -1 0.25036652244267593 0.24326157897323616 1 1 1 0 0 0.39747812324587922 0 0 0 0 0.56830541649976507 0.023536663092398678 1 0.33515166347220982 0 0 0 0 0 0 0 0 1 1 0.64124272364289681 0 0 0 1:-0.850543 2:-1 3:0.293255 4:-1 5:0.349794 6:0.056141 7:0.649846 8:-0.708136 9:1 10:0.828244 11:0.617021 12:1 13:-0.3234 
-1 -1 -0 -0 -0 -0 -1 -0 -0 -0 -0.3941835328369665 -1 1 1 1 1 0 0 0 1 0 0 0 0 1 0 0 0.2171828499894683 0 0 0 0 0 0 0 0 1 1 0 0 0 0.15243556638851263 1:-0.929026 2:-1 3:0.293255 4:-1 5:0.111111 6:-0.157693 7:-0.0669413 8:-0.647737 9:1 10:0.828244 11:0.617021 12:0.684805 13:-0.315673 
