svm_type one_class
kernel_type linear
nr_class 2
total_sv 255
rho 807.2369127550603
SV
1 1:-0.998157 2:-0.75 3:-0.456745 4:-1 5:-0.427984 6:-0.0607396 7:0.312049 8:-0.194155 9:-0.652174 10:-0.526718 11:-0.446809 12:0.993444 13:-0.409492 
1 1:-0.996893 2:-0.75 3:-0.456745 4:-1 5:-0.427984 6:0.000574823 7:0.91967 8:-0.123226 9:-0.652174 10:-0.526718 11:-0.446809 12:1 13:-0.0386313 
1 1:-0.995393 2:-0.75 3:-0.456745 4:-1 5:-0.427984 6:-0.206745 7:1 8:-0.0992916 9:-0.652174 10:-0.526718 11:-0.446809 12:0.948207 13:0.556291 
1 1:-0.99632 2:-0.75 3:-0.456745 4:-1 5:-0.427984 6:-0.0638053 7:0.709578 8:-0.00653821 9:-0.652174 10:-0.526718 11:-0.446809 12:0.948611 13:-0.151766 
1 1:-0.995087 2:-0.75 3:-0.456745 4:-1 5:-0.427984 6:0.0791339 7:0.882595 8:-0.051169 9:-0.652174 10:-0.526718 11:-0.446809 12:0.977911 13:0.0331126 
1 1:-0.997501 2:-0.75 3:-0.456745 4:-1 5:-0.427984 6:-0.0618893 7:0.647786 8:-0.0729933 9:-0.652174 10:-0.526718 11:-0.446809 12:1 13:-0.363135 
1 1:-0.998034 2:-0.75 3:-0.456745 4:-1 5:-0.427984 6:-0.107875 7:-0.256437 8:-0.214088 9:-0.652174 10:-0.526718 11:-0.446809 12:0.967724 13:-0.228477 
1 1:-0.982098 2:-1 3:-0.43695 4:-1 5:-0.37037 6:-0.273807 7:-0.30587 8:-0.514972 9:-0.73913 10:-0.541985 11:0.787234 12:0.455797 13:-0.450331 
1 1:-0.968941 2:-1 3:-0.43695 4:-1 5:-0.37037 6:-0.0844989 7:0.629248 8:-0.479781 9:-0.73913 10:-0.541985 11:0.787234 12:0.171416 13:0.433775 
1 1:-0.963887 2:-1 3:-0.43695 4:-1 5:-0.37037 6:-0.0285495 7:0.936148 8:-0.521647 9:-0.73913 10:-0.541985 11:0.787234 12:0.250643 13:0.0270419 
1 1:-0.999521 2:0.5 3:-0.817449 4:-1 5:-0.823045 6:0.162675 7:-0.610711 8:-0.223145 9:-0.826087 10:-0.751908 11:0.212766 12:0.993595 13:-0.857064 
1 1:-0.999387 2:0.5 3:-0.817449 4:-1 5:-0.823045 6:0.327074 7:-0.734295 8:-0.223145 9:-0.826087 10:-0.751908 11:0.212766 12:0.993545 13:-0.986203 
1 1:-0.996961 2:-1 3:-0.527126 4:-1 5:-0.740741 6:-0.000574823 7:-0.92379 8:-0.164983 9:-0.826087 10:-0.824427 11:0.12766 12:0.931767 13:-0.774834 
1 1:-0.99656 2:-1 3:-0.527126 4:-1 5:-0.740741 6:0.0155202 7:-0.92585 8:-0.164983 9:-0.826087 10:-0.824427 11:0.12766 12:0.987695 13:-0.684879 
1 1:-0.998147 2:-0.58 3:-0.620235 4:-1 5:-0.777778 6:-0.0795171 7:-0.118435 8:0.0339459 9:-0.73913 10:-0.78626 11:-0.106383 12:0.993242 13:-0.353201 
1 1:-0.999167 2:-0.58 3:-0.620235 4:-1 5:-0.777778 6:-0.0212684 7:0.237899 8:0.0339459 9:-0.73913 10:-0.78626 11:-0.106383 12:0.985224 13:-0.575055 
1 1:-0.998937 2:-0.58 3:-0.620235 4:-1 5:-0.777778 6:0.130485 7:-0.625129 8:0.0339459 9:-0.73913 10:-0.78626 11:-0.106383 12:1 13:-0.804084 
1 1:-0.999022 2:-0.58 3:-0.620235 4:-1 5:-0.777778 6:-0.0661046 7:-0.61895 8:0.0339459 9:-0.73913 10:-0.78626 11:-0.106383 12:1 13:-0.630243 
1 1:-0.999836 2:0.5 3:-0.740469 4:-1 5:-0.897119 6:-0.108258 7:-0.0792997 8:0.12579 9:-0.826087 10:0.0763359 11:0.808511 12:1 13:-0.278698 
1 1:-0.999847 2:0.8 3:-0.944282 4:-1 5:-0.925926 6:0.413298 7:-0.608651 8:0.376206 9:-0.652174 10:-0.851145 11:0.12766 12:0.995108 13:-0.830022 
1 1:-0.99968 2:0.7 3:-0.979472 4:-1 5:-0.897119 6:0.0814332 7:-0.324408 8:0.465504 9:-0.913043 10:-0.519084 11:2.22045e-16 12:1 13:-0.777042 
1 1:-0.99982 2:1 3:-0.93695 4:-1 5:-0.893004 6:0.247365 7:-0.225541 8:0.308587 9:-0.652174 10:-0.736641 11:-0.468085 12:0.979828 13:-0.877483 
1 1:-0.99667 2:-0.5 3:-0.657625 4:-1 5:-0.720165 6:-0.00977199 7:-0.45829 8:0.215834 9:-0.391304 10:-0.629771 11:0.510638 12:0.968632 13:-0.716887 
1 1:-0.99782 2:-0.5 3:-0.657625 4:-1 5:-0.720165 6:-0.0933129 7:-0.0875386 8:0.0552792 9:-0.391304 10:-0.629771 11:0.510638 12:1 13:-0.586645 
1 1:-0.996785 2:-0.5 3:-0.657625 4:-1 5:-0.720165 6:-0.164591 7:0.303811 8:0.10864 9:-0.391304 10:-0.629771 11:0.510638 12:0.990973 13:-0.369757 
1 1:-0.997298 2:-0.5 3:-0.657625 4:-1 5:-0.720165 6:0.226672 7:-0.165808 8:0.246042 9:-0.391304 10:-0.629771 11:0.510638 12:0.993343 13:-0.571192 
1 1:-0.999703 2:-0.65 3:-0.932551 4:-1 5:-0.872016 6:0.357731 7:0.165808 8:0.471924 9:-0.826087 10:-0.889313 11:0.276596 12:0.981542 13:-0.651214 
1 1:-0.999336 2:0.6 3:-0.786657 4:-1 5:-0.946502 6:0.0457942 7:-0.6931 8:-0.00300994 9:-0.73913 10:-0.427481 11:-0.255319 12:1 13:-0.837748 
1 1:-0.999158 2:0.6 3:-0.786657 4:-1 5:-0.946502 6:-0.146963 7:-0.419156 8:-0.00300994 9:-0.73913 10:-0.427481 11:-0.255319 12:1 13:-0.530353 
1 1:-0.998841 2:-0.75 3:-0.58871 4:-1 5:-0.901235 6:-0.11209 7:-0.61895 8:-0.0236521 9:-0.73913 10:-0.396947 11:0.340426 12:0.99652 13:-0.648455 
1 1:-0.997095 2:-0.75 3:-0.58871 4:-1 5:-0.901235 6:-0.220924 7:-0.301751 8:-0.0236521 9:-0.73913 10:-0.396947 11:0.340426 12:1 13:-0.373068 
1 1:-0.99932 2:-0.5 3:-0.677419 4:-1 5:-0.831276 6:0.0503928 7:-0.396498 8:-0.223217 9:-0.73913 10:-0.641221 11:0.361702 12:1 13:-0.724614 
1 1:-0.999197 2:-0.44 3:0.068915 4:-1 5:-0.674897 6:0.104043 7:0.0442842 8:-0.538725 9:-0.73913 10:-0.683206 11:0.191489 12:0.990469 13:-0.645143 
1 1:-0.999496 2:-0.44 3:0.068915 4:-1 5:-0.674897 6:0.0155202 7:-0.46447 8:-0.538725 9:-0.73913 10:-0.683206 11:0.191489 12:0.997125 13:-0.752759 
1 1:-0.995 2:-1 3:-0.406158 4:-1 5:-0.444444 6:0.089864 7:0.699279 8:-0.711719 9:-0.652174 10:-0.248092 11:0.765957 12:-0.644561 13:-0.50883 
1 1:-0.978198 2:-1 3:0.571114 4:-1 5:-0.0164609 6:-0.158459 7:0.967044 8:-0.778774 9:-0.73913 10:-0.0458015 11:0.829787 12:0.323516 13:-0.140177 
1 1:-0.925486 2:-1 3:0.40176 4:1 5:1 6:-0.294118 7:1 8:-0.965081 9:-0.652174 10:-0.175573 11:-0.553191 12:1 13:0.384658 
1 1:-0.908034 2:-1 3:0.40176 4:-1 5:1 6:-0.269209 7:1 8:-0.948676 9:-0.652174 10:-0.175573 11:-0.553191 12:1 13:0.362583 
1 1:-0.937655 2:-1 3:0.40176 4:-1 5:1 6:-0.485725 7:0.954686 8:-0.960662 9:-0.652174 10:-0.175573 11:-0.553191 12:1 13:0.520971 
1 1:-0.946656 2:-1 3:0.40176 4:-1 5:1 6:-0.0155202 7:1 8:-0.947349 9:-0.652174 10:-0.175573 11:-0.553191 12:-0.129608 13:0.438742 
1 1:-0.951698 2:-1 3:0.40176 4:-1 5:1 6:-0.207894 7:1 8:-0.929617 9:-0.652174 10:-0.175573 11:-0.553191 12:-0.147965 13:-0.1766 
1 1:-0.946897 2:-1 3:0.40176 4:-1 5:1 6:-0.476911 7:0.911432 8:-0.939765 9:-0.652174 10:-0.175573 11:-0.553191 12:0.973826 13:0.534216 
1 1:-0.947743 2:-1 3:0.40176 4:-1 5:1 6:-0.377275 7:0.872297 8:-0.927252 9:-0.652174 10:-0.175573 11:-0.553191 12:0.798729 13:0.467439 
1 1:-0.938684 2:-1 3:0.40176 4:-1 5:1 6:-0.219774 7:0.894954 8:-0.927962 9:-0.652174 10:-0.175573 11:-0.553191 12:0.772808 13:0.0883002 
1 1:-0.962903 2:-1 3:0.40176 4:-1 5:1 6:-0.0185859 7:0.944387 8:-0.911175 9:-0.652174 10:-0.175573 11:-0.553191 12:0.878461 13:-0.317329 
1 1:-0.966506 2:-1 3:0.40176 4:-1 5:1 6:-0.293734 7:1 8:-0.915976 9:-0.652174 10:-0.175573 11:-0.553191 12:0.721116 13:-0.362583 
1 1:-0.974817 2:-1 3:0.40176 4:1 5:1 6:-0.443955 7:0.752832 8:-0.912594 9:-0.652174 10:-0.175573 11:-0.553191 12:0.729588 13:-0.4266 
1 1:-0.95183 2:-1 3:0.40176 4:-1 5:1 6:-0.176854 7:0.969104 8:-0.910229 9:-0.652174 10:-0.175573 11:-0.553191 12:0.319431 13:-0.224062 
1 1:-0.968359 2:-1 3:0.40176 4:1 5:1 6:-0.0159034 7:0.917611 8:-0.887277 9:-0.652174 10:-0.175573 11:-0.553191 12:0.617328 13:-0.261038 
1 1:-0.920677 2:-1 3:0.40176 4:1 5:1 6:-0.00708948 7:0.641607 8:-0.887987 9:-0.652174 10:-0.175573 11:-0.553191 12:-0.557769 13:-0.266556 
1 1:-0.945142 2:-1 3:0.40176 4:-1 5:1 6:-0.344319 7:0.876416 8:-0.889642 9:-0.652174 10:-0.175573 11:-0.553191 12:-0.554642 13:-0.204746 
0.37190650785238305 1:-0.968108 2:-1 3:0.40176 4:-1 5:1 6:0.130102 7:1 8:-0.884276 9:-0.652174 10:-0.175573 11:-0.553191 12:0.835645 13:-0.687638 
1 1:-0.971515 2:-1 3:0.40176 4:1 5:-0.0946502 6:0.0304656 7:0.84758 8:-0.878366 9:-0.652174 10:-0.175573 11:-0.553191 12:0.7076 13:-0.791943 
1 1:-0.95892 2:-1 3:0.40176 4:1 5:-0.0946502 6:0.625216 7:0.962925 8:-0.834299 9:-0.652174 10:-0.175573 11:-0.553191 12:0.963236 13:-0.989514 
1 1:-0.965995 2:-1 3:0.40176 4:1 5:-0.0946502 6:0.844798 7:0.874356 8:-0.812238 9:-0.652174 10:-0.175573 11:-0.553191 12:0.957386 13:-0.912252 
1 1:-0.934412 2:-1 3:0.40176 4:-1 5:-0.0946502 6:-0.0266335 7:0.855819 8:-0.790159 9:-0.652174 10:-0.175573 11:-0.553191 12:0.209542 13:-0.554084 
1 1:-0.959673 2:-1 3:0.40176 4:-1 5:-0.0946502 6:-0.112474 7:0.571576 8:-0.764243 9:-0.652174 10:-0.175573 11:-0.553191 12:0.14625 13:-0.425497 
1 1:-0.94843 2:-1 3:0.40176 4:-1 5:-0.0946502 6:0.0569075 7:0.91967 8:-0.823514 9:-0.652174 10:-0.175573 11:-0.553191 12:0.496646 13:-0.482892 
1 1:-0.973 2:-1 3:0.40176 4:-1 5:-0.0946502 6:-0.11324 7:0.888774 8:-0.764243 9:-0.652174 10:-0.175573 11:-0.553191 12:0.472439 13:-0.299117 
1 1:-0.998372 2:-0.1 3:-0.781525 4:-1 5:-0.786008 6:0.234336 7:-0.213182 8:-0.516409 9:-0.652174 10:-0.194656 11:-0.446809 12:0.984719 13:-0.726821 
1 1:-0.997314 2:-0.1 3:-0.781525 4:-1 5:-0.786008 6:0.147729 7:-0.46035 8:-0.374897 9:-0.652174 10:-0.194656 11:-0.446809 12:0.929094 13:-0.843819 
1 1:-0.998261 2:-0.1 3:-0.781525 4:-1 5:-0.786008 6:0.388772 7:-0.258496 8:-0.374897 9:-0.652174 10:-0.194656 11:-0.446809 12:1 13:-0.798013 
1 1:-0.998104 2:-0.1 3:-0.781525 4:-1 5:-0.786008 6:0.299099 7:-0.61689 8:-0.0269621 9:-0.652174 10:-0.194656 11:-0.446809 12:0.903071 13:-0.814018 
1 1:-0.998589 2:-0.1 3:-0.781525 4:-1 5:-0.786008 6:0.217858 7:-0.425335 8:-0.0269621 9:-0.652174 10:-0.194656 11:-0.446809 12:0.96374 13:-0.836645 
1 1:-0.998194 2:-0.1 3:-0.781525 4:-1 5:-0.786008 6:0.386089 7:-0.518023 8:-0.0269621 9:-0.652174 10:-0.194656 11:-0.446809 12:0.967674 13:-0.937086 
1 1:-0.99965 2:0.2 3:-0.818915 4:-1 5:-0.934156 6:0.241234 7:-0.855819 8:-0.0742846 9:-1 10:-0.70229 11:-0.361702 12:0.982198 13:-0.817881 
1 1:-0.999819 2:0.2 3:-0.818915 4:-1 5:-0.934156 6:0.166124 7:-0.672503 8:-0.0742846 9:-1 10:-0.70229 11:-0.361702 12:0.898129 13:-0.853753 
1 1:-0.999832 2:0.6 3:-1 4:-1 5:-0.847737 6:0.65319 7:-0.400618 8:-0.178168 9:-0.73913 10:-0.740458 11:-0.617021 12:0.986535 13:-0.931567 
1 1:-0.99924 2:0.6 3:-0.922287 4:-1 5:-0.921811 6:0.42786 7:-0.357364 8:0.123844 9:-0.913043 10:-0.458015 11:-1 12:1 13:-0.870309 
1 1:-0.999093 2:0.6 3:-0.922287 4:-1 5:-0.921811 6:0.358881 7:-0.30587 8:0.123844 9:-0.913043 10:-0.458015 11:-1 12:0.785214 13:-0.620309 
1 1:-0.999295 2:0.6 3:-0.922287 4:-1 5:-0.921811 6:0.422878 7:-0.270855 8:0.123844 9:-0.913043 10:-0.458015 11:-1 12:0.976297 13:-0.730132 
1 1:-0.999434 2:0.9 3:-0.925953 4:-1 5:-0.925926 6:0.308297 7:-0.744593 8:0.18648 9:-0.826087 10:-0.179389 11:-0.0638298 12:1 13:-0.843819 
1 1:-0.999742 2:0.9 3:-0.925953 4:-1 5:-0.925926 6:0.369611 7:-0.773429 8:0.18648 9:-0.826087 10:-0.179389 11:-0.0638298 12:0.936457 13:-0.84989 
1 1:-0.999368 2:0.65 3:-0.884897 4:-1 5:-0.876543 6:-0.00325733 7:-0.268795 8:-0.0651184 9:-0.913043 10:-0.385496 11:-0.553191 12:0.984215 13:-0.68543 
1 1:-0.999653 2:0.65 3:-0.884897 4:-1 5:-0.876543 6:0.551638 7:-0.736354 8:-0.0651184 9:-0.913043 10:-0.385496 11:-0.553191 12:0.992334 13:-0.923841 
1 1:-0.999353 2:0.9 3:-0.837243 4:-1 5:-0.872016 6:0.64476 7:-0.375901 8:-0.274632 9:-0.73913 10:-0.858779 11:-0.553191 12:0.979222 13:-0.88521 
1 1:-0.99969 2:0.9 3:-0.837243 4:-1 5:-0.872016 6:0.714121 7:-0.402678 8:-0.274632 9:-0.73913 10:-0.858779 11:-0.553191 12:0.967976 13:-0.936534 
1 1:-0.997088 2:-1 3:-0.257331 4:1 5:-0.572016 6:-0.0408124 7:0.15757 8:-0.434459 9:-0.73913 10:-0.656489 11:0.276596 12:0.921428 13:-0.286424 
1 1:-0.990348 2:-1 3:-0.257331 4:1 5:-0.572016 6:-0.316727 7:1 8:-0.500696 9:-0.73913 10:-0.656489 11:0.276596 12:1 13:0.178808 
1 1:-0.99622 2:-1 3:-0.257331 4:1 5:-0.572016 6:-0.0806668 7:0.837281 8:-0.500314 9:-0.73913 10:-0.656489 11:0.276596 12:0.981593 13:-0.142384 
1 1:-0.991695 2:-1 3:-0.257331 4:1 5:-0.572016 6:-0.293734 7:0.765191 8:-0.538888 9:-0.73913 10:-0.656489 11:0.276596 12:0.991628 13:0.227925 
1 1:-0.99526 2:-1 3:-0.257331 4:1 5:-0.572016 6:-0.139299 7:0.0484037 8:-0.541143 9:-0.73913 10:-0.656489 11:0.276596 12:0.969943 13:-0.210817 
1 1:-0.993633 2:-1 3:-0.257331 4:-1 5:-0.572016 6:-0.290669 7:-0.857878 8:-0.552983 9:-0.73913 10:-0.656489 11:0.276596 12:0.758082 13:0.53532 
1 1:-0.999117 2:-1 3:-0.0153959 4:1 5:-0.320988 6:-0.108258 7:0.0937178 8:-0.639444 9:-0.652174 10:-0.660305 11:-0.191489 12:0.979323 13:-0.34989 
1 1:-0.997654 2:-1 3:-0.0153959 4:1 5:-0.320988 6:-0.0841157 7:0.872297 8:-0.679964 9:-0.652174 10:-0.660305 11:-0.191489 12:1 13:-0.106512 
1 1:-0.997574 2:-1 3:-0.0153959 4:1 5:-0.320988 6:0.0776011 7:0.84346 8:-0.593758 9:-0.652174 10:-0.660305 11:-0.191489 12:0.984064 13:-0.516004 
1 1:-0.992092 2:-1 3:-0.579179 4:1 5:-0.497942 6:0.299099 7:0.763131 8:-0.684984 9:-0.391304 10:-0.541985 11:0.0212766 12:0.973776 13:-0.559603 
1 1:-0.990977 2:-1 3:-0.579179 4:1 5:-0.497942 6:-0.0024909 7:0.820803 8:-0.651102 9:-0.391304 10:-0.541985 11:0.0212766 12:0.991628 13:0.0888521 
1 1:-0.986125 2:-1 3:-0.579179 4:1 5:-0.497942 6:0.271508 7:0.54068 8:-0.610345 9:-0.391304 10:-0.541985 11:0.0212766 12:0.967169 13:-0.547461 
1 1:-0.990073 2:-1 3:-0.579179 4:1 5:-0.497942 6:0.212876 7:0.30999 8:-0.541271 9:-0.391304 10:-0.541985 11:0.0212766 12:0.814918 13:-0.651214 
1 1:-0.98844 2:-1 3:-0.579179 4:1 5:-0.497942 6:0.176471 7:0.515963 8:-0.451045 9:-0.391304 10:-0.541985 11:0.0212766 12:0.957386 13:-0.568985 
1 1:-0.998289 2:-0.4 3:-0.672287 4:-1 5:-0.823045 6:0.118988 7:-0.678682 8:-0.0796861 9:-0.565217 10:-0.568702 11:-0.148936 12:0.911796 13:-0.744481 
1 1:-0.998062 2:-0.4 3:-0.672287 4:-1 5:-0.823045 6:0.16689 7:-0.190525 8:-0.0796861 9:-0.565217 10:-0.568702 11:-0.148936 12:0.933834 13:-0.688742 
1 1:-0.997595 2:-0.4 3:-0.672287 4:-1 5:-0.823045 6:0.278406 7:0.0587024 8:-0.0530968 9:-0.565217 10:-0.568702 11:-0.148936 12:0.971506 13:-0.467439 
1 1:-0.997757 2:-0.4 3:-0.672287 4:-1 5:-0.823045 6:-0.0289327 7:0.281153 8:-0.0530968 9:-0.565217 10:-0.568702 11:-0.148936 12:0.988502 13:-0.411148 
1 1:-0.997829 2:-0.4 3:-0.672287 4:-1 5:-0.823045 6:0.0718528 7:0.0298661 8:0.0741027 9:-0.565217 10:-0.568702 11:-0.148936 12:0.878209 13:-0.476269 
1 1:-0.997274 2:-0.4 3:-0.672287 4:-1 5:-0.823045 6:0.0852654 7:-0.899073 8:0.0741027 9:-0.565217 10:-0.568702 11:-0.148936 12:0.888093 13:-0.809051 
1 1:-0.995509 2:-0.56 3:-0.604106 4:-1 5:-0.8107 6:-0.221307 7:0.515963 8:0.241313 9:-0.478261 10:-0.454198 11:0.382979 12:0.876897 13:-0.405629 
1 1:-0.995841 2:-0.56 3:-0.604106 4:-1 5:-0.8107 6:-0.216708 7:0.3862 8:0.241313 9:-0.478261 10:-0.454198 11:0.382979 12:0.960815 13:-0.0767108 
1 1:-0.992503 2:-0.56 3:-0.604106 4:-1 5:-0.8107 6:-0.0239509 7:-0.340886 8:0.25961 9:-0.478261 10:-0.454198 11:0.382979 12:0.96611 13:-0.589956 
1 1:-0.995723 2:-0.56 3:-0.604106 4:-1 5:-0.8107 6:0.0212684 7:0.571576 8:0.25961 9:-0.478261 10:-0.454198 11:0.382979 12:0.895305 13:-0.53532 
1 1:-0.996447 2:-0.56 3:-0.604106 4:-1 5:-0.8107 6:0.100594 7:-0.0484037 8:0.217961 9:-0.478261 10:-0.454198 11:0.382979 12:0.888093 13:-0.570088 
1 1:-0.995855 2:-0.56 3:-0.604106 4:-1 5:-0.8107 6:0.20981 7:-0.699279 8:0.217961 9:-0.478261 10:-0.454198 11:0.382979 12:0.984064 13:-0.733444 
1 1:-0.996988 2:-0.56 3:-0.604106 4:-1 5:-0.8107 6:0.121288 7:-0.791967 8:0.139794 9:-0.478261 10:-0.454198 11:0.382979 12:0.996873 13:-0.769868 
1 1:-0.995329 2:-0.56 3:-0.604106 4:-1 5:-0.8107 6:0.10251 7:-0.876416 8:0.139794 9:-0.478261 10:-0.454198 11:0.382979 12:0.899995 13:-0.897351 
1 1:-0.998294 2:-0.56 3:-0.604106 4:-1 5:-0.8107 6:0.301399 7:-0.91967 8:0.414417 9:-0.478261 10:-0.454198 11:0.382979 12:0.945484 13:-0.900662 
1 1:-0.991848 2:-0.56 3:-0.604106 4:-1 5:-0.8107 6:0.800345 7:-0.886715 8:0.414417 9:-0.478261 10:-0.454198 11:0.382979 12:1 13:-0.90011 
1 1:-0.999059 2:0.6 3:-0.766862 4:-1 5:-0.971193 6:-0.0239509 7:-0.400618 8:0.471451 9:-1 10:-0.51145 11:-0.191489 12:0.979777 13:-0.732892 
1 1:-0.999344 2:0.6 3:-0.766862 4:-1 5:-0.971193 6:-0.112857 7:-0.666323 8:0.471451 9:-1 10:-0.51145 11:-0.191489 12:0.991326 13:-0.584989 
1 1:-0.999796 2:0.8 3:-0.758798 4:-1 5:-0.962963 6:0.491857 7:-0.355304 8:-0.0530968 9:-0.826087 10:-0.782443 11:-0.297872 12:0.946745 13:-0.923841 
1 1:-0.983021 2:-0.6 3:-0.742669 4:-1 5:0.0781893 6:-0.233953 7:0.23378 8:-0.844156 9:-0.652174 10:-0.706107 11:-0.914894 12:0.977306 13:-0.518764 
1 1:-0.98248 2:-0.6 3:-0.742669 4:-1 5:0.0781893 6:0.323242 7:0.682801 8:-0.81753 9:-0.652174 10:-0.706107 11:-0.914894 12:0.935297 13:-0.279249 
1 1:-0.998104 2:-0.6 3:-0.52346 4:1 5:-0.674897 6:-0.0959954 7:0.207003 8:-0.492966 9:-0.826087 10:-0.862595 11:0.276596 12:0.97196 13:-0.342163 
1 1:-0.993417 2:-0.6 3:-0.52346 4:-1 5:-0.674897 6:-0.120521 7:-0.192585 8:-0.39994 9:-0.826087 10:-0.862595 11:0.276596 12:0.958394 13:-0.378035 
1 1:-0.996498 2:-0.6 3:-0.52346 4:-1 5:-0.674897 6:0.0266335 7:-0.723996 8:-0.39994 9:-0.826087 10:-0.862595 11:0.276596 12:1 13:-0.731788 
1 1:-0.995154 2:-0.6 3:-0.52346 4:1 5:-0.674897 6:0.582679 7:0.00720906 8:-0.411307 9:-0.826087 10:-0.862595 11:0.276596 12:0.969086 13:-0.73234 
1 1:-0.998873 2:-0.2 3:-0.563783 4:1 5:-0.744856 6:0.225139 7:-0.38208 8:-0.463849 9:-0.73913 10:-0.744275 11:0.0638298 12:1 13:-0.900662 
1 1:-0.997983 2:-0.2 3:-0.563783 4:-1 5:-0.744856 6:0.261928 7:-0.178167 8:-0.429348 9:-0.73913 10:-0.744275 11:0.0638298 12:1 13:-0.931015 
1 1:-0.997789 2:-0.2 3:-0.563783 4:1 5:-0.744856 6:0.420195 7:-0.0504634 8:-0.334794 9:-0.73913 10:-0.744275 11:0.0638298 12:0.96142 13:-0.761589 
1 1:-0.998765 2:-0.2 3:-0.563783 4:1 5:-0.744856 6:0.251198 7:-0.491246 8:-0.321045 9:-0.73913 10:-0.744275 11:0.0638298 12:0.982601 13:-0.865894 
1 1:-0.998349 2:-0.2 3:-0.563783 4:-1 5:-0.744856 6:0.119372 7:-0.398558 8:-0.452446 9:-0.73913 10:-0.744275 11:0.0638298 12:1 13:-0.698675 
1 1:-0.999309 2:-0.6 3:-0.789589 4:-1 5:-0.761728 6:0.305614 7:-0.293512 8:-0.251589 9:-0.652174 10:-0.889313 11:-0.510638 12:0.976449 13:-0.842163 
1 1:-0.998764 2:-0.6 3:-0.789589 4:1 5:-0.761728 6:0.565051 7:-0.0360453 8:-0.257554 9:-0.652174 10:-0.889313 11:-0.510638 12:0.899995 13:-0.92936 
1 1:-0.999805 2:0.8 3:-0.945015 4:1 5:-0.934156 6:0.671585 7:-0.548919 8:-0.135138 9:-1 10:-0.958015 11:-0.787234 12:0.99304 13:-0.921082 
1 1:-0.999938 2:0.8 3:-0.815982 4:-1 5:-0.938272 6:0.3516 7:-0.631308 8:0.123535 9:-1 10:-0.625954 11:-0.425532 12:0.989006 13:-0.662252 
1 1:-0.999896 2:0.1 3:-0.868768 4:-1 5:-0.983539 6:0.108258 7:-0.402678 8:0.123535 9:-1 10:-0.568702 11:-0.425532 12:0.989006 13:-0.64128 
1 1:-0.9997 2:0.6 3:-0.904692 4:-1 5:-1 6:0.0228013 7:-0.410917 8:0.447608 9:-1 10:-0.793893 11:0.191489 12:0.721116 13:-0.381898 
1 1:-0.999272 2:0.05 3:-0.643695 4:-1 5:-0.917695 6:0.0147538 7:-0.415036 8:0.125335 9:-0.565217 10:-0.59542 11:-0.148936 12:1 13:-0.701435 
1 1:-0.99911 2:0.05 3:-0.643695 4:-1 5:-0.917695 6:0.0553746 7:-0.120494 8:0.125335 9:-0.565217 10:-0.59542 11:-0.148936 12:1 13:-0.676049 
1 1:-0.999176 2:0.05 3:-0.643695 4:-1 5:-0.917695 6:0.151178 7:-0.588054 8:0.125335 9:-0.565217 10:-0.59542 11:-0.148936 12:0.873014 13:-0.57064 
1 1:-0.999355 2:0.6 3:-0.670821 4:-1 5:-0.893004 6:0.26461 7:-0.485067 8:-0.274868 9:-0.73913 10:-0.778626 11:0.404255 12:1 13:-0.9117 
1 1:-0.998369 2:0.6 3:-0.670821 4:-1 5:-0.893004 6:0.374593 7:-0.489186 8:-0.274868 9:-0.73913 10:-0.778626 11:0.404255 12:1 13:-0.899007 
1 1:-0.999329 2:0.6 3:-0.670821 4:-1 5:-0.893004 6:0.176087 7:-0.577755 8:-0.274868 9:-0.73913 10:-0.778626 11:0.404255 12:1 13:-0.836093 
1 1:-0.998284 2:-1 3:-0.0131965 4:-1 5:-0.786008 6:-0.0166699 7:-0.680742 8:-0.204667 9:-0.73913 10:-0.610687 11:-0.276596 12:1 13:-0.621965 
0.6356580911824834 1:-0.997235 2:-1 3:-0.0131965 4:-1 5:-0.786008 6:0.194482 7:-0.419156 8:-0.121425 9:-0.73913 10:-0.610687 11:-0.276596 12:1 13:-0.749448 
1 1:-0.996972 2:-1 3:-0.0131965 4:-1 5:-0.786008 6:-0.145813 7:0.134912 8:-0.0560249 9:-0.73913 10:-0.610687 11:-0.276596 12:1 13:-0.221302 
1 1:-0.998689 2:0.4 3:-0.869501 4:-1 5:-0.938272 6:0.066871 7:-0.645726 8:0.218198 9:-0.652174 10:-0.347328 11:-0.531915 12:0.855464 13:-0.821192 
1 1:-0.998892 2:0.4 3:-0.869501 4:-1 5:-0.938272 6:0.333589 7:-0.853759 8:0.218198 9:-0.652174 10:-0.347328 11:-0.531915 12:0.872308 13:-0.833885 
1 1:-0.999149 2:0.4 3:-0.869501 4:-1 5:-0.938272 6:0.268442 7:-0.0834192 8:0.218198 9:-0.652174 10:-0.347328 11:-0.531915 12:0.96954 13:-0.760486 
1 1:-0.999347 2:-0.32 3:-0.587243 4:-1 5:-0.802469 6:0.160759 7:-0.2276 8:-0.206667 9:-0.478261 10:-0.458015 11:-0.255319 12:0.9942 13:-0.571192 
1 1:-0.998059 2:-0.32 3:-0.587243 4:-1 5:-0.802469 6:0.124353 7:-0.680742 8:-0.206667 9:-0.478261 10:-0.458015 11:-0.255319 12:0.932977 13:-0.616998 
1 1:-0.997894 2:-0.32 3:-0.587243 4:-1 5:-0.802469 6:0.310979 7:-0.69516 8:-0.206667 9:-0.478261 10:-0.458015 11:-0.255319 12:0.967371 13:-0.827263 
1 1:-0.999013 2:-0.3 3:-0.589443 4:-1 5:-0.782305 6:-0.178003 7:-0.474768 8:0.00230065 9:-1 10:-0.553435 11:-0.0851064 12:0.985476 13:-0.409492 
1 1:-0.999363 2:-0.3 3:-0.589443 4:-1 5:-0.782305 6:-0.0534585 7:-0.579815 8:0.00230065 9:-1 10:-0.553435 11:-0.0851064 12:0.825256 13:-0.663355 
1 1:-0.99985 2:-0.3 3:-0.922287 4:-1 5:-0.765432 6:0.410232 7:-0.0442842 8:0.0745392 9:-1 10:-0.629771 11:-0.382979 12:0.989107 13:-0.792494 
1 1:-0.99957 2:0.1 3:-0.756598 4:-1 5:-0.592593 6:0.20138 7:0.101957 8:-0.162946 9:-0.652174 10:-0.301527 11:0.0638298 12:1 13:-0.699227 
1 1:-0.999457 2:0.1 3:-0.756598 4:-1 5:-0.592593 6:0.269592 7:-0.480947 8:-0.0295811 9:-0.652174 10:-0.301527 11:0.0638298 12:0.954965 13:-0.84106 
1 1:-0.998757 2:-1 3:-0.711877 4:-1 5:-0.765432 6:-0.104426 7:0.0175077 8:0.251989 9:-0.826087 10:-0.370229 11:0.319149 12:0.837158 13:-0.396247 
1 1:-0.999722 2:0.7 3:-0.729472 4:-1 5:-0.81893 6:0.132401 7:-0.489186 8:0.34687 9:-0.73913 10:-0.374046 11:0.12766 12:0.977457 13:-0.744481 
1 1:-0.999805 2:0.6 3:-0.886364 4:-1 5:-0.794239 6:0.178003 7:-0.447992 8:0.312079 9:-0.73913 10:-0.645038 11:-0.0638298 12:0.969943 13:-0.764901 
1 1:-0.99949 2:-0.2 3:-0.942082 4:-1 5:-0.81893 6:0.294501 7:-0.349125 8:0.393575 9:-1 10:-0.435115 11:0.510638 12:0.964446 13:-0.770419 
1 1:-0.998746 2:-0.2 3:-0.942082 4:-1 5:-0.81893 6:0.122437 7:-0.145211 8:0.393575 9:-1 10:-0.435115 11:0.510638 12:1 13:-0.765453 
1 1:-0.998355 2:0.2 3:-0.909824 4:-1 5:-0.893004 6:0.156543 7:-0.320288 8:0.742437 9:-0.73913 10:-0.145038 11:0.212766 12:0.868274 13:-0.792494 
1 1:-0.998514 2:0.2 3:-0.909824 4:-1 5:-0.893004 6:-0.109791 7:-0.678682 8:0.742437 9:-0.73913 10:-0.145038 11:0.212766 12:0.976953 13:-0.665563 
1 1:-0.999758 2:0.8 3:-0.88563 4:-1 5:-0.897119 6:0.213642 7:-0.316169 8:1 9:-0.652174 10:-1 11:-0.0638298 12:0.937264 13:-0.84713 
1 1:-0.999175 2:0.6 3:-0.893695 4:-1 5:-0.884774 6:-0.194482 7:-0.608651 8:0.719776 9:-0.73913 10:-0.438931 11:1 12:0.928892 13:-0.651214 
1 1:-0.997746 2:0.6 3:-0.893695 4:-1 5:-0.884774 6:-0.089864 7:-0.658084 8:0.719776 9:-0.73913 10:-0.438931 11:1 12:0.894801 13:-0.788079 
1 1:-0.798209 2:-1 3:0.293255 4:1 5:0.584362 6:0.0159034 7:0.946447 8:-0.819476 9:1 10:0.828244 11:0.617021 12:0.903323 13:-0.124172 
1 1:-0.913603 2:-1 3:0.293255 4:1 5:0.584362 6:0.0860318 7:0.814624 8:-0.74982 9:1 10:0.828244 11:0.617021 12:0.97196 13:-0.363135 
1 1:-0.883209 2:-1 3:0.293255 4:1 5:0.584362 6:-0.0166699 7:0.658084 8:-0.710264 9:1 10:0.828244 11:0.617021 12:0.992587 13:-0.461921 
1 1:-0.913892 2:-1 3:0.293255 4:-1 5:0.584362 6:0.0308488 7:0.816684 8:-0.787958 9:1 10:0.828244 11:0.617021 12:0.766756 13:-0.312362 
1 1:-0.905225 2:-1 3:0.293255 4:1 5:0.584362 6:-0.140832 7:0.773429 8:-0.859033 9:1 10:0.828244 11:0.617021 12:0.778809 13:-0.287528 
1 1:-0.922042 2:-1 3:0.293255 4:1 5:0.37037 6:1 7:0.647786 8:-0.859033 9:1 10:0.828244 11:0.617021 12:0.786424 13:-0.803532 
1 1:-0.917036 2:-1 3:0.293255 4:-1 5:0.37037 6:-0.462732 7:0.822863 8:-0.88675 9:1 10:0.828244 11:0.617021 12:0.592163 13:-0.322848 
1 1:-0.69617 2:-1 3:0.293255 4:-1 5:0.0123457 6:-0.884269 7:1 8:-0.930708 9:1 10:0.828244 11:0.617021 12:-0.338847 13:-0.359823 
1 1:-0.872684 2:-1 3:0.293255 4:1 5:0.0123457 6:0.196398 7:0.934089 8:-0.958697 9:1 10:0.828244 11:0.617021 12:0.89122 13:-0.889625 
1 1:-0.853154 2:-1 3:0.293255 4:1 5:0.0123457 6:0.324008 7:0.948507 8:-0.98676 9:1 10:0.828244 11:0.617021 12:0.975541 13:-0.932119 
1 1:-0.814298 2:-1 3:0.293255 4:1 5:0.164609 6:-0.11324 7:0.785788 8:-1 9:1 10:0.828244 11:0.617021 12:0.752786 13:-0.605408 
1 1:-0.750437 2:-1 3:0.293255 4:-1 5:0.164609 6:-0.484576 7:1 8:-0.991889 9:1 10:0.828244 11:0.617021 12:1 13:0.8234 
1 1:-0.584311 2:-1 3:0.293255 4:-1 5:0.164609 6:-0.778885 7:1 8:-0.998654 9:1 10:0.828244 11:0.617021 12:1 13:1 
1 1:-0.656475 2:-1 3:0.293255 4:-1 5:0.176955 6:0.183368 7:0.861998 8:-0.960844 9:1 10:0.828244 11:0.617021 12:0.829139 13:0.187086 
1 1:-0.468542 2:-1 3:0.293255 4:-1 5:0.176955 6:0.0802836 7:0.92173 8:-0.95335 9:1 10:0.828244 11:0.617021 12:1 13:0.211921 
1 1:-0.598507 2:-1 3:0.293255 4:-1 5:0.176955 6:0.0201188 7:1 8:-0.95335 9:1 10:0.828244 11:0.617021 12:0.984064 13:0.106512 
1 1:1 2:-1 3:0.293255 4:-1 5:0.176955 6:0.305614 7:0.833162 8:-0.947822 9:1 10:0.828244 11:0.617021 12:1 13:-0.145695 
1 1:-0.643293 2:-1 3:0.293255 4:-1 5:0.176955 6:0.143514 7:0.981462 8:-0.929144 9:1 10:0.828244 11:0.617021 12:1 13:0.0678808 
1 1:-0.793622 2:-1 3:0.293255 4:-1 5:0.296296 6:-0.24315 7:1 8:-0.918013 9:1 10:0.828244 11:0.617021 12:1 13:0.206954 
1 1:-0.548643 2:-1 3:0.293255 4:-1 5:0.296296 6:-0.690745 7:0.818744 8:-0.943639 9:1 10:0.828244 11:0.617021 12:0.439861 13:0.594923 
1 1:-0.622221 2:-1 3:0.293255 4:-1 5:0.296296 6:-0.342403 7:0.960865 8:-0.946076 9:1 10:0.828244 11:0.617021 12:1 13:0.604857 
1 1:-0.451781 2:-1 3:0.293255 4:-1 5:0.296296 6:-0.581912 7:1 8:-0.938601 9:1 10:0.828244 11:0.617021 12:1 13:0.465232 
1 1:-0.49217 2:-1 3:0.293255 4:-1 5:0.296296 6:-0.448553 7:0.783728 8:-0.929289 9:1 10:0.828244 11:0.617021 12:1 13:0.669978 
1 1:-0.677927 2:-1 3:0.293255 4:-1 5:0.296296 6:-0.494539 7:1 8:-0.916358 9:1 10:0.828244 11:0.617021 12:0.879066 13:0.594371 
1 1:-0.881157 2:-1 3:0.293255 4:-1 5:0.296296 6:-0.0457942 7:0.639547 8:-0.811183 9:1 10:0.828244 11:0.617021 12:0.906601 13:-0.0601545 
1 1:-0.739876 2:-1 3:0.293255 4:-1 5:0.296296 6:-0.434758 7:0.938208 8:-0.883531 9:1 10:0.828244 11:0.617021 12:1 13:0.321744 
1 1:-0.138012 2:-1 3:0.293255 4:-1 5:0.26749 6:-0.274957 7:1 8:-0.934527 9:1 10:0.828244 11:0.617021 12:1 13:0.592715 
1 1:-0.777223 2:-1 3:0.293255 4:-1 5:0.26749 6:-0.122054 7:0.542739 8:-0.932563 9:1 10:0.828244 11:0.617021 12:0.703767 13:0.558499 
1 1:-0.437118 2:-1 3:0.293255 4:-1 5:0.26749 6:-0.07032 7:1 8:-0.916486 9:1 10:0.828244 11:0.617021 12:1 13:0.381898 
1 1:-0.680119 2:-1 3:0.293255 4:-1 5:0.26749 6:0.0661046 7:1 8:-0.919159 9:1 10:0.828244 11:0.617021 12:1 13:0.0259382 
1 1:-0.784435 2:-1 3:0.293255 4:-1 5:0.26749 6:0.0894807 7:1 8:-0.907356 9:1 10:0.828244 11:0.617021 12:0.895154 13:0.0253863 
1 1:-0.442612 2:-1 3:0.293255 4:-1 5:0.26749 6:-0.314811 7:0.917611 8:-0.895752 9:1 10:0.828244 11:0.617021 12:1 13:-0.00441501 
1 1:-0.0665857 2:-1 3:0.293255 4:-1 5:0.26749 6:-0.245066 7:0.699279 8:-0.913103 9:1 10:0.828244 11:0.617021 12:0.659892 13:0.415563 
1 1:0.526685 2:-1 3:0.293255 4:-1 5:0.26749 6:-0.186817 7:1 8:-0.946203 9:1 10:0.828244 11:0.617021 12:0.939836 13:0.172737 
1 1:-0.534452 2:-1 3:0.293255 4:-1 5:0.127572 6:-0.778885 7:1 8:-0.991179 9:1 10:0.828244 11:0.617021 12:0.86545 13:0.192605 
1 1:-0.833706 2:-1 3:0.293255 4:-1 5:-0.127572 6:-0.21211 7:0.956746 8:-0.940874 9:1 10:0.828244 11:0.617021 12:0.585153 13:0.361479 
1 1:-0.675576 2:-1 3:0.293255 4:-1 5:-0.127572 6:0.261161 7:1 8:-0.93891 9:1 10:0.828244 11:0.617021 12:-0.09708 13:-0.00386313 
1 1:0.149366 2:-1 3:0.293255 4:-1 5:-0.127572 6:-0.158459 7:1 8:-0.948458 9:1 10:0.828244 11:0.617021 12:-0.988502 13:-0.537528 
1 1:-0.684289 2:-1 3:0.293255 4:-1 5:-0.127572 6:0.186434 7:1 8:-0.927634 9:1 10:0.828244 11:0.617021 12:-0.824852 13:0.0756071 
1 1:-0.57728 2:-1 3:0.293255 4:-1 5:-0.127572 6:-0.591109 7:1 8:-0.922833 9:1 10:0.828244 11:0.617021 12:-0.856422 13:0.801325 
1 1:-0.355974 2:-1 3:0.293255 4:-1 5:-0.127572 6:-0.389155 7:1 8:-0.916376 9:1 10:0.828244 11:0.617021 12:0.0623329 13:0.0126932 
1 1:0.0282082 2:-1 3:0.293255 4:-1 5:0.26749 6:-0.63288 7:1 8:-0.903864 9:1 10:0.828244 11:0.617021 12:-0.556458 13:0.945364 
1 1:-0.593609 2:-1 3:0.293255 4:-1 5:0.209877 6:0.100977 7:1 8:-0.871764 9:1 10:0.828244 11:0.617021 12:-0.864189 13:0.507726 
1 1:-0.756594 2:-1 3:0.293255 4:-1 5:0.209877 6:0.234336 7:0.810505 8:-0.874528 9:1 10:0.828244 11:0.617021 12:-0.892834 13:0.327815 
1 1:-0.41701 2:-1 3:0.293255 4:-1 5:0.209877 6:-0.332056 7:0.775489 8:-0.90581 9:1 10:0.828244 11:0.617021 12:-0.359322 13:0.374724 
1 1:0.652869 2:-1 3:0.293255 4:-1 5:0.209877 6:-0.0818164 7:1 8:-0.877602 9:1 10:0.828244 11:0.617021 12:-0.918654 13:0.0424945 
1 1:-0.734607 2:-1 3:0.293255 4:-1 5:0.37037 6:0.250431 7:0.515963 8:-0.879166 9:1 10:0.828244 11:0.617021 12:-0.757275 13:0.159492 
1 1:-0.750903 2:-1 3:0.293255 4:-1 5:0.37037 6:0.0921632 7:1 8:-0.867363 9:1 10:0.828244 11:0.617021 12:0.60588 13:-0.266556 
1 1:-0.842278 2:-1 3:0.293255 4:-1 5:0.37037 6:-0.0630389 7:0.903193 8:-0.864507 9:1 10:0.828244 11:0.617021 12:0.612083 13:-0.229029 
1 1:-0.729304 2:-1 3:0.293255 4:-1 5:-0.0576132 6:-0.20023 7:0.744593 8:-0.850576 9:1 10:0.828244 11:0.617021 12:0.468707 13:-0.317329 
1 1:-0.841652 2:-1 3:0.293255 4:-1 5:-0.0576132 6:-0.025867 7:0.6931 8:-0.837736 9:1 10:0.828244 11:0.617021 12:-0.988905 13:0.189845 
1 1:-0.802499 2:-1 3:0.293255 4:-1 5:-0.18107 6:-0.232037 7:0.394439 8:-0.830152 9:1 10:0.828244 11:0.617021 12:-0.983206 13:-0.148455 
1 1:-0.64361 2:-1 3:0.293255 4:-1 5:0.209877 6:-0.105193 7:0.905252 8:-0.858142 9:1 10:0.828244 11:0.617021 12:-0.962883 13:0.250552 
1 1:-0.724831 2:-1 3:0.293255 4:-1 5:-0.18107 6:-0.127802 7:0.169928 8:-0.842137 9:1 10:0.828244 11:0.617021 12:-0.877301 13:-0.229581 
1 1:-0.153521 2:-1 3:0.293255 4:-1 5:0.209877 6:0.0120713 7:0.561277 8:-0.866635 9:1 10:0.828244 11:0.617021 12:-0.906702 13:-0.29415 
1 1:-0.834533 2:-1 3:0.293255 4:-1 5:0.209877 6:0.00862234 7:0.548919 8:-0.853413 9:1 10:0.828244 11:0.617021 12:-0.513793 13:0.0921634 
1 1:-0.790208 2:-1 3:0.293255 4:-1 5:0.209877 6:0.0802836 7:0.909372 8:-0.847484 9:1 10:0.828244 11:0.617021 12:-0.695396 13:0.233444 
1 1:-0.809243 2:-1 3:0.293255 4:-1 5:-0.18107 6:0.0680207 7:0.713697 8:-0.832116 9:1 10:0.828244 11:0.617021 12:-0.580766 13:-0.121965 
1 1:-0.773946 2:-1 3:0.293255 4:-1 5:-0.18107 6:0.25388 7:0.882595 8:-0.82566 9:1 10:0.828244 11:0.617021 12:-0.591457 13:-0.00883002 
1 1:-0.855283 2:-1 3:0.293255 4:-1 5:-0.18107 6:0.0975283 7:0.480947 8:-0.805254 9:1 10:0.828244 11:0.617021 12:-0.50764 13:-0.431567 
1 1:-0.874682 2:-1 3:0.293255 4:-1 5:0.349794 6:0.101744 7:0.750772 8:-0.784266 9:1 10:0.828244 11:0.617021 12:-0.496344 13:-0.200331 
1 1:-0.687376 2:-1 3:0.293255 4:-1 5:0.349794 6:0.0143706 7:0.897013 8:-0.801289 9:1 10:0.828244 11:0.617021 12:-0.494125 13:-0.258278 
1 1:-0.749262 2:-1 3:0.293255 4:-1 5:0.460905 6:0.175704 7:0.888774 8:-0.819022 9:1 10:0.828244 11:0.617021 12:-0.447627 13:0.188742 
1 1:-0.675969 2:-1 3:0.293255 4:-1 5:0.460905 6:0.111324 7:0.861998 8:-0.841228 9:1 10:0.828244 11:0.617021 12:-0.862978 13:-0.0993377 
1 1:-0.658966 2:-1 3:0.293255 4:-1 5:0.460905 6:-0.00708948 7:1 8:-0.857305 9:1 10:0.828244 11:0.617021 12:-0.954612 13:0.364238 
1 1:-0.692665 2:-1 3:0.293255 4:-1 5:0.460905 6:-0.0902472 7:0.750772 8:-0.874328 9:1 10:0.828244 11:0.617021 12:-0.653891 13:0.782009 
1 1:-0.789045 2:-1 3:0.293255 4:-1 5:0.460905 6:-0.208277 7:0.874356 8:-0.874947 9:1 10:0.828244 11:0.617021 12:1 13:0.167219 
1 1:-0.504444 2:-1 3:0.293255 4:-1 5:0.460905 6:-0.135083 7:0.84346 8:-0.866035 9:1 10:0.828244 11:0.617021 12:0.972515 13:0.124724 
1 1:-0.781547 2:-1 3:0.293255 4:-1 5:0.460905 6:0.0902472 7:0.942327 8:-0.829861 9:1 10:0.828244 11:0.617021 12:0.944828 13:-0.0182119 
1 1:-0.776099 2:-1 3:0.293255 4:-1 5:0.460905 6:0.120521 7:1 8:-0.845629 9:1 10:0.828244 11:0.617021 12:0.948711 13:-0.0551876 
1 1:-0.712353 2:-1 3:0.293255 4:-1 5:0.460905 6:-0.121288 7:0.929969 8:-0.860688 9:1 10:0.828244 11:0.617021 12:0.211357 13:0.217439 
1 1:-0.760245 2:-1 3:0.293255 4:-1 5:0.460905 6:0.110558 7:0.892894 8:-0.843901 9:1 10:0.828244 11:0.617021 12:-0.784457 13:0.227925 
1 1:-0.858789 2:-1 3:0.293255 4:-1 5:0.460905 6:0.0653382 7:0.92585 8:-0.828606 9:1 10:0.828244 11:0.617021 12:0.602148 13:-0.113687 
1 1:-0.777036 2:-1 3:0.293255 4:-1 5:0.460905 6:0.0308488 7:0.929969 8:-0.805691 9:1 10:0.828244 11:0.617021 12:0.957739 13:-0.18819 
1 1:-0.830961 2:-1 3:0.293255 4:-1 5:0.349794 6:0.0944625 7:0.964985 8:-0.808055 9:1 10:0.828244 11:0.617021 12:0.532553 13:-0.0298013 
1 1:-0.849131 2:-1 3:0.293255 4:-1 5:0.349794 6:0.22169 7:0.84758 8:-0.782848 9:1 10:0.828244 11:0.617021 12:-1 13:-0.133002 
1 1:-0.877828 2:-1 3:0.293255 4:-1 5:0.349794 6:0.185668 7:0.962925 8:-0.777101 9:1 10:0.828244 11:0.617021 12:0.790156 13:-0.116998 
0.79767955311317762 1:-0.814729 2:-1 3:0.293255 4:-1 5:0.349794 6:0.468481 7:0.985582 8:-0.759369 9:1 10:0.828244 11:0.617021 12:0.893943 13:-0.171634 
1 1:-0.78628 2:-1 3:0.293255 4:-1 5:0.349794 6:0.213642 7:0.878476 8:-0.751475 9:1 10:0.828244 11:0.617021 12:-0.967926 13:-0.0629139 
1 1:-0.893311 2:-1 3:0.293255 4:-1 5:0.349794 6:0.13585 7:0.721936 8:-0.762442 9:1 10:0.828244 11:0.617021 12:-0.744818 13:-0.0949227 
1 1:-0.895189 2:-1 3:0.293255 4:-1 5:0.349794 6:-0.0745354 7:0.750772 8:-0.736107 9:1 10:0.828244 11:0.617021 12:-0.948762 13:-0.0463576 
1 1:-0.815797 2:-1 3:0.293255 4:-1 5:0.349794 6:-0.089864 7:0.594233 8:-0.699988 9:1 10:0.828244 11:0.617021 12:-0.983963 13:-0.160596 
1 1:-0.825876 2:-1 3:0.293255 4:-1 5:0.349794 6:0.0500096 7:0.664264 8:-0.699279 9:1 10:0.828244 11:0.617021 12:0.371174 13:-0.199779 
1 1:-0.891968 2:-1 3:0.293255 4:-1 5:0.349794 6:0.203296 7:0.794027 8:-0.733034 9:1 10:0.828244 11:0.617021 12:0.285541 13:-0.189294 
1 1:-0.823918 2:-1 3:0.293255 4:-1 5:0.111111 6:0.0147538 7:0.287333 8:-0.666488 9:1 10:0.828244 11:0.617021 12:1 13:-0.365894 
1 1:-0.929026 2:-1 3:0.293255 4:-1 5:0.111111 6:-0.157693 7:-0.0669413 8:-0.647737 9:1 10:0.828244 11:0.617021 12:0.684805 13:-0.315673 
1 1:-0.915282 2:-1 3:0.293255 4:-1 5:0.111111 6:-0.0837325 7:0.684861 8:-0.683202 9:1 10:0.828244 11:0.617021 12:-0.890615 13:-0.149007 
1 1:-0.900731 2:-1 3:0.293255 4:-1 5:-0.18107 6:-0.0641885 7:0.886715 8:-0.743437 9:1 10:0.828244 11:0.617021 12:0.669121 13:0.0811258 
1 1:-0.650008 2:-1 3:0.293255 4:-1 5:-0.197531 6:-0.0936961 7:0.402678 8:-0.676491 9:1 10:0.828244 11:0.617021 12:0.857986 13:-0.0949227 
1 1:-0.70622 2:-1 3:0.293255 4:-1 5:-0.197531 6:-0.175321 7:0.108136 8:-0.691895 9:1 10:0.828244 11:0.617021 12:1 13:-0.280905 
0.19475584785195588 1:-0.819052 2:-1 3:0.293255 4:-1 5:-0.18107 6:-0.28492 7:0.905252 8:-0.763533 9:1 10:0.828244 11:0.617021 12:0.776489 13:-0.0943709 
1 1:-0.856428 2:-1 3:0.293255 4:-1 5:-0.18107 6:-0.00325733 7:0.946447 8:-0.804236 9:1 10:0.828244 11:0.617021 12:0.525241 13:0.234547 
1 1:-0.662423 2:-1 3:0.293255 4:-1 5:-0.0576132 6:-0.332056 7:0.944387 8:-0.823387 9:1 10:0.828244 11:0.617021 12:0.760855 13:0.279249 
1 1:-0.936786 2:-1 3:0.293255 4:-1 5:-0.395062 6:-0.156543 7:-0.22966 8:-0.460084 9:1 10:0.828244 11:0.617021 12:0.979928 13:-0.520419 
1 1:-0.946673 2:-1 3:0.293255 4:-1 5:-0.185185 6:-0.114773 7:-0.196704 8:-0.528158 9:1 10:0.828244 11:0.617021 12:0.868022 13:-0.359272 
1 1:-0.91756 2:-1 3:0.293255 4:-1 5:-0.185185 6:0.0542249 7:0.0092688 8:-0.479471 9:1 10:0.828244 11:0.617021 12:0.958243 13:-0.511589 
1 1:-0.891439 2:-1 3:0.293255 4:-1 5:-0.185185 6:-0.101744 7:0.0360453 8:-0.632133 9:1 10:0.828244 11:0.617021 12:0.956226 13:-0.463576 
1 1:-0.995478 2:-1 3:1 4:-1 5:-0.0781893 6:-0.412914 7:0.958805 8:-0.873964 9:-0.73913 10:1 11:0.595745 12:0.604266 13:0.542494 
