svm_type one_class
kernel_type precomputed
nr_class 2
total_sv 81
rho 0.00011299634618627936
SV
1 0:1 
1 0:5 
1 0:6 
1 0:8 
1 0:11 
1 0:15 
1 0:16 
1 0:17 
1 0:18 
0.17998035272070473 0:19 
1 0:20 
1 0:22 
0.0077122509648085954 0:23 
0.28283193092138859 0:25 
1 0:27 
1 0:28 
1 0:29 
1 0:32 
1 0:33 
1 0:34 
0.033078867943877446 0:36 
1 0:37 
1 0:40 
1 0:41 
0.0098231285804469808 0:42 
1 0:44 
1 0:45 
1 0:47 
1 0:50 
1 0:51 
1 0:52 
1 0:53 
1 0:54 
1 0:55 
1 0:56 
1 0:57 
0.81067371343528227 0:58 
1 0:60 
1 0:61 
1 0:62 
1 0:63 
1 0:64 
1 0:65 
1 0:66 
0.99739749611341766 0:67 
0.99952280526356607 0:68 
1 0:69 
1 0:70 
1 0:71 
1 0:72 
1 0:73 
0.84646925954970798 0:74 
1 0:75 
1 0:101 
1 0:103 
1 0:105 
1 0:106 
1 0:108 
1 0:110 
1 0:113 
0.029566302293651533 0:115 
1 0:116 
1 0:118 
1 0:119 
1 0:121 
1 0:123 
1 0:125 
1 0:126 
0.80294389221314821 0:130 
1 0:131 
1 0:132 
1 0:133 
1 0:136 
1 0:137 
1 0:140 
1 0:141 
1 0:142 
1 0:144 
1 0:145 
1 0:146 
1 0:149 
