svm_type nu_svc
kernel_type precomputed
nr_class 3
total_sv 110
rho 0.74467933819477738 0.204461729100096 -1.4319518385194805
label 1 2 3
probA -4.130816582224849 -4.1080073583909273 -4.246891612169005
probB 0.23603213495848446 0.20000653797703788 0.34723048682240709
nr_sv 32 49 29
SV
0.042139276383360222 0.018166074355411062 0:2 
0.042139276383360222 0 0:4 
0.042139276383360222 0.018166074355411062 0:6 
0 0.018166074355411062 0:8 
0.042139276383360222 0 0:9 
0.042139276383360222 0 0:10 
0 0.018166074355411062 0:11 
0.042139276383360222 0 0:13 
0 0.018166074355411062 0:16 
0 0.018166074355411062 0:17 
0.042139276383360222 0.018166074355411062 0:18 
0.042139276383360222 0.018166074355411062 0:19 
0.042139276383360222 0.018166074355411062 0:21 
0.042139276383360222 0.018166074355411062 0:22 
0.042139276383360222 0.018166074355411062 0:24 
0.042139276383360222 0.018166074355411062 0:25 
0.042139276383360222 0.018166074355411062 0:26 
0.042139276383360222 0.018166074355411062 0:27 
0 0.018166074355411062 0:28 
0 0.018166074355411062 0:29 
0.042139276383360222 0.018166074355411062 0:30 
0.042139276383360222 0.018166074355411062 0:31 
0.042139276383360222 0.018166074355411062 0:32 
0.042139276383360222 0 0:35 
0 0.018166074355411062 0:37 
0.042139276383360222 0 0:38 
0.042139276383360222 0.018166074355411062 0:40 
0.042139276383360222 0.018166074355411062 0:42 
0.042139276383360222 0.018166074355411062 0:44 
0.042139276383360222 0.018166074355411062 0:45 
0.042139276383360222 0.018166074355411062 0:46 
0.042139276383360222 0 0:50 
-0 0.31135664219920167 0:51 
-0 0.31135664219920167 0:52 
-0 0.31135664219920167 0:53 
-0 0.27102876848045904 0:54 
-0 0.31135664219920167 0:55 
-0 0.31135664219920167 0:56 
-0 0.31135664219920167 0:57 
-0.042139276383360222 0 0:58 
-0 0.31135664219920167 0:59 
-0.042139276383360222 0 0:60 
-0.042139276383360222 0 0:61 
-0 0.31135664219920167 0:62 
-0.042139276383360222 0 0:63 
-0 0.31135664219920167 0:64 
-0.042139276383360222 0 0:65 
-0 0.31135664219920167 0:66 
-0 0.31135664219920167 0:67 
-0.042139276383360222 0 0:68 
-0 0.31135664219920167 0:69 
-0.042139276383360222 0 0:70 
-0 0.31135664219920167 0:71 
-0.042139276383360222 0 0:72 
-0 0.31135664219920167 0:73 
-0 0.040327873718742642 0:74 
-0 0.31135664219920167 0:76 
-0 0.31135664219920167 0:77 
-0 0.31135664219920167 0:78 
-0 0.31135664219920167 0:79 
-0.042139276383360222 0 0:80 
-0.042139276383360222 0 0:81 
-0.042139276383360222 0 0:82 
-0.042139276383360222 0 0:83 
-0 0.31135664219920167 0:84 
-0.042139276383360222 0.31135664219920167 0:85 
-0.042139276383360222 0.31135664219920167 0:86 
-0 0.31135664219920167 0:87 
-0 0.31135664219920167 0:88 
-0.042139276383360222 0 0:89 
-0.042139276383360222 0 0:90 
-0.042139276383360222 0 0:91 
-0 0.31135664219920167 0:92 
-0.042139276383360222 0 0:93 
-0.042139276383360222 0 0:94 
-0.042139276383360222 0 0:95 
-0.042139276383360222 0 0:96 
-0.042139276383360222 0 0:97 
-0.042139276383360222 0 0:98 
-0.042139276383360222 0 0:99 
-0.042139276383360222 0 0:100 
-0.018166074355411062 -0.31135664219920167 0:102 
-0.018166074355411062 -0.31135664219920167 0:104 
-0.018166074355411062 -0.31135664219920167 0:107 
-0 -0.1606712925368971 0:108 
-0 -0.31135664219920167 0:109 
-0.018166074355411062 -0.31135664219920167 0:111 
-0.018166074355411062 -0.31135664219920167 0:112 
-0.018166074355411062 -0.31135664219920167 0:114 
-0.018166074355411062 -0 0:115 
-0.018166074355411062 -0 0:116 
-0.018166074355411062 -0.31135664219920167 0:117 
-0.018166074355411062 -0.31135664219920167 0:120 
-0.018166074355411062 -0.31135664219920167 0:122 
-0.018166074355411062 -0.31135664219920167 0:124 
-0.0062155504298950191 -0.15068534966230457 0:125 
-0.011950523925516043 -0.31135664219920167 0:126 
-0.018166074355411062 -0.31135664219920167 0:127 
-0.018166074355411062 -0.31135664219920167 0:128 
-0.018166074355411062 -0.31135664219920167 0:130 
-0.018166074355411062 -0.31135664219920167 0:134 
-0.018166074355411062 -0.31135664219920167 0:135 
-0.018166074355411062 -0.31135664219920167 0:138 
-0.018166074355411062 -0.31135664219920167 0:139 
-0 -0.31135664219920167 0:140 
-0.018166074355411062 -0.31135664219920167 0:143 
-0.018166074355411062 -0.31135664219920167 0:147 
-0.018166074355411062 -0.31135664219920167 0:148 
-0.018166074355411062 -0 0:149 
-0.018166074355411062 -0.31135664219920167 0:150 
