svm_type c_svc
kernel_type precomputed
nr_class 2
total_sv 101
rho -1.0506898079181968
label 1 -1
nr_sv 51 50
SV
1 0:3 
1 0:7 
1 0:14 
1 0:29 
1 0:31 
1 0:38 
1 0:41 
1 0:45 
0.88271493528809697 0:47 
1 0:48 
1 0:59 
1 0:62 
1 0:68 
1 0:70 
1 0:92 
0.9831131855959544 0:94 
1 0:98 
1 0:102 
1 0:106 
1 0:109 
1 0:111 
1 0:113 
1 0:117 
1 0:131 
1 0:132 
1 0:138 
1 0:143 
1 0:145 
1 0:147 
1 0:161 
1 0:162 
1 0:170 
0.084800227488567886 0:176 
1 0:178 
1 0:179 
1 0:183 
1 0:204 
1 0:209 
1 0:211 
1 0:227 
0.90587639406226272 0:228 
1 0:231 
1 0:232 
0.22275829767140423 0:234 
0.061044392422659022 0:241 
0.15972920657510298 0:244 
1 0:249 
1 0:253 
1 0:259 
1 0:263 
1 0:265 
-1 0:2 
-1 0:4 
-0.81608810684754329 0:5 
-1 0:6 
-1 0:11 
-1 0:12 
-1 0:15 
-1 0:27 
-1 0:32 
-1 0:61 
-1 0:65 
-1 0:67 
-1 0:75 
-1 0:77 
-1 0:84 
-1 0:85 
-1 0:86 
-1 0:88 
-1 0:97 
-1 0:99 
-1 0:107 
-1 0:125 
-1 0:135 
-0.22126804096011474 0:136 
-1 0:140 
-1 0:144 
-1 0:154 
-1 0:159 
-1 0:165 
-1 0:166 
-1 0:169 
-0.66565403023405911 0:181 
-0.32971304352462788 0:184 
-1 0:185 
-1 0:186 
-1 0:188 
-1 0:189 
-0.4911138222536432 0:195 
-1 0:201 
-1 0:208 
-1 0:210 
-1 0:218 
-1 0:219 
-1 0:226 
-1 0:235 
-1 0:245 
-1 0:257 
-0.77619959528406113 0:260 
-1 0:266 
-1 0:269 
