svm_type nu_svc
kernel_type linear
nr_class 3
total_sv 110
rho 0.74467933819477738 0.204461729100096 -1.4319518385194805
label 1 2 3
nr_sv 32 49 29
SV
0.042139276383360222 0.018166074355411062 1:-0.666667 2:-0.166667 3:-0.864407 4:-0.916667 
0.042139276383360222 0 1:-0.833333 2:-0.0833334 3:-0.830508 4:-0.916667 
0.042139276383360222 0.018166074355411062 1:-0.388889 2:0.583333 3:-0.762712 4:-0.75 
0 0.018166074355411062 1:-0.611111 2:0.166667 3:-0.830508 4:-0.916667 
0.042139276383360222 0 1:-0.944444 2:-0.25 3:-0.864407 4:-0.916667 
0.042139276383360222 0 1:-0.666667 2:-0.0833334 3:-0.830508 4:-1 
0 0.018166074355411062 1:-0.388889 2:0.416667 3:-0.830508 4:-0.916667 
0.042139276383360222 0 1:-0.722222 2:-0.166667 3:-0.864407 4:-1 
0 0.018166074355411062 1:-0.222222 2:1 3:-0.830508 4:-0.75 
0 0.018166074355411062 1:-0.388889 2:0.583333 3:-0.898305 4:-0.75 
0.042139276383360222 0.018166074355411062 1:-0.555556 2:0.25 3:-0.864407 4:-0.833333 
0.042139276383360222 0.018166074355411062 1:-0.222222 2:0.5 3:-0.762712 4:-0.833333 
0.042139276383360222 0.018166074355411062 1:-0.388889 2:0.166667 3:-0.762712 4:-0.916667 
0.042139276383360222 0.018166074355411062 1:-0.555556 2:0.416667 3:-0.830508 4:-0.75 
0.042139276383360222 0.018166074355411062 1:-0.555556 2:0.0833333 3:-0.762712 4:-0.666667 
0.042139276383360222 0.018166074355411062 1:-0.722222 2:0.166667 3:-0.694915 4:-0.916667 
0.042139276383360222 0.018166074355411062 1:-0.611111 2:-0.166667 3:-0.79661 4:-0.916667 
0.042139276383360222 0.018166074355411062 1:-0.611111 2:0.166667 3:-0.79661 4:-0.75 
0 0.018166074355411062 1:-0.5 2:0.25 3:-0.830508 4:-0.916667 
0 0.018166074355411062 1:-0.5 2:0.166667 3:-0.864407 4:-0.916667 
0.042139276383360222 0.018166074355411062 1:-0.777778 3:-0.79661 4:-0.916667 
0.042139276383360222 0.018166074355411062 1:-0.722222 2:-0.0833334 3:-0.79661 4:-0.916667 
0.042139276383360222 0.018166074355411062 1:-0.388889 2:0.166667 3:-0.830508 4:-0.75 
0.042139276383360222 0 1:-0.666667 2:-0.0833334 3:-0.830508 4:-1 
0 0.018166074355411062 1:-0.333333 2:0.25 3:-0.898305 4:-0.916667 
0.042139276383360222 0 1:-0.666667 2:-0.0833334 3:-0.830508 4:-1 
0.042139276383360222 0.018166074355411062 1:-0.555556 2:0.166667 3:-0.830508 4:-0.916667 
0.042139276383360222 0.018166074355411062 1:-0.888889 2:-0.75 3:-0.898305 4:-0.833333 
0.042139276383360222 0.018166074355411062 1:-0.611111 2:0.25 3:-0.79661 4:-0.583333 
0.042139276383360222 0.018166074355411062 1:-0.555556 2:0.5 3:-0.694915 4:-0.75 
0.042139276383360222 0.018166074355411062 1:-0.722222 2:-0.166667 3:-0.864407 4:-0.833333 
0.042139276383360222 0 1:-0.611111 2:0.0833333 3:-0.864407 4:-0.916667 
-0 0.31135664219920167 1:0.5 3:0.254237 4:0.0833333 
-0 0.31135664219920167 1:0.166667 3:0.186441 4:0.166667 
-0 0.31135664219920167 1:0.444444 2:-0.0833334 3:0.322034 4:0.166667 
-0 0.27102876848045904 1:-0.333333 2:-0.75 3:0.0169491 4:-4.03573e-08 
-0 0.31135664219920167 1:0.222222 2:-0.333333 3:0.220339 4:0.166667 
-0 0.31135664219920167 1:-0.222222 2:-0.333333 3:0.186441 4:-4.03573e-08 
-0 0.31135664219920167 1:0.111111 2:0.0833333 3:0.254237 4:0.25 
-0.042139276383360222 0 1:-0.666667 2:-0.666667 3:-0.220339 4:-0.25 
-0 0.31135664219920167 1:0.277778 2:-0.25 3:0.220339 4:-4.03573e-08 
-0.042139276383360222 0 1:-0.5 2:-0.416667 3:-0.0169491 4:0.0833333 
-0.042139276383360222 0 1:-0.611111 2:-1 3:-0.152542 4:-0.25 
-0 0.31135664219920167 1:-0.111111 2:-0.166667 3:0.0847457 4:0.166667 
-0.042139276383360222 0 1:-0.0555556 2:-0.833333 3:0.0169491 4:-0.25 
-0 0.31135664219920167 1:-1.32455e-07 2:-0.25 3:0.254237 4:0.0833333 
-0.042139276383360222 0 1:-0.277778 2:-0.25 3:-0.118644 4:-4.03573e-08 
-0 0.31135664219920167 1:0.333333 2:-0.0833334 3:0.152542 4:0.0833333 
-0 0.31135664219920167 1:-0.277778 2:-0.166667 3:0.186441 4:0.166667 
-0.042139276383360222 0 1:-0.166667 2:-0.416667 3:0.0508474 4:-0.25 
-0 0.31135664219920167 1:0.0555554 2:-0.833333 3:0.186441 4:0.166667 
-0.042139276383360222 0 1:-0.277778 2:-0.583333 3:-0.0169491 4:-0.166667 
-0 0.31135664219920167 1:-0.111111 3:0.288136 4:0.416667 
-0.042139276383360222 0 1:-1.32455e-07 2:-0.333333 3:0.0169491 4:-4.03573e-08 
-0 0.31135664219920167 1:0.111111 2:-0.583333 3:0.322034 4:0.166667 
-0 0.040327873718742642 1:-1.32455e-07 2:-0.333333 3:0.254237 4:-0.0833333 
-0 0.31135664219920167 1:0.277778 2:-0.166667 3:0.152542 4:0.0833333 
-0 0.31135664219920167 1:0.388889 2:-0.333333 3:0.288136 4:0.0833333 
-0 0.31135664219920167 1:0.333333 2:-0.166667 3:0.355932 4:0.333333 
-0 0.31135664219920167 1:-0.0555556 2:-0.25 3:0.186441 4:0.166667 
-0.042139276383360222 0 1:-0.222222 2:-0.5 3:-0.152542 4:-0.25 
-0.042139276383360222 0 1:-0.333333 2:-0.666667 3:-0.0508475 4:-0.166667 
-0.042139276383360222 0 1:-0.333333 2:-0.666667 3:-0.0847458 4:-0.25 
-0.042139276383360222 0 1:-0.166667 2:-0.416667 3:-0.0169491 4:-0.0833333 
-0 0.31135664219920167 1:-0.0555556 2:-0.416667 3:0.38983 4:0.25 
-0.042139276383360222 0.31135664219920167 1:-0.388889 2:-0.166667 3:0.186441 4:0.166667 
-0.042139276383360222 0.31135664219920167 1:-0.0555556 2:0.166667 3:0.186441 4:0.25 
-0 0.31135664219920167 1:0.333333 2:-0.0833334 3:0.254237 4:0.166667 
-0 0.31135664219920167 1:0.111111 2:-0.75 3:0.152542 4:-4.03573e-08 
-0.042139276383360222 0 1:-0.277778 2:-0.166667 3:0.0508474 4:-4.03573e-08 
-0.042139276383360222 0 1:-0.333333 2:-0.583333 3:0.0169491 4:-4.03573e-08 
-0.042139276383360222 0 1:-0.333333 2:-0.5 3:0.152542 4:-0.0833333 
-0 0.31135664219920167 1:-1.32455e-07 2:-0.166667 3:0.220339 4:0.0833333 
-0.042139276383360222 0 1:-0.166667 2:-0.5 3:0.0169491 4:-0.0833333 
-0.042139276383360222 0 1:-0.611111 2:-0.75 3:-0.220339 4:-0.25 
-0.042139276383360222 0 1:-0.277778 2:-0.416667 3:0.0847457 4:-4.03573e-08 
-0.042139276383360222 0 1:-0.222222 2:-0.166667 3:0.0847457 4:-0.0833333 
-0.042139276383360222 0 1:-0.222222 2:-0.25 3:0.0847457 4:-4.03573e-08 
-0.042139276383360222 0 1:0.0555554 2:-0.25 3:0.118644 4:-4.03573e-08 
-0.042139276383360222 0 1:-0.555556 2:-0.583333 3:-0.322034 4:-0.166667 
-0.042139276383360222 0 1:-0.222222 2:-0.333333 3:0.0508474 4:-4.03573e-08 
-0.018166074355411062 -0.31135664219920167 1:-0.166667 2:-0.416667 3:0.38983 4:0.5 
-0.018166074355411062 -0.31135664219920167 1:0.111111 2:-0.25 3:0.559322 4:0.416667 
-0.018166074355411062 -0.31135664219920167 1:-0.666667 2:-0.583333 3:0.186441 4:0.333333 
-0 -0.1606712925368971 1:0.666667 2:-0.25 3:0.79661 4:0.416667 
-0 -0.31135664219920167 1:0.333333 2:-0.583333 3:0.627119 4:0.416667 
-0.018166074355411062 -0.31135664219920167 1:0.222222 3:0.38983 4:0.583333 
-0.018166074355411062 -0.31135664219920167 1:0.166667 2:-0.416667 3:0.457627 4:0.5 
-0.018166074355411062 -0.31135664219920167 1:-0.222222 2:-0.583333 3:0.355932 4:0.583333 
-0.018166074355411062 -0 1:-0.166667 2:-0.333333 3:0.38983 4:0.916667 
-0.018166074355411062 -0 1:0.166667 3:0.457627 4:0.833333 
-0.018166074355411062 -0.31135664219920167 1:0.222222 2:-0.166667 3:0.525424 4:0.416667 
-0.018166074355411062 -0.31135664219920167 1:-0.0555556 2:-0.833333 3:0.355932 4:0.166667 
-0.018166074355411062 -0.31135664219920167 1:-0.277778 2:-0.333333 3:0.322034 4:0.583333 
-0.018166074355411062 -0.31135664219920167 1:0.111111 2:-0.416667 3:0.322034 4:0.416667 
-0.0062155504298950191 -0.15068534966230457 1:0.333333 2:0.0833333 3:0.59322 4:0.666667 
-0.011950523925516043 -0.31135664219920167 1:0.611111 3:0.694915 4:0.416667 
-0.018166074355411062 -0.31135664219920167 1:0.0555554 2:-0.333333 3:0.288136 4:0.416667 
-0.018166074355411062 -0.31135664219920167 1:-1.32455e-07 2:-0.166667 3:0.322034 4:0.416667 
-0.018166074355411062 -0.31135664219920167 1:0.611111 2:-0.166667 3:0.627119 4:0.25 
-0.018166074355411062 -0.31135664219920167 1:0.111111 2:-0.333333 3:0.38983 4:0.166667 
-0.018166074355411062 -0.31135664219920167 1:-1.32455e-07 2:-0.5 3:0.559322 4:0.0833333 
-0.018166074355411062 -0.31135664219920167 1:0.166667 2:-0.0833334 3:0.525424 4:0.416667 
-0.018166074355411062 -0.31135664219920167 1:-0.0555556 2:-0.166667 3:0.288136 4:0.416667 
-0 -0.31135664219920167 1:0.444444 2:-0.0833334 3:0.491525 4:0.666667 
-0.018166074355411062 -0.31135664219920167 1:-0.166667 2:-0.416667 3:0.38983 4:0.5 
-0.018166074355411062 -0.31135664219920167 1:0.111111 2:-0.583333 3:0.355932 4:0.5 
-0.018166074355411062 -0.31135664219920167 1:0.222222 2:-0.166667 3:0.423729 4:0.583333 
-0.018166074355411062 -0 1:0.0555554 2:0.166667 3:0.491525 4:0.833333 
-0.018166074355411062 -0.31135664219920167 1:-0.111111 2:-0.166667 3:0.38983 4:0.416667 
