svm_type c_svc
kernel_type rbf
gamma 0.076923076923076927
nr_class 43
total_sv 506
rho 0.18759193430479054 -0.93686082760983502 -0.65713949177903841 -0.81980007747959704 -0.97627916031446471 0.42105293876371286 0.27061405487381851 0.2426486318452877 -0.021751311844749072 0.56328903209012071 0.1745929284264236 0.097511914088200022 0.58845805612941482 0.29589618656187955 0.47162544666290546 0.25748564491162729 -0.056057729497575634 -0.7828057532860544 -0.85978621469582528 -0.43559044830641458 -0.97643809954154037 -0.87229890945249966 -0.96781642818443325 -0.91153017001293535 0.14852431403049443 -0.97543347639908906 0.74056678937640452 -0.74753670812548545 -0.84057839397787004 -0.96890348196029641 -0.8933786858556606 -0.93893679326186474 -0.84002017905439819 -0.93420486711762618 -0.95477470717336355 -1.004337579907171 -0.017075128845759242 0.025107942017265062 -0.015503936344917668 -0.14878049858315401 -0.19511157158359441 -0.72850536786355546 -0.60975870751440076 -0.65052723178776317 -0.90896326854042864 -0.94760812641103542 -0.19667746193092811 -0.87475902688006779 -0.75446014359306302 -0.49889028072357183 0.12508998036834984 0.34886110555728811 0.0016799022404119736 0.34309851234148481 -0.23512016333412467 -0.10421297956889226 -0.21679019227137272 -0.66992845892530895 -0.52700842634814571 -0.97792238953095989 -1.0224616225437266 -0.87226234676907255 -0.824255772034023 -0.99027946574964831 -0.95735888908534239 -0.37993355191559641 -1.013869661929846 0.14467222993407494 -0.74774858929230625 -0.90385458033028021 -0.98501807707839262 -0.54397214551506035 -0.92825606903502655 -0.96292545868541701 -0.98965477791656864 -0.96926770508788684 -0.99891650485554861 -0.28832387050636704 -0.40652926931648359 -0.4153165904793949 -0.72829901296745481 -0.80964995397083017 -0.97593083686228577 0.83187995577197016 0.32162657380104065 0.50082921981811523 0.81058257486542118 0.28807386711581068 0.27272764350570683 0.74557031727406331 0.33899700821305445 0.79655346381082204 0.57575027320982719 0.85897640017959076 0.39665510206455018 0.3033379086452388 0.2655451243211786 0.10736340838710312 0.94811707735061646 0.57063740895462545 0.51091329090435289 -0.63714420795440674 0.80704211202140375 -0.97332152724266052 -0.62774226069450378 0.29236410531365992 -0.64598402380943298 0.94276384906590316 0.79111074251690505 0.025398492813110352 -0.94537317752838135 0.92060995799711975 -0.96267109342632617 -0.70732700824737549 -0.93310350049992064 -0.72179403901100159 -1.0245334952081562 0.11481851505431084 0.16439413223227553 0.12188228197147742 0.0070380968264980581 -0.077237873381516511 -0.51194473424300846 -0.8445026809138374 0.10770261287689209 0.76898371107912933 -0.0043509872187801456 0.085815901720093957 0.21940879091126542 0.24691733815374767 0.62254075065223369 0.42596085996997635 0.77970126886013569 0.13853304360955584 0.093058967809550225 0.043065316046993575 -0.070975515135186587 -0.49349819843487669 -0.59776777029037476 0.2442664058033511 -0.99894637526533048 -0.57931283116340637 -0.99502667551069346 -0.95726489216489918 0.092748708476199204 -0.89239457249641418 0.75159370925722835 0.60338611529399855 -0.90948655743182116 -1.006598712805171 -0.85987975165813557 -0.94252675400638175 -0.93373770696900582 -0.95497177767008068 -0.9814945650747483 -1.0547807503454492 0.0066927004471304917 0.049821862208806321 -0.0059911754397970231 -0.09654139861450356 -0.16006398159979712 -0.60265491700959761 0.72204246075767242 0.86896368512904443 0.52645418996779236 0.46076234632783675 0.70681968331336975 0.355995414972819 0.70624938639090018 0.87321706622767314 0.90477183331741406 0.67950091719687034 0.33645604258687573 0.26232783221540124 -0.025688326146501985 0.66547589004039764 0.81180261804643106 0.80709628306486603 -0.57954844832420349 0.96655456529526051 -1.0150877701821148 -1.0429564586463802 0.11168721247420277 -0.92025806755774253 0.97554027649839925 0.79718598837272381 -0.81291338801383972 -1.0225053235965724 0.4226057231426239 -0.79181870818138123 -0.90904604146456303 -0.91153441075786346 -0.77500633110356398 -1.0501449275103045 0.04757185035069799 0.097444047853767354 0.038490403796890948 -0.051045400734799531 -0.11970163337846708 -0.57135500032655162 0.92845619966647974 0.4397813847763512 0.28969765418369908 0.90575880790673935 0.45951557209696681 0.91744966545562012 0.99875684892747008 1.0313903487538629 0.33641533129191459 0.32617829608187154 0.25866377868028517 0.077315137037103895 -0.14927616715431213 -0.54653207981108942 0.56439009308815002 -0.66565643971993316 -0.47443476319313049 -0.98190590739250183 -0.83692820792987899 0.2728720814758715 -0.84796512154804382 0.92039096710869073 0.46968492865562439 -0.84880014255261194 -0.99155704525537391 -0.20170349064378343 -0.87482336163520813 -0.79335472908240723 -0.92825984452850707 -0.75861512286235455 -0.99150456975281687 0.12770769560061743 0.1809786945540092 0.12610696034291527 0.010151551554810779 -0.052330167218411772 -0.60887543344042638 -0.57895822285488507 -0.10848965931360037 -0.16254470709003635 0.42010953739610535 0.30449595858774559 -0.094699857669776483 0.41959946936161741 0.24375600657181348 0.17718348321246644 -0.069225100567633632 -0.19152101051058668 -0.72657816393700769 -0.96815009747825997 -0.909359643544283 -0.94475885987339103 -0.88035008947042792 -0.9853809715161479 -0.9396463465177417 -0.02000299218021628 -0.97397838616632082 0.55895377355637577 -0.94367846220228846 -0.8921535508520968 -0.97871183953342467 -0.81081734215025325 -0.9446133257183611 -0.8662404631859989 -0.9406620832868775 -0.93519272392863051 -0.99361887965887097 -0.10975768824032694 -0.15566408162285111 -0.13044969463742473 -0.62623361846121972 -0.67778460990470213 -0.96229682997228172 0.58242903248058908 0.17883866744241997 0.59418681972803444 0.75275144966290342 0.78252905718017207 0.94900493705630762 0.843577460295443 0.28137674415885738 0.095317920971034531 -0.21284834476205625 -0.24881360155717663 -0.3412979084017097 -0.31961441040039062 -0.6648598313331604 -0.39535638877302787 -1.0046668262922063 -0.9251739361050173 0.0027457994877724203 -1.0291690240834688 0.77244995455841714 -0.3642712606654443 -0.71914605796337128 -1.0032053916844013 -0.26017766514536833 -0.82098613461291514 -0.88824080112670123 -0.9811798918579977 -0.96754827264955912 -1.0166942292399384 -0.08654547739058939 -0.08853703818349519 -0.090105576440907734 -0.76013153033837355 -0.81542034447193146 -0.97786351111828473 -0.12358927589263116 0.066229709775236151 0.61230234549951146 0.88977977280624454 0.51281552424731214 1.035408601866076 0.42382175742960754 0.18047381139647498 -0.9505561219869828 -0.18092567079195035 -0.2159186734598445 -0.22604117065572887 -0.4619045853614806 -0.27925103006969199 -0.9632596307380128 -0.71681510799939774 -0.58406852946613419 -0.94998169138953403 0.29323354619284969 -0.2634867600756195 -0.56509183940271057 -0.95468546737947535 -0.20981184616589524 -0.66167297405873637 -0.63078643509393106 -0.80602528531563955 -0.79728922805168667 -0.94113016179818265 -0.074194128782371277 -0.21136194978180931 -0.58595587226650203 -0.89337834586949527 -0.88301444714790411 -0.99652225213154311 0.66814894194814478 1.1959725047280492 0.81346096366003595 1.0769785217890697 0.40207360741160386 0.53440177894907304 0.19640490475048147 -0.14098582244862048 -0.40730043864778337 -0.70905464777043292 -0.48115609165583206 -0.67063602756296048 -0.63236730629666471 -0.9582271860411965 -0.75982311249548118 0.091125268724177852 -0.9181893462132612 0.43469139817718305 -0.4140727737912312 -0.81627992740084765 -0.95579453441954232 -0.52303719520568848 -0.85023114928836774 -0.70304915771147891 -0.88721763007054377 -0.74803071703053459 -0.96455586506728797 -0.090463570628391568 -0.083547735162395068 -0.071274364106734059 -0.47244363938336198 -0.43875602201230829 -0.97766145307792562 -0.10595104464220846 -0.10365353387002225 -0.2796523146095925 0.53765911890155271 0.1903015673160513 -0.028314291055490257 -0.66082429539897114 -0.32915425277770127 -0.3971807791643806 -0.53321885696370119 -0.30367275861143261 -0.4725417074202351 -0.92480529025129066 -0.69240258071806537 -0.5915828963222366 -0.9981495254671171 -0.079094769381339233 -0.46302077241045547 -0.34659215522198983 -0.94193069186592393 -0.29293093581294 -0.54375563256719939 -0.60225485588694039 -0.73715708665032231 -0.73813676957034657 -0.90621028384020352 -0.22139172409550889 -0.30246474173616278 -0.69878552672058947 -1.0008557396780553 -0.94434147230341725 -0.99562366211115594 -0.089382980055925432 0.01159606303667241 -0.01851646299037038 0.11252896286669277 -0.24710197746753693 -0.6830457532343297 -0.57678901141079231 -0.85711902332393064 -0.91591485431320718 -0.89381889946130144 -0.79250778145038681 -0.97156400379246044 -0.76762909758633191 -0.28674011904916291 -0.93480779674866299 0.16373858111699555 -0.81362569265124929 -0.82722595430593171 -0.96654791452154865 -0.75929909394720585 -0.92949308277128151 -0.77160650234136086 -0.9278757450736731 -0.92529874261334566 -0.95038878918417269 -0.16283445968711829 -0.34894025215657376 -0.39488193969901525 -0.73349536660069203 -0.81650397658675522 -0.97426027306325191 0.16309773998245694 -0.32778007706695317 0.23472149670124054 -0.31150830005261343 -0.91880096718818594 -0.47465709433032854 -0.83855017510781438 -0.87239879648245089 -0.79095236684368442 -0.68752346363357064 -0.98186123103754575 -0.90711614359886039 -0.58021784147458155 -0.95918047457544897 0.20361552822082599 -0.65714228974276634 -0.85375352595707255 -0.9626166243646832 -0.45351547284301008 -0.86991575025295764 -0.81596880549880679 -0.92697169997359863 -0.88291189818690519 -0.97126261009070092 -0.41337792575359344 -0.29489843039807917 -0.53136780690423036 -0.89815863966941833 -0.83759815514629354 -0.98934420179016769 -0.019682660698890762 0.1600847271206019 -0.12523792776670489 -0.29907339572235592 -0.83169433510209867 -0.94571961546382088 -1.0092110312103959 -0.95465857489041617 -0.94766624813700384 -1.0011278264103132 -0.99670096721120849 -0.23659853632213068 -1.0579540759386366 0.16366007896718673 -0.9129752419667122 -0.95059792910232466 -0.9882274568080901 -0.87238086383564961 -0.92897540909776899 -0.95000057897155421 -0.99066647371208871 -0.96378908350763337 -0.99291321635246277 -0.12322182891660143 -0.2507343176683629 -0.30969910393324201 -0.77797858899452421 -0.81521705475359507 -1.0017592179570891 -0.10938547707934368 -0.40891947644529397 -1.1278668322488785 -0.32382812058200305 -0.58026630572198901 -0.50754856916906399 -0.64174500836004145 -0.49416126743572919 -0.9550350740349417 -0.85020439829979755 -0.77279971986147478 -0.98714699810137108 0.097799400054922131 -0.26454258878456699 -0.70424666915516487 -0.94153659319702343 -0.22326534541246179 -0.7590504866216059 -0.74914839707222847 -0.86078622043719366 -0.89168025608396129 -0.95909945719957135 -0.34913470243742606 -0.36836898355434661 -0.79856743099078298 -1.0340592139750362 -0.92619805732045213 -1.011327390648451 -0.98849659169420701 -1.0488130208223823 -0.30589998752754161 -0.22364264258866409 -0.36650252031359754 -0.21021264328955916 -0.43578017502841288 -0.86859160907592059 -0.59253127801064154 -1.006264021669347 -0.91993921105549037 0.0098413214326170881 -0.30756069309450479 -0.21647487045510544 -0.89347856025118344 -0.19477524624581696 -0.42403646002327222 -0.47463527296629604 -0.61792498401152085 -0.61817013296615164 -0.83515747878234237 -0.88753739555978994 -0.86689027598558499 -0.98498362543806195 -1.0274987337070765 -0.95135359560795296 -1.0259863071599804 -0.90330069066889218 -0.21493491719838789 -0.079417231803178084 -0.20280052684435329 -0.090947485529083452 -0.35890946485954384 -0.88196676602330248 -0.55433268356816734 -0.87557440462852221 -0.87980162144598928 0.16272124339909377 -0.17686749784061984 -0.17380841111818815 -0.9042791724205016 -0.11808285284520581 -0.40925337851235694 -0.45649414596963389 -0.61907510401732746 -0.52857721517052381 -0.85092806915350927 -0.66259355067153036 -0.70974026948568336 -0.85666434858945817 -1.0236110845254425 -0.86970574558672453 -1.0092166788947541 0.030096833256942141 0.12196210871500451 0.10530411582769117 0.066518626987609727 -0.078027138306991067 -0.83501468338606888 -0.099901398702634203 0.3516944944858551 -0.63235717370177968 0.3749652962763424 0.062970767441170555 -0.0066321790884837917 -0.848497911148549 0.035549390523989352 -0.17448832839727405 -0.084886302402080893 -0.34850521303521242 -0.28109822422266006 -0.77695905571312751 0.46415793895721436 0.045480147004127461 -0.4361894279718399 -0.8615400493144989 -0.84107053911605778 -1.0051485476911246 0.23423701524734492 0.38380493223667156 -0.83940111618059643 0.531684061679076 -0.98288251125023895 -1.0004549429295144 0.10677550285123964 -0.88244572281837463 0.89412867030844967 0.56998968673329942 -0.86312875151634216 -0.98497058129002224 -0.0836142897605896 -0.8957591014031604 -0.97354092636759615 -0.99276901698414799 -0.75471599274181689 -1.0424522613863545 0.046036723053148015 0.095681937237107897 0.043594638301767651 -0.065419918878851027 -0.12269787901935936 -0.61975358660127744 0.8002400072909911 -0.90966238659493548 -0.16814343631267548 -0.98856171411966753 -0.87244683504104614 0.090096669278032851 -0.90906054629899513 0.84804258705435309 0.86564324796199799 -0.88460998504069188 -0.99747677302562543 -0.4774060845375061 -0.86992349747812325 -0.76029676738416685 -0.90680197465913215 -0.9972436651708545 -0.99485874901760329 -0.0055015139724475049 0.027757325427479572 -0.022207903260082467 -0.11075431437365982 -0.17081491417794459 -0.6812560039860317 -0.78891837596893311 -0.72082179229647014 -0.98288417628096647 -0.9488409565930459 0.08889163137026132 -1.027513998217183 0.87932933931295809 -0.54166793118562018 -0.85963329658525112 -0.98067036373097738 -0.4069107134283832 -0.79386826261110588 -0.81953476586658913 -0.90582642568752181 -0.96476344295655014 -1.0131117625598645 -0.03575594005230652 -0.011542176948843474 -0.041768305233662095 -0.5498388409614563 -0.5111268897036565 -0.93407388929144053 0.87485431357970034 -0.94891193509101868 -0.68344318866729736 0.11808054507548379 -0.72684967517852783 1.0189097888760559 0.97765127790382478 0.61682882905006409 -0.9364473819732666 0.91879117488861084 -0.9223010241985321 -0.72596532106399536 -0.90718590753650685 -0.95020923018455505 -0.98632422089576721 0.0050380167886022358 0.041805766150543225 0.0015829900832051026 -0.075816686407195091 -0.15110912478477945 -0.53138668472280626 -0.99006968736648571 -1.0209755356845869 0.2080065780020264 -0.90151921076566965 1.0339064480038465 0.95541367008931422 -0.92568333796212754 -0.98578753179276268 -0.51575234532356262 -0.89430522833372295 -0.99254228612082818 -0.99887259364991543 -0.81670397634328096 -1.0512403202192657 0.1089615764101332 0.1423404773022825 0.090147534720504949 -0.027817552872685752 -0.099116675317664923 -0.60877747263790416 1.0085731148719788 0.8985247015953064 0.95540854334831238 1.0018183887004852 0.98413681983947754 1.0138147258091892 0 1.0053908592153427 0.82124030590057373 0.98271587491035461 0.99810302257537842 0.93513450026512146 0 0.59987258383809738 0.63999746436404004 0.63617022046999672 0.51403652131557465 0.43113881349563599 0 0.28632313013076782 -0.86540192365646362 1.0148214392958872 0.86543273497983986 0.93450468778610229 -1.0078776776790619 0.87215976037929588 -0.56702840328216553 0.027252107858657837 -0.79876315593719482 -0.67817753553390503 -1.0121411913993941 0.12072250659496427 0.17390857105739777 0.13700889742092548 0.018835753202438354 -0.071634027446279488 -0.52835851907730091 -0.85192335413914999 0.18519597311294347 -0.11382903279977562 -0.17538549159629452 -0.903532475233078 -0.13600782405058504 -0.37031771126118085 -0.24924655258655554 -0.54974138496502334 -0.49715979367636037 -0.84752347562358965 0.00034421682357788086 0.23117522895336146 -0.79064941334391048 -0.98370073720423845 -0.88566290305003059 -1.0141529009065693 1.0229281273230697 0.95449458656586184 0.86980810761451721 -0.94862335920333862 0.81497283877937254 0.08130943775177002 0.84075263142585754 0.0017656981945037842 0.070673227310180664 -0.93621906638145447 0.39477169321208533 0.49597018997574893 0.49784344434738159 0.19544978439807892 0.030575156211853055 -0.6108262687921524 -0.75629159458937123 -0.98757080532427266 -1.0021925221748511 -0.78615693240383022 -0.94705071837182608 -1.0195868423470396 -1.0273658325459716 -1.0545286189688721 -1.043260120396184 -0.27934271173987446 -0.26507818851754733 -0.27035164317993127 -0.67335881419216337 -0.69956097672324957 -0.94015361407276965 -0.92746649679301718 -0.98025253415107727 -0.77591178682528916 -0.96560140168782982 -0.88496760706807931 -0.96556764605851653 -0.99308270488485884 -1.0205689820295014 0.00039995367218701648 0.047807965367521812 0.013778394473551879 -0.12289554221746904 -0.16530059541365558 -0.92068730294704437 -1.0050277913082808 0.7304723858833313 -0.88592946529388428 -0.87383596571918509 -0.97746758707622261 -0.78196380171883606 -1.0375879756054336 0.090714401888291607 0.12882890615108239 0.079873607028862689 -0.0094522657279817873 -0.085306444871792328 -0.57943393061839654 1.0031426132624901 0.76921072602272034 0.97579098170523582 0.97963595390319824 0.91428735852241516 0 0.59532276397176309 0.64050282599615294 0.63412919717725313 0.52104833722114563 0.43965527415275574 0 -0.94659148888772193 -0.8296264437437314 -0.95625328642517904 -0.93941640379955138 -1.0175987098651609 -0.015633827433117371 0.044093765600976199 -0.0066332759691942935 -0.12379048588741924 -0.18579303684950571 -0.59416405327885102 0.73012912273406982 -0.0059769749641418457 0.0032461285591125488 -0.89429602026939392 0.13314001731338937 0.14953557715997454 0.11951757308910815 0.046441316066699871 -0.041573397815227509 -0.41893458366394043 -0.97737357020378113 -0.72533997893333435 -1.0487804247768804 0.099044564441396019 0.13987860193749199 0.11459012422173329 0.0044738847095524932 -0.076347274230762957 -0.55007225912979818 -0.02432289719581604 -1.0376261174678802 0.16321126044413858 0.20772486924356967 0.190526505755262 0.063356578350067139 -0.027728930115699768 -0.55798906087875366 -0.96876624226570129 0.12347963537387685 0.14082207720844858 0.11247729748117424 0.02504025399684906 -0.073219597339630127 -0.53787295520305634 0.56964774527591933 0.59533524413972772 0.58493613178464177 0.48059484362602228 0.39178732037544245 0 0.15468201041221619 -0.61534068771579953 -0.94920429663495653 -1.1013061240727395 -1.0228338737762641 -0.91106490186714539 -1.0164826190904639 -0.95143868966545975 -1.0221203368357394 -1.0086462366113145 -0.9763922095298766 -1.0318101095576153 -0.014385610818862915 -1.0131891369819641 -0.96253857016563416
label 24 21 34 33 36 28 22 27 16 18 15 20 19 23 17 13 14 12 30 26 25 35 31 38 43 11 41 50 29 37 39 32 42 48 44 46 45 10 8 7 9 5 6
probA -1.4526647538823043 -14.269458321669696 -0.67325273078880177 -4.0432696156871417 -4.3825062991459935 -0.24609855153176177 -1.7283296285143495 -1.9580842407177979 -2.4773788195076141 -2.8295308706422015 -1.2009992767731728 -1.6770528018178241 0.19336179861792444 -2.2570301369420345 -3.2487170901385967 -3.1406537617102512 -2.5318644627978673 -0.94418373062675442 3.3233369859571384 -0.63538558161882319 -1.992633308336732 -4.8522795048273757 -20.391849955392033 -19.509966870751402 -2.4935254970638581 -4.6462052221344834 -2.8738414823025273 0.27058823707899377 -20.188489923006234 -13.571746613137424 -1.2759825016343587 -17.016936762895458 -19.334654831224487 -22.834417188863622 -1.5440364776574778 -15.400803024531021 -2.8069722371975909 -2.8548336678637902 -2.7381846386869109 -4.0785693863422408 -2.880452495551439 -8.0991231762542348 -3.0934323172610902 -4.0336415927094356 -10.831832100850619 -5.0701777278967075 -0.64990164361833147 11.807838681196007 -1.0761868646451733 -0.56366657663147501 -1.7859442015609424 1.7291737815475705 0.020819903154440076 0.24886199786045068 -1.2872199354116358 -2.6194629929949023 -2.3480623319270095 -2.4250966239669749 -2.297040718923562 -4.2811788315689538 -0.1408031006407755 -12.67246641476668 -10.493118901027575 -24.543046447185834 -15.45225232509312 -2.9422165732614758 -13.059308342712686 -2.9820336781195391 -3.0128894872596184 -6.5827397602935713 -15.216178060956175 -2.2180712217788585 -2.535443003322766 -7.5205785214545733 -45.520512566531693 -21.85557805916627 -8.3792913201629204 -2.5116175664170548 -3.1366638816680541 -3.8876223491658521 -0.70509053346895245 -10.876869925823376 -10.815621690363391 1.6690006781036102 1.1435773476107454 -0.6869483650657896 -5.7849751889849346 0.89375969892520601 -3.9568249288210442 -3.0976198287294103 -3.2246709512555323 -3.190134284040441 -3.9949452636581975 -2.2047198885536035 -4.3255985146192799 -2.8811051039470614 -2.8539255480682018 -2.0757993139104451 2.3004620093835229 1.9936244514511581 -5.036716335508534 1.7499320641179787 1.9286806323984815 2.0002562470547649 1.0354565899522556 -2.1277353856076413 0.65435208463643024 -0.55560823120972191 6.3816489009033477 1.7081293527784389 1.4746652027601046 2.1858589344605979 63.17252278656273 1.0814733936961352 5.7531498246894053 1.3452192946989991 2.9240725069209561 -2.1848540194782129 -2.3809723339947455 -2.0743068997502458 -1.7647441274311624 -1.7214048985255115 2.9286581095825799 2.6221384933244756 1.4468422812334876 -8.1755038143184002 -1.9946891790165713 -3.8241422707522799 -5.4402813216839894 -2.945938764597309 -4.8814069566660327 -7.1015582260221723 -5.0441877177002166 -3.1747838087742979 -3.3372428501673852 -3.1551405746479499 -2.2576921049947543 2.0344404035690129 0.86226416153506147 1.0892247832355892 31.362180173604045 1.0534094821237896 0.27948937043891486 3.9820010725954122 -2.3140282763929672 -7.4484374520406051 -0.54244593824161103 0.69017185674640646 9.6642766266652469 -2.3337754356297791 1.6681554989829444 1.4493835877279184 4.2564848618734628 19.070167842263064 7.1950205007941914 6.9821655470613502 -2.3961143691977669 -2.4198732235561531 -2.2913954416450624 -2.7506415608567809 -1.9298549238917282 1.9441004701620448 0.09863441234602667 -22.85689855973261 -0.89950638658992965 -7.5455133223483433 -9.8260167156421918 -3.0931535229804963 -11.735223912879791 -14.230403593693772 -16.344160576602594 -5.4895580070420573 -3.9512076133275493 -3.669139785151025 -2.1460719705855675 0.91757087310372465 1.5575758393157284 1.5034687511829912 3.0293219613214353 1.3810974124393529 9.3299625258310552 2.2167220888285724 -2.0931912922271194 -19.394098902927322 -1.2812296801222365 2.5944947454253824 1.3880331773586521 -1.2906794722813371 1.5088378918638232 -2.6338310493410089 10.838216326832889 36.649702086345968 8.0517312359180337 16.917248111944378 -2.2079371595178849 -2.3975947608453541 -2.1398366600932248 -2.3978652274088148 -2.4820990122943472 12.96434531040069 -1.7598216353945311 -2.2861908462756713 -2.538920486472001 -3.1241279890507307 -3.082953995276406 -20.018899873731804 -7.4963237022669542 -17.974014578358883 -2.4400562360559106 -3.0867852691467328 -2.9890654100031719 -2.247607543084126 -3.1791372325218195 1.6672138930026523 0.80335163239781859 1.1498627753337458 1.4186975779513529 -3.4749801829684315 2.9750444362848305 -2.192587777224992 -5.5031723141016204 -2.856893763027466 1.4748408995316242 3.5200509807134033 -4.4588830942823456 -1.6906419017121177 -0.20429220936789261 -8.0846286669011835 1.2611626184939473 7.8898847514521222 -20.309410595069998 -2.3979103614300104 -2.4946788106914455 -2.3839103664318593 -2.8232892937054235 -2.9843391086449285 -0.50900825064850719 -1.2383814651170395 -1.5609346747465023 -1.9325060220724026 -2.1748319249703729 -1.1010757790577141 -1.2928700202592855 0.42735182272331984 -1.6606804461126163 -2.5788429301509121 -2.6887220906094229 -2.1641899144033601 -12.178005366082031 3.4097977352919449 1.2428880597392693 -7.5975441654074336 -22.098881121513909 -27.481754805681536 -20.936570265506585 -2.1036091789863764 -45.492536797772118 -2.4043509912017651 0.59400314212169114 -28.286031964165968 -29.796778535782952 -9.0850041781121593 -26.349381264823272 -18.117845929531015 -15.847716810400492 -4.9307993335199871 -21.854309171546308 -2.6912990475625307 -2.7463569682391435 -2.6422753153535097 -4.7375937179664396 -4.5239096200068269 -1.2868280718297156 -1.5185532900055811 -2.1729424924044904 -0.35528040886395051 2.1749123551900391 1.8332317848346151 10.227060613990449 -0.90139181519356582 -2.5894595381984975 -1.4903892875497775 -1.2934002445146657 -0.51130444356586435 0.25990064429726512 0.59778758766973883 0.10379079781747169 1.7363020847526145 -0.26988356395069457 -3.2973818279865963 -0.85275840470683073 0.84319111978301575 0.77357464186952329 -0.59800893201178651 1.0806537093576654 -0.45799063423759606 -0.75212409153782567 -2.9994922122999497 -0.88411727158507425 -0.46811547098359363 0.3497448867765422 1.1102030807725283 -2.0096525492566206 -1.5449539860353219 -1.832453303560116 0.032807578121473897 -4.4522635761985896 3.2749690521056376 -1.095631803985365 -1.2609429077070264 -1.7765670546308152 0.41544396522843191 -1.3194979858336107 2.4828621059819027 -1.6400950526618219 -0.42840692129555075 0.16276391173194329 -3.0378324586137229 -1.0430030463842093 -1.2939165823780769 -4.5616500535734419 -1.1015164191949229 -3.0746263020912479 -10.888127520180234 -0.048472328976131428 -36.24525551787827 -2.3699229681476872 -2.516650347628353 -3.0158062257797811 -7.7303463648574056 -3.5358033983562183 -10.06207478957549 -5.5614877836430745 -18.677685335151534 -7.4894647942374801 -2.3043355578077707 -2.2939585335720936 -0.96455158046468292 -2.1346217177966009 -3.4546542638827797 -13.546553539108588 -7.499165623620077 -1.6658973733397084 -1.9000076937951473 -2.9643783802098809 -2.1985395017594249 -0.94684695269696562 -1.8276175561430379 -1.6697629950608421 -2.0653943483131934 -5.0273611467220292 -3.6874278135756389 -5.6010891836234951 -6.0460450188443673 -10.111923017981896 -12.220835989090917 -12.795196409928936 -1.8958919472454139 -7.5957969035374946 -3.7884854665443815 -2.5587965687217387 -16.398166232241628 -9.4880797123837688 -4.4607637528055788 -20.356508386537058 -14.611140063691776 -33.049550877988992 -22.005058170353774 -13.311038278898327 -2.4901703988291435 -2.3953988461027551 -2.3726850727230673 -2.3262487559065774 -1.5013261980478416 0.35267934105743676 -2.0589070298633176 -0.99092926011946458 -1.4853014432890077 0.68711618243992578 -0.014866184185859109 -0.38696659732091948 -1.4831168862787654 -3.1748124350554301 -2.8872680963631736 -2.3990687758628146 -3.8685398067628989 -3.2342568582221745 -3.8757598269475571 -5.9236533604875996 -0.15231948875285189 -11.729513218109005 -2.8874107516953176 -2.5676803931021661 -2.398883905932669 -12.898848539710611 -3.3791129466946632 -6.7334955777798688 -5.2954947588875809 -7.5573504792306911 -2.40315007076215 -0.667105208049804 -1.9601927176941834 -1.4537226814197155 -2.2046373619301836 0.6533549445808895 -11.217538784739679 -0.53920090438315305 0.10065882249288197 0.34198074955225838 -0.36937119798423085 -2.107149271002501 -2.3168274867762619 -1.2503916108270487 -2.0393842646663582 -2.0006784473760866 -17.370850388401294 -5.5394340448092718 -13.653015537368541 -20.277297570672037 -15.227319937934027 -4.2588324787067293 -16.072186238845447 -3.892869447261055 -5.9504164051753969 -22.077572597119907 -12.763319874672945 -3.7559855240165447 -28.816914274094646 -17.912124506847537 -33.643808748263751 -35.31768829365064 -21.282883250731683 -3.5066263915511793 -3.0817346883417591 -3.1225165839429052 -8.9333946192127165 -12.350146268352056 -13.513543725105539 -0.82007564522418497 0.52492065317081538 -1.5308898547943943 -1.25550628330628 -3.4544727835938343 -4.268987657079701 -2.2403224407588338 -8.8531329193373569 -4.779495307823475 -10.416386537339795 -13.720529023588853 -20.921254873442823 -4.2156334089044591 -51.719205184016616 -3.9769283099461687 -7.2887417227574804 -19.810959969273554 -13.492963055188135 -2.3592244098813677 -4.6276167459171189 -16.469067513858239 -15.807829476811726 -6.5314470423497815 -13.495186332573194 -5.1771335851057989 -3.4234087291249282 -4.81870873887648 -7.3604117746012037 -17.866114254442053 -19.031985694936417 -0.75196685925374951 -2.3944105205911876 -1.8242129514393897 -0.62882241224116919 -9.9932300874629334 -2.2700584076975665 1.4774836137974898 -2.3083665429963878 -9.5106958261649783 -11.198492474829919 -18.510326145204804 -1.7883124879308716 -7.383442733126107 -2.6314532121900798 2.1036460917803388 -11.326968154003582 -54.447241073365532 -5.3960412749787086 -19.181486623373708 -21.916638736046046 -17.866258492677748 -36.611153979901125 -18.275160059377733 -2.689770697260085 -2.3469697594424068 -3.0454497153030058 -4.6417613447316235 -5.7506134281933727 -7.458307532339628 0.13044106212553153 -0.31516597585950057 -0.21214345711096153 -4.1070654674889644 -1.6599379296910177 -0.4943211841304459 -8.6151803645388085 -4.2658053386994848 -6.900589369698408 -10.105061461294017 -0.15361278650432361 -13.548773464234285 -3.0218928610344693 -1.6847811705756153 -11.100247619632732 -9.0976766558678026 -3.2398320709574833 -9.7743664187138055 -10.185388944160508 -2.4119146356351333 -8.7498176270804571 -7.1524950322341478 -0.40246298236379219 -1.1198021728639496 -1.156036262079513 21.345940899812373 -16.418649751837382 -9.1891060091911392 3.1055362631277528 -3.0017989874231623 -3.4753361861008005 -3.1735328032400174 -3.3156359570501377 -4.4300577678272308 -3.5981808098850947 -21.993958247706917 -5.7786954404630944 9.8634961027584591 -16.211654311120956 -3.0392953337479232 -3.2176726797717081 -4.1443080758598159 -11.910615548256985 -3.3047458910386807 -6.8329314356488773 -6.2693696013293083 -5.2147796955846717 -11.207877226517416 -1.4270230999540903 1.298560780998528 -2.0346425781089685 -4.8566981474680651 15.486666321929011 -34.010744512666108 -38.240082835508076 -0.14127592737953579 -2.9467393207668029 -3.151250784536233 -2.7901471786422185 -4.4358034594297466 -3.4528267626497362 -8.3648376602636869 -7.2844598256375885 4.2223969200313451 -0.18154964335839296 -3.0626199289060358 -3.2034952341648295 -4.6416718388118028 -10.918309617433787 -3.4452164149591162 -6.3609860459579313 -7.3080260243077069 -15.790556258518379 -10.598957843227197 -2.8703782199490058 -3.2809754129243149 -3.9026565117914176 -0.94066611687176549 -20.575020574502517 -14.75298779945863 -8.1241461330480806 -2.1432135942571553 -2.1210732653617699 -1.6875431555746794 -2.2567344412024615 -2.1483644653789038 -15.745661152199228 -2.2216846510403521 0.91174494504493442 -0.91403956913173279 -2.2708079299837869 -1.9501978398481126 -2.0558601391055733 0.83581166824179998 -2.1512983551456997 -2.5319456077891656 -1.6601939258227794 -0.90300209992139424 -1.5261283010624533 0.85068130672546016 0.63880268073237245 -0.62213253867268203 1.0335244233845313 2.29445421987224 -22.059948321335529 2.8879916238739143 -0.42425083986584256 -3.1276670090016543 4.7254131875672529 2.0959511118733265 1.0208606828859614 1.6139075557723908 -2.1809448238017199 1.646020769624881 -0.90297127469245131 1.1277813150082907 1.5507866969732254 1.1145455580229549 1.062952549171553 0.84998141640790248 -7.4979435893021931 13.113137884771172 -3.1294496997586485 12.16703175492326 -2.3029606980326731 -2.3759386438282037 -2.2727452937254005 -2.0519144438447872 -1.8884183099385579 2.4568568678642491 2.0305316762160781 0.8418254725080887 0.77242353081802007 -4.2699311075214705 0.094655681586640228 -2.0810165043952891 2.4051443353738833 -3.2938724173089886 1.824510908094725 5.7328617253344643 -0.66200219834866703 0.94826207631351211 -0.18263303342079168 -7.9262961763914079 -1.2798991330531153 1.0302727888999521 2.5759833802156313 -2.3797697618495097 -2.4504172526296855 -2.3515619088103281 -2.4048951429175434 -3.0065381483156841 0.43977598750623753 -1.0231121292758714 1.0126614213942273 1.8112452991006902 -9.2905804264710756 -1.6259679419594071 -1.7665782089329205 -1.4340281054898341 1.2141443886430738 -7.9315571516053573 -0.4898799107999452 -2.9731102069298267 -14.798267989292455 -3.1390908262154809 0.41085099416467946 0.8050603544211381 1.8319670272912703 -2.2460553150495577 -2.2572975200837164 -2.2324840933822911 -3.9074439210573186 -2.2464258806925179 1.2414487824772682 8.1253232615338806 2.5389536856303154 1.4783274157816935 -2.1252430127458588 1.1621951341495615 2.2254318279015002 4.004804127769563 1.5472902992619733 1.8267551859350217 5.4698859052362749 3.4997612857883218 1.5509112408788222 8.5856499633418633 1.6425341180378155 5.7702599295964641 -2.1863974867394562 -2.2193240496640891 -2.0333746095423066 -2.0862472383061728 -1.6248112753087349 4.3117797121550732 0.68649108292242889 -7.4068198645591039 -1.9290957008516774 2.204810556951152 -0.15566016148818687 1.3901882405684141 13.68478205844861 -3.3866082607399099 2.140833793511669 4.5224495635409516 -1.3133222577824188 6.1185662206406022 -0.36510199180697139 2.8774357261766039 -2.315629919064131 -2.3776882469648175 -2.2816923629490304 -2.1897555901295287 -2.8491803979032904 -4.9715579052904397 3.5647519308048579 0.66760496751856535 1.6960263059932477 -3.241722750549453 -3.130811363603073 42.748542006348863 0.69314717840248341 3.429514152395182 1.9316534075672551 4.4463386463678258 1.499146562045367 1.5984017947387699 0.69314717840248341 -3.5999905424893357 0.49827285451518688 1.1650481540343038 3.24335986058394 6.4390965422538846 0.69314717840248341 -1.9457222639212839 2.8128449136050184 3.8469022620765823 -5.2743322213400452 1.5111299192133447 3.8191073131248587 -0.52180781197723225 3.4246018164731757 1.3918017634597555 2.5178738763942512 2.7264652428653422 15.376144716607437 -2.1078946822266369 -2.2066771774146949 -2.1249343114533308 -1.6007571157749672 -1.5273334558477671 4.6869507449143599 0.34652819918685207 -2.1004026014157584 -1.9323213234590824 -2.0919696870638043 0.93785799572562578 -2.0246821172113969 1.4882999806894399 -2.1785403695862047 -0.76944471610657905 -0.33126656599634913 1.0221651817119197 1.8688673319000002 1.0665029917089037 1.3436994005276603 20.531887048880911 -5.3669150485877859 -20.134617804193365 27.68722181144069 -0.26509944281533321 4.0742695130429896 1.7128008189706543 -1.5720074174206922 1.8857491024677475 2.1509640675635033 1.0852615893634905 1.2985907175341127 1.7329328245805922 -5.7570962790708116 -5.1632241894337181 -3.4140196026770888 -3.8887844810190653 -3.9846976976495672 2.5746255126538755 -1.2867648947080486 1.4295759269312989 1.1985074900312804 -0.84766781475181363 -4.229166675464846 20.70110828919702 6.6992325839176416 -0.25583797398466152 -7.7380726589476962 -2.6715833177268311 -2.765432504405684 -2.655584799988588 -3.4703118405283635 -5.8644857751104134 -10.739729886832212 0.25344337025538494 -4.0892174274270321 1.812561298679185 8.0069596633398614 -1.2910617676299105 0.23023390914254094 2.3708845817104032 -4.565315124416645 -2.2781831486137896 -2.2464644909544815 -2.0900674828223549 -1.7957337366061088 -2.1166768592032086 -12.455521548188813 26.504352127607305 2.4244157530716475 3.0770643439072352 2.2790518595290119 12.796866567017089 4.1358385642191848 13.66001952261769 -2.1926196772950739 -2.2587384232691621 -2.0959919528579474 -1.8428423871450641 -2.4565306252408923 1.4719020296901122 0.45270508530658221 2.0498555398559319 6.1226564282300577 1.5145952009762134 1.6333872593081038 0.69314717840248341 -1.4646829329647946 2.1631961117435381 2.0937092887619486 3.1939915710433548 7.1497319090890059 0.69314717840248341 2.7988284629532205 1.9310121870213039 19.907555034495161 1.8152374871422416 5.2308404226575584 -2.3367625033228774 -2.4186833977452062 -2.2382051439983064 -1.9309761665422547 -2.5731729509603425 2.0609623566893482 2.2904833804511124 1.1520434367585979 1.277961573243156 1.800275005145364 -3.3625164396581186 0.86548210573504492 -3.2304935114464577 -2.3959023649405311 -2.1359936530530379 3.3774244030029745 2.1063390160510789 2.6730487407564012 11.963575167040869 -2.3873317146370758 -3.3054363386767278 -3.1726838073036188 -1.8134978598277047 -1.688169036207404 6.6516300414317859 1.1437143794906519 1.4849738656072891 -4.6150516212382859 -4.4966613836488838 -4.2889114028253106 -3.1423185463649115 -2.9735038347700029 2.3320861498487497 1.5625678738343796 0.46620751974574232 0.65322864010091264 -4.0156384265163405 -2.9970556225448979 -2.7168261514925596 2.4335773009546635 -1.5300822566069248 1.1625692377957308 1.6871620702248968 3.3079722725352747 7.4496220686052652 0.69314717840248341 0.75758006122562627 1.7519162008303095 13.856489293434246 0.63067238785569946 -4.1782183461137485 2.7096716417715614 24.80529079727382 0.12487466048949249 -0.30672937848638682 3.0265872634385453 1.5138277167019354 -7.551078417304721 1.4301335675229903 2.2147379982272009 3.6651800581663623
probB -0.11551251807916872 12.538702023139971 -0.39387701630749955 2.482635466112836 3.2913014090480939 0.18997934449264411 0.25770756857248167 0.39949366668277514 -0.13179763308842743 0.070634483349228658 0.085560986402639178 0.17355893068377781 0.51907385000332618 0.51690645992957152 0.016515076453178946 0.31131341497300558 -0.086179144482736642 -0.33156873685899629 -4.4306334483221077 -0.22077792408544941 0.21393854836449325 3.5736364815857362 17.865518571555111 17.178054967592296 0.009381150634617811 2.2931292549357667 0.6090798302540914 -1.1670263086516051 18.390503946589376 11.124864080098011 -0.0022865093616567167 14.959617661385217 16.81051080887142 20.651299566783571 -0.77748630697738008 12.795359184350474 -0.39446817107990184 -0.2603084577455218 -0.33097615926756235 1.1944378348502034 -0.21922215854473268 5.6284162856592568 0.95336062365126151 2.2718441796115507 8.477481642881191 3.6154631604395422 -0.1380603152163167 -12.909594738499166 0.12473273265809721 0.001930369522054252 0.20684595725307695 1.4109764868023145 0.18732176202700146 0.29650803321576036 0.2526421393904687 0.07290067528787017 0.25433310058179376 0.40857232381371078 0.54771579387178981 2.8758809546252362 -0.88719510965512405 10.551479520954398 7.8409069609648858 21.93669313606107 12.733508416352304 0.66041321133835684 10.528722778134091 0.83891182780275131 1.4928323624371163 4.6004827876934264 12.510187476020075 0.45897300910275363 0.017966675440276497 4.8777298031690384 42.780469070750669 19.358057939607939 5.5624426286494906 -0.32649958202057322 0.12899765203918714 1.2092700923573021 -1.508143367347293 7.6477436953200773 7.9888267650914138 2.0132270712509142 0.56494545869557977 0.11003521867879242 -3.8394218378161002 1.0537572408657951 -1.2021501442031237 -1.0993950563139387 -0.28061316380046408 -1.0120084067501089 -1.7472417288819011 -0.25393523808869245 -1.791889158548589 0.24038492580652432 -0.1325631551792083 0.32663468587091943 2.0184981477760124 1.4699885544832971 -2.7731422354324753 -0.4713235090055683 1.9201787730138822 -3.1436045567228401 -1.1169053933333639 0.27832687652347088 -1.3409475199051959 0.70966798612227311 6.3784792165292501 -0.16601383008706588 -2.63870973696711 2.0289269717381542 -63.051383124941992 -1.2718844622634562 -6.4561653363735232 -2.0302569829612294 -4.070251637194807 0.15896795834502053 0.088092431033941043 0.08870366211790115 -0.13131582888578239 -0.27124684193186199 -4.0822004465609156 -1.8912740075459171 0.61458445625832214 -6.2939566925164163 1.0061561489435251 -0.53593017206364391 -2.6855535190609072 0.470612192401694 -2.9334252905012153 -4.654554544597528 -3.6284312204147038 -0.53722253435490053 -0.15061145541567211 0.24452663676885422 0.33566556236041423 -1.0882270099903517 -0.32974376548673534 0.53072457632385284 -31.867408489722742 -0.083746714391980559 -2.0259129996937708 -4.9643519780376284 0.39116274555993841 5.8511773895565122 0.29985129220330542 0.35690970832965097 -9.7265691512504411 0.60760672490354473 -0.85846397915564399 -2.741899293690548 -4.9814746184752323 -20.260136826889909 -8.4767293012911207 -8.6693208700526139 0.0052834498775991764 0.092212605594821445 -0.028346032432414882 0.49098788268681226 -0.41439485395012166 -3.6760348269955223 0.57469679535110618 -20.911419130570117 0.14398462126183617 -4.6019879166196258 -7.1684354890518591 -0.072034319870278057 -9.356085232701151 -11.577849054236259 -14.760827078042988 -3.685716790791993 -0.79648964861432503 -0.21652995089549509 0.34897068753305577 0.49927493475812595 1.107543406802989 1.5230225437715688 -2.4888278593123188 1.1585549246148532 -10.64796734855136 -2.7685092702722489 0.36049556766615143 17.585801344679393 -0.12293181543230872 2.6730396390931546 -0.81010846019745109 -0.078452119969582679 0.57200592324709887 1.6144343834956894 -10.983262551081841 -38.27464781330292 -8.8022372339468049 -18.143939189015352 0.19443880168035049 0.068186889816069851 0.13791328389892932 0.63277225110016566 0.67080416463084924 -14.298335976434561 -0.52273801439701839 1.0523597977390806 0.16696941711795407 -1.4926892332859893 0.64334231268107389 -17.752226041593865 -5.8497572198545358 -16.688919700385476 -0.08898732707687379 0.2700506035041399 0.45622311633340701 0.27664999305372417 1.8806228746793436 -1.1409103064714647 0.12986145489985879 -1.9120950234462897 -0.97726801181114142 1.6399158605241666 -4.0625775600707819 0.37711217460415947 3.9496704806899205 0.03025788178677475 -0.047790603179067387 -4.1004617884946519 2.6480880039116288 0.9305595195681976 -1.2234043256738412 6.5809102432673257 -2.6781353717288212 -9.271323287967947 18.618261338658055 0.010249723097007975 0.061972893687000263 -0.066520397694783739 0.63474847828620296 0.77776816235129731 -1.3352670177673189 -0.21767203080581871 0.078939021570436932 0.53355192141752961 -0.16906828167178445 0.34156205814590956 0.22494066928988091 -0.052877684358097768 0.17931606640596368 0.069445617192371203 0.058646799273872563 -0.75657892507618596 10.311408362452594 -4.8736256807744107 -2.3640479513166883 5.4596791857365847 20.277398399141109 24.728895005376412 19.040016100210767 -0.50402026939784239 43.338529048264775 0.28933303181480852 -1.8141649504175863 26.624645386716441 27.117341817367087 7.1355063293590089 23.900749391370919 15.784854100494668 13.409482444588356 2.3180925049783014 19.10920643504204 -0.95280238412518425 -0.59554835506018078 -0.17786662994251062 1.5895750432139417 1.6587183257746372 -1.7607137415112724 -0.78921343255375354 -0.82446873081628591 0.29851497049947967 3.5324488479038978 3.2163703970911861 11.618810534949356 0.024563831897023554 -1.1959958496115175 -0.34338470134599136 -0.38752917181287805 -0.11634540736918794 -0.12174071213067861 0.45695981901660226 -0.83339127053061401 0.26037715595010474 -1.4758441982206054 1.8344497961914228 -0.074143882237666672 -2.1302700193688371 1.1696375900160654 -0.069804360151872219 -1.172142702606215 -1.2859029050347044 -0.22222137662582059 1.4274636132843499 -0.25922529683459899 -0.85940696380765236 -1.6575071937705461 -2.8417471386934401 -0.74998260092153823 -0.32978053712001121 -0.3824373497078874 -1.0326808243330063 2.4627304811694817 -5.0113056467671635 -0.25094321108732587 0.28683930358447385 -0.73574689014468952 1.2365003430899468 -0.063797703941711248 2.1985536135603825 -0.58620561694786177 -0.015415610450792488 -0.67084833580485237 0.83259154520179735 -0.021897251093560843 0.14886416812806896 2.3283665832663938 -0.067465979129018416 0.8012540148585825 8.0549098010542686 -0.53046197132377737 33.613292958104367 0.24580591167465859 0.47669593307649438 1.572015463427975 5.5094986739670286 1.0057786440145229 7.3357124183610471 3.6146595743082028 16.628390443521063 5.4345876431464504 0.025637232242538849 -0.7865585818701647 -0.14277992025358444 0.77362532933227035 1.7989747575022514 11.020644949494164 5.2547931995191695 0.14655204388612794 -1.0169671658497292 -2.1544545298356534 -0.67277933061766759 0.27647031032544439 0.29103503505220418 0.31043478702962179 -0.10004339075741263 2.6391671425293333 2.2535595946654845 3.7552368453168756 3.9963423492641841 7.022150464392567 9.6217734434229687 10.329196063240421 -0.11230525098424454 5.3861815067217558 0.46370273229811532 1.0418841026322758 13.53390005991252 6.8749040229805383 2.3008511118569599 17.897590019482255 11.781690590092971 30.401608677920965 19.412354468688143 10.867336966257692 -0.58081977503146254 -0.25590644186125749 -0.29555734162765857 -0.017566819302947345 -0.66008115491025876 -3.0801893679904908 -0.39517698228181392 0.053385799357560632 0.05556751550856328 0.80664062769760436 0.39248657708572904 -0.025876703154185519 -0.050818107488216122 0.3933331569719643 0.018044946018849619 0.50888817565605327 1.0508802948849787 -0.092948662335983853 1.6310126708219215 3.6936261628411082 -0.45899483978618982 9.5772629750931646 0.15456901393075057 0.22476160790018904 0.076750020513688441 10.883198532413234 0.62824341209623558 4.0285154336900408 3.2991104238120297 5.4301303159306462 0.594242719412863 -1.6253158938319534 -0.82477706230529757 -0.049811610282713359 0.55797743786578469 -2.209602174033138 8.4851299509663072 -1.7561021095589349 0.036430462512138266 0.10474709112668397 -0.26565421565753661 -0.1916653564630969 0.18940754378484931 -0.35738748331806025 0.25488289131899711 0.47460970079344805 15.830475760534217 3.2082798341316927 10.942363008639816 17.477835693939806 12.539718769292051 1.8802795048591994 13.676388790541473 1.0899726067972098 4.3079183690932341 19.060912234725595 9.9425618423171951 1.6338818887330648 26.126672097120981 15.123115606022603 30.802288002162971 32.501048399120755 18.435800320806287 -0.21148105514047721 0.58656300348885992 0.55282789082891948 6.3508091133402464 9.4398716882585774 10.568057825034826 0.043028122416518128 -0.95036535458346572 0.011641440433516692 0.12896950222435247 1.7660872182279683 2.0761482247438421 0.68311593228233503 7.3416685346657768 2.5190370069170389 7.9002282613368537 10.950929055239635 18.528061073693134 2.4023176562113537 48.773867142468674 1.1908438720589565 5.1612282960082814 17.035937575511152 10.670417707733812 0.50594856735902727 2.0670697459309251 13.357127454639452 13.156812526026078 3.8495017110100203 10.609270795709094 2.4977884563049066 1.1117509706633544 2.5396786364019346 4.9419331079308924 15.280623480534494 16.22497471412435 -0.14368160834619145 -0.31961872560504095 -0.18474898547810226 -0.88187005818779829 8.285375488227654 0.77921959246219963 -2.6746078970728981 0.1877053354636532 7.8998498076722523 8.2007718209785381 16.253039184416274 -0.27372548045080086 4.7635739854067056 0.71647681648177264 -3.38214796692571 9.4406696804587984 51.804836180435551 3.7882903363738585 16.863512709269859 19.4642282376109 15.369444411990873 34.592097013869427 15.50712998300744 -1.0611606641505609 -0.4666041475352678 0.66271960110206551 2.1636742279384369 3.1056978632229546 4.5507917156023163 0.11172289070021078 -0.11830513042845663 -0.72478965671845275 1.4184976901539195 0.20619627861180156 -0.35867671551200125 5.8815833156658384 1.7964944852250539 4.3744683424985613 7.3839157436328504 -0.76000272703822414 11.233237456075365 0.32006809254352336 0.083411995824071064 8.0753050755090499 6.6244695597482623 1.1249113441097423 7.61208951807735 7.1303445685629532 0.23882912195821737 6.535094941254969 4.665645627348578 -0.586446429148332 -0.26099293611152141 -0.10496538296087418 -23.91614764716897 13.491251499571675 6.6331065337700981 -2.9199638916054327 1.9709494991007288 0.41758308642827868 0.26285193810314494 1.0883493563430824 1.3127261437808095 0.41600439154612634 19.613454093252471 2.7563236228727832 -10.697389944332169 13.427504305194528 0.55359825796467355 0.58095505751179977 1.0754097898671073 9.4369598781688229 0.30380821199188557 3.6813762415739966 3.1748558019479787 3.0145959445500425 8.2631561946183396 -1.2556030961149522 -1.9668859764388218 0.88973147237123629 3.5484330534489876 -17.490841910672522 31.800780956064351 35.686736372941461 -0.56417630054411083 0.26581281121475803 0.37701398326479219 0.77407814995193669 1.615972523165139 0.54956032987631265 6.0666770615246319 4.6817158587293726 -4.5864957534698485 -1.8107426493927092 0.71375625865471737 0.59765062252983914 1.9190480117649451 8.7090631994818288 0.51180051242491953 3.2164592359756146 4.5043982143133032 12.90181157417085 7.7771382369712665 0.48715832264130704 1.8524892796931081 2.6213525069392141 -0.11267163950096673 18.707848552488034 11.994911447735666 5.7859161759247657 -0.32895280652724451 -0.22332201427750703 0.28861520810648844 -0.19826271076159127 -0.36296030029903736 14.170235669039458 -0.18992915831614343 0.10224317230677903 -0.54121986465225069 0.35708023353161772 0.15558322654393034 -0.46593150943842154 -2.5291438023598887 -0.26723607013754225 0.5065723765676724 0.1106130067554307 -0.58324181714795775 -0.12247846709217498 -2.556084287965382 0.23409637549529297 -0.035662754154962624 -0.93499177781009501 -3.2073706042604839 19.748767673719872 -4.626018163738201 0.021931291666879918 -1.4371521105465996 -4.6001716618084254 -0.030049270622319053 -2.5270581490381732 -2.1458105581994946 0.31483956159607696 -2.6848930314813031 0.12989961175418482 1.0995375112677808 -1.130649391983604 -2.619757806446382 -0.15947475072977507 -1.9146530793122507 6.4174062777722645 -13.861708332598941 1.9429580777823174 -13.596068485274026 0.072082812402448709 0.16197541991146283 0.10093735442597133 -0.099540131602804963 -0.26579433986687157 -3.935286609184494 1.7129660489913727 -1.3848179673161514 -0.067266570235533743 2.6614965652947151 -0.9820171557913947 0.27168770682071469 -3.558359273173878 -0.61636521199021788 0.8478680029264144 -5.3692067216870374 -0.97339815367497518 -0.42875663661996621 -1.0244957716579228 5.9829659635806252 0.043940462461107041 -2.1974604230678687 -4.2011468105533245 -0.022843959675285172 0.064963916553768125 -0.095046103017940392 -0.00051011513368060175 0.89091799724927567 -2.0737041573742765 -0.019486783651087136 -0.84827481205061195 -3.7373085214553248 7.1785940116383911 -0.19952196235222364 0.18909800672062096 -0.047012280500430305 -0.53946008767120679 6.1473559805822013 -1.4453594436828172 1.3607979595713844 13.044827978208103 1.6537200028812042 -1.9162542943069063 -2.2898148690167992 -3.758942454730597 -0.68429607607395793 -0.38245358355425846 -0.61232690411626045 1.4561627333069651 0.158880215164622 -3.0842610870353533 8.3532388806529578 -3.5091629588471958 -0.72859331895756507 0.43187614243686406 -1.2782480835756675 3.4380904603598847 4.6549621394402756 0.926902025468201 -2.813238657910623 5.6823512958638416 -3.8631224152709471 -0.80474077550908818 -8.7420256761082413 -1.5667645684079041 -6.7533910645771451 0.18401473779257216 0.18843890260298721 0.15882273130329011 0.37902891263722105 -0.1871298257947932 -5.10326614443807 -2.3226642731662834 6.2871667328377017 -0.15080435683171153 -3.4176795982227475 0.57363629815438566 1.1063182513776055 -13.694272713605814 1.7555703279537485 -0.62868079602534077 -5.5747675625556985 0.3710978684244492 -7.2701286129463192 -0.84729856138488879 -4.5063757474883159 0.056677164750424149 0.13933982819742977 0.039707943903474846 0.0017039679402353833 0.81333448817187548 3.3542221649713233 4.1240978532557095 2.3912010107942487 1.0264881837103721 -0.9576968758679153 -1.2957876681556169 43.638175588345476 2.3918953807395669e-16 4.8589254499808563 1.2462991398330845 4.9737804946518605 0.84375094607951284 0.92711383823522764 2.3918953807395669e-16 -1.790346195927097 2.3412322447381011 2.6562688910463566 3.8155906041271104 7.1198046633876872 2.3918953807395669e-16 -0.020226271714573748 -1.5694185443956106 5.3456970465905327 -3.9059405135569749 1.5171367498564778 -4.3690209528775679 0.29333246630713916 -1.9759291457736401 -0.017097535910843589 -1.5777391381964048 -1.7570277152959848 -15.670321639960877 0.27794050077819771 0.24411937120390553 0.12503137674408113 0.032872471087593065 -0.059907482797924072 -5.2171165468877616 -1.5933124424500438 -0.41504865444157052 -0.0057124574341829793 -0.36067192011176213 -2.6451598737226836 -0.37548033026385541 -2.6954954647099623 0.19322478258656964 -0.65487982856383253 -1.0675482470337991 -2.7322440813903874 0.86390798304923999 0.29979183305514212 -1.3869940492535187 -21.481367611794166 3.8823204730473444 18.515985648848108 29.705535666686288 1.1600724751878675 4.7980973492728261 -1.0389450659026944 -0.42554074029078148 -0.099855915687194693 1.1479427793464689 -0.0019187300736096559 -0.067219820073912764 -1.0596281108169812 -3.3276054679378495 -2.8519453023272199 -1.5066310282762674 -1.6769106440986963 -2.0541452098667956 -1.8866014063164651 0.059272151787898499 -2.4066334850912603 -3.4858929714802311 -0.21677766305207471 2.1067863597356062 -22.163736004975696 -8.5953061477756361 -1.6215935988714343 5.5213509807044243 -0.47553056780206199 -0.12926178816413297 0.03940392798368382 1.3795648017857807 2.9457237491865107 8.574124775017232 -0.88957228808264155 2.2613690587556596 -1.1978797959638414 -9.3038967046815149 0.08642176683401312 -1.6492878975640337 -3.7128139016128578 2.74242474065362 -0.29908256395889243 -0.29797472582562573 -0.43504277105293798 -0.30455417185937878 -0.20518261667980131 10.810918215876315 -27.54078993640308 1.3364708565123704 -3.6240154847899562 -1.6018427108285798 -13.209529275180433 -4.7986933991545131 -14.704497111050898 0.16524428934984867 0.30201702151562798 0.15286092524172315 -0.08712951216508201 0.71940186407009987 -2.6687834183780339 1.9615392412062673 1.3627328977287385 6.5805802877554251 0.86661005026683402 0.95871972636034031 2.3918953807395669e-16 0.37552649177510844 3.9672090810477183 3.5532767880450997 3.7672479920560074 7.82718552135238 2.3918953807395669e-16 -3.8528919842126674 -2.5965434280150621 -20.816491262560373 -2.7996635677174955 -6.6586452705979911 0.032203974947085066 0.033796380225989395 -0.0050488250058362124 -0.2052738489686175 0.52921257127072163 -3.5263286323386529 1.310487405741694 0.00077214000358720892 -0.0094121814875524085 -1.1071278270344294 -1.0023985397674231 2.2759904702682023 -0.9769911697430641 -0.71943714639470802 -0.66212857193554853 -2.7110889849962962 -1.0718411980327558 -1.5143633684815925 -11.867007968924618 -0.0097868855417939486 -1.0844590910357252 -1.1906249198880234 -0.12547664774032904 -0.19637099625896451 -7.0372792380018385 0.010176672877014868 -0.79808538451985522 -2.2644481750677987 -2.1384201831020877 -1.9640949949817799 -1.3741599321230129 -1.4187740586818616 -1.7199015565047109 -0.88153484444885011 1.8857045840642317 2.0679091481583427 -1.7212032596265332 -1.2384448329960429 -1.1936069122784025 -1.7961771577753625 0.30629240251757639 2.99560807051202 3.1662349421924563 3.8790735823004443 8.1128740255798544 2.3918953807395669e-16 -0.095749248205623153 -1.0807766135798336 -15.025799408486707 -1.7266375656632296 2.3373045400883248 -2.6815400475351221 -25.911921830883269 -1.2223954261454002 -1.538944181560302 -3.5262516984415169 -2.1045493365841743 6.050870245980474 0.084330055952334074 -2.8051761817425551 -4.4068896083190658
nr_sv 25 31 5 9 6 10 35 9 16 25 16 36 37 37 22 24 18 9 7 8 11 4 8 1 3 9 2 16 10 5 1 7 2 3 2 2 1 10 10 7 3 3 1
SV
1 0.71448827243704482 1 1 1 1 0 0.63723841236870971 1 0 1 1 1 0.78377550701209231 0 0 0 1 0.41280731769737478 0 0.77299897309313415 1 0.0427921021052865 1 0 0 1 1 0.99146858668227733 0 1 0 1 0 0.44715374902022376 0.39385783044962197 0 0 0 0 0 0 1:-1 2:-0.64 3:-0.86437 4:-1 5:-0.37037 6:0.155011 7:0.283213 8:-0.461594 9:-1 10:-0.583969 11:-0.425532 12:1 13:-0.82064 
1 0 0 0 0.13484046913785769 1 0 0.32978790169223954 1 0 1 1 1 1 0 0 0 0 0 0 0 0 0 0 0 0 0 0 0 0 0 0 0 0 0 0 0 0 0 0 0 0 1:-0.996207 2:-1 3:-0.596774 4:-1 5:-0.530864 6:-0.0783675 7:-0.437693 8:-0.505733 9:-0.652174 10:-0.648855 11:0.404255 12:0.9825 13:-0.536424 
1 0 0.44274725847550128 0.27474045994176005 0 1 0 0 0 0 1 1 1 0 0 0 0 0 0.079532589105642315 0 0.63244407153424032 0 0 0.31744318401152882 0 0 0 0 0 0 0 0 0 0 0.32905281602981068 0 0 0 0 0 0 0 1:-0.99656 2:-1 3:-0.527126 4:-1 5:-0.740741 6:0.0155202 7:-0.92585 8:-0.164983 9:-0.826087 10:-0.824427 11:0.12766 12:0.987695 13:-0.684879 
0 0.22016086730875034 0 0 0.12757735146974475 1 0.29958764837564783 0 1 0.013343281804336259 1 0 1 0 0 0 0 0.33749567048827778 0 0 0 0 0 0 0 0 0.16961855977476131 0 0 0 0.27358931311017309 0 0 0 0 0 0 0 0 0 0 0 1:-0.99968 2:0.7 3:-0.979472 4:-1 5:-0.897119 6:0.0814332 7:-0.324408 8:0.465504 9:-0.913043 10:-0.519084 11:2.22045e-16 12:1 13:-0.777042 
1 0.29636245221175644 0 0 0.51201915800675157 1 0 0 0 0 1 1 1 0 0 0 0 0 0.26920133990921025 0.4161285488453087 0 0 0 0 0 0 0 0 0 0 0 0.072659241643675682 0 0 0 0 0 0 0 0 0 0 1:-0.998158 2:-1 3:-0.241202 4:-1 5:-0.884774 6:0.0944625 7:-0.92379 8:-0.243841 9:-0.73913 10:-0.549618 11:0.404255 12:0.933582 13:-0.724614 
1 0.33576404682281918 0 0 0 1 0.3061081002584834 0 0.34371873486952637 0 1 1 1 0.40026671115499873 0 0 0 0 0 1 0 0 0 0 0 0 0.080869064732958476 0.8108565492675085 0 0 0.15816590369037789 0.029629126196336487 0 0 0.031603828166620974 0 0 0 0 0 0 0 1:-0.998367 2:-1 3:-0.0931085 4:-1 5:-0.786008 6:0.0392796 7:-0.936148 8:-0.432222 9:-0.652174 10:-0.194656 11:0.297872 12:0.990015 13:-0.721302 
1 0 0.73111930650686718 0 1 1 0 0 1 0 1 1 1 0 0 0 0 0 0.86724783767489622 0 0 0 0 0 0 0 0 0 0.52358000513135328 0 0.29097309011945022 0 0 0 0 0 0 0 0 0 0 0 1:-0.99932 2:-0.5 3:-0.677419 4:-1 5:-0.831276 6:0.0503928 7:-0.396498 8:-0.223217 9:-0.73913 10:-0.641221 11:0.361702 12:1 13:-0.724614 
1 0 0.15437179579046373 0.39118190988803697 0.11199319713050138 1 1 1 1 1 1 1 1 1 1 1 1 0.88937354629231957 0 1 0 0.70115078522142138 0 0.3532937810697267 1 1 1 0.2185109851499516 0.12969121800652156 0 0 0 0.44458541034899607 0.15852931648839991 0 0 1 1 1 1 1 0.31836592336913094 1:-0.969956 2:-1 3:0.40176 4:-1 5:-0.0946502 6:-0.040046 7:1 8:-0.885841 9:-0.652174 10:-0.175573 11:-0.553191 12:0.783095 13:-0.740618 
1 0 1 1 1 1 1 1 1 1 1 1 1 1 1 1 0 1 1 0.14538932799851656 0 1 0.55750584203583253 1 0 0.77095468401805056 1 1 1 0.65430881144273356 0.074131825850085542 0 0.38507820575000201 0.30809727104597079 0 0.25875344069246642 0 0 0 0 0 0 1:-0.998923 2:-1 3:-0.736804 4:-1 5:-0.485597 6:0.0553746 7:0.452111 8:-0.602088 9:-0.652174 10:-0.583969 11:-0.148936 12:0.993444 13:-0.748344 
0.73464687012520613 1 0.41384581929319714 0 0 1 0 0 0 0 0.55134977422581288 1 1 0 0 0 0 1 0 0 0 0.20975102096806211 0 0 0 0 1 0.65025716072411954 0 0 1 0 0 0 0 0 0 0 0 0 0 0 1:-0.999368 2:0.65 3:-0.884897 4:-1 5:-0.876543 6:-0.00325733 7:-0.268795 8:-0.0651184 9:-0.913043 10:-0.385496 11:-0.553191 12:0.984215 13:-0.68543 
1 0 0 0 1 1 0.50434840451244756 1 1 1 1 1 1 1 1 1 0 0 0 0.80877745087702202 0 0 0 0 0 0 0.13657550653377507 0 0 0 0 0 0 0 0 0 0 0 0 0 0 0 1:-0.994979 2:-1 3:-0.257331 4:-1 5:-0.572016 6:0.05959 7:0.0216272 8:-0.413417 9:-0.73913 10:-0.656489 11:0.276596 12:0.989762 13:-0.490066 
1 0 1 0 0.06472075016118313 1 1 1 1 1 1 1 1 1 1 1 0.48419808275353021 0.021866683299088176 1 1 0.793845038224259 0 0 0 0.66940309339720561 0 1 0.9589362969655495 0.031386892508369443 0 0.79389371051247781 0 0 0 0.74901730350806417 0 0.3878394611416538 0.51288222312392651 0.50446581401400692 0.33498759374495379 0.32029227571508107 0.051340583541636606 1:-0.997088 2:-1 3:-0.257331 4:1 5:-0.572016 6:-0.0408124 7:0.15757 8:-0.434459 9:-0.73913 10:-0.656489 11:0.276596 12:0.921428 13:-0.286424 
1 0 0 0.15710608618870109 1 1 1 1 1 1 1 1 1 1 1 1 1 0.23200961672774759 0.73388342231898862 1 0 0.29975642912656281 0 0 1 0 1 0 0 0 0 0 0 0 0 0 0.54886274861778594 0.65997416376099283 0.54424746225858001 0.027175797319869847 0.091975867511297604 0 1:-0.988071 2:-1 3:-0.579179 4:-1 5:-0.510288 6:-0.0726193 7:0.342945 8:-0.537706 9:-0.391304 10:-0.541985 11:0.0212766 12:0.90645 13:-0.452539 
1 0 0.45000491066593618 1 0.94557923834862856 1 1 1 1 1 1 1 1 1 1 1 0.25158083286982574 0 0 1 0 1 0 0 0.78328156405754679 0 1 1 0.12128719501968753 0 0 0 0 0 0 0 0 0 0 0 0 0 1:-0.992714 2:-1 3:-0.579179 4:-1 5:-0.497942 6:-0.0323817 7:0.207003 8:-0.541271 9:-0.391304 10:-0.541985 11:0.0212766 12:0.898381 13:-0.495033 
1 0 0 0 0 1 0 0.80841606915833364 1 0 1 1 1 1 0 0 0 0 0 0 0 0 0 0 0 0 0 0 0 0 0 0 0 0 0 0 0 0 0 0 0 0 1:-0.992503 2:-0.56 3:-0.604106 4:-1 5:-0.8107 6:-0.0239509 7:-0.340886 8:0.25961 9:-0.478261 10:-0.454198 11:0.382979 12:0.96611 13:-0.589956 
1 0 0 0 0.1796593457140214 1 0.23927154448014451 1 1 0.15843751775853362 1 1 1 1 1 0.95582183094151218 0 0 0.25291068067961742 0.82015174390166612 0 0 0 0 0 0.048538467680457192 0 0 0 0 0 0 0 0 0 0 0 0 0 0 0 0 1:-0.996447 2:-0.56 3:-0.604106 4:-1 5:-0.8107 6:0.100594 7:-0.0484037 8:0.217961 9:-0.478261 10:-0.454198 11:0.382979 12:0.888093 13:-0.570088 
1 0 0 0 0 1 0 0 0.48315627543763295 0 1 0.38457870071586137 1 0 0 0 0 0 0.65695887748279125 0 0 0 0 0 0 0 0 0.30802669445397113 0 0 0 0 0 0 0 0 0 0 0 0 0 0 1:-0.996988 2:-0.56 3:-0.604106 4:-1 5:-0.8107 6:0.121288 7:-0.791967 8:0.139794 9:-0.478261 10:-0.454198 11:0.382979 12:0.996873 13:-0.769868 
1 0.11802262896083678 0 0 0 1 0 0 0 0 1 0 1 0 0 0 0 0 0 1 0 0.2121159390166627 0 0 0 0 0 1 0 0 0.050527380872150765 0.78889653847836028 0 0 0.3101999215412799 0 0 0 0 0 0 0 1:-0.995329 2:-0.56 3:-0.604106 4:-1 5:-0.8107 6:0.10251 7:-0.876416 8:0.139794 9:-0.478261 10:-0.454198 11:0.382979 12:0.899995 13:-0.897351 
1 0.20066277091818455 1 1 1 1 0 1 1 0.63145277838955927 1 1 1 1 0.33264193580613605 0 0 0 1 0 0.01962060550513756 0.50966250166426841 0.39970205585888091 0 0 0.041618319034697593 1 0 1 0.34569118855726649 1 0 0.13056037500214202 0.57179984550978202 0 0.11218419501919169 0 0 0 0 0 0 1:-0.997566 2:-0.6 3:-0.52346 4:-1 5:-0.674897 6:0.140832 7:0.149331 8:-0.492966 9:-0.826087 10:-0.862595 11:0.276596 12:0.990216 13:-0.668874 
0 0.11453896134060793 0.42132270632565189 0 0 1 0 0 0 0 1 0 1 0 0 0 0 0.51925448319256695 0 0 0.50857819122043668 0.43316937161874092 0 0 0 0 0 1 0 0 0.35871877584528455 0 0 0 0 0 0 0 0 0 0 0 1:-0.999176 2:0.05 3:-0.643695 4:-1 5:-0.917695 6:0.151178 7:-0.588054 8:0.125335 9:-0.565217 10:-0.59542 11:-0.148936 12:0.873014 13:-0.57064 
1 1 1 1 0 1 0.56778550187882892 0 0.9299976861725795 0 1 0.4879689693162948 1 0 0 0 0 1 0 0.0045967916592605275 0.27251312042279235 1 0 0.32926303491874459 0 0.041965979044450194 1 1 0.25983912057656466 0 1 0.5279187926183817 0.85802024097881158 0.60580015954916799 0.13297238173400042 0.23520453383871998 0 0 0 0 0 0 1:-0.999149 2:0.4 3:-0.869501 4:-1 5:-0.938272 6:0.268442 7:-0.0834192 8:0.218198 9:-0.652174 10:-0.347328 11:-0.531915 12:0.96954 13:-0.760486 
1 0 0.3865882029423825 0 0.92361049003131157 1 0 0 1 0 1 1 1 0 0 0 0 0 1 1 0 0.63439395238428176 0 0 0 0.096922550222344278 0 0.28726389245956885 0.23396932516485844 0 0 0 0 0 0 0 0 0 0 0 0 0 1:-0.995829 2:-1 3:-0.492669 4:-1 5:-0.555556 6:0.0998276 7:-0.756952 8:-0.220453 9:-0.652174 10:-0.618321 11:0.489362 12:0.983761 13:-0.815121 
0 1 1 0.17697154398150186 1 1 0 0 0 0 0 0 1 0 0 0 0 1 0 0.80495613671822597 1 1 0 0 0 0 1 0.29162957358332747 0.70877765691036765 0 1 0.58089630106324575 0.18175576792004833 0.35577340740667945 0 0 0 0 0 0 0 0 1:-0.999805 2:0.6 3:-0.886364 4:-1 5:-0.794239 6:0.178003 7:-0.447992 8:0.312079 9:-0.73913 10:-0.645038 11:-0.0638298 12:0.969943 13:-0.764901 
0 0 0 0 0 1 0.47970744519973985 0.12742395345878377 1 0.13275156315113867 1 1 1 0.8069403984274871 0 0 0.24448426140668369 0 0.72745793513147927 0 0 0 0 0 0.13674662169035257 0 0 0 0 0 0 0 0 0 0 0 0.29072846913173939 0.23391848138880658 0.23194612723262162 0.26548566135889773 0.16186989410801012 0 1:-0.998355 2:0.2 3:-0.909824 4:-1 5:-0.893004 6:0.156543 7:-0.320288 8:0.742437 9:-0.73913 10:-0.145038 11:0.212766 12:0.868274 13:-0.792494 
1 0 0 0 0 1 1 1 1 1 1 1 1 1 1 1 1 0 0 1 0 0 0 0 1 0 1 0.47451884739600331 0 0 0 0 0 0 0 0 1 1 1 1 1 0.63029349308923244 1:-0.993857 2:-1 3:-0.323314 4:-1 5:-0.176955 6:-0.0936961 7:-0.182286 8:-0.772281 9:-0.565217 10:-0.221374 11:0.404255 12:1 13:-0.345475 
-1 0 1 1 1 1 0.78169490930133967 1 1 0 1 1 1 1 0 0.12654598646436224 0 1 0.51473579312766204 0 0 1 0.51123553812636624 0.38005216232167643 0 0.17917097333204396 1 0 1 0.51749217156032223 0.69023847565237884 0 0.74246167332779356 0.1279636836745269 0 0.62114347328846919 0 0 0 0 0 0 1:-0.999528 2:-1 3:-0.515396 4:-1 5:-0.654321 6:0.0959954 7:0.565396 8:-0.302076 9:-0.913043 10:-0.790076 11:0.106383 12:1 13:-0.59106 
-1 1 1 1 0.42488333044608523 1 0 0.055562992341908514 1 0.0001295597047556267 1 1 1 0.75225678439336874 0 0 0 1 0 0 0.39891536413168238 1 0 0.83847437441714556 0 0 0.76492711282800963 1 0 0 1 0.094694623902752184 0.088035852651684773 0 0.094819232678572174 0.16452274379538284 0 0 0 0 0 0 1:-0.998034 2:-0.75 3:-0.456745 4:-1 5:-0.427984 6:-0.107875 7:-0.256437 8:-0.214088 9:-0.652174 10:-0.526718 11:-0.446809 12:0.967724 13:-0.228477 
-0.37397803812201325 0 0 0 0.30251429429848076 1 0 1 1 1 1 1 1 1 1 1 1 0 0.16972075014421489 0 0 0 0.017583830946697691 0 0.80088709795751456 0 0 0 0 0.059708461785304728 0 0 0 0 0 0 0.47511146022467193 0.0083596777933306575 0.025978566350175723 0 0 0 1:-0.977607 2:-1 3:-0.43695 4:-1 5:-0.37037 6:0.192949 7:0.738414 8:-0.434495 9:-0.73913 10:-0.541985 11:0.787234 12:0.915931 13:-0.434327 
-1 0 0 0.46600299495904907 1 1 0 0 1 0 1 1 1 0 0 0 0 0 1 1 0 0.073676559134194769 0 0 0 0 0 1 0.7695138371394159 0 0 0 0 0 0 0 0 0 0 0 0 0 1:-0.998341 2:-1 3:-0.596774 4:-1 5:-0.530864 6:-0.12282 7:-0.204943 8:-0.489929 9:-0.652174 10:-0.648855 11:0.404255 12:1 13:-0.611479 
-1 1 1 0 1 1 0 0 1 0 1 1 1 0 0 0 0 0.52308124858933125 1 1 1 1 0 0 0 0 0 1 0 0 1 0 0 0 0.69178168875714141 0 0 0 0 0 0 0 1:-0.997384 2:-1 3:-0.527126 4:-1 5:-0.740741 6:-0.0388963 7:-0.235839 8:-0.164983 9:-0.826087 10:-0.824427 11:0.12766 12:0.962126 13:-0.568433 
-1 0.14703086735162255 0 0 0 1 0 0 0 0 1 1 1 0 0 0 0 0 0.91141251984632077 1 0 0 0 0 0 0 0 0.5625767265271796 0 0 0.37530039003307125 0.64776287543830291 0 0 0.27377098447922021 0 0 0 0 0 0 0 1:-0.996573 2:-1 3:-0.241202 4:-1 5:-0.884774 6:-0.0802836 7:-0.699279 8:-0.243841 9:-0.73913 10:-0.549618 11:0.404255 12:0.899339 13:-0.550221 
-1 0.011625235108500248 0 0 0.81067688814485328 1 0.61994908430390694 0 1 0 1 1 1 0 0 0 0 0 0.37444115279025048 0.84142617332974268 0 0 0 0 0 0 0 0 0 0 0 0 0 0 0 0 0 0 0 0 0 0 1:-0.998004 2:-1 3:-0.0931085 4:-1 5:-0.786008 6:0.0442614 7:-0.132853 8:-0.386554 9:-0.652174 10:-0.194656 11:0.297872 12:0.931061 13:-0.602097 
-1 0 0 0 0 1 0 0 1 0 1 1 1 1 0 0 0 0 0 0 0 0 0 0 0 0 0 0 0 0 0 0 0 0 0 0 0 0 0 0 0 0 1:-0.998873 2:-1 3:-0.0931085 4:-1 5:-0.786008 6:0.0235677 7:0.046344 8:-0.293528 9:-0.652174 10:-0.194656 11:0.297872 12:0.947047 13:-0.414459 
-1 0.4609130291729846 1 1 1 1 0.064837755249900014 1 1 0 1 1 1 0.22437724709387016 0 0 0 1 1 0 0 1 0.42263333075715309 1 0 0 1 1 1 0.39217099097777169 1 0 0.38271225993705638 0.1923729140977766 0 0 0 0 0 0 0 0 1:-0.997556 2:-1 3:-0.821848 4:-1 5:-0.753086 6:-0.00287411 7:0.373841 8:-0.56977 9:-0.913043 10:-0.660305 11:0.148936 12:0.974431 13:-0.469647 
-1 0 0 0 0 1 0 0.59904281550070204 1 0 1 1 1 1 1 1 0 0 0 0 0 0 0 0 0 0 0 0 0 0 0 0 0 0 0 0 0 0 0 0 0 0 1:-0.997716 2:-1 3:-0.406158 4:-1 5:-0.444444 6:0.00938877 7:0.0607621 8:-0.700243 9:-0.652174 10:-0.248092 11:0.765957 12:0.982803 13:-0.378035 
-1 0 0 0 0 1 0.34463770494719226 1 1 1 1 1 1 1 1 1 0 0 0 0 0 0.080852167400837754 0 0 0 0.046966552529874382 0.66844945405431577 0 0 0 0 0 0 0 0 0 0 0 0 0 0 0 1:-0.997184 2:-1 3:-0.299853 4:-1 5:-0.333333 6:0.00210768 7:0.433574 8:-0.708918 9:-0.565217 10:-0.0648855 11:0.106383 12:0.981845 13:-0.431015 
-0 0 0 0 0 1 0 0.97559672070081227 1 1 1 1 1 1 1 1 0.20961431561880706 0 0 0 0 0 0 0 1 0 0 0 0 0 0 0 0 0 0 0 0.29836670293216599 0.550527545433252 0.49183522008679348 0 0 0 1:-0.996343 2:-1 3:0.846774 4:-1 5:-0.193416 6:-0.0707032 7:0.761071 8:-0.842992 9:-0.913043 10:-0.996183 11:0.382979 12:0.940088 13:-0.278146 
-0 0 0 0.4321392376088018 0 1 0.34120657518050374 1 1 1 1 1 1 1 1 1 1 0.85957911744258164 0 0.42580874599762109 0 0.34083509491639163 0 0.45934752866217821 1 0.39199855590653898 1 0 0 0 0 0 0.4484073036533755 0 0 0 1 1 0.97269181478572719 0.28337131808588473 0.1750061382269838 0.0022557273522851549 1:-0.962903 2:-1 3:0.40176 4:-1 5:1 6:-0.0185859 7:0.944387 8:-0.911175 9:-0.652174 10:-0.175573 11:-0.553191 12:0.878461 13:-0.317329 
-0.27912216858782135 0 0.15522075858916753 0 0 1 0.15384652759498157 0 1 0.46365003019863915 1 1 1 0.68824849828559986 0 0 0 0 0 0 0.0027275102531925319 0 0 0 0 0 0.84142092545734803 0 0 0 0 0 0 0 0 0 0 0 0 0 0 0 1:-0.99622 2:-1 3:-0.257331 4:1 5:-0.572016 6:-0.0806668 7:0.837281 8:-0.500314 9:-0.73913 10:-0.656489 11:0.276596 12:0.981593 13:-0.142384 
-0 0 0 0 0 1 1 0 0 1 1 1 1 1 0.38020986728586892 0 0 0 0 0.46773012214726722 0 0 0 0 0 0 1 0 0 0 0 0 0 0 0.055978464599162073 0 0 0 0 0 0 0 1:-0.997654 2:-1 3:-0.0153959 4:1 5:-0.320988 6:-0.0841157 7:0.872297 8:-0.679964 9:-0.652174 10:-0.660305 11:-0.191489 12:1 13:-0.106512 
-0.8737784286700353 0 1 0.0074756602406652831 0 1 0.49975671726382243 0.6584024696692975 1 0.23473636352255239 1 1 1 0 0.95626939097912478 0.68921235566477845 0 0.048005943830526546 0.71007655097648514 0 0.55428402490024142 0 0 0 0.074906715716513292 0 1 0.53090786264943612 0 0 0.42941931018087531 0 0 0 0.48257951697392876 0 0 0 0.059803869774774199 0.044667486699870938 0.10104017036693554 0.046907998591197528 1:-0.990977 2:-1 3:-0.579179 4:1 5:-0.497942 6:-0.0024909 7:0.820803 8:-0.651102 9:-0.391304 10:-0.541985 11:0.0212766 12:0.991628 13:0.0888521 
-1 1 1 1 1 1 1 0.41910632005459947 1 0 1 1 1 0.92807630277719899 0 0 0 1 1 0.92214935241915597 1 1 0 0.23651825925189288 0 0 1 1 1 0 1 1 0.96444900291923719 0.91811034074222342 0.22097240042164945 0.19565112682553867 0 0 0 0.058698572975231116 0 0 1:-0.999059 2:0.6 3:-0.766862 4:-1 5:-0.971193 6:-0.0239509 7:-0.400618 8:0.471451 9:-1 10:-0.51145 11:-0.191489 12:0.979777 13:-0.732892 
-1 1 1 0 1 1 0 0 1 0 1 1 1 0 0 0 0 1 0 0.65546517651352343 0.80718129650774795 1 0 0 0 0 0 1 0.235991931904039 0 1 0 0 0 0 0 0 0 0 0 0 0 1:-0.993417 2:-0.6 3:-0.52346 4:-1 5:-0.674897 6:-0.120521 7:-0.192585 8:-0.39994 9:-0.826087 10:-0.862595 11:0.276596 12:0.958394 13:-0.378035 
-1 0 0.27886460853211004 0 0.28888597422183276 1 0.090151015561203557 0 0.68945932501292184 0 1 1 1 0 0 0 0 0.1730272020028884 0 0.98183609804422312 0 0 0 0 0 0.21203167730016695 1 0.9637384652073312 0 0 0 0 0 0 0 0 0 0 0 0 0 0 1:-0.998299 2:-1 3:-0.0131965 4:-1 5:-0.786008 6:-0.0618893 7:-0.188465 8:-0.204667 9:-0.73913 10:-0.610687 11:-0.276596 12:1 13:-0.521523 
-1 0 0 0.97416665269004787 1 1 1 1 1 1 1 1 1 1 1 1 0 0 0 0.48218631979482951 0 0.7503429252445255 0 0 0 1 1 0 0.7426493131434817 0 0 0 0.17096074321307975 0.62477366376036725 0 0 0 0 0 0 0 0 1:-0.994087 2:-1 3:-0.307918 4:-1 5:-0.345679 6:0.036597 7:0.645726 8:-0.612036 9:-0.73913 10:-0.553435 11:0.234043 12:0.982299 13:-0.659492 
-1 0 0 0 0 1 0 0 1 0.46006467532511963 1 1 1 1 0 0 0 0 0 0 0 0 0 0 0 0 0 0 0 0 0 0 0 0 0 0 0 0 0 0 0 0 1:-0.989454 2:-1 3:-0.307918 4:-1 5:-0.345679 6:-0.0220349 7:0.15139 8:-0.477616 9:-0.73913 10:-0.553435 11:0.234043 12:0.996621 13:-0.392936 
-1 0 1 0 1 1 0 0 1 0 1 1 1 0 0 0 0 0 1 1 0.048124452126959191 0 0 0 0 0 0 0.47270748250838746 0 0 0 0.12534694065764032 0 0 0 0 0 0 0 0 0 0 1:-0.999252 2:-1 3:-0.653226 4:-1 5:-0.465021 6:-0.0511592 7:-0.349125 8:-0.116897 9:-0.652174 10:-0.858779 11:0.617021 12:1 13:-0.653422 
-0 0 0 0 0 0 0 1 0 1 1 1 0.63863917237033085 1 1 1 1 0 0 0 0 0 0 0 1 0 1 0 0 0 0 0 0 0 0 0 1 1 0.89135739761277444 0.15728338753770213 0.13497594188508616 0 1:-0.913603 2:-1 3:0.293255 4:1 5:0.584362 6:0.0860318 7:0.814624 8:-0.74982 9:1 10:0.828244 11:0.617021 12:0.97196 13:-0.363135 
-0.20776823474533643 0.3804308683668926 0.56591463287872246 0.12021545450143616 0.17303951288874789 0.6070354121004824 0.45112314256178654 0.29228868173268036 0 0.84141937124893329 1 0.98703343209029148 1 0.86275337353539827 0.8988716692397446 0.42976328731106395 0.39497279092071225 0.39630648813467223 0.31961323311506684 0.55789787491313758 0.18876735208017659 0.42628052212372303 0.048547300169782863 0.085607675347106851 0 0.1414572709696289 1 0.69953222287903982 0.25184491781306356 0.03062837567660143 0.50504182413367449 0.11819695108374938 0.20297316429777279 0.13677939772510597 0.18009771209032605 0.01868265609060922 0.66162501265214668 0 0 0.080710625419064277 0 0 1:-0.922042 2:-1 3:0.293255 4:1 5:0.37037 6:1 7:0.647786 8:-0.859033 9:1 10:0.828244 11:0.617021 12:0.786424 13:-0.803532 
-0 0 0 0 0 0.17525615814186862 1 1 1 1 1 1 1 1 1 1 1 0 0 0 0 0 0 0 1 0 0.94715473798174643 0 0 0 0 0 0 0 0 0 1 1 1 1 1 0.53078686270107778 1:-0.917036 2:-1 3:0.293255 4:-1 5:0.37037 6:-0.462732 7:0.822863 8:-0.88675 9:1 10:0.828244 11:0.617021 12:0.592163 13:-0.322848 
-0 0 0 0 0 0.42490681960007803 0.65279656803536323 1 1 1 1 1 1 1 1 1 1 0 0 0 0 0 0 0 1 0 0.38165161666082587 0 0 0 0 0 0 0 0 0 1 1 1 0.37526860928224687 0.58897774952099446 0.37841088066524226 1:-0.823918 2:-1 3:0.293255 4:-1 5:0.111111 6:0.0147538 7:0.287333 8:-0.666488 9:1 10:0.828244 11:0.617021 12:1 13:-0.365894 
-0 0 0 0 0 0.58197591111495883 1 1 1 1 1 1 1 1 1 1 1 0 0 0.69477574709119894 0 0 0 0 1 0.028374969961746786 1 0 0 0 0 0 0 0 0 0 1 1 1 1 1 0.041638530690197309 1:-0.677927 2:-1 3:0.293255 4:-1 5:-0.0576132 6:0.0224181 7:0.752832 8:-0.850576 9:1 10:0.828244 11:0.617021 12:0.931514 13:-0.371965 
-1 0 0 0 0 1 0 1 0 0 1 1 1 0.70153004682018383 1 1 1 0 0 0 0 0 0 0 0.8578692391525915 0 0 0 0 0 0 0 0 0 0 0 1 0.70847247216347897 0.0077084660773540994 0 0 0 1:-0.936786 2:-1 3:0.293255 4:-1 5:-0.395062 6:-0.156543 7:-0.22966 8:-0.460084 9:1 10:0.828244 11:0.617021 12:0.979928 13:-0.520419 
-0 0 0 0 0 1 0 1 0.3105406749870781 1 1 1 1 1 1 1 1 0 0 0.97072438974930031 0 0.32801273118032725 0 0 1 0 0.88927547151954744 0.77053724022862558 0 0 0 0.013998608917555267 0 0 0 0 1 1 1 0 0 0 1:-0.91756 2:-1 3:0.293255 4:-1 5:-0.185185 6:0.0542249 7:0.0092688 8:-0.479471 9:1 10:0.828244 11:0.617021 12:0.958243 13:-0.511589 
-1 0 0 0 0 1 0 0 1 1 1 1 1 1 1 0.68310806572047633 0 0 0 0 0 0 0 0 0 0 0 0 0 0 0 0 0 0 0 0 0 0 0 0 0 0 1:-0.996246 2:-1 3:-0.323314 4:-1 5:-0.176955 6:-0.17762 7:0.0525232 8:-0.772281 9:-0.565217 10:-0.221374 11:0.404255 12:1 13:-0.432671 
-1 0 0 0 0 1 0 1 1 1 1 1 1 1 1 1 0.3954128934604807 0 0 0 0 0 0 0 0 0 0 0 0 0 0 0 0 0 0 0 0.14916951961712913 0 0 0 0 0 1:-0.994767 2:-1 3:-0.323314 4:-1 5:-0.176955 6:-0.0580571 7:0.285273 8:-0.767298 9:-0.565217 10:-0.221374 11:0.404255 12:1 13:-0.38245 
-1 -1 1 1 1 1 1 1 1 1 1 1 1 1 1 1 1 1 1 1 1 1 0.97071168963008192 1 1 1 1 1 1 1 1 0.36707582783258902 1 0.86385524871215291 1 0.64716347759469284 1 1 1 1 1 0.56033644700537188 1:-0.999529 2:-1 3:-0.515396 4:-1 5:-0.654321 6:0.388772 7:0.198764 8:-0.302076 9:-0.913043 10:-0.790076 11:0.106383 12:0.979475 13:-0.873068 
-1 -1 1 1 1 1 1 1 1 1 1 1 1 1 1 1 0.083927121171927452 1 1 1 1 1 0 0.23124114096086182 0.71826705729526985 0 1 1 1 0 1 0.45686218694512876 0.12500917171110779 0.41106130965285242 0.18843832911775565 0 0 0 0 0 0 0 1:-0.999387 2:0.5 3:-0.817449 4:-1 5:-0.823045 6:0.327074 7:-0.734295 8:-0.223145 9:-0.826087 10:-0.751908 11:0.212766 12:0.993545 13:-0.986203 
-1 -1 1 1 1 1 1 1 1 1 1 1 1 1 1 1 1 1 1 1 1 1 0.029288310369918052 1 1 1 1 1 1 0 1 0.3469606935951654 1 0.31155835731767628 0.8115616708822444 0.13912072943969314 0.92183998463126327 0.9685828648172673 1 0.59551896196851783 0.51061541070561456 0.32483547789422024 1:-0.998261 2:-0.1 3:-0.781525 4:-1 5:-0.786008 6:0.388772 7:-0.258496 8:-0.374897 9:-0.652174 10:-0.194656 11:-0.446809 12:1 13:-0.798013 
-1 -1 1 1 1 1 1 1 1 0.807148463829923 1 1 1 1 0.33009814880288424 0.52333059573673146 0 1 1 1 0.94791475770348455 1 0 0.76875885903913821 0.13633627800682768 0 1 1 1 0 1 0.074282022197391787 0.87499082828889219 0.41352508431731833 0 0.21371579296561405 0 0 0 0 0 0 1:-0.999295 2:0.6 3:-0.922287 4:-1 5:-0.921811 6:0.422878 7:-0.270855 8:0.123844 9:-0.913043 10:-0.458015 11:-1 12:0.976297 13:-0.730132 
-1 -1 1 1 1 1 1 0.62514855577349715 1 0 1 1 1 1 0 0 0.38835562214050334 1 1 1 0.052085242296515434 1 0 0 0 0 1 1 1 0 1 0.75481926942972499 0 0 0 0 0.236905811557584 0.24237747478570676 0.20470873955429222 0.28487362735694316 0.24911282458643977 0.11482807510040785 1:-0.999434 2:0.9 3:-0.925953 4:-1 5:-0.925926 6:0.308297 7:-0.744593 8:0.18648 9:-0.826087 10:-0.179389 11:-0.0638298 12:1 13:-0.843819 
-1 -1 -0.15972639336927227 1 1 1 0.31004926637114749 1 1 0.35661680569179777 1 1 1 1 0.81336779458353592 0.85023748769082019 0 0.25452802502215921 1 1 0.70981874852041027 1 0 0.093955850098802279 0 0 1 1 1 0 0.32113259574545011 0 0 0 0.24859893055787813 0.020653655265722423 0 0 0 0 0 0 1:-0.999414 2:-1 3:-0.8739 4:-1 5:-0.699588 6:0.317111 7:-0.116375 8:-0.102911 9:-0.826087 10:-0.866412 11:0.297872 12:0.988552 13:-0.933223 
-1 -1 -1 0.31741587901836732 1 1 0.80716005185271178 1 1 1 1 1 1 1 1 1 0.1991265233382862 1 1 1 0.17488612116490379 1 0 0 0 0 1 1 0.039144507354765976 0 1 0.3064239774697361 0 0 0 0.1031892781149677 0 0 0 0 0 0 1:-0.999703 2:-0.65 3:-0.932551 4:-1 5:-0.872016 6:0.357731 7:0.165808 8:0.471924 9:-0.826087 10:-0.889313 11:0.276596 12:0.981542 13:-0.651214 
-1 -1 -0 1 1 1 1 1 1 1 1 1 1 1 1 1 0.47374967042324034 1 1 1 0 1 0.92499099548087393 1 1 1 1 1 1 0.65498889259013848 0.58040489377314819 0 0.18118085145148871 0.20037688899550765 0.20723128869799701 0.29013582971153562 0 0.44619959112750962 0.48486256023765573 0 0 0 1:-0.9986 2:-1 3:-0.821848 4:-1 5:-0.753086 6:0.477295 7:0.2276 8:-0.56977 9:-0.913043 10:-0.660305 11:0.148936 12:1 13:-0.753863 
-1 -1 -1 0.5292109117764926 1 1 0 0.1283460410727347 1 0 1 1 1 0.76470552833078254 0 0 0 1 0.30547225382297194 1 0.72093034622847274 1 0 0.18453814538936036 0 0 1 1 0.3910192799513697 0 1 0.63061344331302693 0.72093826063103239 0.58913819534369238 0 0.1648676910902776 0 0 0 0 0 0 1:-0.99924 2:0.6 3:-0.922287 4:-1 5:-0.921811 6:0.42786 7:-0.357364 8:0.123844 9:-0.913043 10:-0.458015 11:-1 12:1 13:-0.870309 
-1 -1 -0.29204784926243327 1 1 1 1 1 1 1 1 1 1 1 1 1 0.94169859791433708 1 1 1 0.079072402910133122 1 0.01872143768581359 1 1 0.95013382616302988 1 1 0.61760893212347034 0.14185735356328563 0.65723110625498082 0 1 0.029716126518528299 0.18587030847226194 0.25712368913253719 0.85353042337690888 1 1 0.90608482796184275 0.86142769046070844 0.41263824189864212 1:-0.988001 2:-0.6 3:-0.742669 4:-1 5:0.0781893 6:0.39567 7:0.625129 8:-0.821313 9:-0.652174 10:-0.706107 11:-0.914894 12:0.979323 13:-0.566225 
-1 -1 -0 0.17287390543630771 1 1 1 1 1 1 1 1 1 1 1 0.57124103463518716 0.33384485648984646 0.18069310159726795 0.69452774617702806 1 0.53421654084364867 0.34619888308412894 0 0 0.082959936555233704 0.049866173836970104 1 1 0.13769302716122114 0 0.44123140422642093 0 0.039254061538148019 0.041097721684228199 0.41849753129395945 0 0.32749242618884167 0.52395226627772451 0.4956254941779466 0.14314511944488123 0.15147547930404287 0.084351623293069125 1:-0.997789 2:-0.2 3:-0.563783 4:1 5:-0.744856 6:0.420195 7:-0.0504634 8:-0.334794 9:-0.73913 10:-0.744275 11:0.0638298 12:0.96142 13:-0.761589 
-1 -1 -0.54822575736829449 0 1 1 1 0.50523722866159104 1 0.26786670848603533 1 1 1 1 0 0 0.084733508362367316 0.56477887338057287 1 1 0.46371052383728867 0.65380111691587106 0 0 0.48733085912633506 0 1 1 0 0 1 0.062962579217236928 0 0 0.46896725731477373 0 0.12180765423627234 0 0 0.27536390000886346 0.23102210773395454 0.090076150157664236 1:-0.998765 2:-0.2 3:-0.563783 4:1 5:-0.744856 6:0.251198 7:-0.491246 8:-0.321045 9:-0.73913 10:-0.744275 11:0.0638298 12:0.982601 13:-0.865894 
-1 -1 -1 0.98049930376883232 1 1 0.98929020940842194 1 1 0 1 1 1 1 0 0 0 1 1 1 0.96980266648894353 1 0 0.51301161980096066 0.068396556568900882 0 1 1 0.81453425340917285 0 1 1 0.058626826379330935 0.18999450418658412 0.4708346836631298 0.032439983332937607 0.47688714332227228 0.29827102188965998 0.24753113691112175 0.23129000173429315 0.14932166842824157 0.19111113758523951 1:-0.997894 2:-0.32 3:-0.587243 4:-1 5:-0.802469 6:0.310979 7:-0.69516 8:-0.206667 9:-0.478261 10:-0.458015 11:-0.255319 12:0.967371 13:-0.827263 
-1 -1 -1 1 1 1 1 1 1 1 1 1 1 1 1 1 0.96555350638280835 1 1 1 0.34756265000619913 1 0.056287566833312472 0.20849438471087667 0.86217284726588439 0 1 1 1 0.20315375384657583 1 0 1 0.94967656327145944 0 0.13158987335202185 0.6303040364097745 0.24068792506924866 0.27460884459692692 0.51046073372878387 0.56458937133757003 0.22182284706538502 1:-0.998455 2:-0.34 3:-0.8739 4:-1 5:-0.641975 6:0.478827 7:0.421215 8:-0.64179 9:-0.478261 10:-0.866412 11:0.234043 12:1 13:-0.738411 
-1 -1 -1 -1 1 1 1 1 1 1 1 1 1 1 1 1 0.33407301960294766 1 1 1 1 1 0.72784896250644815 0.51958180804221854 0.46146468191382706 0.78663999393316719 1 1 1 0.37022137977053221 1 0 0 0.0086585744594555401 0.56535918507463601 0.33888909568569253 0 0 0 0 0 0 1:-0.99859 2:-1 3:-0.8739 4:-1 5:-0.699588 6:0.37421 7:0.0566426 8:-0.102911 9:-0.826087 10:-0.866412 11:0.297872 12:1 13:-0.801325 
-1 -1 -0.95209230881906115 -1 1 1 1 1 1 1 1 1 1 1 1 1 1 1 1 1 0.51150952114397708 1 0.034804284711300648 0.23651664061001279 1 0 1 1 1 0.36362576809134411 1 0 0 0 0.089226709173053531 0 0.32606394023746965 0.90616230791809371 0.87310817127896156 0.36542085758118448 0.38259396753090963 0.19607380778750239 1:-0.998594 2:-1 3:-0.853372 4:-1 5:-0.576132 6:-0.0101552 7:0.221421 8:-0.732961 9:-0.826087 10:-0.977099 11:0.106383 12:1 13:-0.573951 
-1 -1 -1 -1 1 1 1 1 1 0.45538279169858797 1 1 1 1 0.32349255111786956 0.38193654073201927 0.12651206445506391 1 1 1 1 1 0 0.57513420921009528 0.15541630855406222 0.071249707307158391 1 1 1 0 1 1 0.77319366367720344 0.66209998270675829 0.63906901122460158 0.23902946942106487 0.42915126837509804 0.56705238461170182 0.5657798545727678 0.32586892067819828 0.24956221875271822 0.13806611124319856 1:-0.998194 2:-0.1 3:-0.781525 4:-1 5:-0.786008 6:0.386089 7:-0.518023 8:-0.0269621 9:-0.652174 10:-0.194656 11:-0.446809 12:0.967674 13:-0.937086 
-1 -1 -0.047907691180938863 -1 1 1 1 1 1 1 1 1 1 1 1 1 1 1 1 1 0 1 0.23734675278225117 0.48538051835077656 1 1 1 1 1 0.26615285213812362 1 0 1 0.41758722910106255 0 0.33326798921470385 1 1 1 0.98555543470951079 0.94256987537510284 0.41652851692125403 1:-0.985227 2:-0.6 3:-0.742669 4:-1 5:0.0781893 6:0.445488 7:1 8:-0.86087 9:-0.652174 10:-0.706107 11:-0.914894 12:0.931363 13:-0.665563 
-1 -1 -1 -1 1 1 1 1 1 1 1 1 1 1 1 1 0.025330972614737442 1 1 1 0.48849047885602292 1 0 1 0.68575625493050762 0.14211029875967437 1 1 0 0 1 0 0.36120863955415905 0 0.2607160096178151 0 0 0 0.022534540968092223 0 0 0 1:-0.987777 2:-0.6 3:-0.742669 4:-1 5:0.0781893 6:0.396819 7:0.826982 8:-0.854414 9:-0.652174 10:-0.706107 11:-0.914894 12:0.954562 13:-0.648455 
-1 -1 -1 -1 1 1 1 1 1 1 1 1 1 1 1 1 0.46026537788040012 1 1 1 1 1 0 0.1833868237868968 0.24301078297769815 0 1 1 1 0 1 1 0.86559769676863751 0.9116542137327236 0.44562908490989372 0.088813445678538758 0.59468148522660558 0 0 0.36257693442354716 0.35516669129350997 0.24933156404804499 1:-0.998902 2:-0.34 3:-0.8739 4:-1 5:-0.641975 6:0.408316 7:-0.213182 8:-0.473961 9:-0.478261 10:-0.866412 11:0.234043 12:0.983761 13:-0.713024 
-1 -1 -0 -1 -0 1 0 1 1 0 1 1 1 1 0.66008479233219552 0.59074748215837192 0 0 1 1 0.19361371598094076 0 0 0 0 0 0.35602222054800686 1 0 0 0.12022659728699839 0 0 0 0 0 0 0 0 0 0 0 1:-0.999471 2:-1 3:-0.8739 4:-1 5:-0.699588 6:0.0994443 7:0.149331 8:-0.102911 9:-0.826087 10:-0.866412 11:0.297872 12:0.98598 13:-0.807947 
-1 -1 -1 -1 -0 1 0 1 1 0 1 1 1 1 0 0 0 1 1 1 0.55517228076912295 1 0 0 0 0 1 1 0.011822125143546003 0 1 0.43336292456911835 0 0 0 0 0 0 0 0 0 0 1:-0.999217 2:-0.5 3:-0.677419 4:-1 5:-0.831276 6:0.213259 7:-0.369722 8:-0.223217 9:-0.73913 10:-0.641221 11:0.361702 12:1 13:-0.803532 
-1 -1 -0 -1 -1 1 1 1 1 1 1 1 1 1 0.86998671777867365 1 0 1 0.7933917752050923 1 0.22210996670492644 1 0.97132791339756985 1 0.1971893719697706 0.74532655211192822 1 1 1 0.68907133987837843 1 0 0.49861589605130546 0.35609286923142114 0.66620965701844992 0.27707432043070829 0 0 0 0 0 0 1:-0.99895 2:-1 3:-0.783724 4:-1 5:-0.572016 6:0.348151 7:0.239959 8:-0.584447 9:-0.913043 10:-0.683206 11:0.106383 12:0.995764 13:-0.780905 
-1 -1 -0 -1 -0.92968977420090104 1 0.56837660791787592 1 1 0.65107844343597476 1 1 1 1 1 1 0 0 1 1 0 1 0 0 0 0 1 1 0.89409817993785379 0 0.81679536812359699 0 0 0 0 0 0 0 0 0 0 0 1:-0.997399 2:-1 3:-0.821848 4:-1 5:-0.753086 6:0.174171 7:0.130793 8:-0.56977 9:-0.913043 10:-0.660305 11:0.148936 12:0.803722 13:-0.728477 
-1 -1 -0 -0 -0 1 1 1 1 1 1 1 1 1 1 1 1 0 1 1 0 0 0 0 1 0 1 1 0 0 0 0 0 0 0 0 0.90172372407418311 1 1 0.61276029247686026 0.51073808051803482 0.17145393824316463 1:-0.996983 2:-1 3:-0.257331 4:-1 5:-0.572016 6:0.0783675 7:-0.394439 8:-0.487892 9:-0.73913 10:-0.656489 11:0.276596 12:0.944072 13:-0.577815 
-1 -1 -0 -1 -1 1 1 1 1 1 1 1 1 1 1 1 1 1 0.46183550446320903 1 0 1 0 0.65944298707346538 1 1 1 1 0.50863908790806578 0.10779367294070655 0.062978034589404638 0 1 0.39310469899524247 0 0 1 1 1 1 1 0.72550767014061635 1:-0.998566 2:-1 3:-0.0153959 4:-1 5:-0.320988 6:0.180686 7:0.6931 8:-0.583246 9:-0.652174 10:-0.660305 11:-0.191489 12:0.979222 13:-0.560706 
-1 -1 -1 -1 -0.48116678913163069 1 0.71596781675593246 0 1 0 1 1 1 1 0 0 0 1 0.94405713035749372 1 1 1 0 0.042204923691199298 0 0 1 1 1 0 1 1 0.82676348749528095 0.86591988658552432 0.29261726028087331 0 0.1804833935369779 0.1554892015038751 0.12044571556735902 0.18540249783820723 0.12038658833766898 0.10303839161621901 1:-0.999355 2:0.6 3:-0.670821 4:-1 5:-0.893004 6:0.26461 7:-0.485067 8:-0.274868 9:-0.73913 10:-0.778626 11:0.404255 12:1 13:-0.9117 
-1 -1 -1 -1 -0.58914343666746816 1 1 1 1 0.58214551264157777 1 1 1 1 0 0 0 1 1 1 1 1 0 0.51270361921755059 0.30359515811909654 0.17863556846651851 1 1 0.36557992605158962 0 1 0.5666370754308816 0 0.058167128390222179 0.85273127102415391 0.26618662062578813 0 0 0 0 0 0 1:-0.997235 2:-1 3:-0.0131965 4:-1 5:-0.786008 6:0.194482 7:-0.419156 8:-0.121425 9:-0.73913 10:-0.610687 11:-0.276596 12:1 13:-0.749448 
-1 -1 -1 -1 -1 1 1 1 1 0.94864652376574876 1 1 1 1 1 0.6639291121274189 0.16699505080854035 1 0.80071558997420489 1 1 1 0 0 0.19437090012515615 0 1 1 0.21986068095894482 0 1 0 0 0 0.18844181167652291 0 0 0 0 0 0 0 1:-0.99891 2:-0.34 3:-0.8739 4:-1 5:-0.641975 6:0.170722 7:0.136972 8:-0.59254 9:-0.478261 10:-0.866412 11:0.234043 12:0.982147 13:-0.602649 
-1 -1 -1 -1 -1 1 1 1 1 1 1 1 1 1 1 1 1 1 0 1 0.029104036545009704 1 0.028672086602430147 0.78564847001778482 1 0.076037879421553226 1 1 1 0.20313498718091494 1 0 0.67462061645341365 0.32671541679758975 0 0.45673905894350358 0.46253765792770718 0.47820720807087536 0.46757536057775445 0.3428376241967318 0.42316785679603386 0 1:-0.999033 2:-0.34 3:-0.8739 4:-1 5:-0.641975 6:0.260011 7:0.38826 8:-0.626604 9:-0.478261 10:-0.866412 11:0.234043 12:1 13:-0.679912 
-1 -1 -0 -0 -0 -0 0 0.67410273466991655 1 0.47786386217956667 1 1 1 1 0 0 0 0 0 0 0 0 0 0 0 0 0 0 0 0 0 0 0 0 0 0 0 0 0 0 0 0 1:-0.998157 2:-0.75 3:-0.456745 4:-1 5:-0.427984 6:-0.0607396 7:0.312049 8:-0.194155 9:-0.652174 10:-0.526718 11:-0.446809 12:0.993444 13:-0.409492 
-1 -1 -0 -0 -0 -0 1 1 1 0 1 1 1 1 0.70903184743253544 0.9781897957061102 0.6001722238361471 0 0.3930534505675905 1 0 0 0 0 0.16825090139249388 0 0 0 0.23097229971540181 0 0 0 0 0 0 0 0.38724191493594096 0 0 0 0 0 1:-0.997663 2:-0.5 3:-0.657625 4:-1 5:-0.720165 6:0.109408 7:0.336766 8:0.108658 9:-0.391304 10:-0.629771 11:0.510638 12:1 13:-0.724062 
-1 -1 -0 -0 -0 -0 0 0 0 0 1 1 1 0.17796968702277155 0 0 0 0 0 0.37373971128258893 0 0 0 0 0 0 0 0 0 0 0 0 0 0 0 0 0 0 0 0 0 0 1:-0.998841 2:-0.75 3:-0.58871 4:-1 5:-0.901235 6:-0.11209 7:-0.61895 8:-0.0236521 9:-0.73913 10:-0.396947 11:0.340426 12:0.99652 13:-0.648455 
-1 -1 -0 -0 -0 -0.4887624203063281 0.074192914717400388 0 0 0 1 0 1 0 0 0 0 0 1 1 0 0 0 0 0 0 0 0.76097960873996817 0 0 0 0.4350873656214877 0 0 0 0 0 0 0 0 0 0 1:-0.998082 2:-1 3:-0.241202 4:-1 5:-0.884774 6:-0.0404292 7:-0.899073 8:-0.243841 9:-0.73913 10:-0.549618 11:0.404255 12:0.969792 13:-0.790839 
-1 -0 -0 -0 -0 -1 0 0 1 0 1 1 1 0 0 0 0 0 0 0 0 0 0 0 0 0 0 0 0 0 0 0 0 0 0 0 0 0 0 0 0 0 1:-0.999344 2:-0.5 3:-0.677419 4:-1 5:-0.831276 6:-0.00134125 7:-0.0978373 8:-0.223217 9:-0.73913 10:-0.641221 11:0.361702 12:0.96843 13:-0.681015 
-1 -1 -0 -0 -0 -0 0 0 1 0 1 1 1 0 0 0 0 0 0 0 0 0 0 0 0 0 0 0 0 0 0 0 0 0 0 0 0 0 0 0 0 0 1:-0.998976 2:-1 3:-0.704545 4:-1 5:-0.736626 6:-0.05959 7:-0.130793 8:-0.400267 9:-0.826087 10:-0.770992 11:0.255319 12:0.995411 13:-0.385762 
-1 -0.96971495961225873 -0 -0 -0 -1 0 0 0.37841462778060131 0 1 1 1 0 0 0 0 0 0 0 0 0 0 0 0 0 0 0 0 0 0 0 0 0 0 0 0 0 0 0 0 0 1:-0.998535 2:-1 3:-0.704545 4:-1 5:-0.736626 6:-0.0189692 7:0.110196 8:-0.523866 9:-0.826087 10:-0.770992 11:0.255319 12:0.991175 13:-0.629691 
-1 -0 -0 -0.96481407514073969 -1 -1 0 0 1 0 1 1 1 0 0 0 0 0 0.62898824688731603 0 0.067621484507676841 0 0 0.79947937824155912 0 0 0 1 0.79419706364331033 0 0 0 0 0 0 0 0 0 0 0 0 0 1:-0.999089 2:-1 3:-0.783724 4:-1 5:-0.572016 6:0.0944625 7:0.301751 8:-0.643045 9:-0.913043 10:-0.683206 11:0.106383 12:0.976196 13:-0.609272 
-0 -1 -0 -1 -1 -1 0 0 1 0 1 1 1 0 0 0 0 0.60020195712507096 1 0 0 0.66480328660493682 0.69917436063873695 0 0 0 0.48505275218666039 0.28457210911687059 1 0.87352966433803425 0.42033546931632021 0 0 0 0 0.23867685336909089 0 0 0 0 0 0 1:-0.999258 2:-1 3:-0.783724 4:-1 5:-0.572016 6:0.089864 7:0.46241 8:-0.643081 9:-0.913043 10:-0.683206 11:0.106383 12:0.983106 13:-0.642936 
-1 -1 -0 -0 -0 -1 0 0 1 0 1 1 1 0.70670191617027323 0 0 0 0 0 1 0 0 0 0 0 0 0 0 0 0 0.11308788223400136 0 0 0 0 0 0 0 0 0 0 0 1:-0.999197 2:-0.44 3:0.068915 4:-1 5:-0.674897 6:0.104043 7:0.0442842 8:-0.538725 9:-0.73913 10:-0.683206 11:0.191489 12:0.990469 13:-0.645143 
-0 -1 -0 -0 -0 -0 1 1 1 1 1 1 1 1 1 1 1 0 0 0 0 0.53525792026476715 0 0 1 0.0173941703944974 1 0 0 0 0 0 0 0 0 0 1 1 1 0 0.17306313727429254 0 1:-0.997875 2:-1 3:-0.299853 4:-1 5:-0.333333 6:0.208661 7:0.621009 8:-0.718484 9:-0.565217 10:-0.0648855 11:0.106383 12:0.993394 13:-0.534768 
-0 -1 -0 -0 -0 -0 0 0.45828149202111879 1 1 1 1 1 1 1 1 0 0 0 0 0 0 0 0 0.56532562443903067 0 0 0 0 0 0 0 0 0 0 0 0.089119114966758312 0.34071370273673274 0.30927636242355422 0 0 0 1:-0.998591 2:-1 3:0.846774 4:-1 5:-0.193416 6:-0.115156 7:0.375901 8:-0.794833 9:-0.913043 10:-0.996183 11:0.382979 12:0.960916 13:-0.302428 
-0 -1 -0 -0 -0 -0 0.88573451466223108 1 1 1 1 1 1 1 1 1 0.60815006933071036 0 0 0 0 0 0 0 1 0 1 0 0 0 0 0 0 0 0 0 0.38172161165485269 0.44430121726474653 0.42440035366777779 0 0.43643890036903082 0 1:-0.949735 2:-1 3:0.40176 4:-1 5:-0.0946502 6:-0.121288 7:0.831102 8:-0.764952 9:-0.652174 10:-0.175573 11:-0.553191 12:0.990973 13:-0.453091 
-0 -1 -0 -0 -0 -0 1 1 1 1 1 1 1 1 1 1 1 0.76198063157604212 0 0.93666669551652615 0 0 0 0.10189484535080851 1 0.79502747445636945 1 0 0 0 0 0 0.076922609456646904 0 0 0 1 1 1 0.83300179654291717 0.082332833432300509 0 1:-0.945078 2:-1 3:0.40176 4:-1 5:-0.0946502 6:0.0887143 7:0.901133 8:-0.79396 9:-0.652174 10:-0.175573 11:-0.553191 12:0.662817 13:-0.470751 
-0.24474180035788792 -1 -0 -0 -0 -0 0.09706793801468884 1 1 0 1 1 1 0.63237326993932752 0 0 0 0 0 0 0 0 0 0 0 0 0 0 0 0 0 0 0 0 0 0 0 0 0 0 0 0 1:-0.998243 2:-1 3:-0.736804 4:-1 5:-0.485597 6:-0.119372 7:0.355304 8:-0.714047 9:-0.652174 10:-0.583969 11:-0.148936 12:0.981492 13:-0.563466 
-1 -1 -0 -0 -0 -0 0 0 0 0 1 1 1 0.45166596581079288 0 0 0 0 0 1 0 0 0 0 0 0 0 0 0 0 0 0 0 0 0 0 0 0 0 0 0 0 1:-0.997075 2:-1 3:-0.257331 4:-1 5:-0.572016 6:-0.107109 7:-0.600412 8:-0.487892 9:-0.73913 10:-0.656489 11:0.276596 12:1 13:-0.495585 
-0 -1 -0 -0 -0 -0 0.34401993390617497 1 1 1 1 1 1 1 1 1 0.46417043884336262 0 0 0 0 0 0 0 0.71122624851140526 0 0 0 0 0 0 0 0 0 0 0 0 0.19292098118311507 0.26632328390866805 0.16051949340265315 0.30816512892437614 0.088339261973194971 1:-0.994477 2:-1 3:-0.257331 4:-1 5:-0.572016 6:-0.148496 7:0.437693 8:-0.413417 9:-0.73913 10:-0.656489 11:0.276596 12:0.962328 13:-0.0987859 
-1 -1 -0 -1 -0 -0 1 0.62232128347598126 0.60519564448099639 1 1 1 1 1 0.99461534724534173 0.20524233801822414 0 0 0.7729730983768256 0.58747183559632166 0.7931410995700392 0 0 0 0 0 1 0.66897377170059913 0 0 0.71667874591051905 0 0 0 0.74238012016887089 0 0 0 0 0 0 0.015118311419147648 1:-0.99526 2:-1 3:-0.257331 4:1 5:-0.572016 6:-0.139299 7:0.0484037 8:-0.541143 9:-0.73913 10:-0.656489 11:0.276596 12:0.969943 13:-0.210817 
-1 -0.27223090204558897 -0 -1 -1 -0.89630204871217511 0 0 0.63607909716808053 0 1 0.22439337667369558 1 0 0 0 0 1 1 0 0.41690677012752614 1 0.13799480958086452 0.35556751880116644 0 0.12665190417251943 1 0.57475431825327217 0.37514644744797576 0.021112134549443457 0 0 0.65088558307430944 0.51661867175752307 0 0.57356020620403114 0 0 0 0 0 0 1:-0.997595 2:-0.4 3:-0.672287 4:-1 5:-0.823045 6:0.278406 7:0.0587024 8:-0.0530968 9:-0.565217 10:-0.568702 11:-0.148936 12:0.971506 13:-0.467439 
-1 -1 -0 -0 -0 -0 0 0.79112239880528501 1 0 1 1 1 0 0 0 0 0 0 0 0 0 0 0 0 0 0 0 0 0 0 0 0 0 0 0 0 0 0 0 0 0 1:-0.997829 2:-0.4 3:-0.672287 4:-1 5:-0.823045 6:0.0718528 7:0.0298661 8:0.0741027 9:-0.565217 10:-0.568702 11:-0.148936 12:0.878209 13:-0.476269 
-1 -0.54722843929954024 -0.13860994051582992 -0.43823353242778906 -1 -0.050234778614981997 0 0 0 1 0 1 1 0.65217773632425524 0.07263613758636335 0 0 1 0 0 0.1733651896475466 0.98890878313344699 0 1 0 0 1 0.43932031854190834 0 0 0.4968381278450697 0 0.69214554626381719 0 0.11090057177555403 0.14676915860367634 0 0 0 0 0 0 1:-0.983021 2:-0.6 3:-0.742669 4:-1 5:0.0781893 6:-0.233953 7:0.23378 8:-0.844156 9:-0.652174 10:-0.706107 11:-0.914894 12:0.977306 13:-0.518764 
-1 -0 -1 -1 -0 -0.27421491756468624 0 0 0 0 0 0 1 0 0 0 0 1 0 0 1 0.65769471833415172 0 0.036374023807426152 0 0 1 1 0.095782707421465649 0 1 0.17678229739181808 0 0 0 0.0409937818232015 0 0 0 0 0 0 1:-0.999896 2:0.1 3:-0.868768 4:-1 5:-0.983539 6:0.108258 7:-0.402678 8:0.123535 9:-1 10:-0.568702 11:-0.425532 12:0.989006 13:-0.64128 
-1 -0 -1 -0.66075921105053992 -0 -0 0.042796337562697045 0 0.37836892705092806 0 1 0 1 0 0 0 0 1 0 0 0 0.32416102463195556 0 0 0 0 0.26826852424874054 0.62472928198693189 0 0 1 0 0 0 0 0 0 0 0 0 0 0 1:-0.99911 2:0.05 3:-0.643695 4:-1 5:-0.917695 6:0.0553746 7:-0.120494 8:0.125335 9:-0.565217 10:-0.59542 11:-0.148936 12:1 13:-0.676049 
-1 -0 -1 -1 -0.81328286030951691 -0.28970302686153843 0.93702357715316587 0 0 0 0.80833625567222478 0 1 0 0 0 0 1 0.42620463873064679 0.23906559165596866 0.81044981271319816 1 0 0.185846679885313 0 0 1 1 1 0 1 1 0.69188105599366667 0.74565382770998567 0.13242488557435628 0 0.045864819424278239 0.033411361449089315 0 0.047914345707320297 0 0 1:-0.998689 2:0.4 3:-0.869501 4:-1 5:-0.938272 6:0.066871 7:-0.645726 8:0.218198 9:-0.652174 10:-0.347328 11:-0.531915 12:0.855464 13:-0.821192 
-1 -1 -0.97590825796663483 -0.39883575357763223 -0.17618688407926919 -1 0 0 0 0 0.3601697726856099 0 1 0 0 0 0 0.10509141800307858 0.10906491992297263 0.93474639773022816 0.12811093249024907 1 0 0 0 0.061974436538522595 1 1 0.42877953313852896 0 1 0 0 0 0.38464712989391314 0 0 0 0 0 0 0 1:-0.999347 2:-0.32 3:-0.587243 4:-1 5:-0.802469 6:0.160759 7:-0.2276 8:-0.206667 9:-0.478261 10:-0.458015 11:-0.255319 12:0.9942 13:-0.571192 
-0 -1 -0 -0.35121382963558995 -0.91778452116003917 -0.78436590720556632 0 0 1 0.65029203710763506 1 1 1 1 0.65315907341343149 0 0 0 0 0.057148687775440743 0 1 0.068024342030019613 0.36566120213187536 0 0.959389954863476 1 0.13302190317577101 0.73891929400939493 0 0 0 0.84595126226744188 0.58461554308485897 0 0 0 0 0 0 0 0 1:-0.98906 2:-1 3:-0.307918 4:-1 5:-0.345679 6:0.178003 7:0.639547 8:-0.602088 9:-0.73913 10:-0.553435 11:0.234043 12:1 13:-0.844923 
-1 -1 -0 -0 -0 -0 0 0 1 0 1 1 1 0 0 0 0 0 0 0.64285386862812655 0 0 0 0 0 0 0 0.19996369771023412 0 0 0 0 0 0 0 0 0 0 0 0 0 0 1:-0.982374 2:-1 3:-0.307918 4:-1 5:-0.345679 6:-0.0185859 7:0.0278064 8:-0.72525 9:-0.73913 10:-0.553435 11:0.234043 12:1 13:-0.765453 
-1 -1 -0 -0 -0 -0 0 1 1 0 1 1 1 1 0.49108374124426174 0.78953846870928146 0 0 0 0 0 0 0 0 0 0 0 0 0 0 0 0 0 0 0 0 0 0 0 0 0 0 1:-0.994724 2:-1 3:-0.492669 4:-1 5:-0.555556 6:-0.0335313 7:-0.159629 8:-0.220453 9:-0.652174 10:-0.618321 11:0.489362 12:1 13:-0.389625 
-1 -1 -0 -0 -0 -0 0 0 0 0 0.46193505298420473 0.66606934692740016 1 0 0 0 0 0 0.55068101821423665 0.64268891511146187 0 0 0 0.15517635178185149 0 0 0 1 0 0 0 0 0 0 0.47435957370602433 0 0 0 0 0 0 0 1:-0.998631 2:-1 3:-0.796188 4:-1 5:-0.691358 6:0.0622725 7:-0.705458 8:-0.257063 9:-0.73913 10:-0.0725191 11:-0.0851064 12:0.890615 13:-0.690397 
-1 -1 -0 -0.62116461440318571 -0.072680014059151532 -1 0 0 1 0 1 1 1 0 0 0 0 0 1 1 0.61040471094376392 0.55543822500289131 0 0 0 0 0 0.36953350097934878 0.055654441650731509 0 0 0 0 0 0.15528771888128137 0 0 0 0 0 0 0 1:-0.998999 2:-1 3:-0.653226 4:-1 5:-0.465021 6:0.0557578 7:-0.274974 8:-0.0308541 9:-0.652174 10:-0.858779 11:0.617021 12:0.96374 13:-0.782009 
-1 -0 -0.53742129468016187 -0.35210390596257385 -0 -0 0 0 1 0 1 1 1 1 0 0 0 0.37552609658013758 0.6186931476769616 0 0 0 0.013625734884402919 0 0 0 0 0 0 0 0.95369013325565621 0.356725786225496 0 0 0 0 0 0 0 0 0 0 1:-0.998746 2:-0.2 3:-0.942082 4:-1 5:-0.81893 6:0.122437 7:-0.145211 8:0.393575 9:-1 10:-0.435115 11:0.510638 12:1 13:-0.765453 
-0.33943130937208726 -1 -0.046652187953162852 -0.21287507780194959 -0.020065720392023156 -0 1 1 1 1 1 1 1 1 1 1 1 0.15719989671567075 0.17765394948225688 0.5856182967033372 0 0.076029078542532685 0 0 1 0.021046511123161721 1 0.26767796495019658 0.0032894340766960401 0 0 0.031404550761198212 0.042213942944117809 0.017953883013705228 0 0 1 1 1 0.95856436434710934 1 0 1:-0.883209 2:-1 3:0.293255 4:1 5:0.584362 6:-0.0166699 7:0.658084 8:-0.710264 9:1 10:0.828244 11:0.617021 12:0.992587 13:-0.461921 
-0.70753178281709272 -1 -0 -0 -0 -0 1 1 1 1 1 1 1 1 1 1 1 0 0 1 0 0.1524621906572067 0 0 1 0.018515548451453413 1 0.67647352484489942 0 0 0 0 0 0 0 0 1 1 1 1 1 0.89654242660765737 1:-0.90435 2:-1 3:0.293255 4:-1 5:0.584362 6:-0.0224181 7:0.61483 8:-0.749111 9:1 10:0.828244 11:0.617021 12:0.968934 13:-0.396247 
-0.70829510745293212 -1 -0 -0 -0 -0 0 1 1 1 1 1 1 1 1 1 0 0 0 0 0 0 0 0 0.041926059964640827 0 0 0 0 0 0 0 0 0 0 0 0 0 0 0 0 0 1:-0.998734 2:-1 3:-0.159091 4:-1 5:-0.226337 6:0.161908 7:0.363543 8:-0.754658 9:-1 10:-0.671756 11:0.787234 12:0.975238 13:-0.56181 
-0 -1 -0.3014083188842106 -0 -0 -0.21641690073472367 0.61916478398364194 1 1 1 1 1 1 1 1 1 0.2415772110169046 0 0.32268753014119339 0 0 0.045244772828111415 0.081180752865976036 0 0.025544095699740581 0 1 0 0.27725877889649486 0.10535820111252223 0.29936964143843359 0 0 0.13515807443392708 0 0 0 0 0 0 0 0 1:-0.997679 2:-1 3:-0.159091 4:-1 5:-0.226337 6:0.238935 7:0.779609 8:-0.770972 9:-1 10:-0.671756 11:0.787234 12:0.982601 13:-0.737859 
-1 -1 -1 -1 -1 -1 -1 1 1 1 1 1 1 1 1 1 1 1 1 1 0.79830153966638728 1 0.064980203369392961 0.86857663691526399 1 0.31225711532702399 1 1 1 0.25419099584198013 1 0 1 0.33369130085671972 0 0.26366959888090613 0.79784695543191908 0.92556048923301082 1 0.15560263126149509 0.27381163760630667 0.057248590568361603 1:-0.996893 2:-0.75 3:-0.456745 4:-1 5:-0.427984 6:0.000574823 7:0.91967 8:-0.123226 9:-0.652174 10:-0.526718 11:-0.446809 12:1 13:-0.0386313 
-1 -1 -1 -1 -1 -1 -1 1 1 1 1 1 1 1 1 1 1 1 1 1 0.20169846033361272 1 0.5168000454356636 0.27550051891434563 1 0.59790078382602219 1 1 1 0.48459628020539453 1 0 0.1184234634717172 0.17921785081278013 0 0 1 1 1 0 0 0 1:-0.9968 2:-1 3:-0.406158 4:-1 5:-0.444444 6:0.213259 7:0.585994 8:-0.700243 9:-0.652174 10:-0.248092 11:0.765957 12:0.989208 13:-0.575607 
-1 -1 -0 -1 -0.4629905231489862 -1 -1 1 1 1 1 1 1 1 1 1 0.85654736126142439 0.53066907076822079 1 1 0 0.86710266698752625 0 0.068497312082058032 1 0.26704611796330163 1 1 0 0 0.74088392665867198 0 0.09418802382583509 0 0 0 0.8121900637832421 0.83839514367712231 0.75253523159915536 0.082852144374199452 0 0 1:-0.971515 2:-1 3:0.40176 4:1 5:-0.0946502 6:0.0304656 7:0.84758 8:-0.878366 9:-0.652174 10:-0.175573 11:-0.553191 12:0.7076 13:-0.791943 
-1 -1 -0.85101400225728685 -1 -1 -1 -1 1 1 1 1 1 1 1 1 1 0.14398392269979349 1 1 1 1 1 0.057109850856813485 0.22962561012614094 0.085543147139891487 0 1 1 0.88573575674052141 0.073431978886671648 1 0.04001416833473867 0.19520274437239232 0.11019160353450279 0.89521696563766462 0.060222691541142584 0 0 0 0 0 0 1:-0.986125 2:-1 3:-0.579179 4:1 5:-0.497942 6:0.271508 7:0.54068 8:-0.610345 9:-0.391304 10:-0.541985 11:0.0212766 12:0.967169 13:-0.547461 
