svm_type one_class
kernel_type linear
nr_class 2
total_sv 81
rho 0.00011299634618628244
SV
1 1:-0.555556 2:0.25 3:-0.864407 4:-0.916667 
1 1:-0.611111 2:0.333333 3:-0.864407 4:-0.916667 
1 1:-0.388889 2:0.583333 3:-0.762712 4:-0.75 
1 1:-0.611111 2:0.166667 3:-0.830508 4:-0.916667 
1 1:-0.388889 2:0.416667 3:-0.830508 4:-0.916667 
1 1:-0.166667 2:0.666667 3:-0.932203 4:-0.916667 
1 1:-0.222222 2:1 3:-0.830508 4:-0.75 
1 1:-0.388889 2:0.583333 3:-0.898305 4:-0.75 
1 1:-0.555556 2:0.25 3:-0.864407 4:-0.833333 
0.17998035272070473 1:-0.222222 2:0.5 3:-0.762712 4:-0.833333 
1 1:-0.555556 2:0.5 3:-0.830508 4:-0.833333 
1 1:-0.555556 2:0.416667 3:-0.830508 4:-0.75 
0.0077122509648085442 1:-0.833333 2:0.333333 3:-1 4:-0.916667 
0.28283193092138864 1:-0.722222 2:0.166667 3:-0.694915 4:-0.916667 
1 1:-0.611111 2:0.166667 3:-0.79661 4:-0.75 
1 1:-0.5 2:0.25 3:-0.830508 4:-0.916667 
1 1:-0.5 2:0.166667 3:-0.864407 4:-0.916667 
1 1:-0.388889 2:0.166667 3:-0.830508 4:-0.75 
1 1:-0.5 2:0.75 3:-0.830508 4:-1 
1 1:-0.333333 2:0.833333 3:-0.864407 4:-0.916667 
0.033078867943877446 1:-0.611111 3:-0.932203 4:-0.916667 
1 1:-0.333333 2:0.25 3:-0.898305 4:-0.916667 
1 1:-0.555556 2:0.166667 3:-0.830508 4:-0.916667 
1 1:-0.611111 2:0.25 3:-0.898305 4:-0.833333 
0.0098231285804469843 1:-0.888889 2:-0.75 3:-0.898305 4:-0.833333 
1 1:-0.611111 2:0.25 3:-0.79661 4:-0.583333 
1 1:-0.555556 2:0.5 3:-0.694915 4:-0.75 
1 1:-0.555556 2:0.5 3:-0.79661 4:-0.916667 
1 1:-0.611111 2:0.0833333 3:-0.864407 4:-0.916667 
1 1:0.5 3:0.254237 4:0.0833333 
1 1:0.166667 3:0.186441 4:0.166667 
1 1:0.444444 2:-0.0833334 3:0.322034 4:0.166667 
1 1:-0.333333 2:-0.75 3:0.0169491 4:-4.03573e-08 
1 1:0.222222 2:-0.333333 3:0.220339 4:0.166667 
1 1:-0.222222 2:-0.333333 3:0.186441 4:-4.03573e-08 
1 1:0.111111 2:0.0833333 3:0.254237 4:0.25 
0.81067371343528227 1:-0.666667 2:-0.666667 3:-0.220339 4:-0.25 
1 1:-0.5 2:-0.416667 3:-0.0169491 4:0.0833333 
1 1:-0.611111 2:-1 3:-0.152542 4:-0.25 
1 1:-0.111111 2:-0.166667 3:0.0847457 4:0.166667 
1 1:-0.0555556 2:-0.833333 3:0.0169491 4:-0.25 
1 1:-1.32455e-07 2:-0.25 3:0.254237 4:0.0833333 
1 1:-0.277778 2:-0.25 3:-0.118644 4:-4.03573e-08 
1 1:0.333333 2:-0.0833334 3:0.152542 4:0.0833333 
0.99739749611341766 1:-0.277778 2:-0.166667 3:0.186441 4:0.166667 
0.99952280526356607 1:-0.166667 2:-0.416667 3:0.0508474 4:-0.25 
1 1:0.0555554 2:-0.833333 3:0.186441 4:0.166667 
1 1:-0.277778 2:-0.583333 3:-0.0169491 4:-0.166667 
1 1:-0.111111 3:0.288136 4:0.416667 
1 1:-1.32455e-07 2:-0.333333 3:0.0169491 4:-4.03573e-08 
1 1:0.111111 2:-0.583333 3:0.322034 4:0.166667 
0.84646925954970798 1:-1.32455e-07 2:-0.333333 3:0.254237 4:-0.0833333 
1 1:0.166667 2:-0.25 3:0.118644 4:-4.03573e-08 
1 1:0.111111 2:0.0833333 3:0.694915 4:1 
1 1:0.555555 2:-0.166667 3:0.661017 4:0.666667 
1 1:0.222222 2:-0.166667 3:0.627119 4:0.75 
1 1:0.833333 2:-0.166667 3:0.898305 4:0.666667 
1 1:0.666667 2:-0.25 3:0.79661 4:0.416667 
1 1:0.611111 2:0.333333 3:0.728813 4:1 
1 1:0.388889 2:-0.166667 3:0.525424 4:0.666667 
0.029566302293651529 1:-0.166667 2:-0.333333 3:0.38983 4:0.916667 
1 1:0.166667 3:0.457627 4:0.833333 
1 1:0.888889 2:0.5 3:0.932203 4:0.75 
1 1:0.888889 2:-0.5 3:1 4:0.833333 
1 1:0.444444 3:0.59322 4:0.833333 
1 1:0.888889 2:-0.333333 3:0.932203 4:0.583333 
1 1:0.333333 2:0.0833333 3:0.59322 4:0.666667 
1 1:0.611111 3:0.694915 4:0.416667 
0.80294389221314821 1:0.611111 2:-0.166667 3:0.627119 4:0.25 
1 1:0.722222 2:-0.333333 3:0.728813 4:0.5 
1 1:1 2:0.5 3:0.830508 4:0.583333 
1 1:0.166667 2:-0.333333 3:0.559322 4:0.75 
1 1:0.888889 2:-0.166667 3:0.728813 4:0.833333 
1 1:0.111111 2:0.166667 3:0.559322 4:0.916667 
1 1:0.444444 2:-0.0833334 3:0.491525 4:0.666667 
1 1:0.333333 2:-0.0833334 3:0.559322 4:0.916667 
1 1:0.444444 2:-0.0833334 3:0.38983 4:0.833333 
1 1:0.388889 3:0.661017 4:0.833333 
1 1:0.333333 2:0.0833333 3:0.59322 4:1 
1 1:0.333333 2:-0.166667 3:0.423729 4:0.833333 
1 1:0.0555554 2:0.166667 3:0.491525 4:0.833333 
