svm_type nu_svr
kernel_type precomputed
nr_class 2
total_sv 80
rho -2.0476861422260586
probA 0.17302063198049486
SV
0.11339894534537784 0:13 
1 0:14 
1 0:15 
-1 0:24 
1 0:33 
1 0:34 
1 0:37 
-1 0:44 
-0.21019055577696599 0:45 
-1 0:51 
-1 0:52 
-1 0:53 
-1 0:54 
-1 0:55 
-1 0:56 
-1 0:57 
1 0:58 
-1 0:60 
-1 0:62 
-1 0:64 
-1 0:66 
-1 0:67 
-1 0:69 
-1 0:71 
-1 0:73 
-1 0:74 
-1 0:76 
-1 0:77 
-1 0:78 
-1 0:79 
1 0:80 
-1 0:84 
-1 0:85 
-1 0:86 
-1 0:87 
-1 0:88 
-1 0:89 
-1 0:90 
-1 0:91 
-1 0:92 
1 0:94 
-1 0:95 
-1 0:97 
1 0:99 
-0.28980944422303523 0:100 
-1 0:101 
1 0:102 
0.024973048783026853 0:103 
1 0:104 
1 0:107 
1 0:108 
1 0:109 
-1 0:110 
1 0:111 
1 0:112 
1 0:113 
1 0:114 
1 0:117 
-1 0:119 
1 0:120 
1 0:122 
1 0:124 
0.24887994213948483 0:125 
1 0:126 
1 0:127 
1 0:128 
1 0:130 
1 0:131 
1 0:132 
1 0:134 
1 0:135 
1 0:138 
1 0:139 
1 0:140 
0.11274806373210933 0:142 
1 0:143 
-1 0:145 
1 0:147 
1 0:148 
1 0:150 
