svm_type c_svc
kernel_type precomputed
nr_class 43
total_sv 505
rho 0.77548290247037854 -1.9471678844437743 -2.4052762438434496 -1.812702634626522 -2.7500196927313469 -0.24051221534341261 0.23198864329311877 -0.012971760135525529 -0.50500912532998832 0.47914793540486816 1.0764730059295986 0.18308752101386574 0.27061465244468147 0.35959871116444703 0.0015421473354317893 -0.22486342981077495 -0.42947009062035979 -0.85102709790693698 -1.5986860812919534 0.19092346727137927 -2.2537857184386945 -1.2098212799587511 -1.7061710849397302 -1.678733516207479 -0.073439714777986678 -1.1180647510947643 -0.17210882736282748 -0.29207638158692928 -1.549168297654395 -1.7432276012389436 -2.121084783578064 -1.784651304464433 -1.2006399112781936 -1.2407917559066091 -1.4322802256104352 -1.4459918232242956 -0.22010143437654828 -0.43883768003167895 -0.49457780810661889 -0.32537259696907372 -0.36520600745751769 -0.29675826371742248 -1.7416247085040875 -2.137043057743385 -2.2275512825593697 -2.6664771950260509 -0.74421865250895569 0.021765590784620665 0.10936851935350803 -1.829696888520691 0.26121699230264633 0.36279209085998815 0.64657542712763727 0.24448046595299 0.92159253888096004 -0.74457956808952441 -0.45965335315906997 -1.4626585332043367 -1.1759128175393774 -1.7585042880179318 -0.85034129830121485 -1.8392860998924772 -2.3776508971966166 -1.7029668792448904 -2.066024225973317 -0.58212464609613812 -1.9386129264319309 -1.8411224940991826 -1.3923562854076139 -2.4129769601319664 -1.6479496450884366 -1.8140583191201078 -1.5062087159869622 -1.8629503199875814 -1.8350111385139236 -1.6880331114820677 -1.4498423936274778 -0.20510449466919883 -0.30969683422982847 -0.75529260299040746 -0.060119933895986702 -0.69723536190638435 -0.78720227237559159 1.0297387482196496 0.30501833948872942 0.71242860252105689 1.9370571676342536 1.2662336186706762 0.8539532232579059 1.41603378905979 0.76197370424685174 1.709409269317635 1.3856428138674737 2.389430260275113 1.2338473308614903 0.70787620544433594 0.38875453149588296 0.29722924403583578 1.4915568600081133 0.73786464384464201 1.2464255673897533 -0.27277425038274994 1.2466171622757043 -1.431627030098463 -1.0137546653740985 0.0038275718688960958 -0.18991335054082437 0.40612468139906205 0.94119365024317136 0.22171241504564709 -1.2466652393341062 1.1908765873566705 -1.2179192261671563 -0.70285479547315788 -0.73897631105404571 -0.047173271310098158 -1.2815673736224522 0.011439138211575892 -0.033669424727381651 -0.047466488560902347 -0.053541751292725606 -0.098678972266473264 -0.063860474658117991 -0.20024896782394244 -0.098716285143776741 2.0918497592134844 1.8316211364364994 1.4019135080307521 2.091041588165508 0.52960150748133561 2.1365556624183601 2.0184330611324111 2.8086083885666828 1.4169335463896451 0.63815687450354164 0.1990147685563608 0.2396052307130728 1.5776421395867166 1.2747417531456202 1.5249658496203873 -1.4229458050455523 2.5119031144696176 -1.3415845714834227 -1.4136614094344488 -0.053244408136152672 0.098957411249844987 -0.02217551905686543 1.3290487494196337 -0.94824212434504207 -1.5745305013405222 -0.98435086594871157 -1.3379148496560136 -1.1151621999221544 -0.87780682635651497 -1.3492554395483498 -1.3828007819122832 -0.030133951699707957 -0.04643811237335093 -0.034291122896616934 -0.057382188669529113 -0.1058140285283883 -0.083521503274909009 0.67704552590780731 1.8494646322227426 2.6122722807330736 1.7165305585408674 2.0063230616604515 1.3566752000691686 1.8730515550626603 2.3540593233554268 2.3229251013207812 1.7167166605317259 1.0026381101186992 0.48203077022489893 0.59726834297180176 1.113087210531114 1.344059294358986 2.5147626282895921 -0.049326335786163286 2.0397770016642225 -1.5321788942019965 -1.965555887798446 0.027646640467431101 0.059090068009093055 0.29689989924449267 1.3775028752646041 -0.4161220155149582 -1.6040825670313295 -0.1455699925130631 -0.87235689163208008 -1.5492951499904353 -1.1717918650833548 -0.14572250654121258 -1.4802825656561178 -0.032991497257082329 0.016725168519943691 0.010268595735232608 -0.031080860650498691 -0.083383535582566989 -0.055291161714927962 2.165687969732506 1.414158397087367 1.521307338379063 2.219330132431975 0.72028785219134606 2.675793756081156 2.4962334095913121 1.6319605161477206 2.3061618178121335 0.53554099568774405 -0.066971934978317299 -0.11955827018292291 0.46569238969921789 1.5112900898043258 2.8555770863106189 -0.5886468278918966 0.89569142519650358 -1.3933431837139412 -1.1655395875747436 -0.23613789250913494 -0.12833632189139671 0.30264641710544138 1.7630660995283847 -1.2757608102960889 -1.6454983704341659 0.02620160557129831 -0.9542772930858594 -0.90719723298410049 -0.96448609721717204 -0.20956551305862461 -1.3073919854077438 -0.086080918294596673 -0.16665021437417948 -0.19413627007551135 -0.12919465916793618 -0.17052552160611709 -0.11120029604669975 -0.17714388584532531 0.25881040770706254 -0.21932674342649117 0.67823499579488888 0.87957486043594291 0.64014258988282369 1.8108003188989255 1.0221528379488278 -0.24366950851368244 -0.38466181994054588 -1.2754463519844519 -0.812477440624925 -1.3979975790347676 -0.79789095777840746 -2.1761254506005745 -1.534294836495022 -1.591464814281049 -2.106187318098907 -1.0850369893306242 -1.5024166337131533 -1.5802187441426494 -1.2242634786834035 -2.3280274602549191 -1.4104107895962381 -1.8175058983667951 -1.3150419812814544 -1.7076649337031291 -1.5953188955475992 -1.6989790901640514 -1.6473229134504552 -0.58742582908242635 -1.0195823630908034 -1.0170110946617756 -0.4862944548315713 -0.65789936707880425 -0.52858731687258753 0.32787532313756024 -0.94059427244012861 1.2605711556213124 -0.15449228582192231 0.44130347301070733 0.81211113534357371 1.4089968658498189 -0.16439974776629351 0.10313586872379268 -0.024447900434070184 -0.54970955938729149 -1.1310013219420281 -0.68090680374905732 -1.6368467185905142 -1.6194063888886523 -2.0784039177534872 -2.1622787032442217 0.30012873340680707 -2.2467435646524621 -1.9672946309132548 -0.81452233733757284 -2.259164438788416 -2.1625334196920512 -1.6075962184751389 -0.7863033931957184 -1.4949930513604213 -1.659531774708265 -1.6784378293364106 -1.8115335517186011 0.77305084695918458 0.18416128369753995 -0.16628930101300679 0.35432221455773766 -0.67463015746987431 -0.74669932810168382 -0.22230950032487731 -0.58272539832190251 -0.79078703940541661 -0.33089129727678546 -0.82680151801728841 1.6802465311928649 -1.5502383705852232 -1.9348218293738346 -2.295633951935605 -0.30920539894891325 -0.94273007575564238 -0.69277565102192484 -0.7138597086843631 -1.1895974748482316 -1.7109599660559027 -1.200094988315767 -1.0470327844547127 -1.5432201987683163 -2.2906377831442946 -1.0185514137370144 -1.5483519559174073 -1.7156837900164823 -1.5023399423385295 -0.40236316393896043 -1.0445981499110391 -0.90641236727368724 -0.74359311025486197 -1.0496506806131067 0.21678137047192658 -0.35818542064342601 -1.1731369677359236 -1.0921637173024177 -1.3241668184571505 -0.95472376240167556 1.3612188438719983 1.9043860488250706 0.78376059427962497 0.62252479250357551 1.5534913177682992 0.58709343709928918 0.053106499992508716 -0.35477634517455825 -0.82660261077494313 -1.237074584037178 1.0498764993154219 -1.1101852926403264 -0.98649647245998684 -1.6541125689649945 -1.4959209669890743 0.17292344605825188 -1.3815878441818152 -0.5948284246540414 0.13483406253502364 -2.1968858360840273 -1.756828007274045 -2.217812225383915 -0.8395115452494748 -1.1076645627914155 -1.1129412214707235 -0.53885864849908349 -1.503238584329021 -0.045628070631563551 -0.25568733946626521 -0.34945906770977242 -0.025106202367962443 -0.13435760204876135 -0.42348326132514935 -0.83860639984334251 -0.73277568196531462 -1.1808605514340922 -0.12282961592448571 -1.2013291797073118 -0.70412024486750702 -0.9083526773591134 -0.93074306201031198 -0.92110996920009658 -0.69445008754150983 -0.41371601445264322 -1.3628931749629254 -1.4142461401366806 -1.4187113503431843 -0.52579715335115496 -1.8670570590906017 -1.8481594310582385 -0.65406080034928038 -1.3400395209199756 -1.6244061201161846 -1.3248706913901209 -0.26573986919010134 -1.2905611347033654 -1.0847683186708048 -0.4529687037347081 -0.88381341893086507 0.61184074578305292 -0.080744093206113698 -1.1204664983105312 -1.2154310808575852 -0.69604408019827324 -0.64903452698301223 -0.26790499691159808 0.013119994008299602 0.82069749659391211 -0.72590590273872801 -0.67870305340892212 -0.94638656566045898 -1.3123875823093663 -1.4485370357159717 -0.26433344789263941 -1.532075470056973 -1.5784715210888718 -1.8450210722401892 -1.404220445722562 -0.47788118495084803 -1.4579012100275337 -1.6504686425255988 -1.1904014371150169 -2.1601570986437513 -1.8538984607079416 -2.2986146315585447 -1.3693563241247322 -1.2299422546695389 -1.4158989411903413 -1.0355424032654139 -1.3011382390364772 0.15761072765961651 -0.44236752563219339 -1.1367593696975817 -0.11529706981270318 -1.0502655946906256 -0.83696571623758076 -0.16211288380093525 1.8888833836364991 -0.77904507871882833 -0.41325157607564189 -2.329644681266664 -1.0111604234628706 -1.4061328265502893 -0.36613784592213766 -1.6582250333673416 -1.4654805547363756 -1.9111317187349168 -1.9004556497619749 -0.7764606475810375 -1.4777206097686477 -1.1262407985791454 -0.87474042612318004 -2.4143303532331708 -1.7761413268444166 -2.0361263331145123 -1.4051240822536466 -1.2240531756830704 -1.3388562659939596 -0.88617323712976293 -1.5461786666395514 -0.64528241795208763 -0.98789420723935972 -1.6307257974670193 -0.68610573882691595 -1.1502558223412316 -0.99678955615829312 1.187537205683231 0.14166897278296012 0.066342302691051347 -0.33882524624310312 -1.6231314706269064 -1.1337656574547503 -0.96164598336683282 -2.4027892165837317 -1.5637656797669699 -1.3514994314650872 -2.4750326964888716 -0.39597496116149761 -1.5350094789931366 -1.7744280642887935 -0.80418365011205029 -2.0322366397597622 -1.2274262689959134 -2.7769545588221449 -1.6857116343394154 -1.4364559272588404 -1.0800771186852181 -1.8453205886406716 -1.3948155757031717 0.041737956810822596 -0.35326228673358673 -0.76375180527074416 -0.21187824562296792 -0.7065573981689649 -1.0650326776325949 -1.3007991766738445 -2.0961354890326311 -2.3856626423174423 -0.96453002489840445 -1.1330859737079788 -1.5762957066582708 -1.1250088040754243 -1.4307046340938505 -1.7542069079915372 -1.9595233761257576 -0.53336619904065008 -2.0431467508693117 -2.0309343379431208 -1.2130699662022033 -1.3879730310399498 -1.7517648389734899 -1.6859601879115147 -0.76243647375834878 -1.4736055996669926 -1.4805457628218859 -1.3659232898176075 -1.5301659756680395 -0.3070836557468718 -0.15543858643979575 -1.5389422091240137 -1.1701814056271522 -0.87258905778577867 -0.91326281117488239 -0.72118502753985292 -1.4219558175714206 -0.61873948880966778 -0.90919680604674147 0.03211364729340941 -0.2286066737130345 -0.64476645866362481 -0.94603673216820139 -0.65941458386224561 -0.97263717087312285 -1.0821562972117829 -0.74986188453340497 -0.12148878355591268 -1.0100173161089985 -0.9877623296721717 -1.0483580988834289 -0.29120343613244393 -0.64904011338401701 -0.71599232148539182 -0.2911166681933362 -0.47879183153852312 0.32394825608759992 -0.48768853610558099 -0.89064351132705344 -1.0994082799794909 -0.10550287515155292 -0.82956191738299245 -1.3137977650467871 -0.33542719074570998 -0.40592044925580106 0.42554109429963116 0.11828791800957858 -0.29731603775665671 -0.82921457290649436 -0.26736790326433651 -0.55401806393693254 -0.55576254314400508 -0.82550462136139779 -0.21030225476791672 -0.90644166446560182 -1.0613664615832237 -0.81908394542898544 -0.29967055738456372 -0.28982965082184503 -0.52729009615881062 -0.28822272693611728 -0.19511467247487824 -0.16737183417112036 -1.5399448351655856 -1.8211099468401717 -1.3691004755771197 -0.84083510319091914 -1.0545414297266 -0.43167298188375597 -0.21695438542708143 0.043954813114972312 0.14589828203717467 -0.30649870942339791 -0.70666801012890179 -0.23038142748982343 0.94315127203050475 -0.37096236471741134 -0.53434737567031154 0.26837010157562557 -0.82795108517094806 -0.87171291446403343 -0.93058969463394647 -0.17595386097959662 -0.36048357882469501 -0.52462400373020002 -0.12293362288209207 -0.20811669700217239 0.82396828720350868 1.0969113112960369 -0.10615763495577538 -0.15392492509036415 -0.4042045220570456 -0.81695871436185985 -0.032507818298615744 0.86391092035500028 -1.6930014975306953 -0.1830159531928103 -1.9221186160518398 -2.5627286126993316 -0.025517164920359024 -0.21472793851420247 -0.36962888936006477 -0.55273061576720572 -1.3060418956587649 -1.9079733909722614 -1.4258385939448055 -1.2704990817190644 -1.5898138639616572 -1.4183329531702222 -0.6232676066841264 -1.7522336228200976 -0.055666451800590412 -0.12931594241805658 -0.11712687555403356 -0.12219175058753297 -0.16261407405879913 -0.079664413022517477 1.1851324719095611 -1.7437924365100907 0.065952582372979712 -1.6312903221447081 -1.8498576636421717 0.055110205066867327 -0.98783370655242086 0.23661264042442243 1.3000190572932695 -1.5964850018053793 -1.5644371208425829 -1.0960943067758586 -1.5230960845947266 -1.2188671836093774 -1.3170168787206362 -1.4556820896448326 -1.4413910356836117 -0.035063172285974019 -0.096302759612395247 -0.09886156419348574 -0.11837462623903351 -0.17703523439148441 -0.071733397687574987 -1.4617099133618396 -2.3346785999912414 -2.0616468601654985 -2.4679090095405591 -0.12288864942153253 -2.5072353698306902 -0.88681954749893444 -0.73952359274939994 -2.1044895759083238 -2.0960540847416311 -1.929259775731909 -0.94829931052565741 -1.465709255877657 -1.4405892437119163 -1.481520297949821 -1.7644062245178695 0.10888569909452499 -0.16876098989642932 -0.50142807638039677 -0.050536607471145391 -0.22909221524339352 -0.095175284516003392 1.1494704391474864 -1.4230739458989672 -0.84396268918594997 -0.41808061357724069 -0.54333390823234096 -0.019062313905049824 2.3109587632341322 -0.34084527713669438 -1.3563697991330907 1.0059321501106915 -0.60405670258635991 -0.34978066998631213 -0.3775838878379853 -0.79339197306639342 -1.1199880016574504 -0.003263288426961893 -0.073493986808387105 -0.11065010393410799 -0.078505853438640444 -0.11815074999066588 -0.068506640280392148 -1.9515265183852615 -2.3440177552280868 0.061691430217718647 -0.77148335219595365 -0.35342839290355882 1.3859312078647179 -2.4857979775160381 -1.9147631279896571 -1.2187766696730189 -1.2680741461475173 -1.7623071131606158 -1.4061765119358385 -0.45860738030606474 -1.6942389133417013 -0.026874487694064208 -0.089445113434914528 -0.11261964653582908 -0.079493779994983624 -0.15661619158831364 -0.07794088711230257 1.3037852857829508 0.43559575080871582 1.3743658065795898 1.2764280978224081 1.7104482002648214 1.4141887178873376 -0.036052227020263672 1.2591628981577734 0.43037548905764228 1.6970938671402467 1.6553118573206951 1.3168998010899018 0.52751851081848145 0.19411871250873125 0.15306121347235283 0.15856176971486344 0.13826903050806602 0.086959223015328657 0.13775187733064848 -0.03496225183453134 0.22544321674054868 1.0605445622831389 1.4914763468658681 1.3316559218873389 -1.3820661175938946 1.0418917874801088 0.58955895975653261 0.24762329378689127 0.45135811855690333 0.7835350924439497 -0.95482808176035139 0.050553978244126101 0.030731715452822134 0.016287327158753705 0.033810106913124638 -0.021462579309742536 0.020929165074385702 -0.51563617492254143 -0.91656174400456814 0.25044446957012101 -0.10740733336847268 -0.50460577011108398 -0.048985276785611244 -0.15812721936305746 -0.25290689111411013 -0.45705359886569741 -0.13701017723081899 -0.00078916763867839263 0.3920504536438747 -0.50823634980550403 -0.77590900801414886 -1.0704611829973198 0.00050423841932356714 -0.86237823400958824 0.91983683741313993 1.1409254316438051 -0.15183641958015245 -1.3664741516113281 -0.12743254720780345 -0.032727312312639888 -0.38495544132105031 -0.11389263388125892 0.62298801552154048 -0.70812678337097168 -0.0075859235324037344 -0.015479825482290224 -0.050828637134898852 0.01284149643579852 -0.095373501495730095 -0.025152697965940222 0.37550948122163563 -0.9971709866583176 -1.2753517378325114 -0.099828760600683214 -0.40303707086231527 -0.8353901617273074 -0.91357148489226414 -1.1065562336426271 -1.1859039428968257 0.72367546650853298 0.6227613572291899 0.19533880533067369 0.56971807486085513 0.13403496541924761 0.21657699730849597 -2.2101978685168477 -1.6309114974249379 -1.5100966236963584 -1.4081458787786427 -1.1668614562968447 -1.128629720453264 -1.9490665727152368 -1.5014281878797411 0.16487025139930828 -0.1497686763140221 -0.22596278435352737 -0.080558261481733229 -0.48869749374149135 -0.3340427296589088 -1.075537525719181 0.7460858436945047 -1.1966118065011171 -1.0762226438694125 -1.234870244124519 -0.079340963590759178 -1.3771881356328874 0.082232614778595253 0.046368827127587234 0.05037027647248498 0.055867215127073239 -0.024298072116445912 0.041514828799160026 1.10785350677331 0.35273025198586527 1.5802266810169066 1.5399033709554488 1.1662467531850791 0.56357073783874512 0.1826055512504012 0.16005262667509995 0.17237791153077039 0.14088347768938017 0.095913317166689771 0.14727612040743482 -1.1404754746580703 -0.64699207389335955 -0.8034046854907374 -0.90824369956678319 -1.1533213601983023 0.013147108861350849 -0.029503497259010893 -0.030322088307785679 -0.039222917409306016 -0.067072873638688454 -0.057939118313816873 0.25853769272807459 0.13056674512973515 0.32360461673195257 -0.1896410837602244 0.13138559057525434 0.089741986808630353 0.042354452167684291 0.043999154781324656 -0.006819618007774586 0.038055316353851232 -0.68791683358556033 0.093725465918285192 -1.4290732537005466 0.045886617721699718 0.01392211254335316 -0.026132568890213575 0.0034720457435486601 -0.082281198911791767 -0.01414751633459678 0.043746475659832022 -1.4282105593510412 0.078080577355704076 0.049574001101355285 0.030144861598434242 0.043994459168469426 -0.039073582845234517 0.030524489913930059 -1.0793858066221 0.11426763867070526 0.064129624488098724 0.010598031832272273 0.012698093784287046 -0.054913133742896303 -0.00070189097831377389 0.099773598728100196 0.057492324919917737 0.040605600804462016 0.044240165239253663 -0.0061161580346308364 0.041045286286922777 0.04324717418657114 -0.68796724670589948 -1.5260815419125251 -1.211019333667229 -0.91409974878823175 -1.2523248637986013 -0.9985607373421066 -1.4204219171392474 -1.0082291294582595 -0.9070287569070592 -0.54438138451344598 -0.94518391220297315 -0.098823413768526353 -0.74982963220406751 -0.45417785644531233
label 24 21 34 33 36 28 22 27 16 18 15 20 19 23 17 13 14 12 30 26 25 35 31 38 43 11 41 50 29 37 39 32 42 48 44 46 45 10 8 7 9 5 6
probA -0.99264417518030068 -1.7249813761412705 -1.6216106483049377 -1.6883221971799489 -1.0731206794509329 -0.39164316542815586 -0.83377225005927691 -1.2738321791370739 -2.1517985503255157 -1.9577945402291503 -1.438734382779626 -1.4729350599228861 0.061671012972586668 -1.6118154738951831 -2.086694103720578 -2.2317400204703159 -1.9205704267129597 -0.65592863053088335 0.60377993105735839 -0.31626326527508614 -1.5820088810266482 -2.0488229317191098 -2.9445151234941531 -2.4006231029129905 -1.5155482974831964 -0.73524736953292391 -2.5845288688076318 -0.28130143288534343 -1.9985665926712695 -1.6675355254512567 -0.79630931780249337 -1.9269997039819893 -3.147974578446695 -4.6440707786735969 -0.98310735540874428 -2.2359975098385987 -2.3232324175143027 -2.162019827956378 -1.9893217116972539 -2.1281711901652152 -1.8925782941420535 -1.6576959381518859 -1.862426387776569 -1.3784514980956459 -2.091506423251277 -1.105255650724482 -0.12972279676797113 1.2000998735519748 -0.94385022745318237 -1.1714681079152485 -1.4993957514076992 0.53106910821092934 -0.53572714764095508 0.020899249253365889 -1.2182988920985252 -1.5692925071686843 -2.1430526197259208 -1.6682981063018312 -1.7612166494459047 -0.37070340235272276 0.45804786873829162 -1.5671337524483138 -2.2520749108710518 -1.8483264348228219 -1.9965060739215148 -1.604563454670866 -1.0078221468013968 -2.1533214916227008 -0.76991324191453869 -1.8302556614518994 -1.4987138602575489 -1.3453517201846248 -1.1650236054741765 -1.9378409681141266 -2.8577165722428157 -1.9440921051936562 -0.90923508905036254 -2.0020941805537165 -1.9767935861086865 -1.9007865567418147 -0.82169248451106647 -1.9272333096972121 -1.3860249305823154 0.49528648907433154 -0.58666423880162188 -1.0813065490009337 -1.88813957785487 -0.51677527356694752 -1.4541604549108567 -2.0358512799115513 -1.7038311744687051 -2.7657516001549083 -2.4485741087004533 -0.93423146682034153 -1.7432100075258317 -1.691272175684468 -1.6049315245181408 -1.3524477027635335 0.27955534496469608 -1.3740169208667883 -1.3664363067707983 1.7740693924996285 1.1334222287668958 0.25024848273169847 -0.36527264582696595 -1.4378323273131193 -0.39124407678583978 -0.59967445512440254 0.60283927314421537 0.81050321373093404 0.068245436470824511 0.99911705608325274 5.8343711979185091 -0.53194353484592594 0.94817760052546041 0.066402780917209317 0.35058340255193332 -1.8925001667936425 -1.967650061500724 -1.7454419695648442 -1.5592636931792585 -1.4751570431448331 -0.99261325443689796 0.79020954760313988 -1.1738357200157081 -3.2134721312466543 -0.69910806679972071 -1.5299328943687529 -2.4435593181094188 -1.7785567439759569 -2.4501842970146916 -3.1366931089040109 -1.1830237671769697 -2.1478205485470214 -1.9863125870941691 -1.7759405218520155 -1.5365839842882223 0.45684494926691011 -0.23805759198411897 -1.0951315510575301 3.54235579733662 0.62441933998757304 -0.25896761965799781 0.15722030979308949 -1.7937714558696993 -1.5881909785895609 -1.093946947415517 -0.33680759854182418 2.4346315906566969 -0.39638781041923443 1.2469430362440257 0.044192571358192975 0.77574020032992597 2.6512810220593206 0.91290145584718696 1.1128632277754837 -2.2022525065198009 -2.2144454003975604 -2.0564976132562585 -1.9027732043294827 -1.7475001954408662 -0.80187507850303774 -0.7558168440815265 -3.1271659558890113 -0.53571143536933985 -1.4946003850721108 -2.4088460305543338 -1.7327943784516091 -2.9426894318911221 -2.889999744133958 -2.3237137865904938 -2.3926575505532397 -1.8225121815849874 -1.7054347131244512 -1.3442725497823298 0.23701272035492524 0.051957535707288789 -0.75526705612073741 0.55657791815970703 1.0286592461505903 0.97524007064020268 0.16434949196135115 -1.7813038523276341 -4.3702898400914911 -0.57942330682502063 -0.5839123056343728 1.2634877000927556 -0.35968126576628739 -0.12773341427959684 -0.58270059165924826 1.2784895795492977 4.0724380183135125 2.5353166195136616 1.8013525156407364 -2.0972438666861866 -2.2113502498461974 -2.0304800762947215 -1.7647184491356989 -1.6430418324685687 0.52129781837578837 -0.44061575767060146 -1.1476802012279006 -1.2931001416424797 -1.8292278075788657 -2.2229559912563777 -3.4992772912504635 -2.4249249092550413 -1.8596528783517463 -2.2437489801439079 -2.2679771057950302 -2.1893165462440778 -1.7936793605530634 -1.9828115239615793 1.3934176602402824 -0.3975625223213673 -0.64550566784231411 -1.6924516889609977 -0.63998253308251418 0.096323833616540511 -1.5746352737765315 -1.1086667117917854 -1.8640179941559694 -0.22977324402458929 1.1371910617064835 -0.68514082317174263 -1.0721826843905606 -0.39611994731784683 -2.1609832505925777 0.12965868241017525 -0.42831582046574501 -2.9188498925812398 -2.1982834990969304 -2.1048553790959619 -1.9916140471504433 -1.8375033320017089 -1.7200079331507239 -1.0628308247224265 -0.41599189121838465 -1.6267458814060625 -2.0051739584510329 -1.6324846882911772 -1.2463758762449946 -1.1864503169832199 0.5795074204721119 -1.3270003490898876 -1.7194054473170552 -2.2011033123779402 -1.771304963063647 -1.9771820997239742 0.087630795308394294 0.34000581457635537 -3.7074176545014232 -2.5952207936633296 -2.9256507325379721 -2.3229908361746889 -1.5388392098765862 -6.0255147962599622 -2.0919920482798671 -0.066422478975429633 -3.1530645022319916 -3.1036574348570145 -2.0953010714774547 -2.7856802809842205 -3.0035039893923807 -2.9273750835605012 -2.0056760469972792 -1.9858611122028085 -2.1051048645001136 -2.0475744003308138 -1.9423379660923683 -1.5937479202184082 -1.7556781652362501 -0.59282287968187697 -0.3123627705207479 -1.0632568207465845 -0.73024512176604872 0.1221609602079345 0.48690641202545693 0.87738379531609523 -0.4177397302731472 -1.595536568102794 -1.2304087863426543 -0.82305726269140767 -1.4242002345495797 -0.072011660935110466 0.2792624139482458 -0.33786211568068564 -1.1268552928750217 -0.12955136542488246 -1.2809272260462243 -0.85850572748523857 0.019473913720769908 -0.46907373442948513 -0.25044084291959295 -0.34849343865398408 -0.15541761143509661 -0.68821780389904263 -0.74795190265342271 -1.4792242968681923 -0.40870432595092421 -0.25738583245011459 -0.027251666574870465 -1.7150996242170369 -1.0329892882940415 -1.7222998875640037 -0.86419423092659386 -1.6538919937227039 -0.29383659169576881 -0.76859976948641073 -0.84005897768873961 -0.89364544039554761 0.30142026219898321 -1.0353120017514095 1.1126889854451487 -1.0559834576672911 -0.45460392925606163 -0.31128613328352567 -1.9686233642565496 -1.0276942941795697 -1.026129675160844 -1.4194820479049941 -2.3065253785428004 -0.63940124268823184 -1.8106055388403814 -0.5075254424394916 -4.3712715225144114 -2.3903661528553908 -1.639912114884065 -1.6844679652539951 -0.93008437985505799 -1.293979834877091 -2.1617040529041911 -3.2070566321115517 -2.123283356098177 -1.9231519239878385 -0.59278941398010554 -1.4526858030525462 -1.8593029009780222 -1.4929404249244578 -0.89465462541777729 -1.9129333413671155 -0.95878413265463103 -0.99648249233309694 -1.0463373735634514 -0.7727393986567388 -1.1718394527094371 -0.62214662580894731 -1.2020364859292343 -1.60230471779732 -1.7946427577393733 -1.9857293081586311 -1.5323384956728938 -1.7168372221721082 -2.3527279350211758 -2.7171972004118254 -1.3133703824917125 -2.0467461918240417 -1.5072588317101527 -1.1780345750442938 -2.4245106570622528 -1.53388662407328 -2.31910974942326 -1.077761054231545 -2.4483409728202541 -2.554968252827603 -2.5819531341877573 -3.8012494038513331 -2.9526128168164294 -1.2890124884751122 -2.1183053240567404 -1.7020428916868735 -1.7795551902066271 -1.2507229425493631 -1.7870949231835962 -0.17270197016541841 -0.99758051681427717 -0.5280217608827984 -1.7054355555954668 -0.0038183766868997359 -0.17972270731160431 -0.59655654403035008 -1.4324515223805403 -1.8623089270401598 -1.6097892748599536 -1.430891083568383 -1.6920739917807532 -2.0314224179399152 -0.79444027828387409 -1.8170192948802257 -0.24111889114164117 -2.2949129234066308 -1.7518432984397927 -1.3323233355453059 -2.0817207278378391 -1.2598504545661988 -1.6987750885270154 -2.0273159817642621 -1.9759536988424038 -1.7923346125015001 -1.3627966394213844 -0.51938975696098144 -1.4325221168134763 -1.3416369511932582 -1.2899740628458756 -0.30583207519188926 -2.1364618954399575 -0.71877525686793031 -0.31546671957136169 -0.62249689246120365 -0.72870838649682668 -1.679781209890322 -2.2556582465326205 -1.9495644184020189 -1.9243609087106872 -1.5952540556984482 -2.508494578712984 -2.3589484060629844 -3.2943618729182171 -1.6203169006367149 -2.3189777321102873 -1.7025259260889538 -1.7272308971076871 -2.5023135493695503 -2.7969098863801629 -2.9476504006553892 -0.96606910667302315 -2.5859968476576434 -3.6497324509742923 -2.8244526461744464 -3.7818754835098525 -3.6891341043979358 -1.950597414731011 -1.9996571020249874 -1.9759278396284212 -1.7990122999246381 -1.6653337261382894 -1.9500822910057043 -1.3409124067184117 -0.77720448244966056 0.10581309521237175 -1.1475405983406577 -1.4756825450275139 -1.2038390221224151 -1.9770785242273314 -0.84835720235445533 -2.442296041173909 -2.0870744795181193 -2.9883454724632545 -0.9774328448745675 -3.5882994001769726 -1.1795246940083937 -6.1642624799828516 -2.5400230679459526 -2.4780197849916776 -2.496611588475897 -0.87783977294463245 -2.155377903610681 -1.073612897623232 -2.3916448951678153 -1.96884392953942 -4.1866616854081284 -1.3423936006313686 -2.0327263971408795 -1.9657880686287768 -2.1011499723480065 -0.87668662511760354 -2.8785930677675475 -1.7610782276777073 -1.3446730144415342 -1.7577178186617648 -1.7665421612990813 -1.1300665912069454 -1.8493028280873518 -1.1863579223638003 1.264107406905546 -0.93494835427164313 -1.2906383687091953 -1.277552783006505 -1.9665867120922762 -1.1949001226617155 -0.93176715085461215 -2.0216317391984551 -0.38999495487884595 -1.6495263050245297 -3.7264378919466346 -1.2865712895898997 -1.8320996359898214 -2.6101802024881438 -1.9130326414853986 -3.1685908191203258 -1.5068716963097417 -1.4510977508034129 -1.4180177291303808 -1.8120672395944384 -1.5184270826492279 -2.0401734695176308 -0.86656491534640445 0.046786392367003507 -0.23118105092847385 -0.4069048334742934 -2.2914443725685789 -1.600560507739947 -1.6045760584320927 -1.9335473185935865 -2.3203506390688875 -0.66008819803148211 -1.94989642060673 -0.3407022637754839 -2.209868570617008 -2.6213992374401078 -2.0595283676447602 -2.049118365387959 -0.89463759322100778 -2.2006601416817637 -1.8600174902346516 -2.1734966752400213 -0.93142256969921733 -1.9844713436561185 -0.65171502263574932 -0.73845018483472924 -0.94844894199686214 -0.70999209465326785 0.29659019248594126 -2.2409026545223929 -1.2024292166525865 1.0755197072378124 -0.42870702932024196 -2.1975422457632727 -1.8478283642122506 -2.0262484116553972 -1.9237503246824408 -2.2218708380263119 -1.4137441527986054 -2.091107504839222 1.7935667910619049 -2.0070081691530808 -2.3677027302354636 -1.7041881027659662 -1.8647915489029885 -0.83227578522373435 -1.8585305519239905 -2.1865130431141426 -1.822348385235552 -2.5080845560610188 -2.3918522516604135 -1.3302746547452307 -0.28761662577598718 -0.44920072670623151 -0.83935612874883991 1.7743741901762509 -4.352250823061663 -7.2153397460696 -0.36577862232922487 -2.2172213593481138 -2.2197105965964448 -1.7819262349898364 -2.0641790192767133 -2.2433668993587732 -1.1161196852493092 -2.1450677616686336 0.52906734142063405 -0.93073326603412931 -2.0227650823466012 -1.7865633100986016 -1.9059006509584806 -1.1038384084522419 -1.8605084041812034 -2.1474210182881803 -2.2709397622173126 -1.92770740952467 -2.5702711427445757 -1.3266112017108613 -1.5959000283729654 -1.3068954412426337 -0.74529205960022304 -3.6412001348620571 -1.9083892045954665 -0.97480517318646742 -1.5840410656712212 -1.5275036445374894 -1.2739818590020391 -1.7314880965669768 -1.7422517423143788 -2.7160307933376369 -1.5667089632723783 -0.21394622650012893 -1.4488275376865571 -2.0296293708421969 -1.2663507905271356 -1.4989849132998823 -0.25359367154559326 -1.5264653691043024 -1.7258767853299346 -1.4663666493911338 -1.1168582928093129 -1.6649169259270233 -0.046529198240198057 -0.93720648226570547 -1.064136307700462 -0.16404575888245812 0.56259349414900639 -2.779595232040847 0.42443499781719302 -1.2169413253759542 -1.7931002025057974 0.49282210699548257 0.92686607368821472 0.021460277385271884 0.12562909857159202 -1.7836186556967271 0.049498876303722621 -1.5216865983701475 -0.71551659376394139 -0.37137248040958531 0.0036435341031460355 1.3057161389176766 -0.28897616464363474 -1.0125628614135729 1.8959014939102856 -0.5935427454077995 0.76510987149368059 -1.8671353433139439 -1.8216838446920136 -1.6875598390984712 -1.5434103879510903 -1.4792406567023015 -0.58765784424923917 1.2255705640270256 -0.61898142991573546 -0.75912520769606584 -0.67998748489575456 -1.2318971359615418 -1.5588337838257253 0.18050592711270111 -1.7917380661339581 0.76142287868283387 -0.0029246723061550892 -0.21190150691992307 -0.95416399370680771 -0.40707690082724374 -1.6992899814319156 -0.49309230077671573 0.001853182039321926 0.25553957772203628 -1.9241722940723274 -1.8357691374559075 -1.792097724043427 -1.7091979867983036 -1.5485893145217 -0.7648095465417768 -0.77911693856553232 -0.96456073877043191 0.057867295893494534 -1.6398170538875774 -1.2745362436908927 -0.79430844228215947 -0.97755781222468063 0.097143721945904538 -2.0924880589159565 -0.20278448330923027 -1.0120592813539768 -1.7305340772907809 -1.6064286032300312 -0.2932390715581879 -0.30165218202423921 -0.010732176889005357 -1.2328949776696445 -1.5621171374519334 -1.420462646856625 -1.3467823183550243 -1.5986029018603005 0.21347914669667581 0.73444509248814593 0.17901556091175574 -0.083553602274783992 -1.6329172953474782 -0.70692720213993732 0.32089799366047028 0.6083077900421342 1.1040946849700082 0.074829766992911023 1.1437743197790575 0.76610361197785271 0.50639044143399869 1.3142292036432393 0.68463083330957364 0.44775241262757509 -1.9581445864978821 -1.966269416758057 -1.8568951274905554 -1.5718076065173405 -1.493867809715528 0.6057097513152836 -0.096400035860752561 -1.0576918324767435 -1.8012793323646585 -0.25427935017753744 -0.30862278531204046 0.30992652149234851 1.530020141606149 -0.65875558577545057 0.36002997356042687 0.67903514312609059 -0.43671467766336419 0.91456038665187722 -0.51706119758689761 0.1589606114209034 -1.9749557325085316 -1.9987399081615982 -1.8478767963501923 -1.7147222754571751 -1.6683711989324626 -1.9757597639428781 0.47822340753223652 -0.23689186846430299 1.0598379769448687 -0.65680556470166851 -0.6340584736140028 5.949757503356345 0.69314717840248341 0.52320913784313672 1.9507726165460157 0.59858655631746815 0.96989264467807013 1.1883266470188585 0.69314717840248341 -2.7527284054767134 -0.69519628249407805 -0.25115426702916621 2.3193030017916452 -0.83269466708601669 0.69314717840248341 -1.3746629418839946 0.26279983386013134 0.86661121888015191 -1.6790698300744507 0.30119987339161769 0.48844465651942526 -0.42103101544265609 -1.4442867654804479 1.3871461073873126 1.1785200440423067 0.73100870628212178 2.0817307006355548 -1.9160462225533528 -1.9166470599722012 -1.7787807725669746 -1.5155086167674516 -1.411643772344549 2.3692156070053065 -0.86096006802558056 -1.586916097167308 -1.3310288724829613 -1.7490695454997334 -0.082071180677293951 -1.5376196111709093 -0.19267557448224276 -1.3810051568909545 -1.1100641656124468 -1.2112700874206015 0.041553248183970305 0.93945551367219737 0.20482727470364592 -0.31999185035747113 2.0928996875549508 -2.8845036068933076 -2.0574951212840964 7.8499448307845716 -0.21814363475275822 0.44816465242991455 1.1360481147547796 -0.80465573084033437 -0.86568576097905059 0.59375226892508703 1.017875538901261 0.77790314822885998 1.1375194020973449 -1.9472154693452541 -1.8205273928646477 -1.359367146333188 -1.5006465626596652 -1.3895626207349177 3.7704537723550815 -1.1463279775727084 -0.17116214066472676 0.045506741640232988 -0.920700922779358 -0.83641299427382554 2.901535555791948 -0.096335241275288266 0.14865580810957593 -1.2084437591315245 -2.2284401430747369 -2.2231971826927364 -2.2309477717031623 -1.4797827605889466 -1.8312816310318081 -1.9476927519437706 -0.59089090397146193 -0.86739254898804186 0.42801573853969171 0.92353909481805951 -1.7900572796600371 -0.49781838322485505 0.46109448911325657 -0.67542259001989779 -1.5673824878051412 -1.5540924389078756 -1.4431603290514441 -1.047976377291054 -1.0840842368516053 -1.0962241609603034 3.9377246969933348 0.98246855090102725 0.76224836034756394 0.78333429758519968 1.6345672005058598 0.58397805316658002 1.2503206052937643 -1.8593366934953233 -1.9848480473083052 -1.7187038587544941 -1.6177390442935324 -1.458681952206764 -0.88263570204250463 -0.00098370705013138332 2.432440110668975 0.77183549817890784 1.0104942458720165 1.2736107048837466 0.69314717840248341 -3.4902295766562679 0.074475403294743753 -0.011569769357008694 2.1908690333253507 -1.0268021594698598 0.69314717840248341 -0.027103726238333733 0.15623081259181562 2.933164060180856 0.17723101710985179 0.9669740808172711 -2.0476823919215454 -2.0797246339931892 -1.9386134022412209 -1.7155021311488399 -1.6215063485374805 -0.76097925663131594 -0.13002863050340319 1.6486979375599182 1.3762229334149223 1.8389789339508484 -1.7922920567996197 -1.786758579590392 -1.6838344181809528 -1.3815491141587175 -1.3081247141686538 1.3757640122276118 1.2125036183235363 0.70108180159252331 1.3956728585788556 -1.6664711592991091 -2.0583298661719263 -1.5492823348439251 -1.3566631401036655 -1.2681779497949139 -0.24497858907232889 1.3051897945273518 0.72423565341437057 -1.620528425832902 -1.6319907425119224 -1.4279297025970512 -1.2164374824189021 -1.1442889849060687 0.35805174884168883 1.0218328389991105 -2.2339950665982338 -1.6494162605473337 -1.7452645076739537 -1.4198855854226033 -1.346471795592687 0.72301327597494591 -3.0392646242424735 -0.64677188285508413 -0.19917843283553671 2.5832007512417841 -0.88704145753254637 0.69314717840248341 0.14770536533716669 1.1436883257483794 1.0459016043389311 0.12043667563447207 -0.55143325807231747 1.7361264152640832 5.0979963386592635 -0.32545363534494626 -0.21800525940781929 1.0924021651559377 0.072864172372472183 -0.87298368659549053 -0.81540547103536587 0.36000473022884988 0.43585832902572719
probB -0.012549737862340166 0.058950881000437737 0.1153751044259366 0.10659078012223368 -0.089501684486939334 0.24581975608674789 -0.29324397082744769 0.13235799446797111 -0.0034238352606992283 -0.15867362102426089 -0.012467824611405399 0.11086376183983475 0.41745343304067861 0.23831835315018987 0.083927793730822639 0.068343709520053184 0.050522535754621435 -0.6255359484626607 -1.7513917391875138 -0.57042834240103435 -0.18927271988602909 0.46452740713958413 0.50973684666052543 0.12942001786955246 0.057234565263547588 -1.6015516011891868 0.075391497550608852 -0.63494623744266587 0.42172682537418293 -0.72860250549809313 -0.5699780163136664 -0.062112046148851643 0.76394377575146388 2.6657266888207083 -1.2218407822100636 -0.33978049693977813 -0.17852244538686407 -0.084783748759181529 -0.22820080486640901 -0.38377022233114449 -0.70459605796109892 -0.58671496732290351 -0.45576910998458509 -0.46735628229912346 -0.025073182199786687 -0.37060148439521118 0.08858867998500132 -2.5338160307281905 -0.2257178556732696 -0.08225229272416873 0.10394105861628603 0.32096499152458735 0.13033541583773459 0.18248229076392966 -0.03316026618071731 -0.055190652794567467 -0.19368667663627365 -0.4057041752267424 -0.32583439434587746 -0.94731562268984448 -1.5073167098797289 -0.4669647487912168 -0.072504263021593213 -0.76764964931399171 -0.54481788319933933 -0.26251174685440964 -1.4709267135051924 0.17474037631949343 -0.50954314892136188 -0.22398127385708527 -1.1729872566994677 -0.56794433855462911 -1.1031928308234755 -0.76344272735490848 0.43463241988623719 -0.23187437329463884 -1.8912242236950385 -0.46060737920703476 -0.19120046961810427 -0.15723061041449515 -1.1387561122319263 -0.46858970412473588 -1.3012774613229487 0.93074889595752974 0.11986026010421971 0.18795608638158351 -0.061827538457453306 0.45501268829096464 0.39360591293173935 0.19927647328020728 0.19089437675955853 -0.048418472361672793 0.20369386348215898 0.76262136229957966 0.38755049115106166 0.47268116117633907 0.37405655419817729 0.37879914947778254 0.31942129805093905 -0.01351256242697035 0.2667474632982163 -0.70378462911788153 1.2024065247282805 -1.4137050914612568 -0.38315495780688569 0.32939978603738651 -0.4750201332529731 0.81904745212054264 1.0255096812261215 -0.39714003671833631 -1.2723369096295785 0.75185173769725266 -6.3362167241679348 -0.11579378064268729 -1.735763503271416 -0.82575775417549591 -1.5088536265458738 0.32533088349341921 0.32773997770381297 0.22436440231538238 -0.028258816643512371 -0.15524871790083786 -0.13369581114142232 -0.53590588509057457 -0.27951910848992634 -0.92701640084892678 -0.012271976461038163 -0.10531821254152136 -0.097408761183095119 -0.034146536118798927 -0.49726153429513187 -0.99595245109594344 -8.9544363614421228e-05 0.11966736967096714 -0.14273084535397476 0.07326700008481013 0.05106174915599173 -0.40355923627804924 -0.060912517825829939 -0.035980057913197187 -4.1614546164191211 -0.21875111789129725 -1.4829246624622461 -1.1596422947764853 0.23307726483161675 0.031211487482438228 0.18134241996267025 0.035648118060850456 -2.4420725596370438 -1.3110393263289641 -0.28780518965759005 -1.3625828037685641 -1.5060784876466053 -3.972286029061316 -2.2636003316931932 -2.7836560109450805 0.056674642199603768 0.063034794317777462 -0.080963986194070331 -0.36491867949637591 -0.43193224147647519 -0.91120630422445359 0.08398921572786662 -1.4254652120101761 0.32390260892232986 0.12746549017495415 -0.16286422425623281 0.27436333379467276 -0.76253809684795604 -0.75196239926704367 -0.80025125926993335 -0.43633870639167188 0.2125383113133448 0.095862800439191764 0.12094576340495729 0.16104211906100804 0.28063270228063975 0.38458981867091274 -0.70460707645656984 0.74950690479848159 -2.3141183623109423 -0.74816696674439198 0.25492273704984153 2.3659796946889475 0.63595012555420927 0.23470925243466109 -0.74813077351735002 -1.0004849495610224 0.12702780749084217 -0.34261691465401833 -1.5619358450674121 -5.8149002131807466 -3.245341567484187 -3.0643398586676884 0.16918166675523186 0.098588378023544074 0.10134088557235832 -0.15894930699921692 -0.28924356055591355 -1.8920754746878168 0.7735730346323354 0.29969471398018205 -0.090080764283428247 0.37141468435208363 0.14887748388496 -1.337413286842021 -0.46531340257114356 -0.67705036267968655 0.22953100023830517 0.16507856881813615 0.051135437550948792 0.13953986211327857 0.52383937611751064 -0.95869396209965907 0.042831682883876586 -0.44486483761255535 0.48552133610280035 -1.1876230554877321 -1.2032087165171526 0.2890583851821113 -0.40279209245068343 0.35076482260494185 0.053701866899067675 -1.6942027840952336 -1.1123540632832691 0.18133487725089367 -1.041245074768625 0.51753505363104457 -1.5492565354027952 -0.99036716519393297 1.2529248273251532 0.030753571694548305 0.141512125045724 0.1084400628147668 -0.24582218201025641 -0.4381623665644841 -0.7103106831466911 -0.9317775223833149 0.024533484320676285 0.029080296480109583 -0.13848771206525098 0.12442364761922127 0.060546988749817579 -0.018891404667892749 -0.09616626044554219 -0.04985881016956601 -0.34608530202905657 -0.61655654066282095 0.3193470908553756 -1.5518698299361577 -1.479328055252433 1.3461657447194011 0.97991994252500436 0.15305346562432418 0.48317788387103389 -0.55470843385999935 3.9384157852562227 -0.094546039746856186 -1.1778051704595371 1.6436833116980312 0.43115872394754629 0.089046999125251741 0.52824975000497498 0.69457650943491223 0.74247912222766799 -0.36991825017418078 -0.80912741199158456 -0.82353667080492554 -0.54445902294890691 0.02236357870194175 -0.87363463343139691 -0.98424559010597057 -2.3601743951116934 0.31209869738036533 0.28106371840248046 0.16863496949165876 1.5061861986341385 1.9274819834500019 2.3171936885026532 0.56510146339044265 -0.31884780268389074 -0.029166976409058035 -0.26551132557524559 -0.25298444873427101 -0.11771756857678546 0.32882208650175965 -0.49612208342112818 -0.28690354147751745 -1.5957525933777612 -0.39833801816905334 -0.20051383752217627 -1.3345438954464162 0.31517924707446421 0.039943147559605485 -0.42397609126230534 -1.5595613073813659 -0.14690818575132991 -0.57958098905282285 -0.5843202328210898 -0.92238438294894687 -1.076025141124582 -1.7184365221435658 -0.56178692391916729 -0.091468387652803601 -0.19748727795154325 -0.44209238586674693 -0.25893005275042758 -1.4424645348976131 -0.0091587171141953912 0.29591731919815423 0.22690740899872697 1.1112990103063758 0.42628130237149775 0.85258385229803368 -0.13741082452211181 0.074902444283117625 -0.46776539538774203 -0.11884325140393096 0.041676234154096714 -0.11825815276252084 -0.41717804673012915 -0.30106351575884349 -1.5382446809601387 -0.19274535646660251 -0.34599321044846509 2.1043040842347351 0.16470479009244776 0.033621267194362703 0.2133852341339133 -1.1869483391734792 -0.11473538813056612 -0.039105670433022544 0.69926672257118383 0.26984827670844985 0.010936909655458517 -1.5451066815738532 -0.24606620795810502 0.20421960506850895 -0.047725623071916183 -0.67633284904088808 -0.19522748310966151 -1.2451402670391085 0.032903577973121503 0.16878278775876454 0.077387514658041598 0.14524385582582647 0.14784754905255429 0.069410208877123777 0.15041144443493978 -0.3605750971343526 -0.21061202865941966 0.0089388212140517845 0.078455149117917927 0.35928448175120264 0.0049843232202473565 -1.2702362398073768 -0.30883671028615001 -0.15695925471068903 -0.96548640747212044 -0.10516572677645683 0.12159728151817135 -0.1542492907848414 -1.4892133306501676 0.24388070949623047 0.27795293966915263 0.04286832979883877 1.2867327350228919 0.6710459216450122 -1.1595675786172366 -0.53702413477678723 -0.17860584606608465 -0.30715034032977195 -0.91895923285040049 -0.71756707401182185 -2.5472506951054403 0.25258862683589423 0.40478171033417643 0.11689842022700053 0.3137513419095071 0.32200424726101701 -0.076079848803890016 -0.55804228870855443 -0.41360010828768179 -0.10953078362101906 0.038604980656988253 -0.30492618712095854 -0.57821894871422541 -1.2517246550221115 -0.52773188584204234 -0.47761425903405685 -0.012038914167315286 -0.366191614024234 -0.097108577816417227 -0.38625531275519304 -0.5777387599517545 0.12586892446000786 -0.30647197841151563 -0.18414390917685941 -0.23797151685139656 -0.2889783068104998 -1.6527153677820812 -0.60656830992557498 -0.031249555645020743 -0.37658178121862268 -1.1886076873316682 -0.22171882721689148 -1.5482477432194017 0.031801894604728043 0.079341545813444922 -0.1521692106539774 -0.10792160521733775 -0.46277727860474327 -0.25303548971431994 -0.22004953752755993 0.1117884979981785 0.90686104082044661 -0.12296043815461051 0.63753633128387199 -1.2046921004511559 -0.051908941499939278 0.017383599784179572 -0.62585760574031002 0.17266351438619215 0.77853296899659519 0.30959358007528875 -1.8708516977711986 0.037911590497255107 1.1742006355122205 0.12223715002879634 1.0639896466095262 1.0625874865951821 -0.85118390229565366 -0.22625536457266432 0.05572306271635534 -0.18516634480765204 -0.55042240169934031 -0.40008810332786782 -1.5138513456552201 -0.017039706795121512 -0.58869407796877604 0.075054060446135037 0.064678574437615322 -0.25531970004290322 -0.070506036993435578 -0.62646852716057588 0.7971545511298801 0.10432743015861093 0.17601332875724052 -1.8543123531462307 1.2648301861613884 -0.3854414794737735 3.3797392159094031 0.35708334054782653 0.29600877698298722 0.10333294504585204 -1.9964078664624214 0.14174581589217283 -1.1368918873601734 -0.42698826554726343 -0.50359995994497209 1.6694034533177746 -1.502690706755144 0.16099384233619571 0.071415215157349346 0.19365937525497925 -1.2759053816676771 0.63783601886407126 -0.99343729600367048 -0.021565431213413776 -0.31379015560183005 -0.41091286862197079 0.10945578761007869 0.34982910726185329 -0.17302888024902027 -2.5058459313233215 -0.96322794114676391 -0.17806964777925507 -1.6940859533082071 -0.12841777090555373 -0.60422437692774722 -1.6758088259968071 -0.0030666031120536049 -0.90354916661634965 -0.15009668985850419 0.9846187813989824 -0.16671832060778385 -0.34084451783309266 0.30279439342432507 -0.55581096621491477 1.3836500142894572 -1.3375658600881624 -0.56800695932409595 -0.40499816380382625 0.076448922558539162 -0.55427198069402284 -0.30537695761386563 -1.8900196507288645 0.094358980545657764 -0.1867434798338172 -0.72227005502173003 -0.014826851022536981 0.00010245423026575086 0.24347299981314438 -0.22436918013573617 -0.46998227961489314 -1.8021380826436646 -0.45998911180740248 -0.69441739033813166 -0.057348015385734225 0.07245808645454721 0.49258835789522565 -0.38286257155782122 -1.4677482448982713 -0.13051238985236874 0.24621671756462887 -0.38282223019221023 -1.0987544944800609 -0.014842896355499791 -1.7739386662870438 -0.55068826192953702 -0.43647217076227374 -0.46417445820435949 -2.2819081034510291 -0.14701163855595342 -1.33072766742098 -0.88552422224665994 -0.58306709977471516 -0.24235649025593792 -0.046045898877099346 -0.0046522132477392914 -0.35486423012895374 -0.5219233039745389 -0.74996160111048105 -0.32915150042863506 -2.7709531401711143 -0.69209271297819219 0.1675380507830154 -0.12159427238524696 -0.25700666691895196 -1.4761883879128628 0.08635359195791123 -0.5231665415020802 -0.87443789073126721 0.61372605593608498 -0.147193293324063 -1.0809123755536518 -0.67024104462906864 -0.60262641854205434 -0.44100728373803078 -3.8076298785237292 2.3669732584612166 4.7101720701245844 -0.50254187119810811 -0.15197874341550477 0.32040324219215954 0.32594419395113766 -0.30560449189514222 -0.19102686695891549 -0.77521145468560859 -0.11782645274783854 -1.0979364991860319 -0.98221756839753172 0.3480910422894592 -0.064522072452409443 -0.046027709527955686 -0.79976735533067467 -0.085289351056451398 -0.46024550743765974 0.051634120897219964 -0.43011042953976308 0.07823168178378638 -0.85488830002666871 0.20875058008534125 0.18397769331995575 -0.48686649017191791 1.9593587859478385 -0.43505957638298148 -1.3384540204197688 -0.21919354254481113 -0.26850685905159555 0.17871044243083933 -0.36001465888989992 -0.42611148418644612 1.8528043045402678 -0.49005926962228474 0.051402255099023825 -0.50581114679406802 0.35910955727306582 -0.15545688436624297 -0.31389055315126085 -1.440191762246924 0.02481178624340517 -0.54031722531303594 -0.51166959133515899 -0.71220726412336388 -0.41870990892915461 -1.6993045282772841 0.21317820858473091 0.20436520124104007 -0.17086495572120336 -1.5222176962970486 0.86320531154708535 -2.1597998788483905 0.030534235758827265 0.0090133939451234116 -0.79561433376763568 -0.031918622212733942 -1.5338728151571859 -0.82735259826595742 0.21133023686621519 -1.1265728588991786 0.094428372811017625 0.040238948792021709 -0.2393440808931285 -1.5162193914295998 0.15768123273829571 -0.81164633742161918 -0.085749354163665387 -2.6932978143527042 -0.50749727295528102 -2.2580964195111957 0.21371842527061252 0.36888120894203658 0.24186605377395107 -0.03331897607738727 -0.24172303202230278 -0.87737595292698167 0.5151172279848516 -0.31458457000996792 -0.15850922630796099 -0.91503620758379645 0.16619097854554085 0.28448047082633798 -1.3814969389574268 0.2990837811393961 0.3936711425683827 -0.44147298797558709 -1.418895383710564 0.12918937170470432 -0.66002400921032345 0.039454729292543671 -0.77862011276705845 -1.2101179682330758 -1.8860288265980192 0.18747256184975061 0.27725922911890183 0.11370673229565507 -0.18841733580050801 -0.36948444828084159 -0.78054778231079602 -0.39574925084908996 -0.26701866674136193 -1.9932228118768682 -0.34633776796514859 -0.013179173755459104 -0.8794573570551083 0.1770694516890069 -0.12461586115779082 0.099974767464403549 -1.7178641397232461 -0.32718236516772387 0.37227048661981066 -0.065119566451457209 -1.234082522244264 -1.2308507266876858 -1.9254173585659904 -0.27904340115200538 -0.01466283104086912 -0.044173606528611804 -0.40053640551722602 -0.45054438480167569 -2.1207548190444183 1.1944195204219548 -1.1765825307237154 -0.23589010782037204 0.32850414181452692 -0.51015379567525687 1.680921299327665 1.2870702945173069 0.5012743682406221 -1.0833659896223908 1.365582531699894 -1.1622691137367458 -0.36022511576620975 -1.4706072153062588 -0.81773017972794615 -1.4489885308793147 0.31266457928389235 0.32909046613634207 0.22005593271442409 -0.04738648647981767 -0.14314043669201434 -1.6086407222682879 -1.5396895772011123 -0.016063973264639105 -0.22412554752062547 -0.91671186000697236 0.57386632397563175 0.28880109838329332 -1.6173096172458876 -0.96379978955551593 -0.12393978978622021 -1.750968992913837 -0.57906304112952467 -2.0786835934053078 -0.70493939954757368 -1.7939718498936716 0.17813139632532579 0.2799660237842328 0.15140563732035303 -0.093993760166474705 -0.1689791962360562 0.57543379265551209 1.0451560606211048 1.4680702211168157 0.81542054434975098 1.5950054843815242 1.1741520642426646 6.9157449875545156 2.3918953807395669e-16 1.9408730704276103 1.6480012493132268 1.13734413626958 0.41395642063540272 0.61706273027675917 2.3918953807395669e-16 -1.0681874899507495 1.123136560959441 1.2534385574032285 2.9013282688190905 -0.072715961857386685 2.3918953807395669e-16 0.30385967120425239 -0.42771730200448949 2.3670380823074031 -0.20114390276869901 0.54932105952349097 -1.0520627055058482 0.50153906456899633 0.21488427191722526 -0.12816831497478551 -1.2815368219980614 -0.81160498321838304 -2.4164844243340795 0.36076367763671197 0.37905176093415316 0.27487570897936631 0.049434077152814081 -0.06664490893221528 -2.9852798808015644 -0.90189805308086279 -0.26757076474281916 -0.10402438830345817 -0.53172740325000911 -1.6608542328921958 -0.28998710389205878 -1.1201253659516439 -0.73350245354687837 -0.68566012899702455 -0.68071268717134681 -1.7875704357067301 0.38690858403259609 0.14929851460588411 -0.090024472292712376 -3.1014672729059671 0.71044714114786078 0.41239674323461323 10.008009257692185 1.2153619988099482 1.2233342088654344 -0.85333533680128648 0.40185848853770556 0.21152479675442659 0.61609802782738066 -0.0068485536388413516 -0.27013186474728157 -0.92161912615795705 0.23747235903978789 0.4084347802214498 0.47917301264214529 0.10162055836585462 -0.056558942121871222 -3.6019848681580138 -0.37463350581629906 -0.96425407209415148 -2.3402564957239025 -0.42536351147573831 -1.2632935776228831 -4.357557423411806 -1.7756694172602434 -2.0322316578103554 -0.99798860700328296 -0.36481036052953736 -0.23827890711755437 -0.079123435906286413 -0.55169322224634398 -0.58191076870293057 0.059854206972071743 -0.39031138690236672 -0.90130614944306653 -0.58599296782530108 -2.2652299599962831 0.037913320037053812 -0.95533360711860682 -1.8289917972228136 -1.1234830354718994 0.16507768251433089 0.0098500854725379252 -0.11905970284350668 -0.34847771918880172 -0.39982286040945536 -0.30208561563830788 -4.9871976285020336 0.63193147572121877 -1.3706811503592524 -0.78523003336254416 -2.0920325567617586 -1.3111389337159896 -2.3725758651813531 0.33235595389366923 0.37587280735380357 0.23639689194425734 -0.024801827081160414 -0.14556011250386028 -0.28708044356947948 1.5115958616999183 2.095236506646196 1.2708156611940289 0.54951422393002558 0.7190588177591003 2.3918953807395669e-16 -1.8096987397868605 1.9200553578308559 1.5009986911969968 2.7748975295918474 -0.27019297163903777 2.3918953807395669e-16 -1.0566193868094507 -0.88529837919895726 -4.036621889449826 -1.2366504946361321 -2.346600606882836 0.17170452811108289 0.14924854892592837 0.062126973063828417 -0.17659027707642244 -0.3239384989627595 -0.70872563042479719 0.26751518654747836 -0.02677591335290631 -0.10262588420407132 -1.1458318293753798 0.4301221549349748 -0.4334131863634641 0.35395972546621368 0.10333425422359925 0.029982689533424377 -1.6911059328225293 -0.52600920323044742 -0.64448676388674753 -1.3999657441244269 0.47319070445712552 -0.0092780140405120982 0.39772872310188956 0.12645652967299206 0.0055924339567283918 -0.5150364603019072 0.086302871915002827 -0.045515167568314592 0.42689129989552949 0.43983890911170631 0.40384316081885135 0.11293856038944572 0.011065577773248056 -0.76242539914323593 -0.3461548209099512 -0.91313000738733952 -0.3124616986561532 0.23251916414381607 0.019769643651993647 -0.074755369689521817 -1.0512487602486293 -1.3649851315320831 1.1861815205589756 1.3108543491635709 3.1648102210341436 -0.12598860571803583 2.3918953807395669e-16 -0.044309405581097396 -0.57796490969581116 -2.2268357361218678 -1.2171763467384362 -1.288642731238711 -1.5227171076888515 -6.2066284130904581 -0.86059639886520589 -1.6234869805537542 -1.4953578313987361 -0.80252693311006507 -0.62519901236270981 -0.12400895665316261 -0.95090043119960688 -1.1831543143117276
nr_sv 25 31 5 9 6 10 35 9 16 25 16 36 37 37 22 24 18 9 7 8 11 4 8 1 3 9 2 15 10 5 1 7 2 3 2 2 1 10 10 7 3 3 1
SV
1 0.76629745811355066 1 1 1 1 0 0 0 0 0 1 1 0 0 0 0 1 0.79305815260112678 0 0.4340155766529965 1 0.040910570084182335 1 0 0 0.47529945638787041 1 1 0 1 0 1 0.07339567503069476 0.39458599480634227 0.32336939612346222 0 0 0 0 0 0 0:1 
1 0 0 0 0.080593663843314373 1 0 0 0.036667245045051061 0 1 1 1 0 0 0 0 0 0 0 0 0 0 0 0 0 0 0 0 0 0 0 0 0 0 0 0 0 0 0 0 0 0:39 
0 0 0.52786651004317664 0.093533811772231287 0 1 0 0 0 0 0 0 1 0 0 0 0 0 0 0 0.84069422589932941 0 0 0.26001670473985261 0 0 0 0 0 0 0 0 0 0 0.34407345937221651 0 0 0 0 0 0 0 0:44 
0 0.39111827341696465 0 0 0.19336445374467132 0.95123813057330575 0 0 0.42383814711308765 0 1 0 0.080182256295713905 0 0 0 0 0.28328824541172998 0 0 0 0 0 0 0 0 0 0 0 0 0.3914648290857573 0 0 0 0 0 0 0 0 0 0 0 0:57 
1 0.41106531621389097 0 0 0.51893536246280425 1 0 0 0 0 1 0 1 0 0 0 0 0 0 0 0 0 0 0 0 0 0 0 0 0 0 0 0 0 0 0 0 0 0 0 0 0 0:71 
1 0.41309101587025104 0 0 0 0.8196150651248888 0 0 0 0 0.38659776729340439 0.91498124315495699 1 0 0 0 0 0 0 1 0 0 0 0 0 0 0.24710943762066379 1 0 0 0.13111013890576875 0.088612645700409498 0 0 0 0 0 0 0 0 0 0 0:75 
1 0 0.42366902727228622 0 1 1 0 0 0 0 1 1 1 0 0 0 0 0 1 0 0 0 0 0 0 0 0 0 1 0 0.5691311616435043 0 0 0 0 0 0 0 0 0 0 0 0:83 
1 0 0 0 0.14499466529271637 1 1 1 1 1 1 1 1 1 1 0.78948793709245579 0.18925143667572156 0.67944847325899482 0 1 0 0.65045540386531475 0 0.37051662863432544 1 1 1 0.00040047711540113688 0 0 0 0 0.26184387728906117 0.057837141916217499 0 0 0.1747001490952127 0.30343315179738345 0.36413132455833092 0.16000989631742762 0.14793785759256503 0.092160699843427868 0:159 
1 0 1 1 1 1 0.23609987303339711 0.5560660511355402 1 0.13180438990361795 1 1 1 0.14606106785291181 0 0 0 1 1 0 0 1 0.56110907469978877 1 0 0.78873064833551743 1 1 1 0.65935855796204523 0 0 0.058114021879192318 0 0 0.34367961285368392 0 0 0 0 0 0 0:178 
0 1 0.24127175120793271 0 0 1 0 0 0 0 0 0.037366174084443995 1 0 0 0 0 1 0 0 0 0 0 0 0 0 0 0.63187508400521641 0 0 1 0 0 0 0 0 0 0 0 0 0 0 0:202 
1 0 0 0 1 1 0 0.4426805622282351 1 0 1 1 1 1 0 0 0 0 0 0.828369734120179 0 0 0 0 0 0 0 0 0 0 0 0 0 0 0 0 0 0 0 0 0 0 0:207 
1 0 1 0 0.062111854656493798 1 1 0.42188347949434929 0.24100624732196488 0.93239607288352011 1 1 1 1 0.59215028503918932 0.058006922591984054 0.023784999499940469 0 0.98369992878166457 0.96690884517313869 0.79885646002136157 0 0 0 0.04037805058283922 0 0 0.81995736484568593 0 0 0.7752290961847802 0 0 0 0.79004103792200941 0 0 0 0 0 0 0 0:209 
1 0 0 0.47502994144456484 1 1 1 1 1 1 1 1 1 1 0 0.79931506326962376 0.59500659965697733 0.24829516040285715 0 0.88798432000668248 0 0.15751243408602131 0 0 0.0064906232299124277 0 0 0.38086111405891276 0 0 0 0 0 0 0 0 0 0 0 0 0 0 0:231 
1 0 0.4694270002994278 1 1 1 0 1 1 0 1 1 1 1 0 0 0 0 0.31517244410742862 1 0 1 0 0 0 0 0 1 0.091698996001228536 0 0 0 0 0 0 0 0 0 0 0 0 0 0:236 
1 0 0 0 0 1 0 0.14438871353468136 1 0 1 1 1 0.76391663578437086 0 0 0 0 0 0 0 0 0 0 0 0 0 0 0 0 0 0 0 0 0 0 0 0 0 0 0 0 0:247 
1 0 0 0 0 1 0.97799230224102063 1 1 0 1 1 1 1 0 0 0 0 1 0.33263011463347997 0 0 0 0 0 0.035263810441220469 0 0 0 0 0 0 0 0 0 0 0 0 0 0 0 0 0:249 
0 0 0 0 0 1 0 0 0 0 1 0 1 0 0 0 0 0 0.76397000958731565 1 0 0 0 0 0 0 0 0.53471097138219914 0 0 0 0 0 0 0 0 0 0 0 0 0 0 0:251 
0 0 0 0 0 0 0 0 0 0 0 0 1 0 0 0 0 0 0 1 0 0 0 0 0 0 0 1 0 0 0 0.79075483640076327 0 0 0.2324579460279674 0 0 0 0 0 0 0 0:252 
1 0 1 1 1 1 0.36224303463832103 0 1 0 1 1 1 0 0 0 0 0 1 0.72542878365751928 0.13717091634742118 0.84095126800003817 0.39798035521602892 0 0 0.019074768195672151 0.47893421536804559 0 1 0.34064144203795466 0.90900663672486037 0 0.45460357634002579 0.97629038833163251 0 0.073741622993618625 0 0 0 0 0 0 0:273 
0 0.018427936385342646 0.54773996376880141 0 0 1 0 0 0 0 0.99183671844227772 0 1 0 0 0 0 0.65884518670592696 0 0.27920783308536506 0 0.87840716792193296 0 0 0 0 0 1 0 0 0.22405813745532921 0 0 0 0 0 0 0 0 0 0 0 0:290 
0 1 1 1 0 1 0.56690870953330474 0 0 0 0 0 1 0 0 0 0 1 0 0.012827938047588869 0.78926282107889156 1 0 0.36946666662582212 0 0.043280405207439539 1 1 0.70812834017942716 0 1 0.50494859077454202 0.97391259780204897 0.89247679472145514 0.23884156187146449 0.25920936802923517 0 0 0 0 0 0 0:301 
1 0 0.030811344224883852 0 1 1 0 0 0 0 0.31133424063106802 0 1 0 0 0 0 0 1 0.74451580339651013 0 0.47267372612669262 0 0 0 0.11365036782015052 0 0 0.16844135434605001 0 0 0 0 0 0 0 0 0 0 0 0 0 0:326 
0 1 1 0.055684192086901431 1 0 0 0 0 0 0 0 1 0 0 0 0 1 0 0 1 1 0 0 0 0 0.70640992993859086 0 0.03173130947329441 0 1 0.6156839271242851 0 0 0 0 0 0 0 0 0 0 0:349 
0.3047897619332896 0 0 0 0 0.7785920237048336 0 0.031816008855009022 1 0 1 1 0.22384319999765664 0.76848506431079278 0 0 0 0 0.14409946492246412 0 0 0 0 0 0 0 0 0 0 0 0 0 0 0 0 0 0 0 0 0 0 0 0:352 
1 0 0 0 0 1 0.71786020254114424 1 1 0.49796296903878606 1 1 1 1 0.91948570404656282 0.80120515717750462 0.521729926321853 0 0 0.13210815566378722 0 0 0 0 1 0 0.057391463410112156 0.47930468991640929 0 0 0 0 0 0 0 0 0.23347931024847376 0.23846826148784492 0.23649145072157807 0.20601284755515537 0.19363284025077568 0.27266715213163234 0:495 
-1 0 1 0.9567174369915985 1 1 0.32028607744581772 1 1 0 1 1 1 1 0 0 0 0.24522588046410912 1 0.19565530960052177 0 0.49599989680385104 0.50183674856393545 0.24793747970845509 0 0.82727669808178472 1 0.063544560809994807 1 0.54607902600616898 1 0 0.23188590378459786 0.4428953242352649 0 0.64348933465487512 0 0 0 0 0 0 0:2 
-1 0 0 0.44381353290152675 0 1 0 0 0 0 1 1 1 0.38337166930225441 0 0 0 1 0 0 0.3083736972868672 0.80470909966948023 0 0.24374414359252108 0 0 0 1 0 0 0.41664525911308486 0 0 0 0 0.10332188149146997 0 0 0 0 0 0 0:13 
-0 0 0 0 0.24705162651478912 1 0 1 1 1 1 1 1 1 1 1 0.86617540272891003 0 0 0 0 0 0 0 0.45034538227282106 0 0 0 0 0.01929143909733461 0 0 0 0 0 0 0 0 0 0 0 0 0:30 
-1 0.081018125441181837 0 1 1 1 0 0 0 0 1 1 1 0 0 0 0 0 1 1 0 1 0 0 0 0 0 1 0.74421003138222541 0 0 0 0 0 0 0 0 0 0 0 0 0 0:38 
-1 0.57160394831270844 1 0 1 1 0 0 0 0 1 1 1 0 0 0 0 0 1 1 1 0.88790885369848338 0 0 0 0 0 1 0.11094315956271172 0 0 0 0 0 0.99513678383652004 0 0 0 0 0 0 0 0:45 
-1 0 0 0 0 1 0 0 0 0 1 0 1 0 0 0 0 0 0.86541722672988664 1 0 0 0 0 0 0 0 0.13182177725018482 0 0 0 0.71641116426318585 0 0 0 0 0 0 0 0 0 0 0:72 
-1 0.036787073733528651 0 0 0 1 0 0 0 0 1 1 1 0 0 0 0 0 0 0.50160039408504753 0 0 0 0 0 0 0 0 0 0 0 0 0 0 0 0 0 0 0 0 0 0 0:76 
-0.94105356920745831 0 0 0 0 1 0 0 1 0 1 1 1 1 0 0 0 0 0 0 0 0 0 0 0 0 0 0 0 0 0 0 0 0 0 0 0 0 0 0 0 0 0:79 
-1 0.48308453159900167 1 1 1 1 1 0.67865263034138845 1 0 1 1 1 0 0 0 0 1 1 0 0 1 0.44639583655337667 1 0 0 0.61112307759575879 1 1 0.4052282554503594 1 0 0.49179128282191603 0.29974839836341094 0 0 0 0 0 0 0 0 0:97 
-0.6258378444627043 0 0 0 0 1 0 1 1 0 1 1 1 1 0 0 0 0 0 0 0 0 0 0 0 0 0 0 0 0 0 0 0 0 0 0 0 0 0 0 0 0 0:111 
-0 0 0 0 0.09162583778023807 1 0.49011647862096175 0.99272876192596926 1 1 1 1 1 1 0 0 0 0 0 0 0 0 0 0 0 0 0.2346579478340283 0.082905336222489315 0 0 0 0 0 0 0 0 0 0 0 0 0 0 0:117 
-0 0 0 0 0 1 0.38664483856085119 0.52767476205722286 1 1 1 1 1 1 0.98134271910266491 1 0 0 0 0.020520681591010313 0 0 0 0 0.43695071216226827 0 0 0 0 0 0 0 0 0 0 0 0 0 0.098219723770364017 0 0 0 0:126 
-0 0 0 0 0 1 0.25655071558857573 0.94679270127823989 0.97886472138416347 1 0 1 1 1 1 1 0.40176786475427434 0.24783646227031306 0 0.4563225677641139 0 0 0 0.32674945837360925 1 0.43499555937023204 0 0 0 0 0 0 0.05783430417825855 0 0 0 0.20958121961292697 0.24177344544405185 0.23081327971256241 0.060335080476542506 0.036309553009890902 0 0:151 
-0 0 0 0 0 0.6312747770388577 0 0 0.5750343716622921 0 1 0.51136620430800239 0.28945904489527902 1 0 0 0 0 0 0 0 0 0 0 0 0 0 0 0 0 0 0 0 0 0 0 0 0 0 0 0 0 0:211 
-0 0 0 0 0 1 1 0 0 0.12420107924261584 0 0 0.95329310847074089 0 0 0 0 0 0 0 0 0 0 0 0 0 0 0 0 0 0 0 0 0 0 0 0 0 0 0 0 0 0:219 
-0.018352047120639866 0 0 0 0 0 0.17769212271711998 0.66900726360598384 0 0.75672503917922318 0.31301003232583274 0.82825948257350435 0 0.27655103155161986 0.7500219398890835 0.021784550996806439 0 0 0.24477314611519924 0 0.23754497439543815 0 0 0 0.10191788832639193 0 0 0 0 0 0 0 0 0 0.15274359092700726 0 0 0 0 0 0.018111938449250131 0.035706699989835902 0:222 
-1 1 1 0.98458404978420544 1 1 1 0 1 0 1 1 1 0.80215842062945486 0 0 0 1 1 0.95765510414318744 1 1 0 0.23650346269173689 0 0 0 1 1 0 1 1 0.99798996978097587 0.93142520732440437 0.25364780779674068 0.22244162794884165 0 0 0 0 0 0 0:255 
-1 0.66672752266253899 0.42057847168551044 0 1 1 0 0 1 0 1 1 1 0 0 0 0 0.44318636045339266 0.2951554828638237 0.63384750488360897 0.59683233382846212 0 0 0 0 0 0 1 0 0 0.70289571149140651 0 0 0 0 0 0 0 0 0 0 0 0:271 
-1 0 0 0 0.73200494517288839 1 0 0 0 0 1 0.65765852194322971 1 0 0 0 0 0 0 1 0 0 0 0 0 0.17766246066884567 0 0.25278467918836295 0 0 0 0 0 0 0 0 0 0 0 0 0 0 0:295 
-0.9167581953275038 0 0 0 1 1 1 0 1 0.26126644791938586 1 1 1 0.26126679628791122 0 0 0 0 0 1 0 0.18418092614783563 0 0 0 0.32032105245684483 1 0 0.63290445897593783 0 0 0 0 0.11555824514541438 0 0 0 0 0 0 0 0 0:314 
-1 0 0 0 0 1 0 0 1 0 1 1 1 1 0 0 0 0 0 0 0 0 0 0 0 0 0 0 0 0 0 0 0 0 0 0 0 0 0 0 0 0 0:320 
-1 0 0.98027472002781235 0.0022990012398067861 1 1 0 0 0.63140649694069428 0 1 0.86340683477973046 1 0 0 0 0 0 1 1 0 0 0 0 0 0 0 0.42876990904555567 0 0 0 0.030185762712306542 0 0 0 0 0 0 0 0 0 0 0:336 
-0 0 0 0 0 0 0 0.62167597038484435 0 1 1 0.14499282824431964 0 1 0.53058488426738881 0.297234553107527 0.30717627486946031 0 0 0 0 0 0 0 0.051737504194417146 0 1 0 0 0 0 0 0 0 0 0 0.21803000090499225 0.074501491845493095 0.069173735737188533 0.022241927125368783 0.009090328149435313 0 0:358 
-0.80278810581498306 0.18200138515542663 0.42544390155659445 0.16680391172984763 0.28908617717423596 0.57367037344634075 0.84444888419494346 0 0 0 0 0 1 0 0 0 0 0.2173679296291835 0.59465414429109031 1 0.15481736468121221 0.52166250571376405 0.051767414882687893 0.072436529726391558 0 0.23764248690175988 1 1 0.25721572692596245 0.029401279446137081 0.28480888224540379 0.11816229383701728 0.22049853943425188 0.21037282493150547 0.31105963929362351 0.030747155904813368 0 0 0 0 0 0 0:365 
-0 0 0 0 0 0 1 1 1 1 1 1 1 1 1 1 1 0 0 0 0 0 0 0 1 0 0.42460921673317403 0 0 0 0 0 0 0 0 0 1 1 1 1 0.58699526203034669 0.54914132074758937 0:367 
-0 0 0 0 0 0 0 1 0 1 1 1 0.49191140561840935 1 1 1 1 0 0 0 0 0 0 0 0.82618408126918874 0 0 0 0 0 0 0 0 0 0 0 1 0.69651695511903067 0.23901536172103563 0 0 0.38317784444510034 0:465 
-0 0 0 0 0 0 1 1 1 1 1 1 1 1 1 1 1 0 0 0 0 0 0 0 1 0.0021017425205329355 1 0 0 0 0 0 0 0 0 0 1 1 1 0.65021859825667194 1 0.031974134817474367 0:480 
-0 0 0 0 0 0.50908369882861082 0.52426088287173045 0 0 0 1 1 1 0 0 0 0 0 0 0.23439843793251025 0 0 0 0 0 0 0 0 0 0 0 0 0 0 0 0 0 0 0 0 0 0 0:484 
-0 0 0 0 0 1 0 1 0 0 1 1 1 0.34345257247723515 0 0 0.074057706085106034 0 0 1 0 0.092596027124164634 0 0 0 0 0.5362245768513797 0.14469010215213682 0 0 0 0 0 0 0 0 0.18283963750921334 0 0 0 0 0 0:486 
-1 0 0 0 0 1 0 0 0.53935142834902661 0 1 1 1 0 0 0 0 0 0 0 0 0 0 0 0 0 0 0 0 0 0 0 0 0 0 0 0 0 0 0 0 0 0:494 
-0 0 0 0 0 1 0 0.90871367633536049 1 0 1 1 1 1 0.24924030649956697 0.9221624610314797 0 0 0 0 0 0 0 0 0 0 0 0 0 0 0 0 0 0 0 0 0 0 0 0 0 0 0:499 
-1 -1 1 1 1 1 1 1 1 1 1 1 1 1 1 1 0.79421857509677862 1 1 1 1 1 0.98450623721904196 1 1 1 1 1 1 1 1 0.4948530678226204 1 0.81086991004041875 0.81796095925749546 0.69653751687600929 0.13030545021951181 0.18044456822359417 0.20311850272718227 0.12345630189321942 0.12099030573005119 0.10380092951962984 0:3 
-1 -1 1 1 1 1 0.7187826879094531 0 0 0 0.93947656725899853 0.52444030007351838 1 0 0 0 0 1 1 1 1 1 0 0 0 0 1 1 1 0 1 0.28521424366581805 0 0.33981050877743352 0.053186476323892826 0 0 0 0 0 0 0 0:41 
-1 -1 1 1 1 1 1 1 1 0.16002705516843657 0.57648471194593531 1 1 1 0 0 0 1 1 1 0.68465082909420416 1 0.015493762780958072 1 0 0.35690391411502315 1 1 1 0 1 0.21993268851156161 1 0.57618050831453327 0.57800879257171522 0 0.084154644237036696 0.046089714054691908 0.038862754222744114 0.062699501403069943 0.061457059021038991 0.084518085822187644 0:190 
-1 -0 1 0.15279987718976015 0 1 0 0 0 0 0 0 1 0 0 0 0 1 0 0 0.68733604985670715 1 0 0.1253350499591297 0 0 1 1 0.18175928132538666 0 1 0 0.50729898783044003 0.27313907286761441 0 0.3034624831239906 0 0 0 0 0 0 0:199 
-1 -0.021222586904386442 0.014212351789723942 0 0.38368620419324184 1 0 0 0.52822760425953108 0 1 0.83879390388193931 1 0.17835394642066155 0 0 0 1 0.09577167833481548 0 0 0.54019363303807155 0 0 0 0 0 0.84425748973331582 0.17293953797277833 0 1 1 0 0 0 0 0 0 0 0 0 0 0:200 
-1 -1 -0.088938356734230312 1 1 1 0 0.26672601321274081 1 0 1 1 1 0.87445551765157847 0 0 0 0.011316571624257893 1 1 0.83463079965702602 1 0 0.079729985443842216 0 0 0 1 1 0 0 0 0 0 0.26284368067165687 0.077146403462191593 0 0 0 0 0 0 0:4 
-1 -1 -0.52774969650106873 0.17414222497057158 1 1 0.79119067660792897 1 1 0.68300846140526739 1 1 1 1 0.1559494799271012 0.15003191142109326 0.12743243988293346 1 1 1 0.16425772371521896 1 0 0 0 0 0 0.63703908549703636 0.13627462623276801 0 0.7926770875466066 0.32701464049440326 0 0 0 0.0877089472306785 0 0 0 0 0 0 0:65 
-1 -1 -0.12389667072374687 1 1 1 1 1 0.40008649513342232 0.16123287958077021 0.78915753607829464 1 1 0.35295929163573925 0.61174400271423779 0.67211319188051177 0.45412164297247148 0.46072090587535691 1 1 0 1 0.92255010909215007 1 0.82930756658753091 0.95582477395416188 1 1 1 0.65654377993505098 0.74530835879710533 0 0.1940075966055817 0.17228181397237055 0.22679856549663527 0.28643062902288707 0 0.04484769578977519 0.086967439526859647 0 0 0 0:100 
-1 -0 -1 0.36848265634920374 0 1 0 0 0 0 0 0 1 0 0 0 0 1 0 0 0.82537651547844326 1 0 0.19453689047104405 0 0 1 1 0.24692638234256231 0 1 0.62134858291735828 0.69610475809802452 0.52368294615608324 0 0.19894692727715993 0 0 0 0 0 0 0:197 
-1 -0.41531436246453635 -0.13111565113276633 1 1 1 0.84008518351958739 0.79393618945200561 0.41382062759181121 0.75806071051954493 0.13400250613865594 0.58949593719990101 1 0 0 0.025947868625227903 0.027586087006748805 1 0.41211211790404251 0.0051770007320249729 0 1 0.017434249325026518 1 0 0.80995693201607266 1 1 0.60782036093413194 0.14621739056915301 0.47755386067579569 0 1 0.0034747218235301122 0.29096449081680881 0.26833419504425315 0.083313720192948776 0.1110361012895216 0.11248219163358444 0.098408958574720262 0.095451657806347373 0.086419693752732382 0:261 
-0.24078559681650855 -0 -0 0.053116490733393563 0 0 1 0 0 0 0.093737754188884151 0 0.31171523912502935 0 0 0 0 0.23391396278315346 0.13008582118297482 0.066841814621483212 0.0039064577818589937 0 0 0 0 0 1 0.1670131848384824 0.11438019283348369 0 0.17030404636436278 0 0.021018498267468648 0.028934864479831349 0 0 0 0 0 0 0 0 0:277 
-1 -0.53328198642872826 -0.21565604730987434 0 0.43983686677515654 0.68649723169967547 0.0012261854607869833 0 0.034918848294104521 0 1 0.24524720559412563 1 0.014197066885817495 0 0 0 0 1 1 1 0.37663096270919066 0 0 0 0 0.38401978028147632 1 0 0 1 0.051636776588238467 0 0 0.91304225087410806 0 0 0 0 0 0 0 0:278 
-1 -1 -1 0.91096616908247141 1 1 0.51279234209392166 0 0.83695373740027434 0 1 1 1 1 0 0 0 1 1 1 0.60728455235117407 1 0 0.48423388886867591 0 0 1 1 0.89459843765705416 0 1 1 0.088869147028925108 0.2716256535681848 0.30635101214079113 0 0.0064489724748462316 0 0 0 0 0.032486644024809566 0:304 
-1 -0.87770074437665269 -0.92685592938803751 1 1 1 0.44759190111628583 0 0.59107494502883617 0 0.92103633823898079 0 1 0 0.26634146818148274 0.36487636072676843 0.24063340983134757 1 1 0.2583708209585312 0.56454395101627863 1 0.060015641582823374 0.2414992352164379 0.20484118972575383 0 1 0.98956749874483674 1 0.19723882949579605 1 0 1 1 0 0.081432897962829834 0.14579109828446435 0.084351553536430257 0.053195880166175498 0.11004917489552161 0.11147332469461863 0.088094613293128884 0:307 
-1 -1 -0.90916643132791464 -1 1 1 1 1 1 0.52486917661855725 1 1 1 1 0.2129682967823959 0.24770914941564928 0 0.17361060648576232 1 1 0.98413197474538849 1 0.7480045276974876 0.50185149203499502 0.0098182725740510492 0.75262233078947971 1 1 1 0.40968002373047396 0.99262513422027221 0 0 0 0.36364532552019674 0.35670153981871877 0 0 0 0 0 0 0:5 
-1 -1 -0 -1 1 1 1 1 1 0.59134185235006442 1 1 1 1 1 1 1 0.85533775274039159 1 1 0 1 0 0.28277878684573465 1 0 0.092997546582247431 1 1 0.30634900164819534 0.63262405786133069 0 0 0 0.13862501430611077 0 0.0018095001383191449 0.12676732617572836 0.12326825186795433 0.049621865388992548 0.033643183623951647 0.032007463783410683 0:182 
-1 -1 -1 -1 1 1 0.93212052658339428 0.47870068745853489 0.91973383402532105 0 1 1 1 1 0 0 0 1 1 1 1 1 0 0.65223807282082236 0 0.017457167879047619 1 1 1 0 1 1 0.81405727089107183 0.66076801376164596 0.46321564251808522 0.26474317354819726 0 0.00021883585144864915 0.0061199334649087002 0 0 0 0:193 
-0.62424794530369787 -0 -0 -0.50670754113564032 0.082482631364230521 1 0.51868779555193356 0 0 0.64407437871937567 0 0 0.85244330629369958 0 0 0.11409357077674265 0 1 0 0 0 1 0.25199547230251246 0.47685019689040714 0.099600246184355867 1 1 0.0051021627952562241 0.92363377027718163 0.28397097462133059 0.73438786984727766 0 1 0.35949135154854489 0 0.34735494466805994 0.1211976249942219 0.11385304432104852 0.12219552690583288 0.11030140931384425 0.11660829509210735 0.046866379424345919 0:259 
-1 -0.55421793264698538 -0.2436334458618456 -1 1 1 0 0.50723889010081247 0 0 0.12881894895730076 0.15167195858582844 1 0 0 0 0 1 0.33678190041795297 0 0.21948330880506628 1 0 1 0 0 1 1 0 0 0 0 0.31387188482209394 0 0.060446788157575732 0 0 0 0 0 0 0.043115518595363986 0:265 
-1 -1 -1 -1 1 1 0.58421334480955101 0 0.92644602863054371 0 1 1 1 0 0 0 0 1 1 1 1 1 0 0.086281451408040763 0 0 1 1 1 0 1 1 0.87207084428683412 0.97974063468980921 0.43070637808021162 0.031200341965024105 0.10742676270140851 0 0 0.046637767881077916 0.053151213147086686 0.082029859636473468 0:305 
-1 -1 -0 -1 -0 1 0.24794666545533278 1 1 0.68076439987398052 1 1 1 1 0.21484622312972734 0.52300481135301391 0.13469441476495786 0 1 1 0.077464530036058188 0 0 0 0 0 0 0 0 0 0 0 0 0 0 0 0 0 0 0 0 0 0:6 
-1 -1 -1 -0 -0 1 0.26415715896633951 0 0.71566940515524957 0 1 1 1 1 0 0 0 0 1 1 0.42826441041912938 1 0 0 0 0 0 1 0 0 0 0.43597247866928546 0 0 0.31500684924476835 0 0 0 0 0 0 0 0:81 
-1 -1 -0.089616201096282752 -1 -1 1 0 0.04383766549667132 0 0 0.58809945494646232 0.12853283328316201 1 0 0 0 0 0 0.81588003828646538 0.040532569796518682 0 1 0.98025213422364432 1 0 0.85607372905023826 0.90266935929919989 0.81297904811489363 1 0.70078198293909233 1 0 0.13191312009359518 0.19363066084927957 0.31966160155466039 0.24651770245684285 0 0 0 0 0 0 0:90 
-1 -1 -0 -0.61053321446134956 -0.68903016430100383 1 0.010083548673517413 1 0.73749955398730538 0 1 1 1 0.40812683139013345 0.19107288520903748 0 0 0 1 1 0 0 0 0 0 0 0 1 0.93813268725449517 0 0.22608463128422104 0 0 0 0 0 0 0 0 0 0 0 0:96 
-1 -1 -0 -0 -0 1 0.1655878954217469 1 1 0 1 1 1 1 0.070377513791944527 0 0.019196750911476223 0 1 1 0 0 0 0 0.43613804688974617 0 0 1 0 0 0 0 0 0 0 0 0 0 0 0 0 0.02917382418558815 0:214 
-1 -1 -0 -0.18452147503789251 -0.25576333569945714 1 1 1 1 1 1 1 1 1 1 1 0.75069930065555246 0.32085623657347545 0 1 0 1 0 0.53865518863607098 1 1 1 0.25922425095256979 0.40492503254067574 0.10205444603598222 0 0 0.31983148927307969 0.2485877769352173 0 0 0.30473317811949718 0.36644975064307872 0.39698819860663614 0.27231678661870218 0.26620113977450083 0.23266391647418014 0:218 
-1 -0.3597685866421515 -1 -0.64478217727591469 -0.27117925732907266 1 0.24839748571407635 0 0 0 0.88245367974563005 0.66450515880387073 1 0 0 0 0 1 0.64088859174823931 1 1 0.96829333869687717 0 0 0 0 1 1 1 0 1 1 0.69622113677730635 0.75047695033734096 0 0 0 0 0 0 0 0 0:291 
-1 -1 -0.71628054666730734 -1 -0.86650987403469693 1 0.87376324921391757 0 0.21093760444999787 0 1 1 1 0.33994430508950568 0 0 0 1 1 1 1 1 0 0.29670590049532408 0 0.14392627094976179 0.38236929881478365 1 0.37027011676540589 0 0.96656205008452523 0.56402752133071454 0.24116372538402567 0.1936030453797129 0.59583755009915196 0.27594406531898891 0 0 0 0 0 0 0:296 
-1 -1 -0 -1 -1 1 0.60612666784302527 0.45206949896219717 1 0 1 1 1 0.20379872584566583 0 0 0.12887256833663993 0.96366974626551316 1 0.45537493945766011 1 1 0 0 0 0 0.25658348056003299 1 0.28667216343942331 0 0.51935117428881816 0 0 0 0.18471713583045177 0 0 0 0 0 0 0 0:306 
-1 -1 -0.57778945642965163 -1 -1 1 1 0.1371508621754762 0.69950494772066407 0.55815292011349038 1 0.99659186740334627 1 0 0.13040202303693368 0.26246741281213187 0.087210134247696178 1 0 0 0 0.92614451856367042 0.019747865776355678 0.64972473905046779 0.0095640354681556985 0 1 0.19462948889617002 1 0.1971635710249254 1 0 0.84980444281028367 0.6137015664984492 0 0.47753823222416825 0 0 0 0 0 0 0:308 
-1 -1 -0 -0 -0 -0 0 0.11572141705846901 1 0 1 1 1 1 0 0 0 0 0 0 0 0 0 0 0 0 0 0 0 0 0 0 0 0 0 0 0 0 0 0 0 0 0:7 
-1 -1 -0 -0 -0 -0 1 1 1 0 1 1 0.6793438042173745 0.73162962109398244 0 0 0 0.040038677476467291 0.845530321065881 1 0 0.11877281257438489 0 0 0 0 0 0 0.070352586801523967 0 0 0 0 0 0 0 0 0 0 0 0 0 0:63 
-1 -1 -0 -0 -0 -0 0 0 0 0 1 1 1 0 0 0 0 0 0 0 0 0 0 0 0 0 0 0 0 0 0 0 0 0 0 0 0 0 0 0 0 0 0:68 
-1 -1 -0 -0 -0 -0.36116595015752478 0 0 0 0 1 0 1 0 0 0 0 0 0.43550778564077819 1 0 0 0 0 0 0 0 1 0 0 0 0.42449971075973697 0 0 0 0 0 0 0 0 0 0 0:73 
-1 -0.061338027057002011 -0 -0 -0 -0.68927010160180002 0 0 1 0 1 1 1 0 0 0 0 0 0.39819251894523577 0 0 0 0 0 0 0 0 0 0 0 0 0 0 0 0 0 0 0 0 0 0 0 0:84 
-1 -1 -0 -0 -0 -0 0 0.372793175883122 1 0 1 1 1 0.41367269099564347 0 0 0 0 0 0 0 0 0 0 0 0 0 0 0 0 0 0 0 0 0 0 0 0 0 0 0 0 0:87 
-1 -1 -0 -0 -0 -1 0 0 0 0 1 1 1 0 0 0 0 0 0 0 0 0 0 0 0 0 0 0 0 0 0 0 0 0 0 0 0 0 0 0 0 0 0:88 
-0.049276942461639481 -0 -0 -1 -1 -1 0 0 0.097122384109401591 0 0 1 0.81524154142728333 0 0 0 0 0 1 0 0.1618602120277006 1 0 0.90276549765607061 0 0 0 1 0.72143286056349321 0 0 0 0 0 0 0 0 0 0 0 0 0 0:91 
-0 -0 -0 -1 -1 -1 0 0 1 0 0.021868236134442175 1 0 0 0 0 0 0 0.282514023430951 0 0 0.074830282928249683 0.72211420663193548 0 0 0 0 0.41583180400989417 1 0.91333390918718427 0.45473924259993492 0 0 0 0 0.23064537210304195 0 0 0 0 0 0 0:92 
-1 -1 -0.24018248043442766 -0 -0 -1 0.46173158660166641 0 0 0 1 0 1 0 0 0 0 0 0 1 0 0 0 0 0 0 0.043703708638138293 0 0 0 0.24854466382656101 0 0 0 0 0 0 0 0 0 0 0 0:93 
-0.090483280974883326 -1 -0 -0 -0 -0 1 1 1 0.63307123486701367 1 1 1 1 0 0 0.32530371138845787 0 0 0 0 0 0 0 0 0.069983897619775623 1 0 0 0 0 0 0 0 0 0 0.042109967931893283 0 0 0 0 0 0:112 
-0 -1 -0 -0 -0 -0 0 0 0.71394858468986711 0 1 1 1 1 0 0.10768227774974391 0 0 0 0.20609221665490515 0 0 0 0 0.31299174531891877 0 0 0 0 0 0 0 0 0 0 0 0 0 0 0 0 0 0:121 
-0 -1 -0 -0 -0 -0 0.43961228208308006 1 1 1 1 1 1 1 0.21396164786507052 0 0 0 0 0 0 0 0 0 0 0 0 0 0 0 0 0 0 0 0 0 0 0 0 0 0 0 0:165 
-0 -1 -0 -0 -0 -0 1 0.16654379690756607 0 1 0.26632535963775855 1 1 1 1 0.71026768010602781 0 0.08476756267574935 0 0.59244213182252736 0 0 0 0.042442349827630385 0.84958512822799837 0.7657180191003865 1 0 0 0 0 0 0 0 0 0 0.16913112670081143 0.25959568264097332 0.37165719273414477 0.099916730791981156 0 0 0:170 
-0 -1 -0 -0 -0.12403409393091097 -0 0.76899084049091171 0.61026951921190786 1 0 0.63439353945326815 1 1 0 0 0 0 0 0 0 0 0 0 0 0 0 0 0 0 0 0 0 0 0 0 0 0 0 0 0 0 0 0:175 
-1 -1 -0 -0 -0 -0 0 0 0 0 1 1 1 0 0 0 0 0 0 1 0 0 0 0 0 0 0 0 0 0 0 0 0 0 0 0 0 0 0 0 0 0 0:206 
-0 -1 -0 -0 -0 -0 0 1 1 1 1 1 0.72735823162488422 1 1 1 0.83568858241461441 0 0 0 0 0 0 0 0.80558050421461902 0 0 0 0 0 0 0 0 0 0 0 0.10262609284399052 0.12991555393658449 0.076221216306586889 0.084871481021600817 0.11311833827253315 0.083468297952205395 0:208 
-0.43563287992439881 -1 -0 -0.34632632797931706 -0 -0 0.92899755251307981 0.10374298264541847 0 0.3060305835826454 1 0.30175805024559388 1 0.55997735935790349 0 0 0 0 0.91228606279439506 0 0.79569109057398946 0 0 0 0 0 0 0 0 0 0.0055544387267927884 0 0 0 0.81173395748092136 0 0 0 0 0 0 0 0:213 
-1 -0.66410454666197727 -0 -1 -1 -1 0 0 0 0 1 0 1 0 0 0 0 1 1 0.42710587621110624 0.41722944621145747 1 0.13675523181633298 0.19607834308801522 0 0.028930684283321219 0 1 0.70910279256240494 0.0015070906282545291 0 0 0.87360411483900191 0.64481863048002774 0 0.56272647878167315 0 0 0 0 0 0 0:241 
-1 -1 -0 -0 -0 -0 0 0 1 0 1 1 1 0.40001913766018909 0 0 0 0.090226966510103132 0 0 0 0 0 0 0 0 0 0 0 0 0 0 0 0 0 0 0 0 0 0 0 0 0:243 
-0.87553792427183796 -0 -0.099466352693772839 -0.1577777648986988 -1 -0 0 0 0 0 0 0.28225683256496809 1 0 0 0 0 1 0 0 0.00051229658260223986 1 0 1 0 0 0.25529120552136203 0.30027287430019151 0 0 0.43601241605678354 0 0.4382437677947506 0 0.095889174066895025 0.14484703441855254 0 0 0 0 0 0 0:266 
-1 -0 -1 -1 -0 -0 0 0 0 0 0 0 1 0 0 0 0 1 0 0 1 0.44923344776820889 0 0 0 0 0 1 0 0 1 0.20162426951870749 0 0 0 0.05139815172877487 0 0 0 0 0 0 0:286 
-1 -0 -1 -0.39351459604108896 -0 -0 0.69271740991036523 0 0 0 1 0 1 0 0 0 0 1 0 0 0 0.79350577537193312 0 0 0 0 0 0.54771532577326032 0 0 1 0 0 0 0 0 0 0 0 0 0 0 0:289 
-1 -0 -1 -1 -0.83524341819305836 -0.80981036025426556 0 0 0 0 0 0 1 0 0 0 0 1 0.083682164624167332 0.089821475437477163 1 1 0 0.34038973920850929 0 0 0.6352708850141402 1 1 0 1 1 0.59305635151096436 0.73652685762078718 0.30858643932343377 0 0 0 0 0 0 0 0:299 
-1 -0 -1 -0.69787463537322025 -0.040722487876030403 -1 0 0 0 0 0 0 1 0 0 0 0 0.65140210889885863 0.43881994602814495 1 0 1 0 0 0 0.12257210432775476 1 1 0.48027009133243864 0 1 0 0 0 0.27021608514449941 0 0 0 0 0 0 0 0:302 
-0 -0.49664135577224711 -0 -0.68269573507236248 -1 -0 0.080668637326224937 0 0 0 0 0 1 0 0 0 0 0.48359930425282099 0 0.41499950013212161 0 1 0.045801727234410325 0.51613006857795996 0 1 1 0 0.29050594032091542 0 0 0 0.60893281238339314 0.2560655191292282 0.0081743063497771058 0.010382962967957489 0 0 0 0 0 0 0:309 
-1 -1 -0 -0 -0 -0.14823867019189904 0 0 0 0 0 0 1 0 0 0 0 0 0 0.65720683612963793 0 0 0 0 0 0 0 0.61702454561084952 0 0 0 0 0 0 0 0 0 0 0 0 0 0 0:312 
-1 -1 -0 -0 -0 -0 0 1 1 0 1 1 1 1 0 0 0 0 0 0 0 0 0 0 0 0 0 0 0 0 0 0 0 0 0 0 0 0 0 0 0 0 0:328 
-1 -1 -0 -0 -0 -0 0 0 0 0 0 0.14923866024629931 1 0 0 0 0 0 0.97698786339578791 1 0 0 0 0.0021940016418147317 0 0 0 1 0 0 0 0 0 0 0.4176224687219508 0 0 0 0 0 0 0 0:330 
-1 -0.49194491982258282 -0 -0.40830817233498762 -0 -1 0 0 0 0 1 0 1 0 0 0 0 0 1 1 0.62470695460425041 0.14941619649980495 0 0 0 0 0 0.22007839340261012 0.020706585843006234 0 0 0 0 0 0.087777568912522419 0 0 0 0 0 0 0 0:334 
-1 -0 -0.6603511668717994 -0 -0 -0 0 0 1 0 1 1 1 1 0 0 0 0.15424362277041623 0.31390600367745314 0 0 0 0.0088514915162861332 0 0 0 0 0 0 0 0.89709970900186142 0.3738760197215556 0 0 0 0 0 0 0 0 0 0 0:351 
-0.56170342011482943 -1 -0 -0 -0 -0 1 1 0.25375265599967972 1 1 1 1 1 1 0.30040627382122126 0.38093662600298428 0 0 1 0 0.013606602545188667 0 0 0.29499481676975942 0.0089191857248067836 1 0.89907705690319439 0 0 0 0 0 0 0 0 0.30609088878761348 0.29538899088639436 0.17336718206481241 0.14338229334566474 0.064137976753944906 0 0:359 
-0 -1 -0 -0 -0 -0 1 1 1 1 1 1 1 1 1 1 1 0 0 0.61233196361222386 0 0.17372430152743959 0 0 1 0.0038761089439551936 1 0 0 0 0 0 0 0 0 0 1 1 1 1 1 0.91653170204779455 0:360 
-0.53681077165543878 -1 -0 -0 -0 -0 0 0.69043523659495143 1 0 1 1 1 1 0 0.66467723493926611 0 0 0 0 0 0 0 0 0 0 0 0 0 0 0 0 0 0 0 0 0 0 0 0 0 0 0:502 
-0 -1 -0 -0 -0 -0.99151491779451084 0 1 1 1 1 1 1 0.24793029271882239 0.96965117684496738 1 0.11645496092449711 0 0.31257331039720643 0 0 0.22691058078479082 0.086477342801035015 0 0 0 0.15568880944817912 0 0.70762914257621767 0.085159000184561115 0.23925498211661114 0 0.0088781737577058248 0.36258899276995687 0 0 0 0 0 0 0 0 0:505 
-1 -1 -0.25432905881570478 -1 -0.95546064724644708 -1 -1 1 1 1 1 1 1 1 1 1 0.53544549597319757 1 1 0.62590373664939614 0.035900775384643563 1 0.063714081490413729 0.21946998176177845 0.34073867082829673 0.27569006202395541 0 0.89948714273136054 0.74792005162009112 0.26599734309616774 0.35652378177335758 0 0.44330605390623989 0.43455636622793525 0 0.28707432174915481 0.16334733815368449 0.18736485820708362 0.23484846440510465 0 0.072551572739224066 0.048772261729686475 0:8 
-1 -1 -0.3557825920591281 -0.59288628879851102 -0.83369809010107487 -1 -1 1 1 1 1 1 1 1 1 1 0.72004669339515193 0.27214011473892002 1 1 0 1 0.52031783369689943 0.30364748430092303 0.97332212600524137 0.51530072994572063 0.21837831785268094 1 1 0.48879859918137231 0.5010081421310979 0 0 0.054610096427070251 0 0 0.10661157934483655 0 0 0 0 0 0:101 
-0.35765734625548973 -1 -0 -0 -0 -0 -1 0.11757868201067082 0 1 0.62976151858840956 0.36337122638011937 1 0.33228873386755664 0 0 0 0 0 0.26732738055800037 0 0 0 0 0 0.2653185400000167 1 0.039483290784118337 0 0 0 0 0 0 0 0 0 0 0 0 0 0 0:161 
-1 -1 -0.10867103703462028 -1 -0.24586292959735725 -0.40251903280742879 -1 1 0.38183221998859213 0.16534720696848254 1 1 1 1 0.12879224090020941 0.13585855255519599 0 0.18894754186019724 1 0.93516569860111354 1 0.32919970055439335 0.060138259393853234 0.15557118765854583 0 0 1 1 0.26619534663756489 0.075978407388701319 1 0 0.12602243126733878 0.11183199179415065 0.92614017793887393 0.067943039101577868 0 0 0 0 0 0 0:223 
-1 -1 -1 -1 -1 -1 -1 0.76112670253029158 1 0 1 1 1 1 0 0 0 1 1 1 1 1 0.083067037663392254 0.34125075239233538 0 0 1 1 1 0.074431078235953227 1 1 1 1 0.49317038085753917 0.25061674886185131 0 0 0 0 0 0 0:293 
-1 -1 -1 -1 -1 -1 -1 1 1 0.25130103741485682 1 1 1 1 0.14326851384540498 0.14416167765620783 0 1 1 1 1 1 0.27276278775544133 0.82702605460230982 0 0.74971045121653057 0.70110086494020074 1 1 0.094794572097805438 1 0.71272655565594434 0.42667491592480805 0.38364908993887414 0.58068944120358712 0.39436589028741603 0 0 0 0 0 0 0:297 
-0.50344677573169805 -1 -0 -0 -0 -0.013543638480527326 -1 1 1 1 1 1 1 1 1 1 1 0 0.10838673226575136 0.68765211968822559 0 0 0 0 1 0 0.64036862852416609 0.33441850190467204 0 0 0 0 0 0 0 0 1 0.92304562707442517 0.40917573573630361 0.29527048601284711 0.031164603338323462 0.14501177740334376 0:366 
-0 -1 -0 -0 -0 -0 -1 1 0 1 1 1 1 1 1 1 1 0 0 0.97188845180943595 0 0.010282624839231043 0 0 1 0.097681876074132923 1 0 0 0 0 0 0 0 0 0 1 1 1 1 1 0.3509447192307813 0:408 
-0 -1 -0 -0 -0 -0 -0.37271830892532837 1 0.83245681193313859 1 1 1 1 1 1 1 1 0 0 0.44419888462738444 0 0.12617295403728654 0 0 1 0.096298340739643926 0.62236386241114339 0.24430267761225569 0 0 0 0 0.0039965989016133461 0.01535245561196975 0 0 1 1 1 1 0.39411000575164995 0.45527124163618837 0:410 
-0 -0 -0 -0 -0 -0 -0 -0 1 1 0.25176929738977727 1 0 1 1 1 0.57296799896188644 0.10539854932460878 0 0 0 0 0 0 0.43309191609907288 0 0 0 0 0 0 0 0 0 0 0 0.074841215689246454 0.1479774136789988 0.08700300424032234 0 0.049268577073333222 0.036518131210457792 0:9 
-0 -1 -0 -0 -0 -0 -1 -0 1 1 1 1 1 1 1 1 0 0 0 0 0 0 0.16543136851197726 0 0 0 0 0 0 0 0 0 0 0 0 0 0 0 0 0 0 0 0:27 
-1 -1 -0 -0.97692956159803412 -0.59483422203134095 -1 -1 -0.50195558050614819 1 0 1 1 1 1 1 0.88142988031380287 0 0 0.43232003975067324 0.14910816575691674 0 0 0.20510921477704125 0 0 0 0 0.04952788062580165 0.024411983251474589 0.47149806716342679 0.22599758343122045 0 0 0 0 0.16566788718082451 0 0 0 0 0 0 0:48 
-0.98073515693762825 -0.49554694200902227 -0.45702741222856536 -0.55283688671568887 -0.43722841634331738 -0.53399505206525189 -1 -1 1 0 1 1 1 1 0 0.24297250974004495 0 0.67410035305959604 1 1 0.11863950908935736 0.90290133587754251 0.016031298062335064 0 0 0 0 0.86137576859844545 0.69498624711391122 0 0.79388783822005682 0.095689245229170633 0.18034814536910015 0.44608381743731268 0 0.14940868391183151 0 0 0 0 0 0 0:62 
-0 -1 -0 -0 -0 -0 -1 -0 1 1 1 1 1 1 1 1 0.86502613266212125 0 0 0 0 0 0 0 0.97480631390636341 0 0 0 0 0 0 0 0 0 0 0 0 0.088319417963394181 0.64766333352505778 0 0 0 0:128 
-1 -1 -0.54297258777143464 -0.29955239857112581 -0.80643082189940318 -1 -1 -0.86587629064709648 1 0 1 1 1 1 0 0 0 0.66214811598579904 1 1 0.50254970345383476 0.2749145584664906 0 0.11980377660662214 0.37445245940672744 0 0 1 0.44492640037532638 0 0.44219901302691572 0.092350445646524448 0 0 0.53882067910884202 0 0 0 0 0 0 0 0:311 
-1 -1 -0 -0.23134335577989756 -0.14744611728528598 -1 -1 -1 1 1 1 1 1 1 0.061400142715984388 0.38728573497073232 0 0.042566276109283555 1 1 0 1 0.051620918267897116 0.68597648254474597 0 0.91931792851895733 1 0.92587384585779453 0.60059113369543216 0.187371079011348 0.045347632978021836 0 0.30598732639260928 0.12891576767485116 0 0 0 0 0 0 0 0 0:316 
-1 -1 -1 -1 -1 -1 -1 -1 1 0 1 1 1 1 0 0 0 1 1 1 1 1 0.53770390108057509 1 0 0.66509208277073739 0.73116228781106196 1 1 0.23885599373343006 1 0.5472560982333422 0.83424224818707238 0.76401014981595194 0.63237963114275719 0.68492342890734403 0 0 0 0 0 0 0:343 
-0.3007195210687762 -1 -0 -0 -0 -0 -1 -1 0 0.89174238691740204 1 1 0.78125062953494273 1 1 0.40214565417072135 0.37358947928793823 0 0 0.9157766220254665 0 0 0 0 0.23128133794881717 0 1 0.57117381169291737 0 0 0 0 0 0 0.063192105183393091 0 0.13202166969421061 0.029672304068238498 0 0.0038879109958215993 0 0 0:364 
-0 -0 -0 -0 -0 -0 -0 -0 0 1 0.37271883714414938 1 0 1 1 1 1 0 0 0 0 0 0 0 1 0 0 0 0 0 0 0 0 0 0 0 1 1 1 1 0.83130384343615771 0.28701413620330885 0:414 
-0 -1 -0 -0 -0 -0 -0 -0.18234272638144183 1 1 1 1 1 1 1 1 1 0.034022909554798537 0 0 0 0 0 0 1 0.32314911543786107 1 0 0 0 0 0 0.054998246475085333 0 0 0 1 1 0.093659331821391439 0.24624087109274573 0 0 0:421 
-0.31538013724141056 -0.11031556036848779 -0 -0 -0 -0 -0.05950612830143464 -0.91989332311220917 0.30802813661229056 0.33233267651321102 0.80710634469485065 1 1 1 1 1 0.56585520728268401 0 0 0.70086281316541277 0 0.25294057078537119 0 0 1 0.014614076615948575 0.29515285234315997 0.17431477853384611 0 0 0 0 0.05877949563699611 0.068951873601616434 0 0 1 0.92979868173453162 0 0.74987121791143274 0 0 0:433 
-0 -1 -0 -0 -0 -0 -1 -0 0.06778199933087263 1 1 1 1 1 1 1 1 0 0 0 0 0 0 0 1 0 0 0 0 0 0 0 0 0 0 0 1 0.83787511515831636 1 0 1 0.66226288551390888 0:453 
-0 -0.7393832635514993 -0 -0 -0 -0 -0 -0 0 1 0 1 0 1 1 1 1 0 0 0 0 0 0 0 1 0 0 0 0 0 0 0 0 0 0 0 1 1 1 1 0 0 0:461 
-0 -1 -0 -0 -0 -0 -0 -1 1 0.22842348028359835 1 1 1 1 1 1 1 0 0 0.58471152284286509 0 0 0 0 0.23890900089661402 0 0.55097588695639887 0 0 0 0 0 0 0 0 0 1 0 0.70192578831788244 0 0.34624213368920759 0.014204847072324505 0:477 
-1 -1 -0 -0 -0 -0.099062974569092785 -1 -0.40863746389406685 1 1 1 1 1 1 1 1 0 0 0.087425998548652156 0.27249103618120157 0 0.064800957960465241 0.024103299300174259 0 0 0 0.21937029634714741 0.032464750194230604 0 0.1022748600917953 0 0 0 0 0 0 0 0 0 0 0 0 0:501 
-1 -0.55028694436345083 -0 -0 -0 -0 -1 -0 -1 0.9266508473021392 0.55065111740552763 1 0.84015260683045012 1 0 0 0 0.87596385102234497 0 0 0 0 0 0 0 0 0 0 0 0 0 0 0 0 0 0 0 0 0 0 0 0 0:10 
-1 -1 -0.50660490994858087 -1 -0.65667343393645672 -0.8909842332844683 -1 -0.15364999230125148 -0 0 1 1 1 0.32233593130755289 0 0 0 1 0.65562297454855001 0.21240928754952634 0.53185063878521388 0.89522599887835108 0.14422129096439423 0.82375620744475686 0 0.69130335167946433 0.47789830126823124 0.28582592440528615 0.92531777485461797 0.16181176513549322 1 0 0.64457134292854534 0.37927446433711098 0 0.61230774134358013 0 0 0 0 0 0 0:12 
-0 -0 -0 -0 -0 -0 -0.87940043048604577 -0 -0 0 1 1 0 0 0 0 0 0 0 0 0 0 0 0 0 0 0 0 0 0 0 0 0 0 0 0 0 0 0 0 0 0 0:15 
-0 -1 -0 -0 -0 -0 -1 -0 -0 0 1 1 1 1 0 0 0 0 0 0 0 0 0 0 0 0 0 0 0 0 0 0 0 0 0 0 0 0 0 0 0 0 0:20 
-0 -0 -0 -0 -0 -0 -0 -0 -0 0 0 1 0 0 0.13271159479296049 0.544482867682059 0 0 0 0 0 0 0.1062278703489109 0 0 0 0 0 0 0.14220947542223095 0 0 0 0 0 0 0 0 0 0 0 0 0:29 
-1 -1 -0.54759118937801909 -1 -1 -1 -1 -0.49322443800940013 -0 0 1 1 1 0 0 0 0 0.4944360465954723 1 1 0.10782011851834764 1 0.7433388479861549 0.89843619559468468 0 0 1 1 1 0.69597875944227583 1 0 0.29530827274916455 0.4816832486084478 0.33342537411627476 0.2618745075106767 0 0 0 0 0 0 0:36 
-0 -0 -0 -0 -0 -0 -0 -0 -0 0 1 0.67955240599615763 0 0 0 0 0 0 0 0 0 0 0 0 0 0 0 0 0 0 0 0 0 0 0 0 0 0 0 0 0 0.014588633563037978 0:55 
-0 -0 -0 -0 -0 -0 -0 -0.57898997469692715 -1 0 1 1 0 0 0 0 0 0 0 0 0 0 0 0 0 0 0 0 0 0 0 0 0 0 0 0 0 0 0 0 0 0 0:61 
-0.058244761589465635 -0.25583051247479194 -0 -0 -0 -0.062816371513061714 -0 -0.42600260743421814 -0.53190543179206573 0.13453779710122163 0.83195427743794093 1 1 0.40016264875973706 1 0.43368033695833069 0.088746967488776793 0 0.063847735188028609 0.30714693498821671 0 0.10642274288603619 0 0 0 0.072106109037745753 0.19106941468947297 0.021333684973750513 0 0 0 0 0.006520400110485612 0.0083846509573621223 0 0 0 0 0 0.21334088833010706 0 0.032207908489792388 0:103 
-0 -1 -0 -0 -0 -0 -1 -0.061748246697021995 -1 0.47039354274059214 1 1 1 1 0.49360240958204782 1 0 0 0 0 0 0 0 0 0 0 0 0 0 0 0 0 0 0 0 0 0 0 0 0 0 0 0:113 
-0 -1 -0 -0 -0 -0 -1 -0 -1 1 0 1 1 1 1 1 0.50523782459746147 0 0 0 0 0 0 0 0 0 0 0 0 0 0 0 0 0 0 0 0.25860608427802745 0 0 0 0.14847193159978858 0 0:114 
-1 -1 -0.40446758366483077 -0 -0.066734077943439926 -1 -1 -1 -0.64930466850814228 0 1 1 1 0.57580672318218873 0 0 0 0 1 1 0 1 0 0.17989611556854856 0 1 1 1 0.39114568395361649 0 0.35544883497813895 0.1002297461458638 0.50253200652557861 0.3284939853535 0.20958890753129825 0 0 0 0 0 0 0 0:115 
-1 -1 -0 -0 -0 -0 -1 -1 -1 1 1 1 1 1 1 0.45063226869281719 0 0 0 0 0 0 0 0 1 0 0 0 0 0 0 0 0 0 0 0 0 0.11050144710955269 0 0.06760690293706681 0 0 0:116 
-0.0062567127337562981 -1 -0 -0 -0 -0.21155997149282793 -1 -0.50067377278291159 -0 1 1 1 1 1 0.26464354406232737 0.43675438568242753 0 0 0 0.47561478682531555 0 0 0 0 0.052789492223073442 0.18461614367007817 0 0 0 0 0 0 0 0 0 0 0 0 0 0 0 0 0:125 
-0 -1 -0 -0 -0 -0 -0.074871235105986159 -0 -0 1 1 1 0.36819451137298892 1 1 0.69464103709249325 0 0 0 0 0 0 0 0 0 0 0 0 0 0 0 0 0 0 0 0 0 0 0 0 0 0 0:129 
-0 -0.44255624501095953 -0 -0 -0 -0 -0 -0 -0.59203782356772361 1 1 1 0 1 1 1 0 0 0 0 0 0 0 0 1 0 0 0 0 0 0 0 0 0 0 0 0 0.67378365605380974 0.11424038055157053 0.08118252925772354 0 0 0:134 
-0 -0 -0 -0 -0 -0 -0 -0 -0.84587186795075919 1 1 1 0 1 1 1 0.62046688065121414 0 0 0 0 0 0 0 0 0 0 0 0 0 0 0 0 0 0 0 0.2309488908291629 0.16440036396969279 1 0 0.094564392184579904 0 0:136 
-0 -0 -0 -0 -0 -0 -0 -0 -1 0 0.31065464357216294 0.7559956300454499 0 1 0.56668084811155628 1 0.25858889466262536 0 0 0 0 0 0 0 0 0 0 0 0 0 0 0 0 0 0 0 0 0 0 0 0 0.026758495869318111 0:246 
-0.63701016515688158 -1 -0 -0 -0 -0.19825093502285857 -1 -0 -0 0 1 1 1 0 0 0 0 0 0.020107501983352153 0 0 0 0 0 0 0 0 0 0 0 0 0 0 0 0 0 0 0 0 0 0 0 0:324 
-1 -1 -0 -0.27685465344844862 -0.12277235077596822 -1 -1 -0 -0.75669034412447256 0 1 1 1 1 0 0 0 0 1 0.41781893131100117 0 0 0 0 0 0 0 0.34056532933252887 0 0 0 0 0 0 0 0 0 0 0 0 0 0 0:338 
-1 -1 -0 -1 -1 -1 -1 -0 -0 0 1 1 1 0.017562090940538125 0 0 0 0 1 1 0.42521262795258469 0.72807701149989701 0 0 0 0 0 1 0.83491521802433977 0 0.29426565371058261 0.38007692304399004 0.047517940634389105 0 0.35178782872291881 0 0 0 0 0 0 0 0:341 
-1 -1 -1 -1 -1 -1 -1 -1 -0 0 1 1 1 1 0 0 0 1 1 1 1 0.89400956896861083 0.0062119907005399721 0.030324575155666132 0 0 0 1 0.4582135737679297 0 0.91545903853915489 1 0.051891213345473072 0.44185187826839506 0.30093065165553801 0.1258177511457432 0 0 0 0 0 0 0:353 
-1 -0.47598331648697417 -0.069563921268100154 -0 -0 -0 -0.88919152870880258 -0 -0 0 1 0 0.59691603388039927 0.04840237542936545 0 0 0 0.27869554954435283 0.55843265011129739 0 0 0 0 0 0 0 0 0 0 0 0 0.076043106219425866 0 0 0 0 0 0 0 0 0 0 0:355 
-0 -1 -0 -0 -0 -0 -0.22136043049811374 -1 -1 1 1 1 1 1 1 1 1 0 0 1 0 0 0 0 1 0.051974395612711687 1 0.49548667968624971 0 0 0 0 0 0 0 0 1 1 1 1 1 0.92644496207785143 0:443 
-1 -1 -0 -0 -0 -0 -1 -0 -1 0 1 1 1 1 0.31540650848181712 0 0.19561684612807106 0 0 0.081993100471565022 0 0 0 0 0.34346365979384791 0 0 0 0 0 0 0 0 0 0 0 0 0 0 0 0 0 0:498 
-1 -1 -0.59885478858806795 -1 -1 -1 -1 -1 -1 -1 0.86248373991846772 1 1 1 1 1 0 1 0.48851584489791999 0.81158895642080442 0.6430050251925824 1 0.40369172141222492 1 0 0.84611340410783931 0.23217261163983532 0.94019274842645661 0.78487109780837294 0.40910134598162923 0.86224434082720114 0.28175723576191491 0.78411268788674937 0.57393314506801918 0.30423448556545168 0.95177931780766056 0 0 0 0 0 0 0:11 
-0.5471047052281981 -1 -0 -0 -0 -0.19155334269303614 -1 -0.33993757470417724 -1 -1 1 1 1 1 1 1 0.97325068597345121 0.19944208320286735 1 0 0 0 0.10760979323476351 0 0.37418940215711005 0 0 0.2144113448998208 0 0.59089865401837072 0 0 0 0 0.19917580472750818 0 0 0 0 0 0 0 0:23 
-1 -1 -0.56117226658036856 -0.57108172785039935 -0.70167789344742793 -1 -1 -1 -1 -1 1 1 1 1 1 1 0 0.37531044606358571 1 0.73315030985055485 0.11221699478848141 0.7065574720447847 0.48869848535301164 0 0 0.1920819264064047 0.28978740887932858 0.95113648907641413 0.81306178099468662 0 0.66445611093013279 0.11252156116227874 0.26640804073513241 0.35534566181206118 0 0.048220682192339437 0 0 0 0 0 0 0:25 
-0 -0.28864509025030466 -0 -0 -0 -0 -0.11485980036465167 -0 -0.17645191377308267 -1 0.97271865234776844 1 0.50031283310061947 1 1 1 0 0 0 0 0 0 0 0 0 0 0 0 0 0 0 0 0 0 0 0 0.019344817251613348 0.11136794895220045 0.211342457036826 0 0.033349190776659543 0.059640147332797974 0:127 
-0 -0 -0 -0 -0 -0 -0 -0 -1 -1 1 1 0 1 1 1 0 0 0 0 0 0 0 0 0.86687255202949665 0 0 0 0 0 0 0 0 0 0 0 0 0 0 0 0 0 0:135 
-0 -0 -0 -0 -0 -0 -0 -0 -0 -0 0 0 0 1 1 0.87100039408005925 0.32888588703430355 0 0 0 0 0 0 0 1 0 0 0 0 0 0 0 0 0 0 0 0.2429301567012129 0.21582156634331545 0.13668120893548524 0 0.061092411234191513 0 0:144 
-0 -0 -0 -0 -0 -0 -0 -0 -0 -0 0 0.23905340847699358 0.61756924775884814 0 0 0 0 0.14540796342136506 0 0 0 0 0 0.14746705658140186 0.32796010953593713 0.24719536673670123 0 0 0 0 0 0 0 0 0 0 0 0 0 0.17062187572433696 0 0 0:147 
-0 -0 -0 -0 -0 -0 -0 -0 -0 -0.90188702248918307 0 0.7763866666537026 0 0.35345187745963164 0.8215324742365393 0 0 0 0 0 0 0 0 0 0 0 0 0 0 0 0 0 0 0 0 0 0 0 0 0 0 0 0:150 
-0.86877716318535092 -1 -0 -0 -0.0020595470487655212 -0.019540015360346552 -1 -1 -0.81627786698049132 -0.13794116707540499 0.8933690209097146 1 1 1 0 0 0 0.092197126366673265 0.20177969964230691 0.85436204564511109 0 0 0 0.072788607958129234 0 0.077872675054052543 0.84715452817662518 0 0 0 0 0 0 0 0 0 0 0 0 0 0 0 0:153 
-0 -0.58045843779862871 -0 -0.03122032365518335 -0.056547967191804008 -0.027823961934088155 -0.36923734612420872 -0 -0 -0 0 0.074809795463211703 0.11794435471542918 0.88898588290692071 0.89037572977294532 0 0 0 0.0098813127007673519 0 0.037347521206746871 0.088264708252857565 0 0 0.0069560744049671176 0 0 0.086210429777751924 0 0 0 0 0.03721791174366218 0 0.10831788925115951 0 0 0 0 0.074972246037767448 0 0 0:156 
-0.03088370444209091 -1 -0 -0 -0 -0 -1 -1 -1 -1 1 1 1 1 1 1 1 0.076891824614909218 0 1 0 0.22869385842461931 0 0.0021494662260681746 0.33299433891993924 0.31554024395687397 1 0.78083996206405637 0 0 0 0 0.18510923374073274 0.16497954236078799 0 0 1 0 0 0 0 0 0:376 
-0 -1 -0 -0 -0 -0 -0.78031848299236062 -1 -1 -0.49175399757936511 1 1 1 1 1 1 1 0 0 0 0 0 0 0 1 0 1 0 0 0 0 0 0 0 0 0 1 1 0.92225909821111696 0 0.93601703391271929 0.3608622853648879 0:391 
-0.11539785897028403 -0 -0 -0 -0 -0 -0 -0.86172659084694447 -1 -0 0.23441906997293038 1 0.58985220780002334 1 1 1 1 0 0 0.36315044101044952 0 0 0 0 1 0 0.35661552995607143 0.0011977020734676813 0 0 0 0 0 0 0 0 1 1 0.71363162066124863 1 0.16312206530529777 0.05991046577939553 0:411 
-0 -0.81473457848585118 -0 -0 -0 -0 -0 -0 -1 -0 0.54414805819110224 1 0 1 1 1 1 0 0 0 0 0 0 0 1 0 0 0 0 0 0 0 0 0 0 0 1 1 1 0.75108621898396699 1 0.51958710152291865 0:444 
-0 -1 -0 -0 -0 -0 -0 -0 -1 -0 1 1 0.21781838397151465 1 1 1 1 0 0 0.15487456270549982 0 0 0 0 1 0 0.45865087137389476 0 0 0 0 0 0 0 0 0 1 1 0.94934623050774358 1 0 0 0:452 
-0 -0.45835445980643985 -0 -0 -0 -0 -0.67468618896843813 -0.21498407883221773 -0.45976876296063746 -1 1 1 0.79561551294033839 1 1 1 0.28650738933843856 0 0 0 0 0 0 0 0 0 0 0 0 0 0 0 0 0 0 0 0.03102740943153624 0.8164636522876666 0.75235895506659478 0 0 0 0:489 
-0 -0.56849867551466371 -0 -0 -0 -0 -1 -0 -0 -1 -0 1 1 0 0 0 0 0 0 0 0 0 0 0 0 0 0 0 0 0 0 0 0 0 0 0 0 0 0 0 0 0 0:14 
-0 -0.88504266867807391 -0 -0 -0 -0 -0.61192655705229859 -0 -0.66488232724998253 -1 -0 1 1 0.89639338503864208 0 0 0 0 0 0 0 0 0 0 0 0 0 0 0 0 0 0 0 0 0 0 0 0 0 0 0 0 0:19 
-1 -1 -0 -0 -0.55765636651435058 -1 -1 -0 -0 -1 -0 1 1 0 0 0 0 0 0 0 0 0 0 0 0 0 0 0 0.10083035953297313 0.094420442340914332 0 0 0 0 0 0 0 0 0 0 0 0 0:37 
-1 -1 -0 -0 -0 -0.17707093535635016 -1 -0 -0 -0 -0 1 1 0 0 0 0 0 0 0.12997233041450099 0 0 0 0 0 0 0 0 0 0 0 0 0 0 0.077165880263927414 0 0 0 0 0 0 0 0:47 
