svm_type nu_svr
kernel_type precomputed
nr_class 2
total_sv 144
rho -0.29784813940202515
SV
-1 0:2 
1 0:3 
-1 0:4 
-1 0:5 
-1 0:6 
1 0:7 
-1 0:11 
-1 0:12 
1 0:14 
-1 0:15 
0.2132466201311887 0:18 
-1 0:20 
-1 0:24 
-1 0:27 
1 0:29 
1 0:31 
-1 0:32 
1 0:38 
1 0:41 
-0.038975539627049083 0:43 
1 0:45 
1 0:47 
1 0:48 
1 0:51 
1 0:57 
1 0:59 
1 0:60 
-1 0:61 
1 0:62 
1 0:64 
-1 0:65 
-1 0:67 
1 0:68 
1 0:70 
-1 0:72 
-1 0:75 
-1 0:76 
-1 0:77 
0.92109122060992554 0:78 
1 0:82 
-1 0:84 
-1 0:85 
-1 0:86 
-1 0:88 
1 0:90 
1 0:92 
1 0:94 
1 0:95 
1 0:96 
-1 0:97 
1 0:98 
-1 0:99 
1 0:102 
0.18790890554726833 0:105 
1 0:106 
-1 0:107 
1 0:109 
1 0:111 
1 0:113 
1 0:117 
-1 0:125 
1 0:131 
1 0:132 
-1 0:135 
-1 0:136 
1 0:138 
1 0:139 
-1 0:140 
-1 0:142 
1 0:143 
-1 0:144 
1 0:145 
-0.90062466999830915 0:146 
1 0:147 
-1 0:154 
1 0:156 
-1 0:159 
0.30181453009952208 0:160 
1 0:161 
1 0:162 
-1 0:164 
-1 0:165 
-1 0:166 
-0.30764844892927046 0:168 
-1 0:169 
1 0:170 
1 0:173 
-0.40028605505104298 0:174 
1 0:176 
-1 0:177 
1 0:178 
1 0:179 
-1 0:181 
1 0:183 
-1 0:184 
-1 0:185 
-1 0:186 
-1 0:188 
-1 0:189 
-1 0:191 
-1 0:193 
1 0:194 
-1 0:195 
-1 0:197 
0.6495419330797596 0:200 
-1 0:201 
1 0:202 
1 0:204 
-1 0:208 
1 0:209 
-0.43298700744817176 0:210 
1 0:211 
-0.46360250879543113 0:212 
-1 0:214 
-1 0:218 
-1 0:219 
-1 0:224 
-1 0:226 
1 0:227 
1 0:228 
0.226396790532336 0:229 
1 0:231 
1 0:232 
1 0:234 
-1 0:235 
-0.74519077303877179 0:236 
-0.66959798099956414 0:239 
1 0:241 
-1 0:243 
1 0:244 
-1 0:245 
1 0:247 
1 0:249 
-0.15903732638159179 0:250 
1 0:253 
-0.38204968973079562 0:256 
-1 0:257 
1 0:259 
-1 0:260 
1 0:263 
1 0:265 
-1 0:266 
-1 0:267 
-1 0:269 
